nn
1,10,10,10,10,10,1
dIn
0
dIntern
,
dOut
,
normP
1.9500000000000075
normY
1.0
w
1.0163525923702589892627656809054315090179443359375000000
0.7212751544525283220465894373774062842130661010742187500
0.2664474254407774300723588112305151298642158508300781250
-0.3215626622888574370762171383830718696117401123046875000
0.1789003488045969592068473730250843800604343414306640625
-0.5990803540728535381276742555201053619384765625000000000
-0.6895589792201172185670543512969743460416793823242187500
0.1476724443262474872895495536795351654291152954101562500
0.8997731200419873953677551980945281684398651123046875000
0.8847427590279783871096697112079709768295288085937500000
-0.6824562240533005308407155098393559455871582031250000000
-0.0883258034112655854297457835855311714112758636474609375
0.1878603727895387931479120879885158501565456390380859375
0.3830974901328025872260241158073768019676208496093750000
-0.5756657668765117197295921869226731359958648681640625000
-0.1941042757171322352682807377277640625834465026855468750
-0.2197560958838181977004211375970044173300266265869140625
0.0826967467714682935575609690204146318137645721435546875
0.2289831879861521368724197600386105477809906005859375000
-0.3782695354619925454109363727184245362877845764160156250
-0.4381764795223097586074345599627122282981872558593750000
-0.3007278184043385982349150253867264837026596069335937500
-0.8161798423796521317896690561610739678144454956054687500
0.4606400412603774974229509098222479224205017089843750000
0.0171503051987813605328003774275202886201441287994384766
0.2891322141560072056520880323660094290971755981445312500
-0.0525887397327436806326872442696185316890478134155273438
0.5509982547881229208996956003829836845397949218750000000
-0.7336811489938672714572476252214983105659484863281250000
0.3898941179282555680174482404254376888275146484375000000
0.0742713374648498320107492531860771123319864273071289062
0.0927691709806785641534432329535775352269411087036132812
-0.6803874275940305915710837325605098158121109008789062500
0.3388371665885340777712997351045487448573112487792968750
-0.2191175106339905420682612202654127031564712524414062500
-0.0985938726145154237245904482733749318867921829223632812
0.4599598047342389195435430337965954095125198364257812500
0.1516739497631205413341604071320034563541412353515625000
-0.4741129854094121576224551972700282931327819824218750000
0.5077473711346222051687959719856735318899154663085937500
-0.0847065930299468750064306732383556663990020751953125000
0.3644988306204559047607460797735257074236869812011718750
-0.4618968580249129818326991880894638597965240478515625000
-0.2933932288010915878651019284006906673312187194824218750
0.0313653179717384711366889860073570162057876586914062500
0.2090757319778729916848192260658834129571914672851562500
-0.3947778791910530049591443457757122814655303955078125000
0.0748284148018481393149770042327872943133115768432617188
0.3906412821671820800872865220298990607261657714843750000
0.3217432049850436071025683304469566792249679565429687500
-0.2350031055137154767376017616697936318814754486083984375
-0.2509175890573522305082576622226042672991752624511718750
0.0454912236778745038279225809674244374036788940429687500
-0.4909000633711005923132120187801774591207504272460937500
-0.3907430630886901679055256408901186659932136535644531250
-0.2674999216838392923634160069923382252454757690429687500
0.1317580022282086316121052504968247376382350921630859375
-0.4372795141257283524360843784961616620421409606933593750
0.6613447148568655231670732064230833202600479125976562500
0.3143927558404216449083889983739936724305152893066406250
-0.3091450484243384311255908869497943669557571411132812500
0.1511273889177079110535117933977744542062282562255859375
-0.0903441640144977131665626757239806465804576873779296875
0.4639869626460196849748740532959345728158950805664062500
-0.3434874280963168269309448987769428640604019165039062500
-0.0639261800056943052528168891512905247509479522705078125
0.4790434466127588830630656957509927451610565185546875000
-0.3489904738558658459091077475022757425904273986816406250
-0.5857406064179035976025033960468135774135589599609375000
-0.2592779721709287388264897344924975186586380004882812500
-0.3098468141404094877700003962672781199216842651367187500
-0.0797157241443867126129418920754687860608100891113281250
0.5483024127214471965530151464918162673711776733398437500
0.3437225309091060942989770410349592566490173339843750000
-0.2452107403275252950347606883951812051236629486083984375
-0.3126782869499857286932353872543899342417716979980468750
-0.4487999181802830306331486553972354158759117126464843750
0.2847003045983760860515587864938424900174140930175781250
-0.0032589681063788984195783715591687723645009100437164307
-0.5479655146670057153102106894948519766330718994140625000
-0.0909574107890396693631984703642956446856260299682617188
-0.4719026459708214327193331882881466299295425415039062500
0.1134148926995018624719335775807849131524562835693359375
-0.1176395240519590018601903125272656325250864028930664062
-0.1795206455166984405025232263142243027687072753906250000
0.2142955498581596007756644439723459072411060333251953125
-0.2213822604954973627400249824859201908111572265625000000
-0.2425556276994238757982458309925277717411518096923828125
0.5392695676232400758820517694402951747179031372070312500
-0.6791148491547910337473581421363633126020431518554687500
0.5286138223640327593599863575946073979139328002929687500
0.0574202495967951823119257426242256769910454750061035156
-0.2923839612270321963727326419757446274161338806152343750
0.2742375172137561101237679395126178860664367675781250000
-0.1114853356658622313135609260825731325894594192504882812
-0.1567125150651730858264443213556660339236259460449218750
-0.2448268870877252090245690396841382607817649841308593750
-0.0720125914815827189441321820595476310700178146362304688
-0.0110291183013923651395904457217511662747710943222045898
-0.4421389418616868405287334553577238693833351135253906250
0.4172975081999583668590503293671645224094390869140625000
0.5199809394451467836617553075484465807676315307617187500
-0.7994238005194527207919463762664236128330230712890625000
-0.3798035583498780565214758553338469937443733215332031250
0.5781136361806707979482666814874392002820968627929687500
-0.4676271402403560095706325228093191981315612792968750000
-0.1019518008694805105696090663514041807502508163452148438
0.2209296793581017603891325506992870941758155822753906250
-0.2463621255303412305170951412947033531963825225830078125
0.4004457354382389699942734750948147848248481750488281250
-0.2956290705521045225623311125673353672027587890625000000
0.0776791928575946283297426475655811373144388198852539062
-0.6403369508154042044623110996326431632041931152343750000
-0.1447187809415289849734875815556733869016170501708984375
0.1490113164165837444929962884998531080782413482666015625
-0.2936108063304702642248855681827990338206291198730468750
0.2990338957892033633356732025276869535446166992187500000
-0.1957886530487904785946540187069331295788288116455078125
-0.6609270760832289814956652662658598273992538452148437500
0.6882183289794805425287904654396697878837585449218750000
0.0392626279705091951743867184632108546793460845947265625
0.3457997592417104137929584339872235432267189025878906250
-0.1115703237093873811947020158186205662786960601806640625
-0.3985722856122945745305230502708582207560539245605468750
-0.2309759003986603942415456458547851070761680603027343750
-0.5125757077829604657637219133903272449970245361328125000
0.1990114826284095639330473659356357529759407043457031250
0.2096892005208096376733806209813337773084640502929687500
-0.0175202284403611976970616126436652848497033119201660156
-0.1085888638921440607632007413485553115606307983398437500
-0.1050918401961565551427923992378055118024349212646484375
0.2778838023057415562711014445085311308503150939941406250
-0.0089528285922492369802716538629283604677766561508178711
0.2726973448011916212330163489241385832428932189941406250
-0.0229087298575807035705409475667693186551332473754882812
-0.4246078616095814162179067352553829550743103027343750000
-0.1142285582270644722635566381541138980537652969360351562
-0.3656390681682458732026930192660074681043624877929687500
0.3326824700459111716632776278856908902525901794433593750
-0.6367975057329923194160414823272731155157089233398437500
-0.4576029897759114062338881012692581862211227416992187500
-0.0845757309953928254619981430550978984683752059936523438
0.5512929208540056080778413161169737577438354492187500000
0.0594326830438144035340108928267000010237097740173339844
0.3296216289596173854015148663165746256709098815917968750
-0.4520638578867303691843915203207870945334434509277343750
-0.0817976725385137909407617939905321691185235977172851562
-0.3844804656320843228023420579120283946394920349121093750
-0.2951289416930883424683429439028259366750717163085937500
-0.6482831358129561571956855914322659373283386230468750000
0.3204395220336197502852826346497749909758567810058593750
-0.0325924616317240095630936025372648146003484725952148438
-0.2617597670348629224079672894731629639863967895507812500
0.3163792674443691166352721211296739056706428527832031250
0.7365774254078342186957684134540613740682601928710937500
0.9074765087619325321099950087955221533775329589843750000
-0.2839175264085939676128589326253859326243400573730468750
0.7776274776342979588861226147855632007122039794921875000
-0.0222836649397137494255094480877232854254543781280517578
0.0278669425224587347100779766151390504091978073120117188
-0.0514164180138347096105100320073688635602593421936035156
0.0311091564527301439602169352838245686143636703491210938
-0.0336785046045159422445358643471990944817662239074707031
0.3222238980432631239025909053452778607606887817382812500
-0.4742219358524116801234526974440086632966995239257812500
0.5000210756910902221150649893388617783784866333007812500
0.1433244496662056111091487764497287571430206298828125000
-0.0027548815271698917639398018764040898531675338745117188
-0.0419554425973342609568206285075575578957796096801757812
-0.3190932697638289572417136241710977628827095031738281250
-0.0673228883388029691881015992294123861938714981079101562
0.2021769254603133503245260271796723827719688415527343750
0.4827558772390777575012066336057614535093307495117187500
-0.1534444403159417602555691928500891663134098052978515625
-0.1058640318223997706104100302582082804292440414428710938
-0.2680328997971168636382799377315677702426910400390625000
0.3202507392511715345051470649195834994316101074218750000
-0.2271142494337031747519972668669652193784713745117187500
0.0398109448563889467553877921091043390333652496337890625
0.2224363354348979915364736825722502544522285461425781250
-0.4348284817676613678294472720153862610459327697753906250
-0.1276455875869076939110868806892540305852890014648437500
-0.0969849458569359418325106503289134707301855087280273438
0.1275535933654878273380006703519029542803764343261718750
-0.1881826221576368141086277319118380546569824218750000000
-0.2088966988301703131547526481881504878401756286621093750
-0.5812558884887846222255802786094136536121368408203125000
-0.1015282273373468990840251535701099783182144165039062500
-0.3882843316003525280244446094002341851592063903808593750
0.2498915171352525110837206057112780399620532989501953125
0.1814591456546396086579875372990500181913375854492187500
-0.0688296534312597962923518934985622763633728027343750000
0.4800997833863608899029884469200624153017997741699218750
0.1672850338785230039917450994835235178470611572265625000
-0.5142919100483335226314807187009137123823165893554687500
0.0715040045641528593245439537895435933023691177368164062
0.4084698619748598491518976061342982575297355651855468750
0.1133764328531453313697596740894368849694728851318359375
-0.3401786046884919811894576469057938084006309509277343750
-0.4215544985939725375345688007655553519725799560546875000
0.3444757839648281971811627499846508726477622985839843750
-0.0326093231654740883795895456387370359152555465698242188
-0.3780572373805826669190821576194139197468757629394531250
0.1401416497644668301969517187899327836930751800537109375
-0.4221433493840903716787238408869598060846328735351562500
-0.5129190116586787029362426437728572636842727661132812500
-0.3907182546689981217369336263800505548715591430664062500
-0.4755888686840049617288173067208845168352127075195312500
-0.2121518504065938170999316980669391341507434844970703125
-0.4011087542575033637604065006598830223083496093750000000
0.1908927294874024349624619389942381531000137329101562500
0.2781652438086087975044335962593322619795799255371093750
0.0871003915121152522127445649857691023498773574829101562
-0.1908431715538468076420741681431536562740802764892578125
0.9768785383211420203508623671950772404670715332031250000
0.7171994595323585297563795393216423690319061279296875000
-0.4022313228880853297475539420702261850237846374511718750
0.0038764335751141527908192330187375773675739765167236328
0.8222707968885896168131921513122506439685821533203125000
-0.2190203483364125958132717642001807689666748046875000000
-0.1882762940531457485082711400536936707794666290283203125
-0.1865875474265319133859719613610650412738323211669921875
0.0412707041619739256610444044781615957617759704589843750
-0.1029268270301099408303713289569714106619358062744140625
-0.1798381562277894807344580385688459500670433044433593750
-0.7071575805281810067626224736159201711416244506835937500
0.7071682830353998028272144438233226537704467773437500000
-0.4413719086534806379518158792052417993545532226562500000
-0.3515468552265124113631600266671739518642425537109375000
0.2565583265494563169895059218106325715780258178710937500
-0.1652631124099623316503482328698737546801567077636718750
-0.2158644156666127134069910198377328924834728240966796875
0.1700314917974968254021916891360888257622718811035156250
0.4527344399715694800434562239388469606637954711914062500
0.6377469863770750535536535608116537332534790039062500000
0.0616098397525765700821764880856790114194154739379882812
0.2079430840075955910783989111223490908741950988769531250
0.1990614127810742539637089976167771965265274047851562500
-0.1867989175085552899790997116724611259996891021728515625
-0.3791379471174561865964847129362169653177261352539062500
0.1225158207579936930908814929352956824004650115966796875
-0.0975916266923953779066636116112931631505489349365234375
0.0217790567511769311836999918341462034732103347778320312
0.2247778807511630616566833396063884720206260681152343750
0.0530220809566139469892753766089299460873007774353027344
0.0283355972671068580270858916492215939797461032867431641
0.4481673857548541528572627612447831779718399047851562500
0.1910683773627051829091527679338469170033931732177734375
-0.5058645789261982939066797371197026222944259643554687500
-0.0918535502275552862005980614412692375481128692626953125
0.0675411834415514805707303480630798730999231338500976562
0.3402362186715185421448381930531468242406845092773437500
-0.4704980567047696848881344067194731906056404113769531250
0.0498875047831967705080913333404168952256441116333007812
-0.1229201844794232112434428927372209727764129638671875000
0.2343343296702012357179967239062534645199775695800781250
0.0742579614700351470224504168982093688100576400756835938
-0.3682901775730718640922134454740444198250770568847656250
-0.2150280139539257895364698924822732806205749511718750000
0.3300143971402107467838504817336797714233398437500000000
-0.1957407814372142951242494746111333370208740234375000000
0.4549709330857384381729957567586097866296768188476562500
0.2578343306336507989584561073570512235164642333984375000
-0.1696997680589659163175042522198054939508438110351562500
0.4696847586340057723042207271646475419402122497558593750
-0.3487151343365947342434196798421908169984817504882812500
-0.3421277825151196050335045129031641408801078796386718750
-0.1817510910956036673802316272485768422484397888183593750
0.1233192622904952517881582707559573464095592498779296875
-0.3145942569478218930889568127895472571253776550292968750
0.4675091211247129896477758848050143569707870483398437500
0.1426601453565282395796742775928578339517116546630859375
0.2201250256129222704348791239681304432451725006103515625
0.3673338421964646993700398525106720626354217529296875000
-0.3136859158623684362687811244541080668568611145019531250
-0.1815646567293936475273596897750394418835639953613281250
-0.0903359166827367859875508315781189594417810440063476562
0.0088666840760794791986842966480253380723297595977783203
-0.2173957136058966010949689007247798144817352294921875000
0.1784143532522937669604345956031465902924537658691406250
-0.3425088736762220698039982380578294396400451660156250000
-0.4151595520779611248052276550879469141364097595214843750
-0.0536146842064309098185859170371259097009897232055664062
0.0723384766358364794669455477560404688119888305664062500
-0.7555232097835719029532697277318220585584640502929687500
-0.2920295761910955967266545485472306609153747558593750000
0.3059426580375338988737610179668990895152091979980468750
0.3480538962570129957185827151988632977008819580078125000
-0.3492261140249016126979597629542695358395576477050781250
0.7073258157979983584695560239197220653295516967773437500
0.3869800597346632620165962634928291663527488708496093750
-0.3775077908348431487972618469939334318041801452636718750
-0.6510514016846800089410862710792571306228637695312500000
0.5668118694992403394650182235636748373508453369140625000
-0.9455810604030159272070932274800725281238555908203125000
-0.3395709160561977690839796650834614410996437072753906250
-0.0775827641440912374459770717294304631650447845458984375
0.7506295197649879291645902412710711359977722167968750000
0.0107947603623230678482336486467829672619700431823730469
-0.4973805591956615423931964414805406704545021057128906250
0.0802898795535075399110169769301137421280145645141601562
0.4548901568975589615462240544729866087436676025390625000
0.3732138698316981861857755120581714436411857604980468750
0.1382536900550869196635517255344893783330917358398437500
0.7343564161883808782960159078356809914112091064453125000
-0.0539966245880148520974728398869046941399574279785156250
-0.4562322573803434533346035095746628940105438232421875000
-0.3653317135005921811874429749877890571951866149902343750
-0.2119367445432180085962414750611060298979282379150390625
-0.0328901975409898184032897461293032392859458923339843750
0.4646312020965446265563514316454529762268066406250000000
-0.0182665001908002139208164749106799717992544174194335938
-0.3620095460984316670938198967633070424199104309082031250
0.2866439834965344157780009481939487159252166748046875000
-0.7415744837254906185464164991572033613920211791992187500
-0.4531137928457548147420652639993932098150253295898437500
0.3542722136281253320078121760161593556404113769531250000
-0.0416768060978806864635970441668177954852581024169921875
0.3306090960059812622340302823431557044386863708496093750
0.4604876417871581195662145091773709282279014587402343750
0.7918454879798444423499859112780541181564331054687500000
0.3630416726737060728602557446720311418175697326660156250
0.1858423771826565873421799324205494485795497894287109375
-0.3435253362406054389310838814708404242992401123046875000
-0.4046885562808854586158702204556902870535850524902343750
0.0664547171327403568552583124073862563818693161010742188
-0.0774837090953587048769435341455391608178615570068359375
0.2206538579253252141398888852563686668872833251953125000
0.1849813277460776173022338753071380779147148132324218750
0.3085006073130688308836511168919969350099563598632812500
-0.0293510800568677343580503702469286508858203887939453125
-0.5854043187596599251421025655872654169797897338867187500
0.1728071316953357638990240729981451295316219329833984375
-0.3772758999320963146928420428594108670949935913085937500
-0.3968687018194903548540253268583910539746284484863281250
-0.4317479258009443432442253651970531791448593139648437500
0.4583366879361822632255041298776632174849510192871093750
0.3589977219619441828335482114198384806513786315917968750
0.6518792286858872131460884702391922473907470703125000000
0.1156822002666126059100548673086450435221195220947265625
0.1165806256243591271237747264422068838030099868774414062
0.6857213468003172662790234426211100071668624877929687500
-0.0223582608991290746058844263188802869990468025207519531
0.2945638994631991636197199113667011260986328125000000000
-0.3142732410141042542761624645208939909934997558593750000
-0.2575538409161238773137370117183309048414230346679687500
0.2765846605298714067089349555317312479019165039062500000
0.0975640934525814074174121515170554630458354949951171875
-0.3546173452157967420639295141882030293345451354980468750
0.2606986712759369329006631232914514839649200439453125000
0.3392963967124103530359491287526907399296760559082031250
0.0236703519898538855548153492236451711505651473999023438
0.5775902583934455769565374794183298945426940917968750000
0.3748516634572411909687161823967471718788146972656250000
-0.1895235302620593698108564240101259201765060424804687500
-0.4883789546463012110066870263835880905389785766601562500
0.4404917189288562462401444008719408884644508361816406250
0.4424677910512961886979610426351428031921386718750000000
0.0773633968601303428913595894300669897347688674926757812
-0.1212584486733514765877117724812706001102924346923828125
-0.0045913031470397810962502660458994796499609947204589844
-0.0702352222814998650157747306366218253970146179199218750
0.4486277137304195417044638816150836646556854248046875000
-0.5544111964880176213199547419208101928234100341796875000
-0.4062121256570340177560751726559828966856002807617187500
0.3008311963746112538409249737014761194586753845214843750
-0.2853847932423501099208351661218330264091491699218750000
-0.4058154168427852148681722610490396618843078613281250000
0.2491128500730639405702504518558271229267120361328125000
0.0430381209436559233894037390655284980311989784240722656
0.4652756321810584405618271830462617799639701843261718750
-0.0803503560350325163330609257172909565269947052001953125
-0.0946092554944339692024612986642750911414623260498046875
-0.2234017721722386662364101539424154907464981079101562500
-0.3776363482378108371584346514282515272498130798339843750
0.0560295544484104984794825554672570433467626571655273438
0.3016181982218147927810036890150513499975204467773437500
-0.2723044546733885407086006580357206985354423522949218750
-0.0440806679983496915720131426041916711255908012390136719
-0.2985462878643321271709965003537945449352264404296875000
0.1513636387773072133899887603547540493309497833251953125
0.4335651723952226310743185422325041145086288452148437500
-0.3945155397524496843075780816434416919946670532226562500
0.1792342887829048991843450266969739459455013275146484375
-0.4310389406955472124671757683245232328772544860839843750
0.4929519507957433877010089418035931885242462158203125000
-0.2453243117132644646183337044931249693036079406738281250
-0.2671391846628345390080028209922602400183677673339843750
-0.3436675486706248783264072699239477515220642089843750000
0.4715339911038952669386503657733555883169174194335937500
0.2074396213320264525936664767868933267891407012939453125
0.1563097877752047115684774780675070360302925109863281250
-0.2992978258900210741799696734233293682336807250976562500
-1.1244006789959686276603179067024029791355133056640625000
-0.4978336926295955922050495701114414259791374206542968750
-0.3697580079112104400884675214911112561821937561035156250
-0.3718877731876912839936721866251900792121887207031250000
-0.3734039520693194780243118202633922919631004333496093750
-0.0095727032023151976958263986716701765544712543487548828
-0.3984455312746561506109799211117206141352653503417968750
0.2898570931095604819027755638671806082129478454589843750
0.3466779543217318182435349172010319307446479797363281250
0.2334148072034821219666866909392410889267921447753906250
-0.2646331182599730436066920447046868503093719482421875000
0.0120207472545447550948960468986115301959216594696044922
-0.2728139992851364437065342372079612687230110168457031250
-0.3159887724673908215855533399007981643080711364746093750
-0.2832929621710679746193761729955440387129783630371093750
0.4296016161706476821358080542267998680472373962402343750
-0.2359114308403794102453332470759050920605659484863281250
0.1418999740685592814148918705541291274130344390869140625
0.3393085678972506680217691155121428892016410827636718750
-0.2823508220808754742847668239846825599670410156250000000
0.3909492686789932114344026103935902938246726989746093750
-0.3781058129722182359344628821418154984712600708007812500
0.4492776850835095148184450408734846860170364379882812500
0.1173805935165443403711549308354733511805534362792968750
-0.3440534540257520479400454860297031700611114501953125000
0.2335383299808326540425440498438547365367412567138671875
0.0375678388867198564948779448968707583844661712646484375
-0.5227527383017458451064385371864773333072662353515625000
0.0500438592071160287533260202508245129138231277465820312
0.2035527489605897799584965923713752999901771545410156250
0.1754051788032002789918806229252368211746215820312500000
0.1836492574870135785491953583914437331259250640869140625
0.0621722377623821487180322264975984580814838409423828125
0.1376060548278521533660523346043191850185394287109375000
-0.4955250198805055683592968307493720203638076782226562500
0.2494486640731066462439713404819485731422901153564453125
0.1749099461999933935452133937360486015677452087402343750
-0.1344469879520981403508983476058347150683403015136718750
-0.0107487215412343552201068774820669204927980899810791016
0.5459266025270450573003699901164509356021881103515625000
0.5478465948074928704158992331940680742263793945312500000
-0.2613951768902551542339551815530285239219665527343750000
-0.5410085653210372491628277202835306525230407714843750000
-0.2380036759329683115904430223963572643697261810302734375
-0.1964022369208228702142093879956519231200218200683593750
-0.3359868391187058600522163942514453083276748657226562500
0.3909968406882708968907991220476105809211730957031250000
-0.3143402379478522634670412116975057870149612426757812500
0.1629278599785941306077319268297287635505199432373046875
-0.4697000750534802149260826809040736407041549682617187500
0.1280147057580388603170717942703049629926681518554687500
-0.0696936157392157168422031077170686330646276473999023438
-0.0894560360611574845179916337656322866678237915039062500
-0.3647681623578535314855741944484179839491844177246093750
-0.2200866449168087657373149568229564465582370758056640625
-0.4458773444500757632269483110576402395963668823242187500
-0.4554800182573502942418031125271227210760116577148437500
0.0282360584164601594037158349692617775872349739074707031
0.3144710169485782080833757845539366826415061950683593750
0.3699506368653375232291580232413252815604209899902343750
0.1433107731401702944484810586800449527800083160400390625
0.0265664934962727035394625119124611956067383289337158203
0.0835912335421551966341269235272193327546119689941406250
-0.1865951410117810405075999824475729838013648986816406250
-0.4161270456897904757020967281277989968657493591308593750
-0.2540143707278033069485445594182237982749938964843750000
-0.4560345944826169062302767542860237881541252136230468750
0.3605930824239812482190359332889784127473831176757812500
0.0403525872274022728847242547089990694075822830200195312
-0.7931395210725351585523412722977809607982635498046875000
0.6835374362629813571601289368118159472942352294921875000
-0.2298352928490153268548112919233972206711769104003906250
0.7395685833419045618342124726041220128536224365234375000
-0.1825987046076766318059014793107053264975547790527343750
-0.2964829364140795786575210968294413760304450988769531250
-0.2207954434293845913384046752980793826282024383544921875
-0.2525313818046662772687227516144048422574996948242187500
-0.2604229873540208073379176312300842255353927612304687500
