nn
1,10,10,10,10,10,1
dIn
0
dIntern
,
dOut
,
normP
1.9500000000000075
normY
1.0
w
0.9544515834673338305904621847730595618486404418945312500
-0.5542691746177951239715753217751625925302505493164062500
-0.5805520068217987494918475022132042795419692993164062500
0.5188133511124092267507990072772372514009475708007812500
-0.2413633422463026811932707005325937643647193908691406250
0.1776932518934002946942030121135758236050605773925781250
-1.0729811718502400008645736306789331138134002685546875000
-0.7228529692087329872052237078605685383081436157226562500
0.6433259761031734358383005201176274567842483520507812500
-0.6390699625981335341151634565903805196285247802734375000
0.0095422728999669421956486559110999223776161670684814453
-0.3204393257472155087661747074889717623591423034667968750
0.2501078295331972678461340819922043010592460632324218750
0.3240347834068166843479730232502333819866180419921875000
0.1662060149183134105665970992049551568925380706787109375
-0.6082764063087841011068235275160986930131912231445312500
0.1361438308438631672458996035857126116752624511718750000
-0.0082200950392586191045607435512465599458664655685424805
-0.0420517574914018102405499632823193678632378578186035156
-0.4937814637969921149895924372685840353369712829589843750
-0.5972743026007328870363721762259956449270248413085937500
0.2918466320191114848903168876859126612544059753417968750
0.0256181352806039396019510689939124858938157558441162109
0.3505231142885316120150207552796928212046623229980468750
-0.4942247952176596625939453133469214662909507751464843750
-0.3305568790265303591446865993930259719491004943847656250
-0.6366176831566621174829379015136510133743286132812500000
-0.2513234493181187301225065766629995778203010559082031250
-0.1961890190033716840911637291355873458087444305419921875
0.4148517101890700775612685902160592377185821533203125000
-0.0084781912084857715544705669685754401143640279769897461
0.3543371120852754629915182249533245339989662170410156250
0.2305714218556745020993758998884004540741443634033203125
-0.3939220694785353082956191883567953482270240783691406250
0.0465293094517610222871084602047631051391363143920898438
0.4949443297683568943057252909056842327117919921875000000
0.1628756728419042398847693675634218379855155944824218750
0.4216338767958501265731285911897430196404457092285156250
-0.3963384083705828175858698614320019260048866271972656250
-0.4429676654010739067501845056540332734584808349609375000
-0.3835776383730976624164554777962621301412582397460937500
0.1963715472274566165022946506724110804498195648193359375
-0.3226630908275173181820605350367259234189987182617187500
-0.3141032161879136475057805455435300245881080627441406250
0.4422649016148768041922778593288967385888099670410156250
-0.2276471265301844570938527567705023102462291717529296875
0.2158642474120177900953621019652928225696086883544921875
0.0308700951167965483012967098375156638212502002716064453
0.0867391172706218488430707225234073121100664138793945312
-0.5048990448217466342484271990542765706777572631835937500
0.3070267776859652575360826176620321348309516906738281250
0.0104624633312198310475249485307358554564416408538818359
0.1664885420290741768756248575300560332834720611572265625
0.2073506713677122637040639574479428119957447052001953125
-0.5725573484526275125361394202627707272768020629882812500
-0.1630192906287800946874000374009483493864536285400390625
-0.5135362588221166202373524356517009437084197998046875000
-0.1849077855317032559323564555597840808331966400146484375
0.3177098687200115012529977320809848606586456298828125000
0.1857007367992646040821824726663180626928806304931640625
0.4564704863317193828109452624630648642778396606445312500
0.4017079233270620663986960607871878892183303833007812500
-0.2802045044365345516368392964068334549665451049804687500
0.1851573002505180753907154667103895917534828186035156250
-0.2993700744708335248489561308815609663724899291992187500
0.1852625323814305058345297538835438899695873260498046875
-0.2045037701641251037809610124895698390901088714599609375
-0.3223017050134467931243875682412181049585342407226562500
-0.3592713879455519121464135423593688756227493286132812500
-0.4131052497360773179124748821777757257223129272460937500
-0.2843800666834770396462772623635828495025634765625000000
0.0765514061743097495860155277114245109260082244873046875
-0.0069751824196009224940406845405505009694024920463562012
0.3883407016604393247050097670580726116895675659179687500
-0.3642409638297429697040286100673256441950798034667968750
0.0837556617708008904754635182143829297274351119995117188
0.5900913716393222374634319749020505696535110473632812500
-0.5010099970147402492770538628974463790655136108398437500
-0.5369371704036777215307552069134544581174850463867187500
0.0395744027088382049894832448444503825157880783081054688
0.5077455581326519862273016769904643297195434570312500000
-0.0408164312388799785380477658236486604437232017517089844
0.1761664954777650282657930347340879961848258972167968750
0.0090131494472989563682130409461024100892245769500732422
0.6283942774445906431779462764097843319177627563476562500
0.5658082827736750086700112660764716565608978271484375000
0.4841268362727174645598893221176695078611373901367187500
0.6836446264573601272473979406640864908695220947265625000
-0.1828621533402429721881787827442167326807975769042968750
-0.2103009366184603601279690110459341667592525482177734375
0.3168764187861844994209548076469218358397483825683593750
0.2441971984797412786871717571557383053004741668701171875
0.1030843680654064814516956971601757686585187911987304688
0.1623770667376513154867012644899659790098667144775390625
0.4455822172705776185175352566147921606898307800292968750
-0.2502459261871240459029763769649434834718704223632812500
0.6173162156588674065460509154945611953735351562500000000
0.1958633806937967181127646654203999787569046020507812500
0.3626135779987943452695731139101553708314895629882812500
-0.4091676962554859353637937147141201421618461608886718750
0.2283624935338764705416991773745394311845302581787109375
-0.3623199996850642867762815058085834607481956481933593750
-0.1361057940278854461180202406467287801206111907958984375
0.1093682886152552019565220575714192818850278854370117188
-0.4091187686056199646067454978037858381867408752441406250
0.1827501815088240777473771458971896208822727203369140625
-0.5638134502449941853896575594262685626745223999023437500
0.0157769927329844371344247377919600694440305233001708984
0.3118453908722194634073332508705789223313331604003906250
0.4686917900306451501002413806418189778923988342285156250
0.3951858046410688940497379917360376566648483276367187500
0.3415318996649086003003503719810396432876586914062500000
0.2061204332528070726215929653335479088127613067626953125
-0.3729338079028701735673223538469756022095680236816406250
-0.1324795250564368420675975812628166750073432922363281250
0.3373834709149216570800433601107215508818626403808593750
0.6757080352036499704126981669105589389801025390625000000
-0.0019842153542887945930073279043881484540179371833801270
-0.4674810210610964023025815095024881884455680847167968750
0.2140776525286968989814084807221661321818828582763671875
-0.1797844987579551856438087042988627217710018157958984375
0.2788798053912542318499845350743271410465240478515625000
-0.0506722953193565195384451271820580586791038513183593750
0.5907018809853624707884023337101098150014877319335937500
0.4468068368273441781646226900193141773343086242675781250
-0.4632809612506533225584348656411748379468917846679687500
-0.0121470549071910956934194913969804474618285894393920898
-0.0172655042892143201216370584916148800402879714965820312
0.0645999174867759734519623293635959271341562271118164062
-0.2357948677038545215456366577200242318212985992431640625
-0.2321837455089119650608608935726806521415710449218750000
-0.6149747733104152791483443252218421548604965209960937500
0.2522221421377874861491363844834268093109130859375000000
-0.0200938311268093368344711535655733314342796802520751953
-0.2504809629734973674963782741542672738432884216308593750
-0.2880426131018922752957678312668576836585998535156250000
0.3847746043376898406052077916683629155158996582031250000
0.2145708375189367966839881773921661078929901123046875000
-0.4632701597432531404052724610664881765842437744140625000
-0.4297563360676819876893262062367284670472145080566406250
-0.3250485587211696669740490506228525191545486450195312500
0.1264530419903643343459975767473224550485610961914062500
-0.1152074726088002931678744289456517435610294342041015625
-0.0090332823918555047587597428560002299491316080093383789
-0.5121624561838528100210510274337138980627059936523437500
0.1941178202037348587971621327596949413418769836425781250
0.1786636394367641378355671122335479594767093658447265625
-0.1847690776197002116010281724811648018658161163330078125
-0.3262672715614760021729523487010737881064414978027343750
0.1921964186362045134970344406610820442438125610351562500
-0.3263235846117764071827593852503923699259757995605468750
0.4574848524901684587717909380444325506687164306640625000
0.2983216711516497587908247624000068753957748413085937500
-0.1166631218123728025437557676013966556638479232788085938
0.1314903933129831226089834217418683692812919616699218750
0.3927000494290426302335106356622418388724327087402343750
0.2070354891282864262525009735327330417931079864501953125
-0.3983825597860672362848788452538428828120231628417968750
-0.3696445012398443807910553005058318376541137695312500000
0.2523851434266917714843714293238008394837379455566406250
-0.0373115489876034017724393265780236106365919113159179688
0.3923957019457146033758476733055431395769119262695312500
0.2337647816676834133797768799922778271138668060302734375
-0.4132942244311380575183534347161184996366500854492187500
0.5015143634887530010857403794943820685148239135742187500
0.3908798919552992079395892233151243999600410461425781250
0.3727053651798985511867101649841060861945152282714843750
-0.3283437594654871061194967296614777296781539916992187500
0.4495594463713424859818701406766194850206375122070312500
0.4185957373724584207330678964353865012526512145996093750
-0.4889664238501942872261452066595666110515594482421875000
-0.4131934653132074974912768539070384576916694641113281250
0.3031956766506987976939058171410579234361648559570312500
-0.3416888413400698265576238554785959422588348388671875000
-0.7117483991506258211856561501917894929647445678710937500
0.4310271847996293703708658995310543105006217956542968750
0.2110863404731839199079956870264140889048576354980468750
-0.1944720091323681454564820114683243446052074432373046875
-0.6136015751914535298894293191551696509122848510742187500
0.5023621114565781642369302062434144318103790283203125000
-0.1811857225234094204147083928546635434031486511230468750
-0.1980813096064951983610313845929340459406375885009765625
0.0868178896390180282471860095938609447330236434936523438
0.0333921696855988547891769258058047853410243988037109375
-0.5343545376195575347111343944561667740345001220703125000
-0.4476310322158024157523925623536342754960060119628906250
0.5223913308895700158274166824412532150745391845703125000
0.6730701949346326040668486712092999368906021118164062500
0.1917960499595829648722400406768429093062877655029296875
0.0183396596232587340280506538192639709450304508209228516
-0.3157484709658324728565048644668422639369964599609375000
-0.3656466330188146152124772925162687897682189941406250000
-0.0430050807169566479126743274719046894460916519165039062
-0.3071730965318277273290448192710755392909049987792968750
0.3126716755707154016263871199043933302164077758789062500
0.5420531761416675919917906867340207099914550781250000000
0.5697244006634897273144702012359630316495895385742187500
0.5236234814340624543760327469499316066503524780273437500
0.1711639486033940393827634807166759856045246124267578125
-0.2705364984502137137845068082242505624890327453613281250
-0.3998674494329901851763509057491319254040718078613281250
-0.3031144943764807475616862575407139956951141357421875000
0.4864065687953354477635059538442874327301979064941406250
-0.2221005275920292787450449623065651394426822662353515625
-0.5093628359450935727537057573499623686075210571289062500
-0.2302191935214590590152994309391942806541919708251953125
-0.1292387461848739371728100877589895389974117279052734375
-0.3906301163422227218369187085045268759131431579589843750
-0.6058544897888366032034923591709230095148086547851562500
-0.3350963541399296086176207154494477435946464538574218750
-0.1459293636946723538017067767214030027389526367187500000
-0.1369626681530076994786071509224711917340755462646484375
0.0037433997624258062014712677978423016611486673355102539
-0.0053205833435952228430143584603229101048782467842102051
0.1221545067172472159855445283938024658709764480590820312
0.2734362745300780717094824012747267261147499084472656250
-0.4562065559625520516640051482681883499026298522949218750
-0.5400946358947892322888151284132618457078933715820312500
0.2692413226772972234535075131134362891316413879394531250
0.3154930421536690232642285991460084915161132812500000000
-0.4226908616935947105019977243500761687755584716796875000
0.5007961693585164519859631582221481949090957641601562500
-0.1012851183603431098889657846484624315053224563598632812
0.2379987818483773609479214883322129026055335998535156250
0.5293507048133989645322117212344892323017120361328125000
-0.3432024485351330422844284839811734855175018310546875000
-0.1896872799606861836885229877225356176495552062988281250
-0.3870658762731176150140299796476028859615325927734375000
0.5247748296091722108869248586415778845548629760742187500
-0.4273792172373009345953676074714167043566703796386718750
-0.0754159203445079889815971796451776754111051559448242188
-0.0918037341389323219287277311195794027298688888549804688
0.0735138764636432961996348467437201179563999176025390625
0.3467562317513681602321184982429258525371551513671875000
-0.0418425537852391074555846728344477014616131782531738281
-0.0781046560240629822446933872015506494790315628051757812
-0.0272726330922928340838584659877597005106508731842041016
-0.2647638311346510175958712807187112048268318176269531250
-0.1413587924391985772842872393084689974784851074218750000
-0.2261573439541404717534334167794440872967243194580078125
-0.3643776158912527818323212613904615864157676696777343750
0.2241470710857360049139685997943161055445671081542968750
0.0044153591076525264269569959196815034374594688415527344
-0.1688237100640664622996922616948722861707210540771484375
0.2295258971747261289575448017785674892365932464599609375
0.0176385449093295516853618920549706672318279743194580078
-0.3175422055889368655456905798928346484899520874023437500
0.0163094831607997932387821293787055765278637409210205078
-0.3959547414746141802410761556529905647039413452148437500
-0.4972746937760517682569627595512429252266883850097656250
-0.1050835706221630722057014395431906450539827346801757812
-0.2796030644807984688604562961700139567255973815917968750
-0.0852924615950854253521029590956459287554025650024414062
-0.4194339131140001897257718610489973798394203186035156250
0.2211248873099698475375163297940162010490894317626953125
-0.3213126876883887206304279970936477184295654296875000000
-0.0697565951620122415288705042257788591086864471435546875
-0.1725825227664231631408142675354611128568649291992187500
0.0685715470605542248838659702414588537067174911499023438
-0.5600721647436138761477764091978315263986587524414062500
-0.5194297482112301134193899088131729513406753540039062500
0.1569501396487950617419926402362762019038200378417968750
-0.0573243405234071801146455982234328985214233398437500000
-0.2970473492859532771426245290058432146906852722167968750
-0.0861557123615151881912410658515000250190496444702148438
0.4280945996928072760923100759100634604692459106445312500
-0.4917091316077372709081316770607372745871543884277343750
0.0313202964732692198945862571690668119117617607116699219
0.1168276679991985533835219257525750435888767242431640625
-0.0943003414284466490169478447569417767226696014404296875
0.2392871907031127176601614792161853983998298645019531250
-0.4038586034454290096817885569180361926555633544921875000
0.2964652965093512726468816254055127501487731933593750000
-0.0198300389484789875427228622584152617491781711578369141
0.3599138230894371459633873655548086389899253845214843750
-0.1979729152529604851995514991358504630625247955322265625
-0.2917276710997036004435756240127375349402427673339843750
-0.4229529318082244082610543500777566805481910705566406250
0.2893638837443484046474395654513500630855560302734375000
-0.3371009229400837026169313048740150406956672668457031250
0.4377516468121069315166948854312067851424217224121093750
0.4368399774762636855740538521786220371723175048828125000
-0.1706891891103817227026695491076679900288581848144531250
0.1082950375435969003756753181733074598014354705810546875
-0.3803921185378059677262285731558222323656082153320312500
0.4492657502027917471032480989379109814763069152832031250
0.4601176536102645764358953783812467008829116821289062500
0.1511233342575551419351143067615339532494544982910156250
-0.0234748174343906330918674285612723906524479389190673828
-0.3834644112766611989684406580636277794837951660156250000
-0.1571501710718044009240657032933086156845092773437500000
-0.3224420577671217591486652054300066083669662475585937500
0.1940500410496039662699985228755394928157329559326171875
-0.1682097360884584058560164976370288059115409851074218750
-0.0910328349365720906893884034616348799318075180053710938
0.3710242949566284198503751667885808274149894714355468750
-0.4885975984674828520581968405167572200298309326171875000
-0.0640230654997964304664392898303049150854349136352539062
-0.1040483215887586382342178126236831303685903549194335938
-0.1299208934640835311213891145598609000444412231445312500
-0.1781294575441876304466859437525272369384765625000000000
0.5626120285466769121995866953511722385883331298828125000
-0.3464827706432261344993150942173087969422340393066406250
-0.3699552835026009844909822277259081602096557617187500000
-0.3681592610433412349202342284115729853510856628417968750
0.1051802185479248918920092137341271154582500457763671875
-0.3417896639641819778177023181342519819736480712890625000
0.4086750389058600996250447678903583437204360961914062500
0.0881370771468691638350634320886456407606601715087890625
0.4117369274446782689835799828870221972465515136718750000
-0.1956949025185213408839501880720490589737892150878906250
0.6412200311167466360018352133920416235923767089843750000
0.0116841849360694773757307629580282082315534353256225586
0.3798382757658145814083638924785191193222999572753906250
0.1285518228470233503824005083515658043324947357177734375
-0.4213529312372242818796053143159952014684677124023437500
-0.1715405340979081760810487367052701301872730255126953125
-0.2553591017303935561955086086527444422245025634765625000
0.4089880624887218818486189775285311043262481689453125000
0.3185707363920257106926214873965363949537277221679687500
0.5215622966853490360961131955264136195182800292968750000
-0.1915147609770583292387868823425378650426864624023437500
-0.4463395499020746393092906600941205397248268127441406250
-0.1510965437974478298155389666135306470096111297607421875
0.3531592851255462850446065203868784010410308837890625000
0.4889622932889475248607880075724096968770027160644531250
-0.2036670545940317267330499362287810072302818298339843750
0.0709230729803688314527576608270464930683374404907226562
-0.4352637284221544944351478534372290596365928649902343750
-0.1114340759161291938283966374001465737819671630859375000
0.1647195004779451188436922848268295638263225555419921875
-0.5430510738685793148405878127960022538900375366210937500
0.3888457133010764232849965083005372434854507446289062500
-0.0733254592956245065948905903496779501438140869140625000
-0.0556298432162353057028880698453576769679784774780273438
-0.0113361558495869083063034565839188871905207633972167969
-0.5191448282561185179062590577814262360334396362304687500
0.4248200058383562738306693518097745254635810852050781250
0.3789135392518668821182359351951163262128829956054687500
-0.1354380177093847670288795370652223937213420867919921875
-0.2581530158989441270378506487759295850992202758789062500
-0.0497934634812752241472821879142429679632186889648437500
0.1363935965196142741095997052980237640440464019775390625
-0.3230849985918601285916906817874405533075332641601562500
-0.2636177555952358142477010005677584558725357055664062500
-0.2109099118034883924011069211701396852731704711914062500
0.1071938653009450598263541110100049991160631179809570312
-0.0260262117834332770693883674084645463153719902038574219
-0.4423373429592459271653126506862463429570198059082031250
-0.2327756575659248317045069143205182626843452453613281250
0.1637821276608783516159917326149297878146171569824218750
-0.0882675487070362640995568881407962180674076080322265625
0.2327365954602873265866236351939733140170574188232421875
-0.0858643066829372358927940922512789256870746612548828125
-0.1101831811727128074274162372603313997387886047363281250
-0.0162153019489300158351152703062325599603354930877685547
-0.4109425677304210378082416355027817189693450927734375000
0.0894822225451168962173653653735527768731117248535156250
-0.3432437911134649244360161901568062603473663330078125000
-0.0542805422614756061250318452948704361915588378906250000
-0.0990555661906146051043364764154830481857061386108398438
-0.2518333889311798468035874520865036174654960632324218750
0.2143349154334261985610510237165726721286773681640625000
0.5065022975603518107234890521795023232698440551757812500
0.0167918698024148299596802758060221094638109207153320312
-0.0833974269872499451849989782203920185565948486328125000
-0.0830080221269370449599378503080515656620264053344726562
0.0683313450543291817096402951392519753426313400268554688
-0.0989693062909791226866573765619250480085611343383789062
0.0445031914455303462263557889855292160063982009887695312
0.4575409805673942287285171914845705032348632812500000000
-0.3566836988534477503876019000017549842596054077148437500
0.0685772288384008110728728979665902443230152130126953125
-0.1873178776784760468654411624811473302543163299560546875
-0.4440594724833819006981627808272605761885643005371093750
-0.1915143295294940428696861545176943764090538024902343750
-0.2750983112691506304869903942744713276624679565429687500
-0.1507766542253256292216434530928381718695163726806640625
0.4371329297011625203417395368887810036540031433105468750
0.1579588219677865446044506825273856520652770996093750000
-0.1217972474646628749939125668788619805127382278442382812
-0.2867089784183934897399126384698320180177688598632812500
0.2677301707568808253334680102852871641516685485839843750
0.0572263374864968726862812786748690996319055557250976562
-0.1260699646655258632232943227791110984981060028076171875
0.4662808804855594901894733084191102534532546997070312500
-0.1055841454479900798357761004808708094060420989990234375
0.2922792514734076085858305305009707808494567871093750000
0.3913962275421808967301728898746659979224205017089843750
0.0521424260762433575133734109385841293260455131530761719
-0.4902274491465470895867895251285517588257789611816406250
0.1623231462429295113292226915291394107043743133544921875
-0.3246404506391840638634960214403690770268440246582031250
-0.0801826200327150906410622610565042123198509216308593750
-0.1325868823544258390256800339557230472564697265625000000
0.1773831597216893596336007021818659268319606781005859375
0.3355027521918603761186261635884875431656837463378906250
0.0778751727954534039843892401222547050565481185913085938
0.4783989307474301178046971472213044762611389160156250000
0.1589052414149214886851524397570756264030933380126953125
0.3720103600155368339663652932358672842383384704589843750
-0.4118338897526171438201458840921986848115921020507812500
0.4690437255488004164583060173754347488284111022949218750
0.2858552906470390730930830613942816853523254394531250000
-0.1237013393577758996189075446636707056313753128051757812
-0.1304774191083208634278634008296648971736431121826171875
-0.6088282391917750890897309545835014432668685913085937500
0.2508822348623411246926195872219977900385856628417968750
-0.4031121867149173310096443856309633702039718627929687500
-0.1715438679546140987586255732821882702410221099853515625
0.1041366492507539015521800251917738933116197586059570312
-0.1704082416999523341694100508902920410037040710449218750
-0.4784250445756163538923999567487044259905815124511718750
0.3560555668674128537709577813075156882405281066894531250
-0.1171766715846394996125567899980524089187383651733398438
-0.4592868623147167705944582394295139238238334655761718750
0.3885949180034986571996569182374514639377593994140625000
0.0393465060100768176942764853265543933957815170288085938
0.2682617938382603206548537855269387364387512207031250000
0.3739718488849932409578968872665427625179290771484375000
-0.4497838955559897433644778175221290439367294311523437500
0.0080991605067518932653536367638480442110449075698852539
0.4041459578106043615264297841349616646766662597656250000
-0.3053712244193942937364738554606446996331214904785156250
0.1476728840586662427902808758517494425177574157714843750
-0.5457448470490979808289466745918616652488708496093750000
-0.3173261779012417349576935521326959133148193359375000000
-0.0436024667231349610796442561877483967691659927368164062
-0.1402727107884267632176289453127537854015827178955078125
0.1264982416750699834029347812247578985989093780517578125
0.3793082336334233639618673805671278387308120727539062500
0.3603645605859692180317210841167252510786056518554687500
0.0686426008408236865143692284618737176060676574707031250
-0.2990961781587834211748599955171812325716018676757812500
-0.1167602461858818357898215367640659678727388381958007812
-0.3825516496511900399468686373438686132431030273437500000
-0.1489942799337648227098185316208400763571262359619140625
0.0428563330223816485453625091395224444568157196044921875
0.3900044476533737203283180861035361886024475097656250000
0.0630222909789546203995769246830604970455169677734375000
-0.0023462269556469498958672925681412380072288215160369873
0.3139321909817341937909418447816278785467147827148437500
-0.3821076285375326064830403538508107885718345642089843750
0.1285486567162283100262953894343809224665164947509765625
0.1786237032107954036952435217244783416390419006347656250
0.0283733307174162674435535791417350992560386657714843750
0.2424620868249785787806871439897804521024227142333984375
0.0396203654432829982523500689239881467074155807495117188
0.3019713826930000566406420148268807679414749145507812500
0.3025116734799619400142489666905021294951438903808593750
0.0690411150190483741129199302122287917882204055786132812
-0.1505526968988245006819681748311268165707588195800781250
-0.2647159111386674368304738891310989856719970703125000000
-0.5190467360182428047110647639783564954996109008789062500
0.1911200221752102912375903542852029204368591308593750000
0.2821018728598403968454988444136688485741615295410156250
0.3212045288983956803363639664894435554742813110351562500
-0.0638771925320633926492774889993597753345966339111328125
0.1708011208428992233621102059260010719299316406250000000
-0.3808471241089327885553927899309201166033744812011718750
-0.1647029630857583248904063566442346200346946716308593750
0.5221857171016939247465415974147617816925048828125000000
-0.7881693590738226840031188658031169325113296508789062500
-0.3145287275711436403291543228988302871584892272949218750
-0.2418072861056786704292420608908287249505519866943359375
0.4048754236798087213777819215465569868683815002441406250
0.6131783484083024315935972481383942067623138427734375000
-0.4570230497973356564855862416152376681566238403320312500
0.2896289289686899137699072070972761139273643493652343750
0.1324632131555331382433138287524343468248844146728515625
0.1828767894008956618190353538011549971997737884521484375
