nn
1,10,10,10,10,10,1
dIn
0
dIntern
,
dOut
,
normP
1.9500000000000075
normY
1.2547463284825318
w
-1.8034974876859661829797687460086308419704437255859375000
0.1180136318310611304172041968740813899785280227661132812
1.7178576854392786366076961712678894400596618652343750000
1.9752433892112148949848915435723029077053070068359375000
-0.9198444654384104746114303452486637979745864868164062500
-2.0420114234871005187699211091967299580574035644531250000
1.6651645578227369792756462629768066108226776123046875000
-1.7764199678913314972561465765465982258319854736328125000
-1.3177510649374493123531237870338372886180877685546875000
-0.0893975638092677632462468295670987572520971298217773438
-1.0788688846765852602516133629251271486282348632812500000
-0.8691460516279285730689707634155638515949249267578125000
-0.0884563649072548086049749826997867785394191741943359375
1.0403898846795736066184190349304117262363433837890625000
0.4968854362305485938833271575276739895343780517578125000
-0.2152708898332202913650235132081434130668640136718750000
0.5630704215555616398702909464191179722547531127929687500
-0.5563331676621132704241290412028320133686065673828125000
0.1506898572753166687387960109845153056085109710693359375
0.7292746088199940635021789603342767804861068725585937500
-1.3959524640882274848507904607686214148998260498046875000
-0.0147295028274118180999785465701279463246464729309082031
1.2894650951124595472663258988177403807640075683593750000
-0.3982216438589495921540617473510792478919029235839843750
-0.0343217824328234527575531842558120843023061752319335938
-0.7205644660729779715779841353651136159896850585937500000
0.9561511273825864520858885953202843666076660156250000000
-0.3187404000910292745096796807047212496399879455566406250
0.2371397225654000850969538305434980429708957672119140625
0.0845027378850886357053440178788150660693645477294921875
-0.6350344613429776963187123328680172562599182128906250000
0.3468981333644250986125712188368197530508041381835937500
0.1288123629858431429262566325633088126778602600097656250
0.2596817702032982455584431136230705305933952331542968750
0.4997353158191769062490550368238473311066627502441406250
-0.4869687736309954440017122578865382820367813110351562500
0.2790828409412864918870411656826036050915718078613281250
0.2220406719043684085068690592379425652325153350830078125
-0.0066353721376121695477157125253597769187763333320617676
0.4372094784267608891248357849690364673733711242675781250
-0.2710493582431867665150093671400099992752075195312500000
0.9872502984259809988287770465831272304058074951171875000
-0.6618769146558526328405491767625790089368820190429687500
0.2046811723001074334593596404374693520367145538330078125
0.2751038629784280376000538126390893012285232543945312500
0.3856296485563506237781439267564564943313598632812500000
-1.0078972438926183663454594352515414357185363769531250000
0.0034680127348340832570128267065001637092791497707366943
-0.3646782576660351216091271453478839248418807983398437500
1.2713543621801171035201605263864621520042419433593750000
1.2507513289957450375311509560560807585716247558593750000
0.2513040778571561939536138652329100295901298522949218750
-1.0691656539163383321522360347444191575050354003906250000
-0.4389052042394818164972036811377620324492454528808593750
-0.1950290510982933822603513362992089241743087768554687500
1.1979200336995696751785089873010292649269104003906250000
-1.2286192391696675318968345891335047781467437744140625000
0.5892806461671483697628559639269951730966567993164062500
-0.2679512608676706264532185741700232028961181640625000000
-0.0565875478202949241945951541765680303797125816345214844
0.4997381103226046783483127455838257446885108947753906250
-0.6472438793309872595571619058318901807069778442382812500
0.4363400944448695417676731267420109361410140991210937500
0.1389802292795825899851536178175592795014381408691406250
-0.0650849385538085495328530782899179030209779739379882812
0.4978648541591768617031732446776004508137702941894531250
0.1459891095232316582386289383066468872129917144775390625
-0.3612741765023761986164174686564365401864051818847656250
0.3476405320228127537873774599574971944093704223632812500
-0.8266716227600749977710847815615125000476837158203125000
-0.6448091409805528639864746764942537993192672729492187500
-1.2863516036462194769285360962385311722755432128906250000
0.7837468117592992777886706790013704448938369750976562500
0.0029420504760231305091400244577926059719175100326538086
-0.1055928829622536369026164493334363214671611785888671875
-0.8024212960283674256345420872094109654426574707031250000
0.9157083637263871978007045981939882040023803710937500000
-1.0334735234941954118426110653672367334365844726562500000
0.8522273054727650398731952918751630932092666625976562500
-1.3861396926180127309180534211918711662292480468750000000
0.9932229857058517685786114270740654319524765014648437500
0.9390985460184629873836570368439424782991409301757812500
-0.9129608837470118976042954272998031228780746459960937500
0.5949095081824156139305159740615636110305786132812500000
0.3918095845544105060298534226603806018829345703125000000
0.8408438668730784382177034785854630172252655029296875000
-0.6497405926558555977479159082577098160982131958007812500
0.5320629381881786246211163415864575654268264770507812500
-0.6929332155002081439221228720271028578281402587890625000
0.4322176934714669904735728778177872300148010253906250000
-0.6856690394005660049714379056240431964397430419921875000
-0.6287290522411987936379773600492626428604125976562500000
1.3439672790629959564512319047935307025909423828125000000
-0.0040483152939508586926065092370663478504866361618041992
0.2815986554057520185878615848196204751729965209960937500
-0.4653410201677465884984030708437785506248474121093750000
0.8371219365693144398576919229526538401842117309570312500
-0.2588413283634244943520741344400448724627494812011718750
0.6333145112416848077074860157154034823179244995117187500
-0.9610342740205874978443034706288017332553863525390625000
-0.0571653407888389683555452336349844699725508689880371094
-0.5103608792267476657045222054875921458005905151367187500
0.0074733648024795443221002244627015898004174232482910156
-0.4619659927528544929309362032654462382197380065917968750
0.0861461618880098173312021003766858484596014022827148438
-0.4498995324648865645755790865223389118909835815429687500
0.9751421064288765538918823949643410742282867431640625000
-0.6080941382713180853869516795384697616100311279296875000
0.6644293322965517667455515038454905152320861816406250000
-0.7158231162132390190677710961608681827783584594726562500
0.2422040105899198325634102957337745465338230133056640625
-0.2259745164033460929076113643532153218984603881835937500
-0.0973274432128019839627341980303754098713397979736328125
-0.5023953397913564211663128844520542770624160766601562500
-0.3141643828877632715901313531503546983003616333007812500
-0.0691670094306709448694903130672173574566841125488281250
-0.1686815003515778899068067175903706811368465423583984375
0.3849109713764776175004556080239126458764076232910156250
0.1085666761776174632503355610424478072673082351684570312
-0.4001619293455140891069277131464332342147827148437500000
0.8484103907802772459589846221206244081258773803710937500
-0.6724094858902638360831360841984860599040985107421875000
-0.2607007141465705890581716630549635738134384155273437500
-0.5085487614614029316939536329300608485937118530273437500
-0.7077171272025903903113430715166032314300537109375000000
0.7796221201252300225803537614410743117332458496093750000
-0.0916188659119995252311241529241669923067092895507812500
0.7183187185823481923918620850599836558103561401367187500
0.8746714747904436038083986204583197832107543945312500000
-0.1963234471404859959875466302037239074707031250000000000
1.6126777233277993506277425694861449301242828369140625000
-1.5291353698112339909442880525602959096431732177734375000
-0.1882785586526578291977074286478455178439617156982421875
-0.3361389888339895715141381060675485059618949890136718750
-0.2148751194196614477949225374686648137867450714111328125
0.0941102019871836864561842617149522993713617324829101562
-0.9944602191332272411727899452671408653259277343750000000
-0.7292032282909376439405946257465984672307968139648437500
-1.4906413387246546520259471435565501451492309570312500000
-0.6191811284410896343288754906097892671823501586914062500
-0.2622661886025884903084204324841266497969627380371093750
0.7984586462635406833854290198360104113817214965820312500
-0.8540700104297626049643099577224347740411758422851562500
1.4551707719431996590486733111902140080928802490234375000
-0.4434191084457122511430782196839572861790657043457031250
1.8627185992696155825143478068639524281024932861328125000
-0.1858555375873470749681359848182182759046554565429687500
-0.1068564587806750121323773328185779973864555358886718750
0.0372423785558196121514562548782123485580086708068847656
-0.0325458138061811910746179421494161942973732948303222656
0.2340202159625129618714112211819156073033809661865234375
-0.0873729883369866733300312944265897385776042938232421875
0.0574404912451326465916423558155656792223453521728515625
-1.5540024683103736968803332274546846747398376464843750000
1.4401580581744126696719376923283562064170837402343750000
-0.7314436397099958186984736130398232489824295043945312500
0.5451306961654930338667668365815188735723495483398437500
0.9845183171966040980294110340764746069908142089843750000
0.0441381978770903349307275220780866220593452453613281250
1.1870843886804141043000981881050392985343933105468750000
-0.0432832109796425293368749009914608905091881752014160156
0.2059878705489709416198707003786694258451461791992187500
0.1359841366103101412132758696316159330308437347412109375
0.3659878251322968845116179181786719709634780883789062500
-0.2103471725750035159485662461520405486226081848144531250
0.7083583228306624679504466257640160620212554931640625000
-0.5104969924450226681500453196349553763866424560546875000
0.2978667743279714286153136981738498434424400329589843750
-0.1852211082937494091016361608126317150890827178955078125
-0.2927329887325662016728244907426415011286735534667968750
-0.7863739134684826215249131564632989466190338134765625000
0.3725478465853457321621533537836512550711631774902343750
-0.0146885909840566378919968215654989762697368860244750977
0.6518802088999318122830572974635288119316101074218750000
-0.5508529918072158082509304222185164690017700195312500000
0.2842119400312244636985781198745826259255409240722656250
0.1393948906428684741953816228487994521856307983398437500
0.2053586425005898830065120819199364632368087768554687500
-0.1470944754341635685168654390508891083300113677978515625
0.4342012792246958685637991948169656097888946533203125000
1.3358509932184896573659216301166452467441558837890625000
-1.2660496084417560691548487739055417478084564208984375000
0.5942161842400065507874273862398695200681686401367187500
0.5959340555522355531437028730579186230897903442382812500
-0.6019503715221939943447182486124802380800247192382812500
0.2598212883308668175175171199953183531761169433593750000
-0.5024016671139444056848333275411278009414672851562500000
-0.3246345165397896970205238176276907324790954589843750000
-1.0993320651518998509743596514454111456871032714843750000
0.3204948985514633474913637201098026707768440246582031250
-1.5893594135517348231445566852926276624202728271484375000
1.2558526348855780785385150011279620230197906494140625000
0.3535135620283021973264681037107948213815689086914062500
-0.5023687976754436235182765813078731298446655273437500000
-0.1192217899550272741659995290319784544408321380615234375
0.4036084950568826767991481574426870793104171752929687500
0.9028338023831955494458156863402109593152999877929687500
1.1959546655341597443111822940409183502197265625000000000
1.2288070988474779632326772116357460618019104003906250000
0.3499758477725702920935191286844201385974884033203125000
0.5764445211051753004127817803237121552228927612304687500
-0.5956262425165478324728951520228292793035507202148437500
0.3650444992760256690544906632567290216684341430664062500
0.7341368967123313993283773015718907117843627929687500000
-1.2372573994509394879059982486069202423095703125000000000
0.2019104432286305816912630461956723593175411224365234375
-0.4462955109020563249089263990754261612892150878906250000
-1.3273851885881537970846011376124806702136993408203125000
-0.8953208926321787330948609451297670602798461914062500000
0.0675426089222043862791977630877227056771516799926757812
-0.1155578859916452094669381267522112466394901275634765625
0.0452478672887042243644373229471966624259948730468750000
0.5926804113256315398317042308917734771966934204101562500
-1.1667879686949487183511564580840058624744415283203125000
1.2439289175326748715377789267222397029399871826171875000
-1.0517382092731497600368584244279190897941589355468750000
-0.1190718084315380287385721658210968598723411560058593750
0.2496170144385912725848442050846642814576625823974609375
0.1228794090233149005619850413495441898703575134277343750
0.2566693915991697383383041142224101349711418151855468750
-0.4527879289679415664160444521257886663079261779785156250
0.1339226603200988907627078106088447384536266326904296875
-0.9367953418171762747235220558650325983762741088867187500
0.9651745422251098993626783340005204081535339355468750000
-0.6830502939750661139939325039449613541364669799804687500
2.0744923416807403704353873763466253876686096191406250000
0.1651984762539238094092297615134157240390777587890625000
-0.4119105850144083591501953378610778599977493286132812500
0.0038808929773640919377863944816908770008012652397155762
-0.3587833161684256255696823245671112090349197387695312500
0.1981071280051903971131110893111326731741428375244140625
0.0661209007480551558266768097382737323641777038574218750
-0.3222779915698640862409263263543834909796714782714843750
-1.1680919945957661809643468586727976799011230468750000000
-0.0658608152406748997842456105900055263191461563110351562
-0.4792241859708182838417656057572457939386367797851562500
-0.3996264630942592543938474136666627600789070129394531250
0.0924306627337738301308789345966943074017763137817382812
-0.5559558320110468132568826149508822709321975708007812500
-0.1522796408190060513110353213050984777510166168212890625
0.6639091716637155471403275441844016313552856445312500000
-0.6085542227389095781830974374315701425075531005859375000
0.0377011730713719198093691886697342852130532264709472656
-1.4062906276349842471518059028312563896179199218750000000
1.2137281196903979552104146932833828032016754150390625000
-0.4967468882026648269167878879670752212405204772949218750
0.4781507233643558785196603366784984245896339416503906250
-0.3265383870124881626750834584527183324098587036132812500
0.8718758284708428840659166780824307352304458618164062500
-1.4222206639096741653816025063861161470413208007812500000
0.0919962246809147426995778573655115906149148941040039062
-0.3879670737751340081622686284390510991215705871582031250
-0.0011780384335932018828596579140821631881408393383026123
1.9679338099687819774175068232580088078975677490234375000
-0.6028696840389834443740824099222663789987564086914062500
-0.1726627156719381384064604390005115419626235961914062500
-0.2723552238940789571586265083169564604759216308593750000
-0.0441409046716416397782012381867389194667339324951171875
-0.6905525340804736789124262941186316311359405517578125000
0.6144537618995269401267478315276093780994415283203125000
0.1314315592247277675319594436587067320942878723144531250
0.4095335051995778741229514707811176776885986328125000000
-0.2452328847897946306755301293378579430282115936279296875
0.4783807284577453189378104525530943647027015686035156250
-0.0346139969499347985304460451061459025368094444274902344
-0.0820006511184727115981729639315744861960411071777343750
0.5306597466704418009086907659366261214017868041992187500
0.0578382812789324934898971264374267775565385818481445312
-1.1278202797969956172607908229110762476921081542968750000
0.2308922432228802668063849523605313152074813842773437500
2.1805259180987612843694023467833176255226135253906250000
0.0680640143119968787921436614851700142025947570800781250
0.8039567418333960491239054135803598910570144653320312500
0.3466395175148674900889034233841812238097190856933593750
0.7156642303721780784542261244496330618858337402343750000
1.0058477442129782897239920202991925179958343505859375000
-1.0683356101547853977962176941218785941600799560546875000
0.0665561536882802451398077892008586786687374114990234375
0.1070768849742544381875575254525756463408470153808593750
-0.2762812040366379173761401943920645862817764282226562500
-1.6181039554310496786371231792145408689975738525390625000
-0.6107488685619902879508913429162930697202682495117187500
0.6624542051512276596980655085644684731960296630859375000
-0.5651351669054087700772015523398295044898986816406250000
-0.5541857780443137926340568810701370239257812500000000000
-0.9737267743736215397376554392394609749317169189453125000
-0.7687633596616477715812720816757064312696456909179687500
-0.2747291412244819985843946597015019506216049194335937500
0.9461941743911794766574985260376706719398498535156250000
-0.5214264227481868463343062103376723825931549072265625000
0.6704161467772579152679668368364218622446060180664062500
-0.1173722978863155214090951972139009740203619003295898438
-1.7142825127112899519232769307564012706279754638671875000
0.2396052617435735498929716413840651512145996093750000000
-0.2330176255078904856699040237799636088311672210693359375
0.4526434225327216620549108938575955107808113098144531250
0.3011615841411869887167540582595393061637878417968750000
0.0908519094238658397877372863149503245949745178222656250
-0.9414822215941348604317795434326399117708206176757812500
0.2452459819645055050241211347383796237409114837646484375
-0.0983667690009999012845653965086967218667268753051757812
-0.6819657549202926549725134464097209274768829345703125000
0.3863838630441217003586018563510151579976081848144531250
0.0860621486611875680106109598455077502876520156860351562
-0.7701457523508717928351074988313484936952590942382812500
0.5526898896968438501531295514723751693964004516601562500
-0.8068287899080265335172157392662484198808670043945312500
0.3517902155250823836851736814423929899930953979492187500
-0.1885415814556392899437042842691880650818347930908203125
0.4823831130860357641054747546149883419275283813476562500
-1.5127053013776945444845978272496722638607025146484375000
-0.6209637347872050128216869779862463474273681640625000000
-1.0323855016707976783862932279589585959911346435546875000
0.1492865035258486849922832107040449045598506927490234375
-0.2025681594568770893527442922277259640395641326904296875
-0.4663860542755128291148025709844660013914108276367187500
-0.2811017582400050507374089647782966494560241699218750000
-0.1382857516535953013026016833464382216334342956542968750
0.1910158344320459500309539180307183414697647094726562500
0.1271035456317478884447069731322699226438999176025390625
-0.5244767968372554545197772313258610665798187255859375000
0.4978278697705830757591627389047062024474143981933593750
-0.9491775124226777826663692394504323601722717285156250000
1.1375433133529058160604563454398885369300842285156250000
-1.4446436896326810828128373032086528837680816650390625000
-0.1533794973585634324741988621099153533577919006347656250
-0.1148002608922778222666494229997624643146991729736328125
0.4508730124872863953555679472628980875015258789062500000
0.0583863906913834468381807596415455918759107589721679688
0.3986051090451860345886814229743322357535362243652343750
0.0789774525258101905977881074250035453587770462036132812
1.1271411723374011870646427269093692302703857421875000000
0.3388998652389859644884495537553448230028152465820312500
-0.3299039621444714853737423254642635583877563476562500000
-0.1782929742495737990282123064389452338218688964843750000
-0.3648681465710961191462047281675040721893310546875000000
-0.4170395700469330391157996018591802567243576049804687500
0.4727632290927002434166581679164664819836616516113281250
-0.4237317512386792328626938797242473810911178588867187500
0.6047055269832866120083281202823854982852935791015625000
-0.4399578647412578646935799042694270610809326171875000000
0.0440794592653639752399818974026857176795601844787597656
-0.4978085521177104122436674060736550018191337585449218750
0.2304833730351204534869680173869710415601730346679687500
0.3244410578888864415958437348308507353067398071289062500
-0.2958074956647763764649994300270918756723403930664062500
0.4801526170127659032260680760373361408710479736328125000
-0.3104444394495395331823317519592819735407829284667968750
-0.7082098234827044480610425125632900744676589965820312500
-0.5788143747169389730089505974319763481616973876953125000
0.4997965564117523018516919819376198574900627136230468750
0.1174942234620034858805226463118742685765027999877929688
-0.1459265123677880859887068254465702921152114868164062500
0.1614669630769534625081007561675505712628364562988281250
0.0033255578860610147430565408654956627287901937961578369
0.3807293375043356853382192639401182532310485839843750000
-0.0739775590199644589306515740645409096032381057739257812
0.4047857338967265072859902375057572498917579650878906250
-0.9219346552236941105817891184415202587842941284179687500
1.7803466166088395272737443519872613251209259033203125000
-0.3283627167964359161445031531911808997392654418945312500
0.1977219745191089173008691659561009146273136138916015625
0.0515776961417062362880159298583748750388622283935546875
-0.4971207431540965449023872224643127992749214172363281250
-0.2259777586686988193331870888869161717593669891357421875
-0.4302072944225712181065546246827580034732818603515625000
-0.0688593647188927571178851394506637006998062133789062500
-1.4466409392597894267851188487838953733444213867187500000
0.1901042814368283373482881870586425065994262695312500000
-0.5462398587867592913980274715868290513753890991210937500
1.0121307586301711012310988735407590866088867187500000000
0.4302574854006721016830283588205929845571517944335937500
-0.6917455299329318130219235172262415289878845214843750000
0.1806296327423594916261606613261392340064048767089843750
0.2343765907533278680663357818048098124563694000244140625
0.1516457575789681433420241774001624435186386108398437500
-0.0760886812170887827377896428515668958425521850585937500
1.2990446101049826221895955313812009990215301513671875000
-0.2625011004645272927326971057482296600937843322753906250
-1.4751900395900963136597283664741553366184234619140625000
-0.6035477964265346662031674895843025296926498413085937500
0.2659921917334588936654427016037516295909881591796875000
0.1071316124239757305858233848994132131338119506835937500
0.1853777987193038490065788437277660705149173736572265625
-0.3402109590069936628786706478422274813055992126464843750
0.3646329425408777469286292216565925627946853637695312500
-0.1864739188936364588933258801262127235531806945800781250
-0.7168700900292959143911275532445870339870452880859375000
-0.3674716987648509181063616324536269530653953552246093750
0.6468388714011289453154063266993034631013870239257812500
-1.0927508475225606865421923430403694510459899902343750000
0.3645604225401519182803156127192778512835502624511718750
0.1169554270316162797316295041127887088805437088012695312
-0.0037689767479662217818103808752994154929183423519134521
0.5644267370732977129321739084844011813402175903320312500
0.1681346229092283706130217524332692846655845642089843750
0.0953642942686407785179980578504910226911306381225585938
-0.0965414867119356590041689969439175911247730255126953125
-0.5146267529918349126205612265039235353469848632812500000
-0.0432123561984736684338237466818100074306130409240722656
-0.7808803343969734633844836935168132185935974121093750000
-0.1502128379624951548532152401094208471477031707763671875
-0.4222133564556360685315894443192519247531890869140625000
-0.1635744299521809663744420504372101277112960815429687500
-0.3839902825408932907080838958790991455316543579101562500
-0.0693159392309602440107596521556843072175979614257812500
-0.4038841250587474895894501969451084733009338378906250000
-0.4340086076449068408500409077532822266221046447753906250
-0.6566829317829986356613858333730604499578475952148437500
0.8384213783935778874223387902020476758480072021484375000
-1.0512289614931877856918163161026313900947570800781250000
0.0418539512346943823328793143900838913396000862121582031
0.2586549650870792471657466649048728868365287780761718750
-0.2774821778405200944916941807605326175689697265625000000
0.1050197220399735897888859881277312524616718292236328125
-0.4201815733024015231400483116885880008339881896972656250
-0.2265518993760740340537296333423000760376453399658203125
-0.9734539664861932006800770977861247956752777099609375000
0.4758996573353037606857185437547741457819938659667968750
-0.2887147263219904669284687770414166152477264404296875000
0.0176797976712498132456641286580634186975657939910888672
0.0245384033744755897243905451432510744780302047729492188
-0.1061798337731150732032858741149539127945899963378906250
-0.5808320582412981325504119922698009759187698364257812500
-0.2845016368541058437990898255520733073353767395019531250
-0.0827714645938990439821836275768873747438192367553710938
-0.5030205248721804078826380646205507218837738037109375000
-0.1002709675620545304308706135998363606631755828857421875
0.2954808041361131620838875733170425519347190856933593750
0.2411124753843585377666158819920383393764495849609375000
-0.0747870436295080959210324067498731892555952072143554688
0.2148900336219877471588546313796541653573513031005859375
-0.8153413969545936224037063766445498913526535034179687500
0.3945622615636607544153946491860551759600639343261718750
0.9706731758834792334056373874773271381855010986328125000
0.7301586895682704581034272450779099017381668090820312500
0.7105705500774260885421540479001123458147048950195312500
-0.0937231145414285093941941795492311939597129821777343750
-0.2804095256022135496110081476217601448297500610351562500
-0.9884242683115621597167432810238096863031387329101562500
0.5655556209637163656012148749141488224267959594726562500
0.1538621128748548783082839008784503675997257232666015625
-0.0756816861724137340816653818365011829882860183715820312
0.3618442326758579685730410346877761185169219970703125000
0.2295743277722453179467976269734208472073078155517578125
0.2722710275538902657821438424434745684266090393066406250
0.1940648495651215443835724272503284737467765808105468750
1.0754260654296436960919436387484893202781677246093750000
0.1919960678018617361573205926106311380863189697265625000
0.1181529354156184291602116331887373235076665878295898438
0.4086635024653246239800807870778953656554222106933593750
0.1295067789255412160631664164611720480024814605712890625
-0.0920592384815396708175327944445598404854536056518554688
-0.3354329402315971986325848774868063628673553466796875000
0.4046186614547620519211079681554110720753669738769531250
0.3426120455041186674272069012658903375267982482910156250
0.0429809347583599982156599139671016018837690353393554688
0.1807882143492453574928902071405900642275810241699218750
-0.0310478809816854932346341655602373066358268260955810547
-0.0099725932788076246393593748962302925065159797668457031
1.7039670516386942189512865297729149460792541503906250000
0.2198902420138953983652640999935101717710494995117187500
-0.9092254193327840017246899151359684765338897705078125000
0.5438536930168028638021837650740053504705429077148437500
1.0805626201214508785852785877068527042865753173828125000
1.0302230936850806930493718027719296514987945556640625000
0.7316380053685885842540415069379378110170364379882812500
2.4263472129962244672185534000163897871971130371093750000
-0.9752094221354743464047487577772699296474456787109375000
1.6002023855287172970918163628084585070610046386718750000
0.5797298711447134156315996733610518276691436767578125000
