nn
1,10,10,10,10,10,1
dIn
0
dIntern
,
dOut
,
normP
1.9500000000000075
normY
1.0
w
0.3946811612064932694998731221858179196715354919433593750
0.4531368698873224909462464893294963985681533813476562500
-0.5224258676078353813565513519279193133115768432617187500
-0.3581925988268691019023037824808852747082710266113281250
0.0889088414697488393922952809589332900941371917724609375
0.5404799513329884286250148761610034853219985961914062500
0.3513937304836009523079098926245933398604393005371093750
0.5520903087283721699662919490947388112545013427734375000
0.7365128114891111854589667018444743007421493530273437500
-0.6480667818015602987813394975091796368360519409179687500
-0.3459251537473291282509535449207760393619537353515625000
0.2885664886015748553660387187846936285495758056640625000
0.1994850983628101981359748151589883491396903991699218750
-0.2604558849035597534182784329459536820650100708007812500
0.2161398819275666405292923855085973627865314483642578125
0.2057367353831807132991116304765455424785614013671875000
0.0995018128313647776117534249351592734456062316894531250
0.6111828481441671234719592575856950134038925170898437500
0.5867125033470659278833636562922038137912750244140625000
-0.3072666793700923326682072911353316158056259155273437500
0.0996382266389750775870126631161838304251432418823242188
0.0252451078781616572443979862327978480607271194458007812
0.0305278289599235953810651977846646332181990146636962891
0.1133305293920324058332127492576546501368284225463867188
0.0026289005001438351880049815179063443792983889579772949
-0.3062354478293192183713244958198629319667816162109375000
0.4364395694202662934202407996053807437419891357421875000
-0.3539482681301044375565822974749607965350151062011718750
-0.3928943879780132375501011665619444102048873901367187500
-0.2106732603385644553295463765607564710080623626708984375
0.3981396651090280958129596911021508276462554931640625000
0.3751258041955714550574896293255733326077461242675781250
0.0025632702772755140523119887774328162777237594127655029
0.1227188301970777023486292023335408885031938552856445312
0.1570486300889849806683429278564290143549442291259765625
0.1486814537533562019522292985129752196371555328369140625
0.0290990913144932618339399965634584077633917331695556641
-0.4973609110888501105840475702279945835471153259277343750
0.1322171356737755765209385572234168648719787597656250000
0.3025311569712577086654903268936323001980781555175781250
0.4578310961850587945676238632586318999528884887695312500
-0.0319069656857905101232653066745115211233496665954589844
-0.1618887605784502803363267275926773436367511749267578125
0.3106340652139412683574448692525038495659828186035156250
-0.1273413639732565993956114880347740836441516876220703125
0.5158983606805160881947358575416728854179382324218750000
0.0704924388856217332133269337646197527647018432617187500
-0.2371841413959057398574969965920899994671344757080078125
0.1351365346644987086577316404145676642656326293945312500
-0.0362932775978220337198543177237297641113400459289550781
-0.3579656850122720501694573158601997420191764831542968750
-0.2905589867614085664015988186292815953493118286132812500
-0.5363308779907347556559216172900050878524780273437500000
0.2671498763330335535215454001445323228836059570312500000
-0.3884511825917769112237465378711931407451629638671875000
0.2928548707303100240295634648646228015422821044921875000
-0.4189586777144061469080327242409111931920051574707031250
-0.0121244800228586819407228247769126028288155794143676758
-0.1971266350373461484490889006337965838611125946044921875
-0.4881202087162321290314537236554315313696861267089843750
-0.3395690968165099299369558139005675911903381347656250000
0.4162223870509773604453584994189441204071044921875000000
0.2823862906539125194882444702670909464359283447265625000
-0.1922551292556852198245564977696631103754043579101562500
-0.4132220037939683954242298113967990502715110778808593750
0.0907732725536417872636008041808963753283023834228515625
0.3728449141260538612918651324434904381632804870605468750
-0.3626706393124805583028091859887354075908660888671875000
0.1355208513143517368160217984041082672774791717529296875
0.1813788518781631053933267594402423128485679626464843750
-0.4040626359516492627221850852947682142257690429687500000
-0.5235051195697282278018747092573903501033782958984375000
0.3533386515960055818119656123599270358681678771972656250
-0.3199856257106257761968493014137493446469306945800781250
-0.4309382392095253977437607773026684299111366271972656250
-0.5187929442545923253149453557853121310472488403320312500
0.5007498735760606001221617589180823415517807006835937500
-0.3003682877252259464384565035288687795400619506835937500
-0.0301832130581147495274052516833762638270854949951171875
0.4590757168742428673269273531332146376371383666992187500
-0.3646433718029793991100007133354665711522102355957031250
0.1581614169511002809809241398397716693580150604248046875
-0.4306397469244260256537870645843213424086570739746093750
-0.3492163262300951309669017064152285456657409667968750000
0.3200138030865379845657514579215785488486289978027343750
-0.5352637000963025304400844106567092239856719970703125000
0.1415498897367418185133658425911562517285346984863281250
-0.2583427359062833161829075834248214960098266601562500000
0.1026733025498401119524061186893959529697895050048828125
0.1110286496800212407976005124510265886783599853515625000
0.0868605377781760251698628394478873815387487411499023438
-0.0015597609079649908322973139718214952154085040092468262
0.5469861325792898520958829067240003496408462524414062500
-0.3912623255391490251220432128320680931210517883300781250
0.5936280492118349849661740336159709841012954711914062500
-0.0533009612370571525530316137064801296219229698181152344
0.2113082286321102953863260154321324080228805541992187500
-0.2164551453869051622636021647849702276289463043212890625
0.3371115785767131445282984714140184223651885986328125000
0.3383585260975048303322409992688335478305816650390625000
-0.2794218579528973678272052438842365518212318420410156250
0.1821151045479554309025616021244786679744720458984375000
0.5677598177159742798281172326824162155389785766601562500
-0.5246552210071927513368450490816030651330947875976562500
0.5678565038808539577885881044494453817605972290039062500
-0.0754600212214285581691086690625525079667568206787109375
0.5281852160838366172512792218185495585203170776367187500
-0.4970660980427183406327173997851787135004997253417968750
-0.2709297230047095217386754484323319047689437866210937500
0.5986916986503044713074928040441591292619705200195312500
-0.1004171974215538332142472199848270975053310394287109375
-0.0145011917211748837808205081501000677235424518585205078
0.0879972769604024235290395949959929566830396652221679688
-0.0335764827818863520469960803893627598881721496582031250
-0.5440349219366192867752829442906659096479415893554687500
0.1854963945746743170239767550810938701033592224121093750
-0.2048647579169289856260149917943635955452919006347656250
-0.3125324820869332942407936570816673338413238525390625000
0.4401409914943811840792875500483205541968345642089843750
-0.5000711455840959329677275491121690720319747924804687500
-0.0811014189651729500152299578985548578202724456787109375
0.3203264584402951697938988218083977699279785156250000000
0.2110527882013742417832702358282404020428657531738281250
0.1097694685198998959529959051906189415603876113891601562
-0.0783054011910230413073819022429233882576227188110351562
0.3980959570317523787963409631629474461078643798828125000
-0.0269505361067092497062702705079573206603527069091796875
-0.3999861070899760617791685035626869648694992065429687500
0.3242939699983755086343251150537980720400810241699218750
-0.2034095933966108271651052064044051803648471832275390625
-0.1813417427925766156615594582035555504262447357177734375
-0.2741718479668394659043428873701486736536026000976562500
0.2710733570753637855510476128984009847044944763183593750
0.2950518891419796063679825692815938964486122131347656250
-0.0358705293356416377026363306868006475269794464111328125
0.2377078417529153442355749348280369304120540618896484375
0.2893426686744483555813189923355821520090103149414062500
-0.2711870729394618706464825663715600967407226562500000000
-0.4161166266350020404019005582085810601711273193359375000
-0.1733014073340528038436048063886119052767753601074218750
-0.1402087168633460445565930285738431848585605621337890625
0.2842236081487752308305516635300591588020324707031250000
-0.4046729454544115145431248947716085240244865417480468750
0.2908820468867255315537079241039464250206947326660156250
-0.0958334870410348232949715452377859037369489669799804688
-0.0190130571828371446041483494582280400209128856658935547
0.0842452176191331170151954665925586596131324768066406250
0.4288219142768037173141237872187048196792602539062500000
0.0966858696193068772872791782901913393288850784301757812
0.0085608130125060036275108643621933879330754280090332031
-0.3356870451181220293968010537355439737439155578613281250
-0.3290938631010506543184135352930752560496330261230468750
0.0671070758369216036065552088984986767172813415527343750
-0.4025929867857834798527960629144217818975448608398437500
-0.1242902902058807546037400015848106704652309417724609375
-0.5895199585919377316400868949131108820438385009765625000
-0.1510870562627529278820759373047621920704841613769531250
-0.2459269792137830368261575131327845156192779541015625000
0.5047692184936101167380684273666702210903167724609375000
0.0772219462929183003696564924211998004466295242309570312
-0.2115872635617681019049030055612092837691307067871093750
-0.3596668741901097865465430913900490850210189819335937500
-0.2905184284634512725808974664687411859631538391113281250
-0.1080312692756613263123099955009820405393838882446289062
0.5946688773437890374040648566733580082654953002929687500
0.2753080090997125362051178854017052799463272094726562500
0.0512098700411141652399926726957346545532345771789550781
-0.3378788545180300140202689362922683358192443847656250000
-0.1099760630050837656446205414795258548110723495483398438
0.1174785026157584427730640186382515821605920791625976562
0.3496611057112543052838304902252275496721267700195312500
0.1577368832400154741169018279833835549652576446533203125
-0.5592221824372679561676591220020782202482223510742187500
-0.0945683599155861809304468579284730367362499237060546875
-0.5640957481280833851755573959962930530309677124023437500
-0.0578675528398849836619888264976907521486282348632812500
-0.2177846181695312632875527469877852126955986022949218750
-0.3464374530516363681620362058311002328991889953613281250
0.5659655616102112762888509678305126726627349853515625000
0.2398637290893859408402732924514566548168659210205078125
-0.1547045757926244768931667294964427128434181213378906250
-0.3689490517690905413417112868046388030052185058593750000
0.1596481122805432917299839346014778129756450653076171875
-0.4879577849977534964587277954706223681569099426269531250
-0.0398943339989100975717661867747665382921695709228515625
0.1892593175713729869436008357297396287322044372558593750
0.1482164896048026869745939393396838568150997161865234375
0.0176806967352492704070865414678337401710450649261474609
0.2999726762791426470933231485105352476239204406738281250
-0.5380673856020614653772327073966152966022491455078125000
-0.4550691276503067705938576636981451883912086486816406250
0.4743686458024219954054956360778305679559707641601562500
0.2729250843729956743644038397178519517183303833007812500
-0.0848301108882467541638661145952937658876180648803710938
-0.3414074496781127621147788886446505784988403320312500000
-0.1183802872373475728595693112765729892998933792114257812
-0.5548172940628629534742799478408414870500564575195312500
-0.5172232627563769780110192186839412897825241088867187500
-0.1271168360843351052835714654065668582916259765625000000
0.3637211510010099901890612272836733609437942504882812500
-0.0566120086500006766683235071013768902048468589782714844
-0.4578207386483504337526539984537521377205848693847656250
0.2255014543864578002718701554840663447976112365722656250
0.2114744607510336271705142507926211692392826080322265625
0.2925970529941319120403875331248855218291282653808593750
-0.0839857824432338889719673602485272567719221115112304688
0.0227432067564058773556645576263690600171685218811035156
-0.1942850527896643753056338255191803909838199615478515625
-0.0332194711811279047575240497280901763588190078735351562
0.5598207692105481303457281683222390711307525634765625000
-0.1622799715186570568281609894256689585745334625244140625
0.4286053050450689960726435856486205011606216430664062500
-0.2504913749686860646725961032643681392073631286621093750
-0.1771099034529331761600445815929560922086238861083984375
0.3678746587998064088154137607489246875047683715820312500
0.1321729531674332991375564461122849024832248687744140625
-0.3875153800701189310551342259714147076010704040527343750
0.4993065743725175198441945667582331225275993347167968750
0.3182879535280713767519955581519752740859985351562500000
-0.1855007308662337817128928918464225716888904571533203125
-0.0098290017784405415979254172498258412815630435943603516
-0.0056376504853777407305637225931604916695505380630493164
-0.3953065635036303593352613461320288479328155517578125000
0.4820636347978499158806187097070505842566490173339843750
-0.6288626956628502462365304381819441914558410644531250000
-0.6560293548360438542488282109843567013740539550781250000
-0.3263794311905598988232668489217758178710937500000000000
-0.3932968100697268876153600558609468862414360046386718750
-0.0078711143911580332827027106645800813566893339157104492
-0.5270274936821954803178869042312726378440856933593750000
-0.4812917499347324490344135483610443770885467529296875000
-0.1302227387026601013175763910112436860799789428710937500
-0.4802739879266246236788617807178525254130363464355468750
0.1639632341484316135904464317718520760536193847656250000
-0.3482986469646272009725862517370842397212982177734375000
-0.5739370263603130739582525166042614728212356567382812500
-0.2317445094630376511979363840509904548525810241699218750
-0.2387009706673400566412368561941548250615596771240234375
-0.2997887854878985014472903003479586914181709289550781250
0.4163568246997048083457571010512765496969223022460937500
-0.0192752056962928151884195671073030098341405391693115234
-0.2103713617782930200839075496332952752709388732910156250
-0.3940575134989480754477142454561544582247734069824218750
0.4809090916009441940559554495848715305328369140625000000
0.3881534308367748931090090991347096860408782958984375000
0.1992725498293258512561010320496279746294021606445312500
0.1142572327799173670381804868156905286014080047607421875
-0.0206634083429783274588054098330758279189467430114746094
-0.3683303628787307215652901959401788190007209777832031250
0.1809684138720913382236687994009116664528846740722656250
0.1725398191564954386567620758796692825853824615478515625
0.1472536434357046841725491503893863409757614135742187500
0.1234969129528991904631851639351225458085536956787109375
0.3490073199597374387082027169526554644107818603515625000
0.0972000408636255891492439218382060062140226364135742188
0.1915659280068178482725471667436067946255207061767578125
0.5005262351194721404112897289451211690902709960937500000
-0.0360559033179857768569576137451804243028163909912109375
0.1167315500424439267401766073817270807921886444091796875
0.3115395448051703763958641957287909463047981262207031250
0.3166017474878619064604379218508256599307060241699218750
0.3934638228302976825645487224392127245664596557617187500
-0.0317569115169733032222332269611797528341412544250488281
-0.0904830493556002535271431952423881739377975463867187500
0.4405861595146938203271247402881272137165069580078125000
-0.3711928016538821872849496230628574267029762268066406250
-0.2585856528340851889780083183723036199808120727539062500
0.5350330460979064728377352366806007921695709228515625000
-0.5800410399129494187775435420917347073554992675781250000
0.1744452774813426421118833786749746650457382202148437500
-0.2107974639914756698200193341108388267457485198974609375
-0.4339532727472496520526590302324621006846427917480468750
-0.3169394361231884227336763615312520414590835571289062500
0.1245845804361288555739406547218095511198043823242187500
0.4492468110373142309299510088749229907989501953125000000
0.2610651891537873470205965986679075285792350769042968750
0.1866830415780079133192259632778586819767951965332031250
0.3408340403153684583514859696151688694953918457031250000
-0.0652945058536433114992902915219019632786512374877929688
0.2371520204308343038324125018334598280489444732666015625
0.5851233331279065419394669333996716886758804321289062500
-0.3730827019524176058062892025191104039549827575683593750
-0.2920372791971533321664367122139083221554756164550781250
0.4772022468621579527336962200934067368507385253906250000
-0.4643089192203402881808926849771523848176002502441406250
0.4634760114689551735445149915904039517045021057128906250
-0.5127614829871454116272389001096598803997039794921875000
-0.2474592129112918870159631978822289966046810150146484375
-0.9165501081326551391370571764127817004919052124023437500
-0.1569749734549852893117360963515238836407661437988281250
0.2797784310494961790283241498400457203388214111328125000
-0.2246203696888670886533390103068086318671703338623046875
-0.4388000174578536305425302543881116434931755065917968750
-0.0155452733063493695603307642727486381772905588150024414
0.1475143929823940214252075975309708155691623687744140625
0.1647326149239431158921576070497394539415836334228515625
-0.2707959578805683165114714938681572675704956054687500000
0.3972474375469165486229883299529319629073143005371093750
-0.6231859876410191789730674827296752482652664184570312500
0.1769732695488173412901033998423372395336627960205078125
0.0310201954745971883453670159269677242264151573181152344
0.3012758313016070110812449911463772878050804138183593750
-0.1320940086670998048212766207143431529402732849121093750
-0.3222345141398138546051654884649906307458877563476562500
0.3300961752183019237705252635350916534662246704101562500
-0.1967008750615583390075613579028868116438388824462890625
-0.6185980034129611171422880033787805587053298950195312500
0.2670063484528077957236291695153340697288513183593750000
-0.2064827001991083599286014305107528343796730041503906250
-0.1231937890429612436626882754353573545813560485839843750
0.1313400415774477747454795917292358353734016418457031250
-0.0068320259473469658814681615410790982423350214958190918
0.0543391888158460262259197293133183848112821578979492188
0.1329303068676011834181593940229504369199275970458984375
-0.3412227975864498552560633015673374757170677185058593750
-0.0060656421494843914404837548204341146629303693771362305
-0.3138135556094905909141346000978955999016761779785156250
0.0604645762774127099037357879751652944833040237426757812
-0.5843286204281192830478630639845505356788635253906250000
-0.0709508399363945330140523992668022401630878448486328125
-0.0198473090399435177222375870087489602155983448028564453
-0.1215687454518206006559566390023974236100912094116210938
0.1237989614733506354982139896492299158126115798950195312
0.4239176310708892003731307340785861015319824218750000000
-0.2723001081255333466479839898966019973158836364746093750
0.2494790445409335588600185928953578695654869079589843750
0.3226556175564180839465677763655548915266990661621093750
-0.5488347270460989246743110925308428704738616943359375000
0.4875561486360723839617037356219952926039695739746093750
-0.3865420028673711150268843539379304274916648864746093750
0.2082844307453044774280925821585697121918201446533203125
-0.2831672133303704264051248173927888274192810058593750000
0.2739453458778206007551148104539606720209121704101562500
0.3603884571770010203373146850935881957411766052246093750
0.0665962415715193184473363885444996412843465805053710938
0.4507106720154776535736118603381328284740447998046875000
-0.2165449209605403990686056658887537196278572082519531250
0.0317410173730065456321192129962582839652895927429199219
0.0011283413498428328074207893649827383342199027538299561
0.4884389314616208177532996614900184795260429382324218750
-0.2319463381954210978719288505089934915304183959960937500
-0.0642771032755576898765070836816448718309402465820312500
-0.1271733505140874576078147129010176286101341247558593750
-0.2700024395136692012542312113509979099035263061523437500
-0.5619320659844202481281172367744147777557373046875000000
0.2347451252314632641482461394843994639813899993896484375
-0.5270262341830517227592167728289496153593063354492187500
0.0946276479152553112728085693561297375708818435668945312
-0.2956465492640895087461672119388822466135025024414062500
-0.0947430864870112965370196889125509187579154968261718750
-0.4622127645818800423249683717585867270827293395996093750
-0.1793045724165595322663335764445946551859378814697265625
0.4140309498517005803996937629563035443425178527832031250
0.3427145251257665559130316523805959150195121765136718750
-0.3147608907648601350715011903957929462194442749023437500
-0.6380021167715548280341408826643601059913635253906250000
-0.1569965776510311439295719537767581641674041748046875000
-0.3881610943433572158411948294087778776884078979492187500
-0.0405327149406140910259388476788444677367806434631347656
0.0753247846092741923929025915640522725880146026611328125
-0.4108426506776528541742266043002018705010414123535156250
-0.2823224899607403304280239808576880022883415222167968750
0.1634650327644788236902684275264618918299674987792968750
0.0047287198538408800954635502478140551829710602760314941
0.0554665593042592414141367385127523448318243026733398438
-0.1193447104735079755677418233972275629639625549316406250
-0.3751979705183270397128580952994525432586669921875000000
0.3768166041822443301789746783470036461949348449707031250
-0.1849427965238826243599135068507166579365730285644531250
0.1078644351468204393151850695176108274608850479125976562
-0.0259193298771886321274493525379511993378400802612304688
-0.4739550065157380753788629590417258441448211669921875000
-0.4442235455472042793267917204502737149596214294433593750
0.0668607165480119974843020713706209789961576461791992188
0.0181762936794061767675767526952768093906342983245849609
0.4980918931049700404400937259197235107421875000000000000
0.3195151670501593654805105870764236897230148315429687500
-0.2573553514260695229687314622424310073256492614746093750
0.2285123624240119333261844758453662507236003875732421875
-0.3753118167469963739613092457148013636469841003417968750
0.1974950152050136409354053057541023008525371551513671875
-0.4911076645683632446726107900758506730198860168457031250
-0.3482841328664091906652799934818176552653312683105468750
0.1797386732756634797336658948552212677896022796630859375
-0.1876963756158851470701165453647263348102569580078125000
-0.5234020403969672496913290160591714084148406982421875000
0.4531365289314133182330124327563680708408355712890625000
0.4571776150640711189332421326980693265795707702636718750
0.1484302328321986108594643383185029961168766021728515625
0.3208826351505100205052656292536994442343711853027343750
-0.0010214446977196442543217580478653871978167444467544556
-0.0592741970549515093114045782840548781678080558776855469
-0.2048909094070123781961001441231928765773773193359375000
-0.2989839590646062306156238719268003478646278381347656250
0.2945113347869979802950979319575708359479904174804687500
0.1630127899127553903202425544805009849369525909423828125
0.4734506280488918195104020014696288853883743286132812500
0.2784050676080397912492969680897658690810203552246093750
0.1064051717224216153656612959821359254419803619384765625
-0.5428550391017005205540613133052829653024673461914062500
0.0625212228692781368799558094906387850642204284667968750
-0.2242907912658420044316187613731017336249351501464843750
-0.3907096501352158024467087216180516406893730163574218750
-0.3658796955985627596952269868779694661498069763183593750
0.0280111295301814673675000477715002489276230335235595703
0.2215009642079709961670630491425981745123863220214843750
0.4509214451719254501682598856859840452671051025390625000
-0.0726626789805019795975837837431754451245069503784179688
-0.1634911196178579217974657922241021879017353057861328125
0.1525930113089362938350035392431891523301601409912109375
-0.4476395854854930966837400774238631129264831542968750000
0.0295182713073959997196471505276349489577114582061767578
0.3825264844610894998666594801761675626039505004882812500
0.5059141555832665781977652841305825859308242797851562500
-0.0530181650841698923204425852873100666329264640808105469
-0.2130790168445140797537362686853157356381416320800781250
0.4120755151328585053072117716510547325015068054199218750
-0.3287265268393093076149114040163112804293632507324218750
0.2758955016762820178222170852677663788199424743652343750
0.5191067327415179732952310587279498577117919921875000000
0.1897510978731261899188353936551720835268497467041015625
-0.2725943047518341599833036070776870474219322204589843750
0.2785775801056510903030982717609731480479240417480468750
-0.3803542842229389875363665396434953436255455017089843750
-0.6687781987837851938039079868758562952280044555664062500
-0.5343115385788427262880873058747965842485427856445312500
-0.2297800103109451375082983304309891536831855773925781250
0.1960951028292858833168565979576669633388519287109375000
0.4359226245932725785081629510386846959590911865234375000
0.4502981196369112981692239827680168673396110534667968750
-0.1945196840382284464432416370982537046074867248535156250
0.2139522376505041956207264775002840906381607055664062500
-0.0935573177245026532666827279172139242291450500488281250
0.0554468164124794007929786232580227078869938850402832031
0.2559159425243984209430436749244108796119689941406250000
1.0369415824380530111170628515537828207015991210937500000
0.2232714515069814664727232411678414791822433471679687500
0.3146916436777050241069275671179639175534248352050781250
-0.4959870043733690669895963765156920999288558959960937500
-0.1575879877327129308106634653086075559258460998535156250
-0.0294872880790184380139784536822844529524445533752441406
0.1871556610941740028675184248641016893088817596435546875
0.0143013459242875007326745162572478875517845153808593750
0.3747741321967893446398534251784440129995346069335937500
-0.1714967996132707728218491638472187332808971405029296875
0.3786965103677885635669042585504939779639244079589843750
0.4894005297811775956340341053873999044299125671386718750
0.4360853802435841752860312681150389835238456726074218750
0.0020369523679489255282848425565589423058554530143737793
-0.4072509268599093235074803942552534863352775573730468750
0.2703847944130642333426806089846650138497352600097656250
0.3589828773414784901518714832491241395473480224609375000
0.4104404240594497488281433561496669426560401916503906250
0.3870638280325744973175972063472727313637733459472656250
0.2302267125585578111390816502535017207264900207519531250
0.3304481546337850184080764393002027645707130432128906250
-0.6818873970788619232052951701916754245758056640625000000
0.1592572742055327894572513969251303933560848236083984375
0.3681648904784453613103778479853644967079162597656250000
0.1537486475733569613044693369374726898968219757080078125
-0.1006740822361109205518303610915609169751405715942382812
0.1489614880209137182109913055683136917650699615478515625
0.0724640141693520534182937353762099519371986389160156250
0.2346037100280248810513228363561211153864860534667968750
-0.6372213308047692814639617608918342739343643188476562500
0.6157584429689154648102089595340657979249954223632812500
-0.4930209966324935466630563496437389403581619262695312500
-0.5463798198047166154722731334913987666368484497070312500
0.2842443199096556516458633723232196643948554992675781250
0.7658872956895319550341127978754229843616485595703125000
0.0453054048797715130936225591540278401225805282592773438
