nn
1,10,10,10,10,10,1
dIn
0
dIntern
,
dOut
,
normP
1.9500000000000075
normY
1.0
w
0.7422356975737092188438737139222212135791778564453125000
0.0441631176828111288168443593349365983158349990844726562
-0.8915614027327934953959243102872278541326522827148437500
-1.2158041766027520846904508289298973977565765380859375000
-0.9241441897281522654949981188110541552305221557617187500
0.3902831108004775062525482098862994462251663208007812500
-1.3398272521547609503755893456400372087955474853515625000
0.8044305034958699751612698491953779011964797973632812500
-0.3565487114389218059606889710266841575503349304199218750
-0.0323783321551542116467636844845401355996727943420410156
0.0488874762162717635405329019704367965459823608398437500
0.4367205148289428073837825650116428732872009277343750000
-0.3324457736171430588534292382973944768309593200683593750
-0.6692833000396346543325876154995057731866836547851562500
-0.6084832100219671469076843095535878092050552368164062500
-0.3370914098070974529441912181937368586659431457519531250
-1.0168809878448608063905567178153432905673980712890625000
0.0112607016888603417292813446692889556288719177246093750
-0.6089380665491750388440550523228012025356292724609375000
0.2587656884846443183789688191609457135200500488281250000
-0.3609957585154465187216032973083201795816421508789062500
0.0954290298368804801310005814229953102767467498779296875
-0.2801656805034737351967066842917120084166526794433593750
0.1184248126862622596533469732094090431928634643554687500
-0.2935662048251925226871605900669237598776817321777343750
0.2718027649169088566516450100607471540570259094238281250
0.4353085192544561832228566800040425732731819152832031250
-0.4038439951854090326222035400860477238893508911132812500
0.3276433895065087864573172282689483836293220520019531250
0.5895841336694858103584238051553256809711456298828125000
0.3262542425006820789867845178378047421574592590332031250
-0.3575373185551729005027254970627836883068084716796875000
0.3165018536100348556239225672470638528466224670410156250
-0.5052665004757810329749645461561158299446105957031250000
0.0593516022697753095616057805727905360981822013854980469
0.2973295033532463715886251520714722573757171630859375000
-0.1919583761013985145904570117636467330157756805419921875
0.3184711776844726949242669888917589560151100158691406250
0.3270961858626900697899486658570822328329086303710937500
0.3228065409714642730598654907225864008069038391113281250
0.4413618453475869896074357257020892575383186340332031250
0.0012913160055847275938661899985504533105995506048202515
-0.5227667769034070044398276877473108470439910888671875000
0.1243206359917656544933350915016490034759044647216796875
0.5007848540501544931657917913980782032012939453125000000
-0.3290474632066654470108346686174627393484115600585937500
-0.5962668878304639985543644797871820628643035888671875000
0.3298925728294395121054094488499686121940612792968750000
-0.6694602138936524005075057175417896360158920288085937500
-0.2855937242701543365974714561161817982792854309082031250
0.2123627713723547361102106378893950022757053375244140625
-0.5614427844859239957742147453245706856250762939453125000
-0.8889875021194362236798269805149175226688385009765625000
-0.4222872022672490843753223543899366632103919982910156250
0.3755287700377619164449072286515729501843452453613281250
-0.8307626088357678018070373582304455339908599853515625000
-0.5158515047179862422765950213943142443895339965820312500
0.3647067350053621592742558732425095513463020324707031250
-0.5386773370651406489528767451702151447534561157226562500
-0.5006209428326392485431028944731224328279495239257812500
0.0631921271220712149618847774945606943219900131225585938
-0.3693791033665950185316262377455132082104682922363281250
-0.6404843280230552160503521008649840950965881347656250000
-0.5458822719348763730096152357873506844043731689453125000
0.2509402964976302774502414649759884923696517944335937500
-0.7358381626430815503070448357902932912111282348632812500
-0.2565156144927450143633507195772835984826087951660156250
0.0542198679689408283288720724613085621967911720275878906
-0.4253000981381067080455693485419033095240592956542968750
-0.4161041662740144198018299448449397459626197814941406250
0.0352104686213541087647094229851063573732972145080566406
0.3509389880387474569545247504720464348793029785156250000
-0.2181193966288791363794530298036988824605941772460937500
0.1239585997504383668710303822990681510418653488159179688
-0.3418179164276207715467137404630193486809730529785156250
0.1427485542744025281969300067430594936013221740722656250
0.4222647067759829342392663420469034463167190551757812500
-0.4494507712949844524530362832592800259590148925781250000
-0.1817859696109809242159371933666989207267761230468750000
-0.0439047032844174928145619674069166649132966995239257812
-0.2778850789095649864712811449862783774733543395996093750
-0.4611189003729565527578415640164166688919067382812500000
-0.3304823531801560632104042269929777830839157104492187500
-0.1486074109129245646165884409128921106457710266113281250
0.0696565745870868363587291582916805054992437362670898438
-1.2986552392147545642586692338227294385433197021484375000
-0.5718734629767128208044368875562213361263275146484375000
-0.3002061934310861213148768911196384578943252563476562500
-1.0423381522918604424887689674505963921546936035156250000
-0.4886935992640542569809269934921758249402046203613281250
0.4633965619625669551950863933598157018423080444335937500
0.1373095298609057490768492471033823676407337188720703125
0.2394499906566650571093646249209996312856674194335937500
-0.1863843907329477411760620952918543480336666107177734375
-0.3432052011339256081257076402835082262754440307617187500
-0.0837463940264284723014043265720829367637634277343750000
0.8309882174036208324352514864585828036069869995117187500
-0.0211414521900619746530569642573027522303164005279541016
0.3409244637641247188675208690256113186478614807128906250
0.2926613943086777691604538631509058177471160888671875000
0.4212985357852306322890001410996774211525917053222656250
-0.2102970652888058455953768088875222019851207733154296875
0.0861370332078303241329919615054677706211805343627929688
-0.2535121691470862970163580030202865600585937500000000000
0.4114570243632156842927827256062300875782966613769531250
-0.4130277877282370058154015168838668614625930786132812500
-0.2154455598038818031625396542949602007865905761718750000
-0.2897229441598698218562901729455916211009025573730468750
-0.7212461312104236910158761020284146070480346679687500000
-0.1204867288831473759458390304644126445055007934570312500
0.4522666312621965167828363973967498168349266052246093750
0.2962917557604081708610976875206688418984413146972656250
0.1007542547334779325929332571831764653325080871582031250
-0.2255602073011251373912955386913381516933441162109375000
0.1823710869058516315099893745355075225234031677246093750
-0.1367562384716251577820855800382560119032859802246093750
-0.3330988731531986934975009262416278943419456481933593750
0.2022262416990993350029981456827954389154911041259765625
0.3185111788808879240697535806248197332024574279785156250
0.4966356195996635691791709632525453343987464904785156250
-0.4073994841518459586460210175573593005537986755371093750
-0.2546099610907942567550321655289735645055770874023437500
0.2113007357631260518804339199050446040928363800048828125
0.3447136651829290632242930314532713964581489562988281250
-0.0071065041228038586945681132078789232764393091201782227
0.4160043936405277698042937117861583828926086425781250000
-0.5338955616377983881548630051838699728250503540039062500
-0.4830610866322569973974054846621584147214889526367187500
0.1923854681140075295608937722136033698916435241699218750
0.4087712684300758847477652579982532188296318054199218750
-0.0713117160284499201905461518435913603752851486206054688
0.1418096443780566262571340985232382081449031829833984375
0.1424170952717916383001295344001846387982368469238281250
-0.0051678453957123508116788812571940070483833551406860352
-0.1508432784175487706423979261671775020658969879150390625
0.2021634705154900513157656405383022502064704895019531250
-0.4494261931474032856215217179851606488227844238281250000
-0.1790692232933174532494291497641825117170810699462890625
0.2006193033307050177516117628329084254801273345947265625
0.4663804888193509579075168858253164216876029968261718750
0.6872016346630008820639545774611178785562515258789062500
-0.1334604417837684797731867547554429620504379272460937500
-0.6146863786733989254429388893186114728450775146484375000
0.1023232204891301316829199663516192231327295303344726562
0.2046393369117874838636339518416207283735275268554687500
0.4745476308661255027132597206218633800745010375976562500
0.2977038818297559896741688589827390387654304504394531250
-0.0572681064523285349165959701167594175785779953002929688
0.6010669144526774587689033069182187318801879882812500000
0.0833539995149951834507717762789980042725801467895507812
0.6435725677115899934221943112788721919059753417968750000
0.2929969701215577870812012406531721353530883789062500000
-0.8419240199504051114232083818933460861444473266601562500
0.4156858528484866366348171595745952799916267395019531250
-0.0577831689575136475678363012775662355124950408935546875
0.2707975818834784664801418330171145498752593994140625000
0.3536181346989901719268800661666318774223327636718750000
-0.6179287773943529238351857202360406517982482910156250000
-0.1837343796695245501382487418595701456069946289062500000
0.0263011375726512064421314107676153071224689483642578125
0.2826493901568583599903661252028541639447212219238281250
0.0099957928402794778144357934479558025486767292022705078
-0.0700817896375683230258957223668403457850217819213867188
0.4968438516359757195495205905899638310074806213378906250
-0.1553520249884294546216523258408415131270885467529296875
0.0927120852074965057232347476201539393514394760131835938
-0.2841507636632713551527729123336030170321464538574218750
-0.1031560025492202353758486310653097461909055709838867188
0.1981104979806205534931251577290822751820087432861328125
-0.5752597089853492828837033812305890023708343505859375000
-0.3753623860920624055736993796017486602067947387695312500
0.2216186656357919948501233875504112802445888519287109375
0.3882719011861849311983974075701553374528884887695312500
0.1928994526302602319223211679855012334883213043212890625
0.1889634547630052174849168977743829600512981414794921875
-0.0672736693090713322451534850188181735575199127197265625
-0.3779122729011077930216799813933903351426124572753906250
0.2976261702576962209221278499171603471040725708007812500
-0.5033758526295278867834781522105913609266281127929687500
-0.0055322733396819812057287890638690441846847534179687500
0.4909355076966855913056519966630730777978897094726562500
0.3247646540036270290663367177330655977129936218261718750
-1.1865011056069776351762357080588117241859436035156250000
0.4313784401544976665476838206814136356115341186523437500
0.5179385564231004934754309942945837974548339843750000000
0.1013715157221072166171538242451788391917943954467773438
0.5725768662761876459654786231112666428089141845703125000
-0.7880326883024664219590249558677896857261657714843750000
0.4891026307503147929622855372144840657711029052734375000
-1.0135003274442782039699295637547038495540618896484375000
0.2661462788931786560553405251994263380765914916992187500
0.1373009518087099090077884966376586817204952239990234375
0.0825250558283977531104369518288876861333847045898437500
0.0646165434067661609285337931396497879177331924438476562
0.5941114723908407224683969616307877004146575927734375000
0.6936910964638792753689244818815495818853378295898437500
0.2728259633934556616097211190208327025175094604492187500
-0.4665623086847377476438225585297914221882820129394531250
1.1507820429155306563018257293151691555976867675781250000
0.0902303506814491479426365572180657181888818740844726562
-0.4899941684719945067527646642702165991067886352539062500
-0.2806135262749859804465302204334875568747520446777343750
-0.3507727870832805794343300931359408423304557800292968750
0.5225203226949790558109043558943085372447967529296875000
-0.2127859732922912638919399341830285266041755676269531250
0.1071234408535785692651032263711385894566774368286132812
-0.0681332288744809222436060736072249710559844970703125000
0.0374144066961358753853339464967575622722506523132324219
-0.4051267814265437916532164308591745793819427490234375000
-0.0058955442054349554634185004431401466717943549156188965
0.2835872475417988702872662543086335062980651855468750000
0.5714304581807044813857032750092912465333938598632812500
-0.6090123611328879249526835337746888399124145507812500000
0.4465550420730521330447970740351593121886253356933593750
0.1326076584819999015785185747517971321940422058105468750
0.0866286668548769123177066830976400524377822875976562500
0.6032497044582658674016784061677753925323486328125000000
-0.9680614182809264001150495460024103522300720214843750000
-0.2135391482388807882220049805255257524549961090087890625
-0.8065070649732628549344326529535464942455291748046875000
0.6361566692457528704451874546066392213106155395507812500
0.3226506623031535903045607938111061230301856994628906250
-0.5081776848275688651668247075576800853013992309570312500
-0.2738432294076487694134414141444722190499305725097656250
0.0335193223951740157384726614964165491983294486999511719
-0.5804924464728176136674164808937348425388336181640625000
0.0725365560302257961211580550298094749450683593750000000
0.1464618500605046336193737488429178483784198760986328125
-0.1745942621090176838372087786410702392458915710449218750
-0.6577903850383173267601932820980437099933624267578125000
0.2248431999217707921712161578398081474006175994873046875
0.0295748113483407515378331709143822081387042999267578125
-0.2812465902833657938053590896743116900324821472167968750
-0.3469792195244143506727141357259824872016906738281250000
0.2963916141638391343882119599584257230162620544433593750
-0.1361886024773647785313102076543145813047885894775390625
0.5723217006012211172105708101298660039901733398437500000
-0.3878730588428584424853795553644886240363121032714843750
-0.4759766258750978140668053129047621041536331176757812500
0.2391588001495265347617902307320036925375461578369140625
0.2838786876618029642038720794516848400235176086425781250
0.9297994946166761032202430214965716004371643066406250000
-0.2216900572970669502925744609456160105764865875244140625
0.1339846493177318242917550605852738954126834869384765625
0.7016107236052568918438510081614367663860321044921875000
-0.2321246051903415597017499294452136382460594177246093750
-0.3274161595709959571287583912635454908013343811035156250
-0.4262984107867205940678445585945155471563339233398437500
-0.0180740003220249446924672298564473749138414859771728516
0.3325187378862254905520501324645010754466056823730468750
-0.2049822489802926861468534980303957127034664154052734375
0.1178838508770719967211348944147175643593072891235351562
-0.5734524466734252090560630676918663084506988525390625000
0.0042368256246428214611965401559245947282761335372924805
0.2166850654009025156643275522583280690014362335205078125
-0.3100236007768625845493204451486235484480857849121093750
-0.0672147221679649659042965481603459920734167098999023438
0.1109709069867420294652760048847994767129421234130859375
-0.1253271893216895971345792304418864659965038299560546875
-0.3227465330454152292460889839276205748319625854492187500
-0.4048909914326692116581796199170639738440513610839843750
-0.9019874374967578045669824859942309558391571044921875000
0.0799865658569390292065293124323943629860877990722656250
-0.2310810397525002446439401637690025381743907928466796875
-0.9374144405684561309755054026027210056781768798828125000
0.6423055351067871177050960795895662158727645874023437500
0.9296534303607756344334234199777711182832717895507812500
0.1472414328191408439128196050660335458815097808837890625
0.4902725801957330542535373751888982951641082763671875000
-0.1460238795640738940218028574236086569726467132568359375
-0.3262714609515681152274169107840862125158309936523437500
0.1718851585804931914047699592629214748740196228027343750
-0.1500773785647544489307847470627166330814361572265625000
0.3928068545554607715608597118261968716979026794433593750
0.7292154944898010526799225772265344858169555664062500000
-0.4462315134790714732382355123263550922274589538574218750
0.3201153302059858152261995201115496456623077392578125000
0.4788403118525328960863873817288549616932868957519531250
-0.4205367013880392801361551846639486029744148254394531250
0.2475060346644619435618750458161230199038982391357421875
-0.0976025873051745984643190467977547086775302886962890625
0.1811970638621155649250482611023471690714359283447265625
-0.1903687945938902781328749824751866981387138366699218750
0.3128798290052148267648135515628382563591003417968750000
0.6573775783362778568630346853751689195632934570312500000
-0.3354199342835351704827928642771439626812934875488281250
0.1381220758106356805150483069155598059296607971191406250
0.1878226881481149801444985314446967095136642456054687500
-0.0232375351779629812920546783061581663787364959716796875
0.1701326105945827893428656807373045012354850769042968750
0.3561186521597113352477492753678234294056892395019531250
-0.0019200606601701419862138209282420575618743896484375000
0.3406327431278980411022416774358134716749191284179687500
0.2764458430517791609482003423181595280766487121582031250
0.0024042605126427946116152156719181220978498458862304688
-0.1997044404318306654033676750259473919868469238281250000
0.0567264392866418457050947665720741497352719306945800781
0.4793481454573495503801439099333947524428367614746093750
-0.2157001284024290532759238203652785159647464752197265625
0.4023054583126506877910344428528333082795143127441406250
-0.2101991190854908819751756254845531657338142395019531250
0.5582196319318493138439407630357891321182250976562500000
-0.1095804485172313796903509341973403934389352798461914062
-0.0900974405058928562439746201562229543924331665039062500
0.7104178947269390587138104820041917264461517333984375000
-0.5779181250709654049657615360047202557325363159179687500
0.1716526245907308567684168565392610616981983184814453125
0.4184006253545914932878702074958709999918937683105468750
-0.6785648158228044790618582737806718796491622924804687500
-0.3401645917076908109955013514991151168942451477050781250
0.2818752901573228775156110259558772668242454528808593750
-0.9048388619869728310973755469603929668664932250976562500
0.2664886429524974120752744966011960059404373168945312500
-0.4350964266252143053392842375615146011114120483398437500
-0.7876941121749388985406881147355306893587112426757812500
0.4326036972610032282915426549152471125125885009765625000
0.4261132780211331350095349534967681393027305603027343750
0.4165813695963687113277273965650238096714019775390625000
-0.3793139292239184334754042993154143914580345153808593750
0.2367202159517249604459010470236535184085369110107421875
0.5034362463306382151628781684848945587873458862304687500
-0.4003771137434830595935864039347507059574127197265625000
-0.1883079540551030606199134354028501547873020172119140625
0.3591437231920429629106195079657481983304023742675781250
-0.0051025978309953666511855630005811690352857112884521484
0.1245889626603649269487306128212367184460163116455078125
0.1004865823687078607573397448504692874848842620849609375
1.0083740927475415283254278620006516575813293457031250000
0.0244215603340620472649913352825024048797786235809326172
0.3606595519335133448457497706840513274073600769042968750
0.3561651086850721181775725199258886277675628662109375000
-0.6646557814015772169824458615039475262165069580078125000
0.0238041562918057912623392979867276153527200222015380859
0.4968566110220513643014328408753499388694763183593750000
-0.4624654819514401049573848467844072729349136352539062500
0.6888952816735789408397749866708181798458099365234375000
0.7006228522597304220198566326871514320373535156250000000
-0.3285358910821258859868976287543773651123046875000000000
0.4345735803357906323896031608455814421176910400390625000
-0.2632458082197829396520205591514240950345993041992187500
-0.5198248441545748610437271963746752589941024780273437500
-0.4680491643775347987421753259695833548903465270996093750
0.1462248906871020104336622580376570113003253936767578125
0.3025383117311608027755198691011173650622367858886718750
0.0850266689258511593196843136865936685353517532348632812
-0.3490539486976854122168845151463756337761878967285156250
0.3625072994160736805646649827394867315888404846191406250
-0.5152446829439139008854908752255141735076904296875000000
0.4386243384404897582840021641459316015243530273437500000
0.1572194700376753628834336495856405235826969146728515625
-0.0554696107460933909849565282002004096284508705139160156
-0.0408578098925669805363547482102148933336138725280761719
0.4030517397292739945058315242931712418794631958007812500
0.0562780926511647003329663618842459982261061668395996094
0.4626794849341824278354806665447540581226348876953125000
-0.2003500553039863352200455892671016044914722442626953125
0.2757873151335355488278366919985273852944374084472656250
-0.1778269934802513829730230554559966549277305603027343750
-0.1704731058305755109216761411516927182674407958984375000
0.2920871914478248565494311606016708537936210632324218750
-0.3212492538458296964520854999136645346879959106445312500
0.1963128838068525505722305979361408390104770660400390625
-0.0921651346890594025396126198756974190473556518554687500
-0.5967238066519349182215137261664494872093200683593750000
1.1171886324844235716113871603738516569137573242187500000
0.2587874037111096425789469321898650377988815307617187500
-0.3179878221389048631451146320614498108625411987304687500
0.2905892089268148348324416474497411400079727172851562500
0.6080421939908677853026119919377379119396209716796875000
0.0797695416679972679752097519667586311697959899902343750
-0.1408109999551868940503851490575470961630344390869140625
-0.5880056171727670033533286186866462230682373046875000000
-0.3113638452001898926368994580116122961044311523437500000
0.1933058595348161601279457499913405627012252807617187500
0.0618093092622162970650734337141329888254404067993164062
0.3883289473700022864655068133288295939564704895019531250
0.0826571490469909381237911816242558415979146957397460938
0.3545337783229353112446347040531691163778305053710937500
-0.5109796242001644062113996369589585810899734497070312500
0.0237153217601273891279589633995783515274524688720703125
0.1216690430606542500102662529570807237178087234497070312
0.1924663592194003902680066175889805890619754791259765625
0.2205758997089824202664232188908499665558338165283203125
-0.1089856000389062828936914684163639321923255920410156250
0.1207912314060848174568363333492015954107046127319335938
-0.1433854235601368376507025459432043135166168212890625000
0.3427813906605312599396029327181167900562286376953125000
-0.2433975563454512380801020299259107559919357299804687500
0.0098501315726043561088465239095057768281549215316772461
-0.4236517797940034801840170075593050569295883178710937500
-0.2458932002509161274250715223388397134840488433837890625
0.2998504027254397796831142386508872732520103454589843750
0.1656774994144314672173123881293577142059803009033203125
-0.2542983807039403409966382696438813582062721252441406250
1.2156855674715074666636382971773855388164520263671875000
0.1525058881215883010984413203914300538599491119384765625
-0.4811012753017177012715421824395889416337013244628906250
-0.1553464752990678099386911981127923354506492614746093750
0.1303032957516297440925256978516699746251106262207031250
0.2419602440918094121702353049840894527733325958251953125
-0.4098896220754364438931816039257682859897613525390625000
0.2470267545915721951743648787669371813535690307617187500
-0.0963138834826646195175214870687341317534446716308593750
0.5957261384194102449285423972469288855791091918945312500
-0.4822950814734839886099848627054598182439804077148437500
-0.0955668244004247990908140764076961204409599304199218750
0.3762147587363638967516976663318928331136703491210937500
0.4898827803786278134445808518648846074938774108886718750
-0.3623094487746800762550947183626703917980194091796875000
0.5668059703841006324864792986772954463958740234375000000
-0.3010703067760683304676661009580129757523536682128906250
-0.1298960668228364701004551307050860486924648284912109375
0.6990482955730596970056467398535460233688354492187500000
0.0231406134782202767274927879270762787200510501861572266
-0.3364568423093169391435708348581101745367050170898437500
-0.6071455007319299657098099487484432756900787353515625000
0.0768473198522573314184214154920482542365789413452148438
0.1397290098807623393017962598605663515627384185791015625
0.0657394492198304647434525804783334024250507354736328125
0.4070943713502783167790255447471281513571739196777343750
-0.3959426392128129745806575101596536114811897277832031250
0.5206964510867376771940939761407207697629928588867187500
0.3022456916214260047581774415448307991027832031250000000
-0.0952583985249934039885033598693553358316421508789062500
0.3195525190715873820046510900283465161919593811035156250
-0.1457462364977785418407307815868989564478397369384765625
0.1767529619328725154492332194422488100826740264892578125
0.2808399300382247720797579404461430385708808898925781250
0.3401767884501329941571157178259454667568206787109375000
0.2096150387257279534836129641917068511247634887695312500
0.0722092622132930739287104415780049748718738555908203125
0.2500094009697363395261504592781420797109603881835937500
-0.3797311105749128778974466058571124449372291564941406250
0.7229674747173402415967302658827975392341613769531250000
-0.6308234257126151822703263860603328794240951538085937500
0.3388023404870983412706664239522069692611694335937500000
0.3359142358151429030854728807753417640924453735351562500
-0.2881127451863660926534294048906303942203521728515625000
0.2145406801562965148910677726235007867217063903808593750
0.5079624316619807400385866458236705511808395385742187500
-0.1050237332333559397978817173679999541491270065307617188
-0.4209697000069030914382040009513730183243751525878906250
0.1403875058458426139385011310878326185047626495361328125
-0.3170792750882122645883498535113176330924034118652343750
0.4011908620949004578015717470407253131270408630371093750
0.0655637766940896093981194781008525751531124114990234375
-0.0174641250052420989036239262759409029968082904815673828
-0.2185082531535560146362939804021152667701244354248046875
-0.1754555996700876419058801047867746092379093170166015625
0.2439668174793116484089239293098216876387596130371093750
-0.4441888076179275612886954149871598929166793823242187500
-0.0635965144455188091665576166633400134742259979248046875
-0.2588638787896018200740400061476975679397583007812500000
-0.0680094290828759245881585115967027377337217330932617188
0.0746599512681049154450008131789218168705701828002929688
0.5767023119019593080381014260638039559125900268554687500
0.3119811783979851704806662837654585018754005432128906250
0.0706014797704304225556271035202371422201395034790039062
0.0678684801289970440762999714934267103672027587890625000
-0.3056688844063348287072301445732591673731803894042968750
0.5590050031469657731975075876107439398765563964843750000
-0.6638682379774866193500315603159833699464797973632812500
0.6782944677262159327568724620505236089229583740234375000
0.4470367036935465887559359998704167082905769348144531250
0.9053675365811781894365140033187344670295715332031250000
0.6464867075251469197283427092770580202341079711914062500
0.3509516247375037978351031142665306106209754943847656250
-0.1549227199883418948367364009754965081810951232910156250
-0.6368157814614715528378496856021229177713394165039062500
-0.3881588652910006320695401882403530180454254150390625000
0.7232016426859982916042213219043333083391189575195312500
