nn
1,10,10,10,10,10,1
dIn
0
dIntern
,
dOut
,
normP
1.9500000000000075
normY
1.0785729867936455
w
-0.3417675652485027693039398855034960433840751647949218750
0.9761157877339524668869330525922123342752456665039062500
0.2762123594231332135429113350255647674202919006347656250
0.3148349705213198679309982708218740299344062805175781250
-0.9514139398825637305989744163525756448507308959960937500
0.4278580848512458234544908464158652350306510925292968750
0.8853483141421560898010056916973553597927093505859375000
0.9961171234599907053919309873890597373247146606445312500
-1.0773732610442119383975523305707611143589019775390625000
0.1128010944431797196729760912603524047881364822387695312
0.3751871785263394820653104488883400335907936096191406250
-0.0375437958034930963080455512681510299444198608398437500
-0.0758054463798469996271833792889083269983530044555664062
0.2880352924058098285087226031464524567127227783203125000
-0.3127159415879334214416473969322396442294120788574218750
-0.3410340898487858041221443272661417722702026367187500000
0.4222691591301574454142553349811350926756858825683593750
0.1277164839467093415681375745407422073185443878173828125
0.0986926776669045657808254645715351216495037078857421875
-0.2981363902968481860433769270457560196518898010253906250
-0.0480382776621457799337555627516849199309945106506347656
0.4123539537901251827989312914723996073007583618164062500
0.3517451856484972716465620123926782980561256408691406250
-0.0394657718101540933020032753120176494121551513671875000
0.0809094297015262309269445495374384336173534393310546875
0.4026151962253243232758848080266034230589866638183593750
0.2625963595565675712251163531618658453226089477539062500
0.1788115033615478577377899682687711901962757110595703125
0.2070367662044801104759272902811062522232532501220703125
-0.4035970005028889362463928591751027852296829223632812500
-0.5426893054688339823599108058260753750801086425781250000
-0.0336932754529319852809798874204716412350535392761230469
-0.7414552758973821378063462361751589924097061157226562500
0.3900489131464127123827267951128305867314338684082031250
-0.1767878951235047069179273648842354305088520050048828125
-0.0803910732840883435201817519555334001779556274414062500
0.1329450886490027294861704376671696081757545471191406250
-0.4908354854108927800560024934384273365139961242675781250
-0.1289444842115891332046118122889311052858829498291015625
0.5368184826718125357558619725750759243965148925781250000
-0.0980069138003723527852173447172390297055244445800781250
0.3249016818744449031086674040125217288732528686523437500
-0.3875586585574233300377500199829228222370147705078125000
-0.3361028977398711203861125795810949057340621948242187500
-0.5080394094990128284194952357211150228977203369140625000
-0.4436937825270017565770785950007848441600799560546875000
0.1071726934309304157810771584991016425192356109619140625
0.0534329976814034920962193098148418357595801353454589844
0.3698865681006255901053236812003888189792633056640625000
0.0903234494339072158108905341578065417706966400146484375
-0.5324446557722942729995452282309997826814651489257812500
0.4396390017045327947009525360044790431857109069824218750
-0.4902699608261049113444585145771270617842674255371093750
-0.3289399458776950946337080949888331815600395202636718750
-0.4018609539969761335065356888662790879607200622558593750
0.2502105356336522534732580425043124705553054809570312500
-0.2286675179288702175472991484639351256191730499267578125
-0.1794408653242028917063066728587727993726730346679687500
0.0609425214488396663203850778245396213605999946594238281
-0.4086234677621833344396407028398243710398674011230468750
0.3392355299080572761383223223674576729536056518554687500
0.3480816121837781995651539546088315546512603759765625000
0.4730458096158777769879577590472763404250144958496093750
-0.1958266295644367771533467248445958830416202545166015625
0.6187116911160575050132592878071591258049011230468750000
0.5784819984531043290942875501059461385011672973632812500
0.3841355267899141390230965953378472477197647094726562500
0.2684638219899672662016598678746959194540977478027343750
0.3097618598611250884111711911828024312853813171386718750
-0.3951854281653121581108223381306743249297142028808593750
-0.1684701499939675606309918975966866128146648406982421875
0.5768548941208868630070583094493485987186431884765625000
-0.0559562500509760279987503395204839762300252914428710938
0.1914964846173078938385003766597947105765342712402343750
0.1225473232524931649356503271519613917917013168334960938
-0.2533514773747185255814429183374159038066864013671875000
0.1901033260050660755879903263121377676725387573242187500
-0.4079380288718141844839237819542177021503448486328125000
0.0561662974901537340177704038524097995832562446594238281
0.0317475887620823696289029669515002751722931861877441406
-0.6818668196192023689405914410599507391452789306640625000
-0.0220099924843787340955625353444702341221272945404052734
-0.1630635519761966800711405767287942580878734588623046875
0.4607077690548071480236558272736147046089172363281250000
-0.6358321179305534975867431057849898934364318847656250000
-0.5309763197505869003478551348962355405092239379882812500
-0.4365773194146269631232826213818043470382690429687500000
0.2917073356564823249925666459603235125541687011718750000
-0.3659715898767147979064873197785345837473869323730468750
0.2093025960312677735686293090111576020717620849609375000
-0.5943979701695174533426779817091301083564758300781250000
-0.2900256595254335212352714279404608532786369323730468750
-0.4947053361409339822252206886332714930176734924316406250
0.6826949494042038324437271512579172849655151367187500000
0.0876907964174645088162307615675672423094511032104492188
-0.6206677179660914367431701066379901021718978881835937500
-0.4275685336380286583057852567435475066304206848144531250
0.2971878650978551639205704759660875424742698669433593750
0.0068897317090919080878608227180848189163953065872192383
0.2234090697789427870656453478659386746585369110107421875
0.2263460092570088455499188739850069396197795867919921875
-0.5351710293680477237288073411036748439073562622070312500
0.4018374254630638908736273151589557528495788574218750000
-0.5257586380969360151382829826616216450929641723632812500
-0.1017506903605336354701194068184122443199157714843750000
0.4751489775715175833958880957652581855654716491699218750
0.4868650174188771662109331828105496242642402648925781250
-0.0604761780677727511790209291575592942535877227783203125
-0.3377917353206849604418948729289695620536804199218750000
-0.5026671785889762489318854932207614183425903320312500000
-0.0881137608044578468646790270213386975228786468505859375
-0.3776019137986894036451701595069607719779014587402343750
0.2898422887964808292160512337432010099291801452636718750
0.3612921576876311768877769736718619242310523986816406250
-0.1312429594531012710945105936843901872634887695312500000
-0.4468629508441200881563304392329882830381393432617187500
0.2828821549278281999306727811926975846290588378906250000
-0.2060546324537339824001236365802469663321971893310546875
0.2213160321864786894696663921422441489994525909423828125
0.4415157277114824529995473767485236749053001403808593750
-0.3456547275247879302817466395936207845807075500488281250
-0.1223575222104282267387986848916625604033470153808593750
0.0688508936262276494133516280271578580141067504882812500
-0.3170772970010037328236762732558418065309524536132812500
-0.0578192052660126271090845762046228628605604171752929688
-0.2548023585152536241160703411878785118460655212402343750
0.0829916690254887817745910183475643862038850784301757812
-0.0565221475862384137300864495045971125364303588867187500
0.0250241727534861214954364783125129179097712039947509766
-0.0139826850618597967046419228154263691976666450500488281
-0.4505464862496013633830216349451802670955657958984375000
-0.0177693034074124199539479462828239775262773036956787109
-0.6232867223612317264525017890264280140399932861328125000
0.5852655530269477157645496845361776649951934814453125000
0.2222746075496059847687035926355747506022453308105468750
0.0889117451500647942852495475563046056777238845825195312
0.3429494279752897667457034458493581041693687438964843750
0.2636595761251587788365213782526552677154541015625000000
0.3890111708588067651604092134220991283655166625976562500
0.4073997930859398763914214214310050010681152343750000000
-0.2265645530834289322896779594884719699621200561523437500
-0.2357229547716637452214882841872167773544788360595703125
0.4217699230684048838924127267091535031795501708984375000
0.1592731575344781547176609137750347144901752471923828125
-0.2121358411045712877296409715199843049049377441406250000
-0.4350136776325851384328302629000972956418991088867187500
-0.3600767806767891654473601192876230925321578979492187500
0.0523924179772347689554301553016557591035962104797363281
0.5347037744624163480011702631600201129913330078125000000
-0.2181531034177957850683782226042239926755428314208984375
-0.1274441764975831892225954788955277763307094573974609375
-0.1775602765312497832717042456351919099688529968261718750
0.0506650736579672134052287901795352809131145477294921875
0.5717731503886384070156623238290194422006607055664062500
0.5161158744138344411922503240930382162332534790039062500
-0.3706695131524106456843981050042202696204185485839843750
0.9155410491174489351351439836435019969940185546875000000
-0.4238736734537696948521556805644650012254714965820312500
0.3534984595739321111551589638111181557178497314453125000
-0.0234931887026197071255406711998148239217698574066162109
-0.0494098082509372288351201518707966897636651992797851562
0.1929814693219062682327802349391276948153972625732421875
0.3663282668786737583666024420381290838122367858886718750
0.2289199089300643641387011939514195546507835388183593750
-0.3903215136888347203125704254489392042160034179687500000
-0.5144386159872245123381162557052448391914367675781250000
-0.7790836729673603633372636068088468164205551147460937500
0.5859559858602662041349162791448179632425308227539062500
0.1593615716394180814585723737764055840671062469482421875
0.1652067169997159801209107854447211138904094696044921875
-0.0779084163316232092277857645967742428183555603027343750
0.0030607331893389533132576740825925298850052058696746826
0.3933262004959470758969075632194289937615394592285156250
0.0165726019860766050906253354924047016538679599761962891
0.7362214361958506758654152690724004060029983520507812500
-0.1097739536142321725709081192690064199268817901611328125
0.2615731300777284218384011182934045791625976562500000000
0.4047695259508337639609010238928021863102912902832031250
0.5533807554982521637043646478559821844100952148437500000
-0.0981086258641867270391401234519435092806816101074218750
-0.4278674274945659106172968222381314262747764587402343750
-0.3273244482671948119012483857659390196204185485839843750
-0.1148594772455447249326354608456313144415616989135742188
0.6839056900391372595393590927415061742067337036132812500
0.1636673760120839760112687599757919088006019592285156250
0.2538789745864866165270257170050172135233879089355468750
0.5578483364275799161191571329254657030105590820312500000
-0.1588436914508166708515091158915311098098754882812500000
0.0606815626533188726132728163520368980243802070617675781
0.1096790598392421989260014925093855708837509155273437500
0.2938454027640837185053612756746588274836540222167968750
-0.6415499445382727428111024892132263630628585815429687500
-0.4156608530617349472890964534599334001541137695312500000
0.0785599952653825567283618624969676602631807327270507812
0.3669817756346711035142504897521575912833213806152343750
0.4677501110089933855640254023455781862139701843261718750
0.1100133103827425629095415615665842778980731964111328125
0.1399187954325617211370769155109883286058902740478515625
0.3521087943261901886948805895372061058878898620605468750
-0.3454106998498738811953501226525986567139625549316406250
-0.1506243981162855016808777008918696083128452301025390625
0.3096182479705383294721343645505839958786964416503906250
0.4425909279911068305857213545095873996615409851074218750
-0.1507046676241154681274991844475152902305126190185546875
0.0089197844281566629476287744182627648115158081054687500
-0.1285511622580104706958792348814313299953937530517578125
0.3666587916750745912430886619404191151261329650878906250
-0.4690697278495258304431558826763648539781570434570312500
0.0564895039937277701480589087168482365086674690246582031
0.1882435404442853177364725070219719782471656799316406250
-0.2974067778749885926359297627641353756189346313476562500
-0.2263192767833270002686418820303515531122684478759765625
-0.4443780916964193417051376400195294991135597229003906250
0.3837198021659170010799755345942685380578041076660156250
-0.0248244149560526983222530361672397702932357788085937500
-0.3032494581451527504434295678947819396853446960449218750
-0.1877325719851146434979938248943653889000415802001953125
0.3665536013828402106540238492016214877367019653320312500
0.0808836590366820984421281082177301868796348571777343750
-0.4190221992730417399641851261549163609743118286132812500
0.1936025602565334680082997920180787332355976104736328125
0.3147133734605411237161831650155363604426383972167968750
-0.3931766642271869449665189222287153825163841247558593750
0.2320325485377434659994833054952323436737060546875000000
-0.5821926886666338729625636005948763340711593627929687500
-0.4917254945827101431099492856446886435151100158691406250
-0.7389322838718350716646909859264269471168518066406250000
0.1710135144164582343684344323264667764306068420410156250
0.1613833488990570608212493652899865992367267608642578125
0.5231728170908602759681116367573849856853485107421875000
0.2787182097388646306868054125516209751367568969726562500
0.0147799530357389224261011051453351683449000120162963867
0.2642103206837800866146892531105550006031990051269531250
-0.1560643916953073917497363254369702190160751342773437500
0.1580979258697621514517805962896090932190418243408203125
-0.4432253443197651243679047183832153677940368652343750000
-0.1339491263062760062485523349096183665096759796142578125
0.0041271124585200383988459194029019272420555353164672852
0.2877402311303742243886460983048891648650169372558593750
-0.4972161021743134456940538257185835391283035278320312500
-0.5422582470823615885535673442063853144645690917968750000
0.1208227094274657298367259272708906792104244232177734375
0.2439258023041166734135032356789452023804187774658203125
-0.3201468551786981198148396288161166012287139892578125000
-0.2331059698464450768984335127242957241833209991455078125
-0.0866843068975085562222204771387623623013496398925781250
-0.2460473759413527861106274485791800543665885925292968750
-0.3634875711166403733365370953833917155861854553222656250
-0.1744761819712785655411835250561125576496124267578125000
0.2591723512367617443530320997524540871381759643554687500
-0.4646097814796292246874997999839251860976219177246093750
-0.5012922505471144596356225520139560103416442871093750000
-0.4063676096531655956844986121723195537924766540527343750
-0.0750240994604143840440713120187865570187568664550781250
-0.5534848294492930032006938745325896888971328735351562500
0.2647674746791848221505460969638079404830932617187500000
-0.3120800244754482477560486586298793554306030273437500000
0.2384171445654686971593605449015740305185317993164062500
0.0748746461902229931695273990044370293617248535156250000
0.1390400959732495944631835982363554649055004119873046875
-0.6754630726302358612045395602763164788484573364257812500
0.0924412569604407402534818061212718021124601364135742188
0.2174017328502764467845764784215134568512439727783203125
-0.0948646176315552785984763772830774541944265365600585938
-0.5030846238516407664675966771028470247983932495117187500
0.2395376293163205827507766798589727841317653656005859375
0.3468138507973197448563951184041798114776611328125000000
0.2343743151541864411235849274817155674099922180175781250
-0.3663965261326028177712998967763269320130348205566406250
0.2518200245640025425331032238318584859371185302734375000
0.7549084653701907399181436630897223949432373046875000000
0.3803781985260623055289386229560477659106254577636718750
0.3238802597532328131357814982038689777255058288574218750
0.1033961154322778214220690529145940672606229782104492188
-0.0138357931257232710797744346109539037570357322692871094
-0.2819641142643377618171030007943045347929000854492187500
-0.2074622175579129146338885902878246270120143890380859375
-0.4382193051535120398298772670386824756860733032226562500
0.0353712039557678298296039542947255540639162063598632812
-0.3595239510359898305047465782990911975502967834472656250
-0.3734959942294943657792316571431001648306846618652343750
0.6256443362736459068429439867031760513782501220703125000
0.1598226664087410708869896325268200598657131195068359375
0.3378161025143500140188734803814440965652465820312500000
-0.1194216909343910615337591707429965026676654815673828125
-0.3046223944789245852149406346143223345279693603515625000
-0.4423196202200301851981123490986647084355354309082031250
-0.2969782759240935932076865810813615098595619201660156250
0.3668934025133214205105502969672670587897300720214843750
0.4314114397942234169214259509317344054579734802246093750
0.0473355693477940653313140728641883470118045806884765625
0.0315547781394032306190311487625876907259225845336914062
0.2758766610365201987775662928470410406589508056640625000
0.4997050931230373471692018938483670353889465332031250000
0.0718700238866974983054092263046186417341232299804687500
0.5201906555027678846769845222297590225934982299804687500
-0.0418980395484588805099512853757914854213595390319824219
-0.2406617474096720832310580817647860385477542877197265625
-0.2957474351309188898007107582088792696595191955566406250
-0.2073681963513192005876817347598262131214141845703125000
-0.0311905801103459605350121108813254977576434612274169922
-0.1042402177939097951409053166571538895368576049804687500
0.2069009383210649311024553753668442368507385253906250000
-0.2526509252972013452875899020000360906124114990234375000
0.2923452411684572260774928054161136969923973083496093750
-0.5099940559407054596618991126888431608676910400390625000
-0.5004612511769628291347089543705806136131286621093750000
0.2864540486227103444072383808816084638237953186035156250
-0.7551385004502356723676825822622049599885940551757812500
0.1212203446928435818241709398535022046416997909545898438
0.5320668166563254919410042020899709314107894897460937500
-0.2139425684953074335847844622549018822610378265380859375
0.1530174767715576644722119681318872608244419097900390625
-0.3125254320907153715580761854653246700763702392578125000
-0.2505747231099745286897473306453321129083633422851562500
-0.1107575780797648429265578329250274691730737686157226562
-0.1962503413722019030007714945895713753998279571533203125
-0.3109834197549205536681427020084811374545097351074218750
0.5303054043349588742017886033863760530948638916015625000
-0.4668807739204948181743759505479829385876655578613281250
0.5708114032336251142396577051840722560882568359375000000
0.4497616746894156913860740587551845237612724304199218750
0.1058606230555523691760910764969594310969114303588867188
0.1068219000645262428683679445384768769145011901855468750
0.0223953149803748398360969673603904084302484989166259766
0.4702673455394402735052494790579658001661300659179687500
-0.3709052316471863619540272338781505823135375976562500000
-0.4832150958530730400219965758878970518708229064941406250
-0.2114133341256705100885682213629479520022869110107421875
-0.3537922437097399397387675890058744698762893676757812500
0.5280069451901303612117999364272691309452056884765625000
0.2368349532047555883185196989870746619999408721923828125
0.4596099108790256404510898846638156101107597351074218750
0.0019750782240514040688506014475933625362813472747802734
0.3417309656841943654725923806836362928152084350585937500
-0.4626774599644613572557716452138265594840049743652343750
0.0114438033669369675776605888017911638598889112472534180
-0.0875051955779289902803697032140917144715785980224609375
0.0594237402118953650376198538651806302368640899658203125
0.3596581569437684589018999758991412818431854248046875000
0.1656355773543782272660962462396128103137016296386718750
-0.0152278363923618580838548197675663686823099851608276367
0.2839563274113364177431151347263948991894721984863281250
0.3930349005060407852063519840157823637127876281738281250
0.4055296250342053099302574992179870605468750000000000000
-0.4497660754277603700757026672363281250000000000000000000
-0.2509502814312092322523994880612008273601531982421875000
-0.3471497241048464021950792357529280707240104675292968750
-0.3263320056792874401807580397871788591146469116210937500
0.5485317536952506456415790125902276486158370971679687500
0.1181490812031576187468573380101588554680347442626953125
-0.3216359508260875910146125988831045106053352355957031250
0.5498889170631793277266297081951051950454711914062500000
0.2660227254007543340463826098130084574222564697265625000
-0.1762540493657137052885275352309690788388252258300781250
-0.4519868818419490730242671361338580027222633361816406250
-0.6116270204443772229296882869675755500793457031250000000
-0.4183744828228530554525832485524006187915802001953125000
0.3746592288425044658950469056435395032167434692382812500
0.0180714428228425615097219036897513433359563350677490234
0.3036899119986272710391972395882476121187210083007812500
-0.1267958070052297991914258545875782147049903869628906250
-0.4557826070968278853179356246982933953404426574707031250
-0.3678484983138719521811310642078751698136329650878906250
0.1295012561552761343186546127981273457407951354980468750
-0.1432522863689278391774450938100926578044891357421875000
-0.1504452185092120808374005491714342497289180755615234375
0.1174144892233600495634604499173292424529790878295898438
-0.0734615704231257049539038916918798349797725677490234375
0.0972251962713742562405272451542259659618139266967773438
-0.0290382526959158948631767316328478045761585235595703125
0.0944735997013682604617201832297723740339279174804687500
-0.2693967011728384264301894290838390588760375976562500000
-0.1508703418617677316504455120593775063753128051757812500
-0.0064131601603393548552412006813483458245173096656799316
-0.1192476508057518508332250917192141059786081314086914062
-0.3464536867311598378194048564182594418525695800781250000
-0.2930856556397259393698107032832922413945198059082031250
-0.1545601260791094888613628199891536496579647064208984375
-0.0841045456850564449036156133843178395181894302368164062
-0.1394064516549361754105262889424921013414859771728515625
0.3180074437034507983668163433321751654148101806640625000
0.0518899790161866658610989588851225562393665313720703125
-0.4019061304032732206970024435577215626835823059082031250
-0.5066436348515903631550827412866055965423583984375000000
-0.0407926083166649314226681610762170748785138130187988281
-0.2611850109788017015866046222072327509522438049316406250
0.2506512990912136973342683177179424092173576354980468750
-0.5225323582713538028698962989437859505414962768554687500
-0.5158475723655165934289357210218440741300582885742187500
-0.2166822758180068364541881464901962317526340484619140625
-0.3189769258322773803904226497252238914370536804199218750
-0.3673038035543942370075853887101402506232261657714843750
0.0601603897757592709361063043616013601422309875488281250
-0.0266032383334918395845214433848013868555426597595214844
0.4750322189166345521194045886659296229481697082519531250
-0.2389367806273908767522584639664273709058761596679687500
0.3651933752202564109623494914558250457048416137695312500
0.0247473229464762779772346590334564098156988620758056641
0.3750802823868366053794431991263991221785545349121093750
-0.4648294346249394748404881738679250702261924743652343750
-0.1887085430197266711083159407280618324875831604003906250
-0.0654956923913300459449970958303310908377170562744140625
-0.3966406287702731736644068405439611524343490600585937500
-0.3271384012642031269280096239526756107807159423828125000
-0.4022807850237783977576100369333289563655853271484375000
-0.0540686012250093037123654937659011920914053916931152344
0.2895814490769628157806891977088525891304016113281250000
-0.3402677150711503339941543799795908853411674499511718750
-0.2959323631845526270112145539314951747655868530273437500
-0.4131666843426622937052172801486449316143989562988281250
-0.0122730594261599712524457572726532816886901855468750000
-0.3783293383855280689331834764743689447641372680664062500
0.4579034095680228344527051831391872838139533996582031250
0.2193328468668014064046900557514163665473461151123046875
-0.1972289159558599236365949991522938944399356842041015625
0.2494157374051073350340601564312237314879894256591796875
0.0367675609673543471456191866764129372313618659973144531
0.2414552138087477650696399678054149262607097625732421875
-0.1170874431663315590190777015777712222188711166381835938
0.0232588855594484909816710427321595489047467708587646484
0.3259291541428024907567362333793425932526588439941406250
0.0169075717746531642426965902359370375052094459533691406
0.1389605345320604479208981274496181868016719818115234375
-0.4800002442404135982734203480504220351576805114746093750
0.1202005657050843889788183105338248424232006072998046875
-0.1366476989505363281995897750675794668495655059814453125
0.0584726875149720812241405099030089331790804862976074219
-0.1815747777449230604407404143785242922604084014892578125
-0.1523696695645674614727482776288525201380252838134765625
-0.1770797808247436821993403555097756907343864440917968750
0.2135235457076218312799653631373075768351554870605468750
0.0507058334391371212657162459436221979558467864990234375
-0.5401032947801038819335417429101653397083282470703125000
0.1687814442676230375361967617209302261471748352050781250
-0.1449373477684246791508115848046145401895046234130859375
-0.5476736887106787854406775295501574873924255371093750000
-0.4107945710301439401490597447264008224010467529296875000
0.1060403301929465635922156252490822225809097290039062500
-0.3482008144020406481544682719686534255743026733398437500
0.0990748877906223873734958829118113499134778976440429688
0.0886666586906365850051514598817448131740093231201171875
0.4101945377460378128198215108568547293543815612792968750
0.5140390781029758882070268555253278464078903198242187500
0.3171411636699837943709212595422286540269851684570312500
0.5046095897868643209704941909876652061939239501953125000
0.5673261681142740542327373987063765525817871093750000000
-0.2801799173218131322471435851184651255607604980468750000
-0.3336433974021407178334186482970835641026496887207031250
-0.3853853048179479712231909616093616932630538940429687500
-0.2861028991070813098929193074582144618034362792968750000
0.2221568652431955837034394107831758446991443634033203125
0.4382361398004345764967126797273522242903709411621093750
0.0856851143361283817956319808217813260853290557861328125
0.4385671033800568330285329921025549992918968200683593750
0.0608828562290949573676535067079385044053196907043457031
0.0245131450204983530882785203175444621592760086059570312
-0.4264399672715187272764580939110601320862770080566406250
-0.2224674014857078441220750164575292728841304779052734375
0.2105771829943724193778820108491345308721065521240234375
0.1302015270042138905814965710305841639637947082519531250
0.1602630435672780240263790574317681603133678436279296875
0.3278718155836987113715963459981139749288558959960937500
-0.3358119845235702505270580786600476130843162536621093750
0.6638817173539725002839873013726901262998580932617187500
-0.1414666843211869473595498902795952744781970977783203125
0.3043359155588671316472471062297699972987174987792968750
-0.4527002751690578086218863518297439441084861755371093750
0.3452942134156569697900351911812322214245796203613281250
0.1187473252671018691950521883882174734026193618774414062
-0.0066582697781875244819049797229126852471381425857543945
