nn
1,10,10,10,10,10,1
dIn
0
dIntern
,
dOut
,
normP
1.9500000000000075
normY
1.0
w
-0.5593530414521581395348448495496995747089385986328125000
-0.5693840906782899891069860132120084017515182495117187500
0.9226138797986696005182238877750933170318603515625000000
0.6978205490081993422890604961139615625143051147460937500
0.6614213534361457202948031408595852553844451904296875000
1.4624196826440478691466751115513034164905548095703125000
0.0717299269643193182499629756421199999749660491943359375
-1.4145776637205442760603091301163658499717712402343750000
0.1724249521098530635310197567378054372966289520263671875
-0.1064522471354620580807903706954675726592540740966796875
-0.8348826548401933056453572135069407522678375244140625000
-0.2744642400609396126753836142597720026969909667968750000
0.0688793007522316563795428123739839065819978713989257812
-0.0468078358735987826166891068169206846505403518676757812
-0.3904538838255707244861980598216177895665168762207031250
-0.2439421855765669944204887542582582682371139526367187500
-0.1286772124050726273658540321775944903492927551269531250
0.2011231167417480425463338633562671020627021789550781250
-0.5682752724085904372230970693635754287242889404296875000
0.5410580725372992061394938900775741785764694213867187500
-0.2482648552175718281720406821477808989584445953369140625
0.5066478778410963279554835025919601321220397949218750000
-0.1755880795658633641842527595144929364323616027832031250
-0.2895577009872351004204915625450666993856430053710937500
-0.4388431037994704464466622084728442132472991943359375000
0.7200420495328516690136666511534713208675384521484375000
-0.0787885563450261700024768174444034229964017868041992188
-0.5491667375088565838936460750119294971227645874023437500
0.4400753524960169804636223034322028979659080505371093750
-0.1498510524398659338185524347863974981009960174560546875
0.0121204874376030884153276900860873865894973278045654297
0.3819438108397276709915502124204067513346672058105468750
-0.3057909374442698280383012843230972066521644592285156250
-0.4724648546050804753804186475463211536407470703125000000
-0.4713746659044746323274921451229602098464965820312500000
0.2450640362558172968832082005974370986223220825195312500
0.4660889519244645340378951914317440241575241088867187500
0.0250586472462594397891955111390416277572512626647949219
-0.1124064948463289886904092895747453439980745315551757812
-0.2991761371786708645359453839773777872323989868164062500
0.8007256940648924681269704706210177391767501831054687500
-0.1402761217753218936366010893834754824638366699218750000
-0.2715733401496707166700161906192079186439514160156250000
0.0110450097436310436249673472275389940477907657623291016
0.2302684085803654578938903796370141208171844482421875000
-0.4806645906389803157843232384038856253027915954589843750
-0.9548114648387509006965956359636038541793823242187500000
-0.1787788516192072851840322300631669349968433380126953125
-0.2427109619940956697359268900981987826526165008544921875
0.5053151017542459877418536962068174034357070922851562500
0.0487986477469677867868647069826693041250109672546386719
-0.0330436353417599554260775107650260906666517257690429688
0.2082171339778118579477705907265772111713886260986328125
-0.3263560930245553159956273248099023476243019104003906250
0.7509562236248390476589520403649657964706420898437500000
-0.3441278823783571194638852830394171178340911865234375000
-0.0991619817194939329185743304151401389390230178833007812
-0.1814167739246387855978071002027718350291252136230468750
0.0846483657944548384399752194440225139260292053222656250
0.5683113826184954531228754603944253176450729370117187500
0.1452487003529437936677481957303825765848159790039062500
0.0660601125797196236932862234425556380301713943481445312
0.4671434169032076533234487669687950983643531799316406250
-0.1247586964537310133538383638551749754697084426879882812
-0.0274045534158471465469020245109277311712503433227539062
0.1271384585548620271833186734511400572955608367919921875
-0.5801527119144128663563719783269334584474563598632812500
-0.1359377100758917544798265453209751285612583160400390625
-0.6672174002109011459182852377125527709722518920898437500
-0.0586782670611893375500756064866436645388603210449218750
0.8223427537379934815220394739299081265926361083984375000
0.1588536794802037355189838763180887326598167419433593750
-0.0279940975300680787440921193365284125320613384246826172
-0.1389744149245668858316804517016862519085407257080078125
0.7745799107490544122001097093743737787008285522460937500
0.3678417521285797242569515219656750559806823730468750000
-0.8674205225012727726863204225082881748676300048828125000
-0.1936929340384196673863215210076305083930492401123046875
-0.7951961504659788015914045899990014731884002685546875000
0.2807943487327586584711980322026647627353668212890625000
-0.2796267635587738054070428006525617092847824096679687500
0.0187471339143048011666170538092046626843512058258056641
-0.1337983177187573868849312930251471698284149169921875000
-0.1934268457634648885612449475956964306533336639404296875
0.3560334992425231437351840213523246347904205322265625000
-0.1215972638540156469666442262678174301981925964355468750
-0.1963681871556428870650989892965299077332019805908203125
0.3133895812334122066289410213357768952846527099609375000
0.4535552969136598666644033528427826240658760070800781250
0.2982055404749704985434277659805957227945327758789062500
-0.5369384930890159779437453835271298885345458984375000000
0.0659261997770116403572160379553679376840591430664062500
-0.0333768262524739497965065027074160752817988395690917969
0.0976856844749256075788323983033478725701570510864257812
-0.7509501208689417506292329562711529433727264404296875000
0.1832421197644339971866145333478925749659538269042968750
1.1137007552344098115781889646314084529876708984375000000
0.3990843317863070893736221478320658206939697265625000000
0.5275611840138889618856410379521548748016357421875000000
-0.3302151381269284868835711677093058824539184570312500000
0.2620561920121176058273704256862401962280273437500000000
0.2967121802193288804261328550637699663639068603515625000
0.0937139296791489745386272147698036860674619674682617188
0.3651410161139886367820395207672845572233200073242187500
0.2554993599648368585164348587568383663892745971679687500
0.5671538835378434617595644340326543897390365600585937500
-0.3416631537456442102573817010124912485480308532714843750
-0.4480475085720699301994329744047718122601509094238281250
-0.3779521449557433632193692574219312518835067749023437500
0.0547807173652650608586256453236273955553770065307617188
0.2659751347922563735615142377355368807911872863769531250
-0.0392059650760124417390173334752034861594438552856445312
-0.5360619736927301204332252382300794124603271484375000000
0.5262491795466009980586363781185355037450790405273437500
-0.5910886392862290117378165632544551044702529907226562500
-0.1339480968767431667831857566852704621851444244384765625
-0.3629538680626240298998652633599704131484031677246093750
-0.2574315836709536453597024774353485554456710815429687500
0.1244600592487092038940232896493398584425449371337890625
-0.0773953248992453463062091145729937124997377395629882812
-0.2492665668200324535774825562839396297931671142578125000
-0.5134838050170362766522202946362085640430450439453125000
-0.4026740604518909694142791977355955168604850769042968750
0.4698062870243537303416303529957076534628868103027343750
0.0314100246651917713869295312179019674658775329589843750
-0.8048757987131283098136691478430293500423431396484375000
0.0512237278346895016922779575452295830473303794860839844
-0.1711810314605846372604247562776436097919940948486328125
0.1952959928778212339572917244367999956011772155761718750
-0.3840164055784288654749047964287456125020980834960937500
-0.5053347590371832787070616177516058087348937988281250000
0.1453780777746439545339285359659697860479354858398437500
-0.1030459661319496761366920623004261869937181472778320312
-0.0582683539945499234802284149736806284636259078979492188
-0.1490698153936218239845601374327088706195354461669921875
0.4763370620874567973324076319840969517827033996582031250
0.9176379070480555899536057040677405893802642822265625000
0.4414992760841412455796728409040952101349830627441406250
0.1645887800569669767725144993164576590061187744140625000
0.5485348142627018974692987285379786044359207153320312500
0.3147203517997130828298679716681363061070442199707031250
-0.1697071706814058666967781618950539268553256988525390625
-0.6704399537186463975402261894487310200929641723632812500
-0.5715063256195095364731173503969330340623855590820312500
0.5692327829041670117504736481350846588611602783203125000
0.0372390001648648730214752333722572075203061103820800781
-0.3109796073608916966435344875208102166652679443359375000
-0.1809855770677114561451048757589887827634811401367187500
-0.2193601919930713850526160513254581019282341003417968750
-0.0624197717827124631817525823862524703145027160644531250
-0.1164100350368081349117233003198634833097457885742187500
-0.3059093692763378280474739767669234424829483032226562500
0.1053586082435948034774497727994457818567752838134765625
-0.0791320088045778247121120330120902508497238159179687500
-0.1408860382715287073995824584926594980061054229736328125
0.3737095644164602492587334836571244522929191589355468750
0.1442327242517245367015021884071757085621356964111328125
0.3882292374749042318526903727615717798471450805664062500
-0.2836677464648511559630605916026979684829711914062500000
0.3643925947639906626207562112540472298860549926757812500
0.0162238395556928323426593152589703095145523548126220703
0.5740589120198099637448763132852036505937576293945312500
0.1550319206948780337285143104963935911655426025390625000
0.0936163717060114752843702490281430073082447052001953125
0.2472131127572416986470926758556743152439594268798828125
0.3110186669933619474370800617180066183209419250488281250
0.5509027626026339330422842976986430585384368896484375000
-0.3844909562440089190182845868548611178994178771972656250
-0.1099042051818584636579956281821068841964006423950195312
-0.6111090539187123971132109545578714460134506225585937500
-0.4680160529339107977619960365700535476207733154296875000
0.0806511615284870586606302822474390268325805664062500000
0.3838854058351474640709000141214346513152122497558593750
-0.0523327179090819216700225524618872441351413726806640625
-0.4476464762534235197755094759486382827162742614746093750
0.2305456423072504423821271757333306595683097839355468750
0.9914662872886670363925532001303508877754211425781250000
0.5557874011022443383467361854854971170425415039062500000
0.0030221931168295801395373700870550237596035003662109375
0.4183654943880135146372367671574465930461883544921875000
-0.1413300354384538215501976310406462289392948150634765625
-0.1683610119316983899651063438795972615480422973632812500
-0.4786825651699919137449512618331937119364738464355468750
-0.7490290599438871321780197831685654819011688232421875000
-0.2900385645788502442243839141156058758497238159179687500
0.3164977279892323136500920099933864548802375793457031250
-0.3781640595424833328763725148746743798255920410156250000
-0.1936896984324459336512802565266611054539680480957031250
-0.8730138976363059910568154009524732828140258789062500000
-0.3328986061305092558626483878470025956630706787109375000
0.1396549170466206413188103852007770910859107971191406250
0.0993277908385851310280045822764805052429437637329101562
-0.4299449751565341260040042925538728013634681701660156250
-0.0810192739062224331902939411520492285490036010742187500
0.8113129953711740727229084768623579293489456176757812500
-0.4713395610220605935758442228689091280102729797363281250
-1.0181075527742144970488880062475800514221191406250000000
-1.1334016314405110925633834995096549391746520996093750000
0.3480741462591495083422898915159748867154121398925781250
-0.5386071326131754988253419469401706010103225708007812500
-0.1614048479326833651636974309440120123326778411865234375
0.3482712632894820470319530159031273797154426574707031250
0.4735222175751162554391271442000288516283035278320312500
0.4276195335634575545036284438538132235407829284667968750
0.3073475838105400592681348825863096863031387329101562500
0.2945193031803326477735538446722785010933876037597656250
-0.1733258587393587124569904744930681772530078887939453125
-0.3458863165615924106788270364631898701190948486328125000
-0.3064728691455343434490998788533033803105354309082031250
-0.2889197062335439047942031720594968646764755249023437500
0.6188483034980751806841681172954849898815155029296875000
-0.0349361203275049825300868633348727598786354064941406250
0.5535957532937437752806886237522121518850326538085937500
0.0345123002715063340040124728602677350863814353942871094
0.5509031700625661720494008477544412016868591308593750000
-0.5458136186581792337335627962602302432060241699218750000
-0.4301962601679486519756778761802706867456436157226562500
-0.5488807946231133438885763098369352519512176513671875000
-0.0369902977930278015206155828309420030564069747924804688
-0.4873952245414155393099520097166532650589942932128906250
-0.4536980525973412503581982946343487128615379333496093750
-0.4308437401947401435009510350937489420175552368164062500
-0.0944873448611136396158016736990248318761587142944335938
0.2394796483673822251603269251063466072082519531250000000
-0.3533505658933868143201095790573162958025932312011718750
-0.3073737963361643510395992962003219872713088989257812500
0.6733239464462039691738937108311802148818969726562500000
0.7344408585002167866306876931048464030027389526367187500
-0.1140040628293583629959684344612469431012868881225585938
0.1471459714007484487208188284057541750371456146240234375
-0.1557751882556649425382033768983092159032821655273437500
0.1031287847235413807078785453086311463266611099243164062
0.7278216545207629728508891275851055979728698730468750000
0.6648758995805860161354416959511581808328628540039062500
-0.3989162927618465359635990807873895391821861267089843750
0.2981083915893835700750003070425009354948997497558593750
0.0482282650089995990061453312591766007244586944580078125
-0.5584140003753965686428273329511284828186035156250000000
0.2140549178484004166911347510904306545853614807128906250
-0.1541331051882645075679079127439763396978378295898437500
0.1589833141222342649534482461604056879878044128417968750
-0.0633532189448443444623748632693605031818151473999023438
0.3052603945116121875180681399797322228550910949707031250
0.2441131593426476009689451984741026535630226135253906250
0.6436062461725262640044320505694486200809478759765625000
-0.3827216623441292986385064978094305843114852905273437500
-0.4955336226584283187968082984298234805464744567871093750
-0.4133006698927679245514354988699778914451599121093750000
-0.0716654204079230777724163203856733161956071853637695312
0.6135824516359547065036394997150637209415435791015625000
-0.2070052704398467890989365969289792701601982116699218750
-0.1417162765665529178260584330928395502269268035888671875
0.1372094719185767974778400457580573856830596923828125000
-0.4868401610299493142974824877455830574035644531250000000
0.0432462986131206122975001449049159418791532516479492188
0.0089403674545591119843246374898626527283340692520141602
0.1394861725771586458133555197491659782826900482177734375
0.1405893836370113725298125473273103125393390655517578125
-0.5031524895391538132471964672731701284646987915039062500
0.3528616469834103264169300473440671339631080627441406250
-0.3291302009318127219650307324627647176384925842285156250
-0.2821354369506516301946419389423681423068046569824218750
0.3415950431181757340759475027880398556590080261230468750
-0.6147382856228915670726564712822437286376953125000000000
-0.6171065683489224129587569223076570779085159301757812500
-0.4113599282119230204912696535757277160882949829101562500
-0.6237541209859696067496770410798490047454833984375000000
0.1633735927611412175330940499407006427645683288574218750
-0.4937690620153655784996260535990586504340171813964843750
-0.3226855828971914030844914123008493334054946899414062500
-0.3595270355777895887605666302988538518548011779785156250
0.1842179295307326825081872812006622552871704101562500000
0.4256369140388592819945756673405412584543228149414062500
0.5071588231246256794904070375196170061826705932617187500
-0.1851784154774165358503523748368024826049804687500000000
0.2234334495526204555915228411322459578514099121093750000
-0.1155450133861917749733549953816691413521766662597656250
0.0664112406264380228382293580580153502523899078369140625
-0.7650819005128474126209425776323769241571426391601562500
0.4101809431294241026222380241961218416690826416015625000
0.4836854458055850902731265250622527673840522766113281250
-0.2084048723659802371255267416927381418645381927490234375
0.2337438766101036513589406240498647093772888183593750000
-0.2816889965026337372400178082898491993546485900878906250
0.5042209777340433962677934687235392630100250244140625000
-0.4368897943488968538261474350292701274156570434570312500
-0.4022476631594189555585217021871358156204223632812500000
0.3400546036370360458711559203948127105832099914550781250
-0.1872040298827579163365442127542337402701377868652343750
0.4361544985019111253521373328112531453371047973632812500
-0.0080302899293827074284068956444571085739880800247192383
-0.2576451978884299887084807778592221438884735107421875000
0.0854243916417731508072819224253180436789989471435546875
-0.4473150279414493946106290422903839498758316040039062500
-0.3876295918837445175775258121575461700558662414550781250
0.3873546839954603027145196847413899376988410949707031250
0.5903081745379982203658641992660705000162124633789062500
-0.4406183686179832026397207300760783255100250244140625000
-0.0662528833051059529157811311961268074810504913330078125
-0.2773786670780374330469442156754666939377784729003906250
-0.7050795198871145919028435855580028146505355834960937500
0.2395483829818772503195134504494490101933479309082031250
0.2179319394948760479913119070261018350720405578613281250
0.3538285175559422457425284846976865082979202270507812500
-1.2815559965477192339022849409957416355609893798828125000
0.0627207281961820461990697594956145621836185455322265625
0.2686332741656922151740616300230612978339195251464843750
-0.1341454264113821348569643987502786330878734588623046875
-0.1035626127064922102904986900284711737185716629028320312
-0.4996670295311952392225407493242528289556503295898437500
-0.0763107163683800354680997202194703277200460433959960938
-0.6405687986673982425855911060352809727191925048828125000
0.1420048653977635522149824964799336157739162445068359375
-0.8118611221400954258697879595274571329355239868164062500
-0.9341671026595596005748234347265679389238357543945312500
1.0599941090750701899736441191635094583034515380859375000
0.5611030974376661761837681297038216143846511840820312500
-0.2054188562161557152219160116146667860448360443115234375
-0.0447269815190508360225329909098945790901780128479003906
-0.4424677483416332712806706695118919014930725097656250000
0.3668026992989877332895787276356713846325874328613281250
-0.1759779746605361905320563664645305834710597991943359375
0.3845806350172648602203651080344570800662040710449218750
0.4246320306971911318072443464188836514949798583984375000
-0.7031295217653545925884372991276904940605163574218750000
0.1535489681494424107910390375764109194278717041015625000
0.4572108927992621918434679173515178263187408447265625000
-0.5272822703259836263356419294723309576511383056640625000
-0.3188002719894633130159888878552010282874107360839843750
-0.0122414102594166213089366124222578946501016616821289062
-0.2410090396668541357083626053281477652490139007568359375
-0.5336204603978423888221982451796066015958786010742187500
-0.0812675338232400346072381580597721040248870849609375000
-0.2940435092724043575351799972850130870938301086425781250
-0.6149512403793274684105085725605022162199020385742187500
0.1754096608924707034748990963635151274502277374267578125
0.4777930865188265152632141052890801802277565002441406250
0.0746364347339719680363145926094148308038711547851562500
0.3498976420149807475823422464600298553705215454101562500
-0.6165412266460774670662203789106570184230804443359375000
0.1060654196696824425050209583787363953888416290283203125
-0.0313576201458374420605323962263355497270822525024414062
0.3066315699671183225838433372700819745659828186035156250
-0.0193617789267334639013995456480188295245170593261718750
-0.1470420165399366485559085049317218363285064697265625000
-0.0565375856629515005646879899359191767871379852294921875
0.1139088450134497915167131054658966604620218276977539062
0.2809077209946107545057714105496415868401527404785156250
-0.1259280860634690302202187695002066902816295623779296875
0.3039688714951583325962758408422814682126045227050781250
0.3291280784964414896087703255034284666180610656738281250
-0.4383785557257702247824227015371434390544891357421875000
-0.5355970970977560474679535218456294387578964233398437500
-0.1407540153631759993757555093907285481691360473632812500
0.3014983610349531439887016404099995270371437072753906250
0.3770016765959840476796216535149142146110534667968750000
0.1220023271925591568098923289653612300753593444824218750
0.3909673180819959181775402612402103841304779052734375000
-0.3596251315619190536132521174295106902718544006347656250
-0.0168481245882724089968363045954902190715074539184570312
-0.1349543504166558771650841208611382171511650085449218750
0.4380867202159166584607419281383045017719268798828125000
-0.5998755012783125728503819118486717343330383300781250000
0.4625865392470838721727943720907205715775489807128906250
0.1010008911758931565705310617886425461620092391967773438
-0.3113927313335505542291059555282117798924446105957031250
-0.3737308600523874257959278111229650676250457763671875000
0.2927925702550158715276040766184451058506965637207031250
0.2966093745833937589395645773038268089294433593750000000
0.4653339529123807771782139752758666872978210449218750000
0.5500267327482204482436145553947426378726959228515625000
0.1421701736288384643192017620094702579081058502197265625
0.1542963068310629348722784470737678930163383483886718750
0.2363645265973444986595808359197690151631832122802734375
0.2022829387002918477556079324131133034825325012207031250
-0.0894767198111696832052430750081839505583047866821289062
-0.3248516781723351787292131120921112596988677978515625000
-0.3735292782598857996845254092477262020111083984375000000
0.3357253912258791883616027007519733160734176635742187500
-0.0292965747163115297624358390748966485261917114257812500
-0.4758587728446768694290369694499531760811805725097656250
0.3302026841377740939975637957104481756687164306640625000
-0.1937970269200000039688802644377574324607849121093750000
-0.4109367299987716770637291574530536308884620666503906250
0.5519386614490368048180357618548441678285598754882812500
-0.4710128507113280904583518804429331794381141662597656250
-0.1460033932196489470101141705526970326900482177734375000
0.3659342526616300994568575788434827700257301330566406250
0.5532620438156784503647145356808323413133621215820312500
0.7291761169588972801847148730303160846233367919921875000
-0.1931005426476169462013388056220719590783119201660156250
0.2662338342831278015232499001285759732127189636230468750
-1.2687442565066953115149317454779520630836486816406250000
-0.3783384603668665802089776661887299269437789916992187500
0.5789258850762790675759106306941248476505279541015625000
-0.5116953747404939800702550201094709336757659912109375000
0.5273279890027983141109757525555323809385299682617187500
0.3074885084946539781647345535020576789975166320800781250
-0.3707986953284716502565743212471716105937957763671875000
0.2531673501392516789643138963583623990416526794433593750
-0.3809035788054780380385011540056439116597175598144531250
-0.0327223112325771073316538206654513487592339515686035156
0.0386725933995057252756666343884717207401990890502929688
-0.6915235289190755363364360164268873631954193115234375000
0.0407411839732885611153889726665511261671781539916992188
0.0004267041087768676937974632323857804294675588607788086
0.6260726666615903379664587191655300557613372802734375000
-0.5636989173575498446311371480987872928380966186523437500
0.3436187957731742792510942763328785076737403869628906250
0.1294224178023924698432978175333118997514247894287109375
-0.2154665527749609899021976389121846295893192291259765625
-0.1344746292523790742734490777365863323211669921875000000
0.0739301712722239406927471350172709207981824874877929688
-0.3922697077542066645960971982276532799005508422851562500
0.2915706505609843013360205077333375811576843261718750000
0.0039665050592795035588888907795990235172212123870849609
0.7835934576926758543535811440960969775915145874023437500
-0.3507042869395896045325855538976611569523811340332031250
0.2273358270515375978426675374066689983010292053222656250
0.5185424773528359843055568489944562315940856933593750000
-0.3938375402530503999187772024015430361032485961914062500
0.0948669707631731584651646471684216521680355072021484375
-0.4546178331771367209235279460699530318379402160644531250
0.3236166453257952047017909080750541761517524719238281250
0.0502864624914170083025410917798581067472696304321289062
-0.0283025886627777459314536656620475696399807929992675781
-0.2215248278097286527277276491076918318867683410644531250
0.1652795065104063210181806198306730948388576507568359375
-0.3877192954309675032575910336163360625505447387695312500
0.0379116082621269862018564822392363566905260086059570312
-0.3891720921477118677600515184167306870222091674804687500
-0.2851265066384779944819172214920399710536003112792968750
-0.4520740873882425070462431904161348938941955566406250000
-0.1752064336069250327643231912588817067444324493408203125
-0.3578999728802240709590876122092595323920249938964843750
-0.0143102025959448587305589128959582012612372636795043945
-0.3455837915844827690214913218369474634528160095214843750
-0.4388382663379712944617949688108637928962707519531250000
-0.3788622804280907807594758196501061320304870605468750000
-0.3121491861969882819494159775786101818084716796875000000
-0.4754472913186303384414088668563636019825935363769531250
0.4341081439342033276851395839912584051489830017089843750
-0.7846330006092713249543635356531012803316116333007812500
0.4465773747172901986246529304480645805597305297851562500
0.0578984477275682474228801766003016382455825805664062500
0.2711038824415206160978186744614504277706146240234375000
-0.7395922256546962891832208697451278567314147949218750000
0.6149620903652531778149636920716147869825363159179687500
0.3854159402878625240163046328234486281871795654296875000
0.1210146383034125805444602974603185430169105529785156250
-0.0346595653799660480265387718645797576755285263061523438
0.0688169248513690184898550228353997226804494857788085938
0.1786365319375562143999758291101898066699504852294921875
-0.1141955723434655567416484700515866279602050781250000000
-0.4408316568075339447752014621073612943291664123535156250
0.2991629733495573262302968942094594240188598632812500000
-0.2107413816375770521105437182995956391096115112304687500
-0.0743932874138816674358665181898686569184064865112304688
0.3674130653791278233732953140133759006857872009277343750
-0.4468817502427261945108227791934041306376457214355468750
-0.8946001600915296503302442943095229566097259521484375000
0.2080358284495865683894066933135036379098892211914062500
0.8407248807388814082486305778729729354381561279296875000
-0.5995766817360781431034411070868372917175292968750000000
0.9049221106302979267255182094231713563203811645507812500
-0.7874651051246296384888978536764625459909439086914062500
0.7395950836149660645446601847652345895767211914062500000
0.5986927077173365141504746134160086512565612792968750000
0.4875152415859344001702879722870420664548873901367187500
0.9695341051166816992434860367211513221263885498046875000
0.2114388988240077649205517218433669768273830413818359375
