nn
1,10,10,10,10,10,1
dIn
0
dIntern
,
dOut
,
normP
1.9500000000000075
normY
1.0031748131023417
w
0.9691729167374911746435373061103746294975280761718750000
0.4541101369563271261675652112899115309119224548339843750
-0.4247088108176016452155465685791568830609321594238281250
0.8570213510842109583265369110449682921171188354492187500
0.5908568860210290374368469201726838946342468261718750000
-0.0468137404810950938371938434556795982643961906433105469
-0.5049317473002417067107217008015140891075134277343750000
-0.1870453572654393048502186047699069604277610778808593750
0.7560060567130378883504704390361439436674118041992187500
-0.7383509958558112096227432630257681012153625488281250000
0.1145173117066186768697733100452751386910676956176757812
0.4529872648476155339025694956944789737462997436523437500
0.2965540863012455785607812686066608875989913940429687500
0.5614306908809059137865915545262396335601806640625000000
0.0175020385085778579226101214771915692836046218872070312
-0.1446193841197314366997517254276317544281482696533203125
-0.0131816727907094963234690965236950432881712913513183594
0.1551562551498016362394594125362345948815345764160156250
0.1132115103948159173796739196404814720153808593750000000
-0.1926663169844300138588977233666810207068920135498046875
0.1808631355897806491928037075922475196421146392822265625
0.4187920072018836981087019921687897294759750366210937500
-0.7433125044548851700909608553047291934490203857421875000
-0.3146550707574791716503170846408465877175331115722656250
0.2131997353194061972647688207871397025883197784423828125
0.4924067006030016790951719940494513139128684997558593750
0.5985662983671824477482914517167955636978149414062500000
-0.2844497193884389929507960914634168148040771484375000000
-0.1182016877723103542852101099924766458570957183837890625
-0.3684148667271009980339613321120850741863250732421875000
0.0440490460780801965090525129653542535379528999328613281
-0.4260227885651006740630464264540933072566986083984375000
-0.6586939504179727400412502902327105402946472167968750000
0.2187975616793347288790982929640449583530426025390625000
-0.5218822726476365359005171740136574953794479370117187500
-0.1349038042609896626000676178591675125062465667724609375
0.2256702839076214495150907168863341212272644042968750000
-0.1201803448800645574001677573505730833858251571655273438
0.3306088916973701774537630626582540571689605712890625000
-0.5724784722429894223694191168760880827903747558593750000
-0.4813208879046440014093377612880431115627288818359375000
-0.0847177588230731692942043764560366980731487274169921875
0.3097751236226142235175018413428915664553642272949218750
-0.3786005568207347349307667627726914361119270324707031250
-0.2076235501534113847554863241384737193584442138671875000
0.0402995945260307547597378174941695760935544967651367188
-0.2448107575304027394569317266359576024115085601806640625
-0.3898650255572223000122278335766168311238288879394531250
0.3421592145689755226634076734626432880759239196777343750
0.3749577451631671554110880606458522379398345947265625000
0.0453505488529586248125369252193195279687643051147460938
-0.1836216533584717480742654061032226309180259704589843750
0.0734569199271175587995230671367608010768890380859375000
-0.3479001971401671777783803918282501399517059326171875000
-0.6520848531418801385939332249108701944351196289062500000
-0.4047344577764657724827657148125581443309783935546875000
0.8835291302135845903364952391711995005607604980468750000
0.2056491138888414949015270849486114457249641418457031250
0.0059306557249686787935960552431424730457365512847900391
-0.4125269919534269025263029107009060680866241455078125000
0.0730765966435449332294638224993832409381866455078125000
0.3959742850682879677925996020348975434899330139160156250
-0.4054385836926724939743849063233938068151473999023437500
-0.0239762759807671532730211083617177791893482208251953125
0.0592977164934551451147548561948497081175446510314941406
-0.4117240865209250699763288139365613460540771484375000000
0.5585201541184821039109920093324035406112670898437500000
-0.0172815058868085978660555923624997376464307308197021484
-0.2389902697758963801000220428250031545758247375488281250
-0.2225327056216744592287426485199830494821071624755859375
-0.0107087046393159555229823709510128537658601999282836914
-0.2057206917495865705625135433365358039736747741699218750
0.3161540382427283635280446105753071606159210205078125000
0.2292319487860963733716346268920460715889930725097656250
-0.0610061140785616157211634913437592331320047378540039062
0.0955200990933397220405964844758273102343082427978515625
0.1511524957067015284550848264188971370458602905273437500
0.1231532090001316859240176881939987652003765106201171875
-0.0490783034445068724882510480256314622238278388977050781
0.0759681544753254694990474149562942329794168472290039062
-0.0598480167918153949102588740061037242412567138671875000
0.0914313807649677207090022079682967159897089004516601562
0.0781072944131097485209735964417632203549146652221679688
0.3630211254356389138919780634751077741384506225585937500
0.1193303783102697829265892437433649320155382156372070312
0.4210926719158535891374128823372302576899528503417968750
-0.5732921013300147361491099218255840241909027099609375000
0.1152063098156812792627334829376195557415485382080078125
0.4531847194164020375950485686189495027065277099609375000
0.1171294520644247660889902817871188744902610778808593750
0.1533862105815640419770318203518399968743324279785156250
-0.2873430265189133581138491990714101120829582214355468750
0.1781392477683703123858549588476307690143585205078125000
-0.4946635121870740503524643827404361218214035034179687500
0.0294096436391310736557791472023382084444165229797363281
-0.3909491990854651599640590120543492957949638366699218750
-0.1247811787511776404624441738633322529494762420654296875
0.4421488366182567131268399407417746260762214660644531250
-0.0367915494799021663974158968812844250351190567016601562
0.3249665399103552898552038641355466097593307495117187500
0.0738781415484415920902350194410246331244707107543945312
0.4993392456137611401523201948293717578053474426269531250
-0.6295142733764003128982267298852093517780303955078125000
0.3466632486495493381539745314512401819229125976562500000
-0.1374682070977476799900074411198147572576999664306640625
0.4341503629608612357948516091710189357399940490722656250
0.6057238546524438271845269810000900179147720336914062500
-0.4552748052536346734520122936373809352517127990722656250
0.0429358543383976457019635120104794623330235481262207031
-0.5264494541885832434857661610294599086046218872070312500
-0.2883229132079481726869119029288413003087043762207031250
0.0669842830172933667576273819577181711792945861816406250
0.5553133822203086822355544427409768104553222656250000000
0.5982455713556433796185274331946857273578643798828125000
0.6243674561988291626946079304616432636976242065429687500
-0.4152757788551105777585803480178583413362503051757812500
-0.0480481112184376335516589051621849648654460906982421875
0.3263955987733924146709796332288533449172973632812500000
0.2482212087853478965637776809671777300536632537841796875
-0.0239255340746559463926956823343061842024326324462890625
0.2856913075043418515086557363247266039252281188964843750
0.2810683773426949638718497226363979279994964599609375000
-0.3060087622755054970191679331037448719143867492675781250
-0.0134084232709471232874998136708200036082416772842407227
-0.2001470948754918988132800450330250896513462066650390625
-0.3784632887932561362553940398356644436717033386230468750
0.2952992129376249552663580288935918360948562622070312500
0.2843557944329264675076274215825833380222320556640625000
-0.0747423508642774958588006484205834567546844482421875000
0.2293578111052421153459590641432441771030426025390625000
0.1253837058439835894230185431297286413609981536865234375
0.3877284145080734378829845354630379006266593933105468750
-0.0156939202928850010665406955467915395274758338928222656
-0.2874665776106141712453734271548455581068992614746093750
0.1328968092421888846921262938849395141005516052246093750
0.1497077808541059651403770658362191170454025268554687500
-0.3667047453283360236575560975325061008334159851074218750
0.5077921985274066463134090554376598447561264038085937500
0.4898476493465792058756846927281003445386886596679687500
-0.1925574158675529556905559047663700766861438751220703125
0.0992683640586919241455277074237528722733259201049804688
0.4250213650428042444495702056883601471781730651855468750
0.1063369765914265047124231955422146711498498916625976562
-0.2010625147345832530731968290638178586959838867187500000
0.3326829792996643386793209629104239866137504577636718750
0.0667134512065835766359001013370289001613855361938476562
-0.3040271326817090002947452376247383654117584228515625000
-0.0280698046444600619875320290930176270194351673126220703
0.0443510778415426507037544467948464443907141685485839844
0.1135023088056143769630779161161626689136028289794921875
-0.3200408073946125475650603675603633746504783630371093750
-0.4867628467882550991063794754154514521360397338867187500
-0.2761991200274373503553704267687862738966941833496093750
0.0663313871210945704692818480907590128481388092041015625
-0.4054068308911183970977276658231858164072036743164062500
-0.0211702296006176897413819659732325817458331584930419922
0.2864243050444211236005287446459988132119178771972656250
-0.0559677699787636956374470287300937343388795852661132812
-0.6672126208020187076996876385237555950880050659179687500
-0.7345853142382223754935921533615328371524810791015625000
-0.5528733737002020642847810449893586337566375732421875000
-0.4967078810893448825858342843275750055909156799316406250
-0.2855000476298714118250643423380097374320030212402343750
-0.5283178632571509103499352022481616586446762084960937500
-0.1743797943468279876277904349990421906113624572753906250
0.4291480715957424751927362649439601227641105651855468750
0.1612370092413199229586240335265756584703922271728515625
-0.3616647029793639833705753972026286646723747253417968750
0.2530527670618810121005992641585180535912513732910156250
-0.0032545690007185004710699161023512715473771095275878906
-0.6762409534209797845605294241977389901876449584960937500
0.0860054452121342821735439088115526828914880752563476562
-0.3024049515646222152653876946715172380208969116210937500
-0.3008607707251964025196855345711810514330863952636718750
0.2745993172873620880025669066526461392641067504882812500
0.2538194609442662175169402871688362210988998413085937500
0.1688578675445269461352637563322787173092365264892578125
-0.1828283242970801525384416663655429147183895111083984375
-0.0632717414108812936657244563321000896394252777099609375
-0.1680385036085271788230954825849039480090141296386718750
-0.0765757749103246621036333863230538554489612579345703125
-0.2132356867256323118553495987725909799337387084960937500
-0.1517801034786389335895506746965111233294010162353515625
-0.2159816295401849051138754020939813926815986633300781250
-0.2511826731590017791617697184847202152013778686523437500
-0.2057714023426963634300079775130143389105796813964843750
0.2611324968424600934113755101861897855997085571289062500
0.3296177195837384221732691003126092255115509033203125000
0.1571851625744797864570045931031927466392517089843750000
0.4996376663718475330533408396149752661585807800292968750
0.4250280563991129523238043930177809670567512512207031250
-0.3242615017199846905171511934895534068346023559570312500
0.2672332995745061445802548405481502413749694824218750000
0.6296901510018606540342034350032918155193328857421875000
0.2132001276296213443384175434403005056083202362060546875
-0.3160423975416667419224836521607358008623123168945312500
-0.7547454582288862789951622289663646370172500610351562500
0.0842615696800527169685324224701616913080215454101562500
0.6962836848932545397161675282404758036136627197265625000
0.6153334842548079386403969692764803767204284667968750000
-0.0481324546544835071837376005987607641145586967468261719
-0.4123601580367866614729166485631139948964118957519531250
-0.1864599437051657204733601247426122426986694335937500000
-0.0826707695428243183322081222286215052008628845214843750
-0.0115154488960458913082707255171044380404055118560791016
-0.0267038225066751865044434310902943252585828304290771484
-0.0195941158078727119262740785643472918309271335601806641
0.3426447185283262863997322256182087585330009460449218750
0.3146738571052165034380720953777199611067771911621093750
-0.3253773042563936623849940588115714490413665771484375000
-0.3825777112761673537377760112576652318239212036132812500
-0.4743522379657610366088249520544195547699928283691406250
0.1825231471013445405660036158224102109670639038085937500
-0.2860074640997426476118903337919618934392929077148437500
-0.5116886987649732487781761847145389765501022338867187500
0.3865924499686967386047342642996227368712425231933593750
0.4241286582223722789741771066474029794335365295410156250
0.2430053090089578649024559808822232298552989959716796875
0.1679775877301739328562035780123551376163959503173828125
0.2630563735555306870139702368760481476783752441406250000
0.1102123287256362299535439319697616156190633773803710938
0.0480875216344864644946177634210471296682953834533691406
-0.6236934075136914001902255222375970333814620971679687500
-0.0368215384194274103490940319716173689812421798706054688
-0.1337769644240451027972227393547655083239078521728515625
-0.0703848894800394725423942077213723678141832351684570312
0.6884228616813001799812354875029996037483215332031250000
0.2358150508949522772272899828749359585344791412353515625
0.2480462875187024462952933845372172072529792785644531250
-0.2661695598754629243920533099299063906073570251464843750
-0.0428017700956875371542942332325765164569020271301269531
-0.0985409523111226426372866171732312068343162536621093750
-0.2884755302472292726179148303344845771789550781250000000
0.4956077035082540604982170862058410421013832092285156250
-0.2666007827507773653152867154858540743589401245117187500
-0.0305389871924175819450919533437627251259982585906982422
-0.1670428357242247918712507726013427600264549255371093750
0.2693517267070856258115441050904337316751480102539062500
-0.3670058153745335283169026752148056402802467346191406250
0.3596636626694386662528302167629590258002281188964843750
-0.6339022866823698088012406515190377831459045410156250000
-0.3994495903139937409420667790982406586408615112304687500
-0.1054199216955832713038532233440491836518049240112304688
-0.3141881677417478480052182021609041839838027954101562500
-0.2311636782392522959650449365653912536799907684326171875
-0.2928849220546958509459045671974308788776397705078125000
-0.4780616540368157196816412124462658539414405822753906250
-0.3332210661540301877003855679504340514540672302246093750
0.6567715558955578014632692429586313664913177490234375000
0.6396165145837430232589326806191820651292800903320312500
0.4028910403136092277520674542756751179695129394531250000
-0.5142842424560620795404020100249908864498138427734375000
-0.3236853065108976634789428317162673920392990112304687500
-0.0459649373172856048896939284986729035153985023498535156
0.0067788360047412966544189139028731005964800715446472168
0.0752429918178309370402345734873961191624402999877929688
0.4756475481027385709964505622338037937879562377929687500
-0.2521519217043992067139868140657199546694755554199218750
-0.0344216520566605899134060564392711967229843139648437500
-0.2143348451598594550659981905482709407806396484375000000
0.3037869194393325589231835692771710455417633056640625000
-0.0837596527492782683133043519774219021201133728027343750
-0.0728515512495242906210179967274598311632871627807617188
0.3272460664992141166074191005463944748044013977050781250
0.1753908898967541374336320814109058119356632232666015625
-0.3251001270919138264048342534806579351425170898437500000
-0.1357600672111844153366888576783821918070316314697265625
-0.2426074500187591354016802824844489805400371551513671875
0.7356241576573790963422538879967760294675827026367187500
0.2149859971043117101707764504681108519434928894042968750
-0.7125222892844114142008038470521569252014160156250000000
-0.2897046945925789707132480543805286288261413574218750000
-0.3888468513203457987970068643335253000259399414062500000
0.3217493402823108361587856052210554480552673339843750000
-0.4661858061269540942639366676303325220942497253417968750
0.2931840388659454066377918479702202603220939636230468750
-0.2926865301072408831473126156197395175695419311523437500
-0.3112065929307620826271829628240084275603294372558593750
-0.0049706154555299491074049633709819318028166890144348145
-0.0500057445659179769514857127887808019295334815979003906
0.0037301742526786238474123535979742882773280143737792969
-0.5367070520079920692424479966575745493173599243164062500
0.1543204713458619092847357023856602609157562255859375000
0.2113529532794994891808926240628352388739585876464843750
0.2417774714569247418438635577331297099590301513671875000
0.2474510236218060710289279313656152226030826568603515625
-0.2153279314931819676814939157338812947273254394531250000
0.0836268220823929292473408736441342625766992568969726562
0.3869651030071566966128671083424706012010574340820312500
-0.5276143735859729622106328861264046281576156616210937500
0.3349223731016869320953333044599276036024093627929687500
0.5395047952972101823476691606629174202680587768554687500
-0.1127400782252459959797974420325772371143102645874023438
-0.2465606376345524652915486285564838908612728118896484375
-0.3496217470075029254417131596710532903671264648437500000
0.2838675233605109093915075391123536974191665649414062500
0.5463393921563854949141614270047284662723541259765625000
0.0443113494372872965265663935952034080401062965393066406
0.2613625160733292207559941289218841120600700378417968750
0.1203356320382932137524889526503102388232946395874023438
-0.2847492809008946856863531138515099883079528808593750000
0.1569421329262440656382437964566634036600589752197265625
-0.3341583327416685622601733030023751780390739440917968750
0.1930959609210931571254832306294701993465423583984375000
0.3745789555996021369388415678258752450346946716308593750
0.1133510367837950172376082491609849967062473297119140625
0.4875764021012857774017845713387941941618919372558593750
-0.0370631082210082785088900436676340177655220031738281250
-0.9152759920710856755832196540723089128732681274414062500
-0.3464977750269944700711732821218902245163917541503906250
-0.3911917927993139310061110336391720920801162719726562500
-0.2346839135170310230993351297001936472952365875244140625
-0.0608567759217463963294925122227141400799155235290527344
-0.2341263035364894995460360860306536778807640075683593750
-0.3991804891073614802721181149536278098821640014648437500
0.1667410321593315869481699564857990480959415435791015625
-0.2912715474461597398025958227663068100810050964355468750
0.0105440361545359601036508934157609473913908004760742188
0.3035245333159406477818720304640009999275207519531250000
0.2803844002144892377792473325825994834303855895996093750
-0.1091944696391469737939416972949402406811714172363281250
0.0835989516932581777641786402455181814730167388916015625
0.2575203716756289118450240493984892964363098144531250000
-0.1387373632129036138405098199655185453593730926513671875
0.0540759834516238227508644342833576956763863563537597656
-0.2615153856183888847475316197233041748404502868652343750
-0.5548225429009030484905906632775440812110900878906250000
-0.3514745781335886776197696690360317006707191467285156250
0.6377584540915250954640214331448078155517578125000000000
0.0274555389421342298239547830007722950540482997894287109
-0.1954268540510404328358617931371554732322692871093750000
-0.1127405790522708339818080958139034919440746307373046875
0.1804388351198267514963191615606774576008319854736328125
0.3716884237289358461353572238294873386621475219726562500
-0.1382874776892791257587589370814384892582893371582031250
-0.0642562785361473348677563421915692742913961410522460938
-0.4343623849745856801973786787129938602447509765625000000
-0.1660491370043308823056804612861014902591705322265625000
0.9243369055490932018059879737847950309514999389648437500
0.2634711285314575990312846442975569516420364379882812500
-0.2912353628244379599721014528768137097358703613281250000
0.1900194721401414765793447259056847542524337768554687500
-0.2876228266455282400748671989276772364974021911621093750
0.4069884425992614240819023052608827129006385803222656250
-0.4568122321879891090112835172476479783654212951660156250
0.4228150311089324264735012093296973034739494323730468750
-0.2937025500830569568755379350477596744894981384277343750
-0.2632415964671769859073435782192973420023918151855468750
0.1865196670242696974639784457394853234291076660156250000
-0.3986156949941285776439769961143610998988151550292968750
-0.0947121193850876536002303396344359498471021652221679688
0.3481005767298819275623600333346985280513763427734375000
0.4510547751092754409363294598733773455023765563964843750
0.1222227448500775998097012120524595957249402999877929688
0.2449933749498514334863585872881230898201465606689453125
0.5104267153003980705960884733940474689006805419921875000
0.0860485353696725796535105246221064589917659759521484375
0.4253925831485912412155414585868129506707191467285156250
0.6512458634911030275205234829627443104982376098632812500
-0.5072230540173316981622519961092621088027954101562500000
0.1244495239292814775522444392663601320236921310424804688
-0.2583701267691549952054685945768142119050025939941406250
0.4790732242631483561723371167317964136600494384765625000
-0.2295711163925244213679377480730181559920310974121093750
-0.3267943248027866953719922094023786485195159912109375000
0.8232889296471815887556999769003596156835556030273437500
0.0739608099145315917022358576105034444481134414672851562
0.2819131255330510898993168211745796725153923034667968750
0.3951008216544777962297985141049139201641082763671875000
0.3729653311340349608471456122060772031545639038085937500
0.4187862849465806003301793225546134635806083679199218750
-0.1245802398185053283530265844092355109751224517822265625
-0.2773926862695194062169434801035095006227493286132812500
-0.1831170202055369955473906884435564279556274414062500000
-0.3473669681219226923474252544110640883445739746093750000
-0.0165459033948993951279593517256216728128492832183837891
0.4405098875083670595387275170651264488697052001953125000
-0.1131433673244580523364888335891009774059057235717773438
0.3183930448346357078293067388585768640041351318359375000
-0.0758829378025708822796957520040450617671012878417968750
-0.3144225838837454989338482391758589074015617370605468750
0.4186185642050759270205162465572357177734375000000000000
-0.4670666781455323213201324961119098588824272155761718750
0.2173222859667951478712666357751004397869110107421875000
-0.3333237745436702925694305577053455635905265808105468750
-0.2218289769215645579336637638334650546312332153320312500
0.1072763046408527626285334122258063871413469314575195312
-0.3876939811346317710238906784070422872900962829589843750
-0.3392259327935469026549242244072956964373588562011718750
-0.1438639896772333781616026726624113507568836212158203125
0.0815408353249885975433386420263559557497501373291015625
0.5105461930196049102903543825959786772727966308593750000
0.4107760290544946180091301357606425881385803222656250000
0.3188672023597615701184793124411953613162040710449218750
-0.2389673104604092546132676488923607394099235534667968750
0.4913912736907199985125771490857005119323730468750000000
-0.4618076635139261032492186132003553211688995361328125000
-0.3938435636206688572613643373188097029924392700195312500
0.4150304688219191295850407641410129144787788391113281250
0.0231487162110907453149710732986932271160185337066650391
-0.2705309844867956337033376712497556582093238830566406250
-0.1011093939842159505904106708840117789804935455322265625
-0.1345583158964920311717605727608315646648406982421875000
0.3249366210907734808799318670935463160276412963867187500
0.3905362036031252426226956231403164565563201904296875000
0.5189281929751300426190141479310113936662673950195312500
0.4910171739540570290394327912508742883801460266113281250
0.0810135001159605905307614648336311802268028259277343750
-0.4588129517037893290165584403439424932003021240234375000
-0.3781685966845934609992241348663810640573501586914062500
-0.1726826383034594514231940820536692626774311065673828125
0.1622229878681633874482059809452039189636707305908203125
0.4517205509952380015903372623142786324024200439453125000
-0.0316250607886191595352620709036273183301091194152832031
-0.3636394799065687521988365915603935718536376953125000000
0.1487883376668492074745842046468169428408145904541015625
-0.1137624526185883611084648237010696902871131896972656250
-0.3007949444054796028780174310668371617794036865234375000
0.9084488932868622912408795855299104005098342895507812500
-0.1038360687932722015158759631958673708140850067138671875
0.0052903240367236405161666112917373538948595523834228516
0.2211498025793606769795474065176676958799362182617187500
0.1124691129201197681286572560566128231585025787353515625
-0.4516307735763178676791085308650508522987365722656250000
-0.5170936366719607324426988270715810358524322509765625000
0.3954970927958657012091236993001075461506843566894531250
0.3186269103295693572164282159064896404743194580078125000
0.3101922944955153860213670213852310553193092346191406250
0.2823318705721722388091166067169979214668273925781250000
0.3722707495489334106331114071508636698126792907714843750
-0.0651483919076936146552725404035300016403198242187500000
0.8326989216822496819858656635915394872426986694335937500
-0.4099641094046491684999011795298429206013679504394531250
-0.0028765566990387051241051530325876228744164109230041504
-0.3699758465244168958996340279554715380072593688964843750
0.3766952828438823730472506667865673080086708068847656250
-0.4135905454911085188385300170921254903078079223632812500
0.3994980251281947114527781650394899770617485046386718750
-0.5041495320362913146183814205869566649198532104492187500
0.4381972827520731472716875032347161322832107543945312500
0.5131623666883282641748564856243319809436798095703125000
0.2933163876247288359699894044751999899744987487792968750
-0.1880981694105107737691184865980176255106925964355468750
0.5704168037470216390261157357599586248397827148437500000
-0.0152089842731482505905349356112310488242655992507934570
0.2500112994358330009703195173642598092555999755859375000
0.2514762441437741746774747753079282119870185852050781250
0.4204373823286393085929546487022889778017997741699218750
-0.5910306639513243087691307664499618113040924072265625000
-0.0757078071173379191227681417331041302531957626342773438
-0.1480597857035834963301823563597281463444232940673828125
0.4472319208755253239218063754378817975521087646484375000
-0.0130436503958280391318735880190615716855973005294799805
-0.1585461813219954108067355491584748961031436920166015625
-0.2646671549337801243595436062605585902929306030273437500
0.1286943746147327927165093797157169319689273834228515625
0.5729783602329286962273613426077645272016525268554687500
0.4803814914176873229756381533661624416708946228027343750
0.0555875944288837728346486244390689535066485404968261719
0.2969132353825016390480584504985017701983451843261718750
-0.3558426881037658473516671620018314570188522338867187500
0.6720894474200239665506728670152369886636734008789062500
0.0714862915471085186291944069125747773796319961547851562
-0.4725924135358786637439720834663603454828262329101562500
-0.1211174471039694749974202636622067075222730636596679688
0.8479366335491436146298838139045983552932739257812500000
0.2304112216604173313250214505387702956795692443847656250
-0.2740267322015231266085777406260604038834571838378906250
-0.7277416309663854443456898479780647903680801391601562500
-0.0878872470524335452912723098961578216403722763061523438
-0.0189740578550703573035285387504700338467955589294433594
