nn
1,10,10,10,10,10,1
dIn
0
dIntern
,
dOut
,
normP
1.9500000000000075
normY
1.0
w
0.1955409849756395979092360448703402653336524963378906250
0.7654882138386863710266538873838726431131362915039062500
0.4381692693610355626709917942207539454102516174316406250
1.2568485074886672769878259714460000395774841308593750000
0.2500384326267165446822104968305211514234542846679687500
-1.0206454354470586576297819192404858767986297607421875000
0.4965409469097393779790650114591699093580245971679687500
-0.8776790677693567799266816109593492001295089721679687500
-0.3940618106962834876760837232723133638501167297363281250
0.0792536405231129836845838099179673008620738983154296875
-0.0211816534855580572427324881346066831611096858978271484
0.3871836269557056842138820229592965915799140930175781250
-0.5232655826709861068835039077384863048791885375976562500
0.3454473287470919418140624657098669558763504028320312500
0.3202764803221363476559702121448935940861701965332031250
-0.3584166038115288999144070203328737989068031311035156250
-0.4936003558181414896388616853073472157120704650878906250
-0.0066150446767235778280924485272862511919811367988586426
0.2688318251292617921954786197602516040205955505371093750
0.1014263803009523429166094388165220152586698532104492188
-0.2340879789098243846101610188270569778978824615478515625
-0.3309957859098608956571752059971913695335388183593750000
-0.4053256018426332207837958776508457958698272705078125000
0.2654789680456713374390176340966718271374702453613281250
-0.2408157101697914193039196106838062405586242675781250000
0.3211357679811355780863380005030194297432899475097656250
0.4484366855297993725848471058270661160349845886230468750
0.3150915368980778952234800271980930119752883911132812500
-0.1316154689435881930403837714038672856986522674560546875
-0.0694800372186865355939033861432108096778392791748046875
0.1114046773874030338280505247894325293600559234619140625
-0.6337084156726784378577121970010921359062194824218750000
0.3769875372159964821427990955271525308489799499511718750
-0.0260281480180857976991504187935788650065660476684570312
-0.4233070492238913962168567195476498454809188842773437500
0.6133929045513626387986505505978129804134368896484375000
0.0257076861603321299432067803536483552306890487670898438
-0.5584796798442438481302474428957793861627578735351562500
0.6292251180460658455118050369492266327142715454101562500
0.3300300355135289409602705745783168822526931762695312500
-0.1479835565216823245471289283159421756863594055175781250
0.2644739586108885709414551001827931031584739685058593750
-0.3418231052509768663760780782467918470501899719238281250
0.2234770105171658971521253533865092322230339050292968750
-0.1334185286515478796598443977927672676742076873779296875
0.6435222459487393020793888354091905057430267333984375000
0.1691719806096248779336832512854016385972499847412109375
-0.0988231173064272466755042501063144300132989883422851562
0.3207264870376912435645522236882243305444717407226562500
-0.3129698334437010509567755889293039217591285705566406250
-0.8428494956777744517850692318461369723081588745117187500
-0.5691446362758674215598375667468644678592681884765625000
-0.0295711952246595979887366922866931417956948280334472656
0.3622470738993909811220817118737613782286643981933593750
-0.8673428952902502153676778107183054089546203613281250000
0.9594852926547836613480058076675049960613250732421875000
0.3108870064161128321522653550346149131655693054199218750
-0.3268752545602477410646713451569667086005210876464843750
-0.1383752073589519793195279362407745793461799621582031250
0.5242683458791537187693165833479724824428558349609375000
0.0638696685320014473363769980096549261361360549926757812
-0.5562187964351009705765704893565271049737930297851562500
0.1432139747421022624163100545047200284898281097412109375
-0.2034301263075945220837326132823363877832889556884765625
-0.1927679966618678353285076809697784483432769775390625000
-0.1495040947321288893334667591261677443981170654296875000
0.1119659211307598017937081635864160489290952682495117188
0.1195521121456033925012363283713057171553373336791992188
-0.1171113786507921444846047620558238122612237930297851562
0.5059563627048593303925372310914099216461181640625000000
0.4984682669382701769578147832362446933984756469726562500
0.1928213255118170765811669298273045569658279418945312500
-0.4084528396218733981015702738659456372261047363281250000
-0.1917914884748707360362374174655997194349765777587890625
0.4813578252647092159399733191094128414988517761230468750
-0.7121178934300228524634235327539499849081039428710937500
-0.5549400151372589906628718381398357450962066650390625000
0.5775677519916816438083628781896550208330154418945312500
-0.2154872953086229281360886034235591068863868713378906250
0.0456188232425153022964181559473217930644750595092773438
-0.4985875856483209522806987479270901530981063842773437500
0.1837775768025526612614584109905990771949291229248046875
-0.5319532343516454320209163597610313445329666137695312500
0.0199924643734008949946812094822234939783811569213867188
-0.3838824238820132128680029381939675658941268920898437500
0.0711722996564209120506916406156960874795913696289062500
0.2780347025579638087222633657802361994981765747070312500
0.2017308991042948140837154369364725425839424133300781250
0.2990710275402608253614289424149319529533386230468750000
-0.2212644036146063919456850044298334978520870208740234375
0.5490110165947015286036503312061540782451629638671875000
-0.0192952278574645384734420616723582497797906398773193359
-0.3530792073940280384469758701015962287783622741699218750
0.0326176397768278836242217266772058792412281036376953125
0.1660222551656904133032810477743623778223991394042968750
-0.6674940754246633245472253292973618954420089721679687500
-0.5067342166258491653607620719412807375192642211914062500
-0.0282744037807393724937021772802836494520306587219238281
-0.3203353825768059381928765105840284377336502075195312500
0.1234988313683954286315014314823201857507228851318359375
0.2723875755969455969562886821222491562366485595703125000
-0.3400870744024112601877618544676806777715682983398437500
-0.3900151558273276530819373419944895431399345397949218750
-0.0583509943194952251932505760123603977262973785400390625
0.0392660696032837430724526939229690469801425933837890625
-0.2233433629962918165468011011398630216717720031738281250
-0.1338543404133347158868616588733857497572898864746093750
-0.4151623888464318623547910647175740450620651245117187500
0.3504227073671769554508159671968314796686172485351562500
-0.4751936006100487830394740740302950143814086914062500000
0.0916310407300377910422284344349463935941457748413085938
0.1177640653147029314862237470151740126311779022216796875
0.0688865981792702447572551704979559872299432754516601562
-0.0359686655875870106569003326058009406551718711853027344
-0.0055277710272702692759216880347139522200450301170349121
0.5002918130786762063166861480567604303359985351562500000
-0.1920068077005391837808190302894217893481254577636718750
-0.0337076748170353490685613451205426827073097229003906250
-0.0444825032429056257954336217608215520158410072326660156
-0.0081229765461328807402141549687257793266326189041137695
-0.0823443172686602747889494935407128650695085525512695312
-0.2474418723989480206615354518362437374889850616455078125
-0.0286443487369622724891815579439935390837490558624267578
0.0305549412577712266314566846858724602498114109039306641
-0.3120904856480081757119648955267621204257011413574218750
0.2941777633362473998168695743515854701399803161621093750
0.1122291885769445413112421761070436332374811172485351562
-0.2842723333469865387712616211501881480216979980468750000
0.2779539140741196789896605423564324155449867248535156250
0.0872421885804260527352838039405469316989183425903320312
-0.2222598031087474335087961208046181127429008483886718750
0.1134093726936211687927880120696499943733215332031250000
-0.4048430404080491928908713816781528294086456298828125000
0.1842004696334957614123339908474008552730083465576171875
-0.6571044552300273622336135304067283868789672851562500000
-0.2342333136308414331949734332738444209098815917968750000
-0.4814178227527309283928502736671362072229385375976562500
0.7161837684665568470876451101503334939479827880859375000
0.7220588142808535003780434635700657963752746582031250000
-0.1376648904146416108051909077403252013027667999267578125
-0.4741013608004714940946655588049907237291336059570312500
-0.4031900829405103414693201102636521682143211364746093750
-0.3713507799997616820597556852590059861540794372558593750
0.3807061258925540370157136749185156077146530151367187500
0.0511129395170167727391330458885931875556707382202148438
0.5224761764813556919051507065887562930583953857421875000
-0.2173401991938522515024345693745999597012996673583984375
0.0395210303083667821577584788883541477844119071960449219
0.1015741417948922420411150824293144978582859039306640625
0.2034979949927264164522000555734848603606224060058593750
0.3240344075848290983365984629926970228552818298339843750
0.2875329279369001622690404929016949608922004699707031250
0.1000192987368633407152529457562195602804422378540039062
-0.4082532050443311577581084748089779168367385864257812500
0.0541682996563967594783051140439056325703859329223632812
-0.5042111484640222629494132888794410973787307739257812500
-0.1906379933401785020663510294980369508266448974609375000
-0.1192897681209264398871638945820450317114591598510742188
-0.5874999777877110140877903177170082926750183105468750000
-0.1184738478887075452394839203407173044979572296142578125
0.1390783463335230063506742226309143006801605224609375000
-0.1557718592470358209833847240588511340320110321044921875
-0.2103250936459902520336839870651601813733577728271484375
-0.3135195418576430248513986498437589034438133239746093750
0.2137946245528629662935315991489915177226066589355468750
0.4329676753940986388968781284347642213106155395507812500
0.0940022992367787607603801802724774461239576339721679688
-0.0309953162894347905575997970117896329611539840698242188
-0.3766291082818911672980277671740623190999031066894531250
-0.5432955580141001217242546772467903792858123779296875000
0.0899365333854055121198811661997751798480749130249023438
-0.4017792656763207181924713040643837302923202514648437500
-0.8458201404867672357212882161547895520925521850585937500
-0.0477571942385184092239036601768020773306488990783691406
-0.6312799434608681314884393032116349786520004272460937500
0.3138721008295773939877904012973885983228683471679687500
0.0723964674846458849932773205182456877082586288452148438
0.7439518431248318686144216371758375316858291625976562500
0.4676980429578556086589458118396578356623649597167968750
-0.1604190306951682742919729207642376422882080078125000000
-0.3165858387407279317393715700745815411210060119628906250
-0.4858964318484433331235550213023088872432708740234375000
0.6144301906930909051851585900294594466686248779296875000
-0.5268507120132166487991298708948306739330291748046875000
0.1152158749448148195027030737946915905922651290893554688
-0.3605491743014759276064751247758977115154266357421875000
0.7178642022812371514817186834989115595817565917968750000
-0.8998586955521231667276538246369455009698867797851562500
-0.4808841385955631153592548798769712448120117187500000000
0.0448328620595346005739401107348385266959667205810546875
0.4364675941068327236216362052800832316279411315917968750
-0.2328468217917229188262950856369570828974246978759765625
0.4793495923176520068231809545977739617228507995605468750
0.0316985806130645753064811742660822346806526184082031250
0.5897326431077449804263324040221050381660461425781250000
0.0307449004159532843227786713669047458097338676452636719
0.5494250174214496684754749367129988968372344970703125000
-0.1656825230372315493898582872134284116327762603759765625
-0.3078296915114041021332980108127230778336524963378906250
-0.0921242357051420684976861252835078630596399307250976562
-0.1550732904173171000650199857773259282112121582031250000
-0.5207826119722598345873620928614400327205657958984375000
0.2327531325542812334905562465792172588407993316650390625
0.0150502019587513032050640759962334414012730121612548828
-0.6053689896808310821896270681463647633790969848632812500
0.5402675288408393949879382489598356187343597412109375000
-0.2340387899485792677634066194514161907136440277099609375
0.0657977879073087246197815147752407938241958618164062500
-0.2644549230611829004899959727481473237276077270507812500
0.5187891083101664468912872507644351571798324584960937500
-0.0503929233195882578244528815503144869580864906311035156
0.5427754130403468213472706338507123291492462158203125000
0.0082170676028885999281348162526228406932204961776733398
0.0699173819022106818321660171022813301533460617065429688
0.3502835896974032525719167097122408449649810791015625000
-0.2228448759313594873532338169752620160579681396484375000
0.4759464149523723874857239479752024635672569274902343750
-0.0817535708773617364464314505312358960509300231933593750
-0.1320685904549120659456917792340391315519809722900390625
-0.1437794230383956650687338196803466416895389556884765625
0.0805044426175039601334404437693592626601457595825195312
-0.0296916892465699452929861479333339957520365715026855469
0.3555142906429725191408408591087209060788154602050781250
0.0628748405588289566159332366623857524245977401733398438
-0.3006731088861672729350971167150419205427169799804687500
-0.2677945660304976160936973883508471772074699401855468750
0.2826759427160873139328600700537208467721939086914062500
0.2110082690966301743884514507954008877277374267578125000
0.0613158383977058032976437118577450746670365333557128906
-0.6346856441844236362825881769822444766759872436523437500
-0.1135819347099986525995163333391246851533651351928710938
-0.1387567185509119283004508815793087705969810485839843750
-0.1653393667720055859593486502490122802555561065673828125
-0.1320316705160707038135825541758094914257526397705078125
0.0714291741654474732214907817251514643430709838867187500
-0.2405258961849328080973009491572156548500061035156250000
0.0580263500496796327809967408484226325526833534240722656
-0.3244688471681200225837926609528949484229087829589843750
0.0110142337014746197199066557459445903077721595764160156
-0.2844452176120870201536661170393927022814750671386718750
0.2759401555095768454606286468333564698696136474609375000
-0.4136884475551189099817861460905987769365310668945312500
0.4964185715301149826039761592255672439932823181152343750
0.0214020193530459097719376160284809884615242481231689453
0.2208773560776978450714835844337358139455318450927734375
-0.6075389315798778167021509943879209458827972412109375000
0.2406163393112852877386842465057270601391792297363281250
0.5518625211149627007856111049477476626634597778320312500
-0.0404158349960597323979882844469102565199136734008789062
-0.4824452364339074650345651207317132502794265747070312500
0.0675565629753698548842777427125838585197925567626953125
0.4359157633475129189903896076430100947618484497070312500
-0.2395824848422296593497549110907129943370819091796875000
-0.3178338009758318594144554936065105721354484558105468750
0.2035677615605281653987645995584898628294467926025390625
-0.6347433586061960175683793750067707151174545288085937500
0.0889810702730163272100583071733126416802406311035156250
0.0860068659681714059450641229886969085782766342163085938
0.3926336356658167714428486760880332440137863159179687500
0.1540483471635663847987274266415624879300594329833984375
-0.2556109747555700972831971284904284402728080749511718750
-0.1096663057211637037902107749687274917960166931152343750
0.6442404635369232135388983806478790938854217529296875000
-0.5158750519960180191958443174371495842933654785156250000
0.7673932646428405224270363760297186672687530517578125000
0.0032763406045107656451575994793756763101555407047271729
-0.6654914772673328204888321124599315226078033447265625000
-0.0884699044680994917122518472751835361123085021972656250
0.1296930062886585410808493179501965641975402832031250000
-0.6329897847712291358845959621248766779899597167968750000
-0.3371750097006096513752027021837420761585235595703125000
0.5175557466223867919552503735758364200592041015625000000
-0.1139648364178466738438899596985720563679933547973632812
0.4108248988010122504377363839012105017900466918945312500
-0.2623316783207431668323295070877065882086753845214843750
0.3495868569949742155067440307902870699763298034667968750
0.4535721993364316140251446540787583217024803161621093750
-0.0960604960979972444246044460669509135186672210693359375
-0.1318842834049658296891038844478316605091094970703125000
0.3457589624396822935992190650722477585077285766601562500
-0.2784385780115943287427171526360325515270233154296875000
0.3874255018955207741093715867464197799563407897949218750
0.1249547389867114305372908233948692213743925094604492188
-0.3954012940948989363043608591397060081362724304199218750
-0.0138748370725311313822469827528038877062499523162841797
0.5126917711479597183910072999424301087856292724609375000
-0.2190524471939811201881553870407515205442905426025390625
-0.5798022850112378723252959389355964958667755126953125000
-0.4965132704751636927298363843874540179967880249023437500
-0.0373346039740751131641438576025393558666110038757324219
-0.4490563679412565289972292248421581462025642395019531250
-0.3215097671447452176707315629755612462759017944335937500
0.0052515333259042923375048417256039101630449295043945312
0.2817859888063282691739175334078026935458183288574218750
-0.4703278255804785312754745518759591504931449890136718750
0.7296719859185870626916425862873438745737075805664062500
0.3145830987483199669973998879868304356932640075683593750
-0.2740388317551961105955626862851204350590705871582031250
-0.0457312084049356915027573222687351517379283905029296875
0.5630750076672165205238229646056424826383590698242187500
0.2748765866493822485061571114783873781561851501464843750
-0.4861483918517961466676524651120416820049285888671875000
0.3890939099171479287342378938774345442652702331542968750
-0.5331608216181642490028025349602103233337402343750000000
0.5714363057800420087062320817494764924049377441406250000
-0.1458357751054056294925942438567290082573890686035156250
0.0596075518529484427165954230076749809086322784423828125
0.1554072966932847632559600015156320296227931976318359375
0.2962188494376750136360954002157086506485939025878906250
-0.5057511601412605362071417403058148920536041259765625000
-0.2766458105450480542408797646203311160206794738769531250
0.2392842732529911198291472373966826125979423522949218750
-0.4868917674055270317090560183714842423796653747558593750
0.2532520550496397682138649543048813939094543457031250000
-0.5293836310998394356630569745902903378009796142578125000
-0.3061425486306538212843975088617298752069473266601562500
0.8006641037428754437144107214407995343208312988281250000
0.3887302575592904152479434287670301273465156555175781250
0.4365767320086210157015216282161418348550796508789062500
0.5381199725418123192000052767980378121137619018554687500
-0.5592545125354143609186508001585025340318679809570312500
0.6699808325891578597577336040558293461799621582031250000
-0.4288110706121699977622085953044006600975990295410156250
-0.3170310654470537281568454091029707342386245727539062500
-0.2441917764079569175272865777515107765793800354003906250
-0.2889760797736672381930134179128799587488174438476562500
0.6228486992346099482276144954084884375333786010742187500
0.5394356518510432518809238899848423898220062255859375000
0.5769065706196215836953911093587521463632583618164062500
-0.0248627042442634699215275873029895592480897903442382812
0.2185926787292395423456525804795091971755027770996093750
-0.2721042455774457802242238813050789758563041687011718750
0.1916355971510520783684938805890851654112339019775390625
-0.0834395353771611170135003021641750819981098175048828125
-0.2245204582932466830236251098540378734469413757324218750
0.6110546067008927328956247038149740546941757202148437500
0.1973200634264175301613164492664509452879428863525390625
-0.4992944496329271841794650299561908468604087829589843750
0.3951645590229238558244162504706764593720436096191406250
0.2166414031181017885163697656025760807096958160400390625
-0.3388804217277914809791639072500402107834815979003906250
0.3719937283013792783670226071990327909588813781738281250
0.1871146968741783933598554767741006799042224884033203125
0.1936719662570890176933602333519957028329372406005859375
-0.2915047398014223301032643576036207377910614013671875000
-0.1290909219864352086570846722679561935365200042724609375
0.0580905695804793259506837443950644228607416152954101562
0.2233477798267601566184481498567038215696811676025390625
0.2304667356742740869091079503050423227250576019287109375
0.3242400022833210049277852249360876157879829406738281250
-0.3049123546563890507776761751301819458603858947753906250
-0.4430181809575382545496324837586143985390663146972656250
0.0062191305994292742434503828974357020342722535133361816
-0.2464655903814108595106802113150479272007942199707031250
0.4521041284369049506608462252188473939895629882812500000
0.1005468612378121462391789009416243061423301696777343750
0.2501494258155329553083845439687138423323631286621093750
0.1662258959798152135878268609303631819784641265869140625
0.1037457892743863796525261022907216101884841918945312500
-0.4439479801785865542562703467410756275057792663574218750
-0.2920680763549294844949599792016670107841491699218750000
0.2989760324867928864556176904443418607115745544433593750
-0.2479471715425726474624212869457551278173923492431640625
0.4704034030973377467077511937532108277082443237304687500
-0.5126288310155779903709571954095736145973205566406250000
-0.2407711743747032173690314493796904571354389190673828125
-0.1669370572153484055810679365094983950257301330566406250
0.0087974666673726418381074054764212633017450571060180664
-0.0006953025690678636509811649801804378512315452098846436
0.4637007719884612688687752779514994472265243530273437500
0.1894265276047158719219254408017150126397609710693359375
-0.1102844049448491875464739564449700992554426193237304688
-0.2905307122208937720131416426738724112510681152343750000
-0.2698938982909656614239679583988618105649948120117187500
0.7327456142793947746483240734960418194532394409179687500
0.2437436683802634840301237773019238375127315521240234375
0.1231860675997101528533761438666260801255702972412109375
-0.1082794157858013028850052705820417031645774841308593750
-0.2716530497663516285911100567318499088287353515625000000
0.0554402304307918467052296307429060107097029685974121094
-0.2881381382257220957754384471627417951822280883789062500
-0.3505255914518719539962887665751622989773750305175781250
-0.3929185445208489002588692073913989588618278503417968750
-0.0948278640113367071728944779351877514272928237915039062
-0.4982295153842629664708852033072616904973983764648437500
-0.6019299372751818477667029583244584500789642333984375000
-0.0766882353908597685920867093045671936124563217163085938
0.0676209676120233110774293550093716476112604141235351562
0.4855355120719266337481201389891793951392173767089843750
0.0769280992468226176850265574103104881942272186279296875
-0.1945719255945206616065235039059189148247241973876953125
-0.0253560467197850546161586038351742899976670742034912109
-0.0518358447733896290920974081473104888573288917541503906
-0.2889994226573539548574842683592578396201133728027343750
0.9763671890019400834148655121680349111557006835937500000
0.3657161203992926323813605904433643445372581481933593750
-0.2611408989883928777331334458722267299890518188476562500
-0.3232309478314907003060341139644151553511619567871093750
-0.1020788303168421590205738880285935010761022567749023438
0.3394501876261882822305437912291381508111953735351562500
-0.0530518602999110813756011850728100398555397987365722656
-0.0462429969354643533030468915967503562569618225097656250
0.9167173607203994434300398097548168152570724487304687500
0.0551781832829042334642721812087984289973974227905273438
-0.3172128369356106425414054683642461895942687988281250000
-0.4139979854192017416636417692643590271472930908203125000
0.7321482191366405212207268959900829941034317016601562500
-0.2651876756549293445708315175579627975821495056152343750
0.1279218212179661640082173335031257010996341705322265625
0.0448854320509614532208608750352141214534640312194824219
0.4210448067222192225500521089998073875904083251953125000
0.0104455392846046369453860691578483965713530778884887695
0.3851068751495749786784017487661913037300109863281250000
0.5639584590042044931479381375538650900125503540039062500
-0.9260874738670826777919842243136372417211532592773437500
-0.8148132734338920935002192891261074692010879516601562500
-0.1207441943746456330943672696776047814637422561645507812
0.0451166520216697494727320361107558710500597953796386719
0.2938799296149033346559065194014692679047584533691406250
-0.4232093403337505721495404031884390860795974731445312500
-0.1652457725462166959751186823268653824925422668457031250
-0.4426237285242399788209866073884768411517143249511718750
-0.4927778367025985595262227434432134032249450683593750000
0.4932500205201992282688649993360741063952445983886718750
-0.2648568016323629703556719050538958981633186340332031250
-0.1999487398594917975103157914418261498212814331054687500
-0.6833575359393857517886772257043048739433288574218750000
-0.3108778504296009770335729172074934467673301696777343750
-0.0955074880794057334831848038447787985205650329589843750
-0.2116962280765395110204707407319801859557628631591796875
0.0350822285357592147936323101475863950327038764953613281
-0.4160993489694152502877955157600808888673782348632812500
0.2818384611877613465935610292945057153701782226562500000
-0.2119221139289907407388113824708852916955947875976562500
-0.1386674232166414943989707353466656059026718139648437500
-0.4528887697440575621499192493502050638198852539062500000
-0.1759879016430802023407409251376520842313766479492187500
0.1115391639860237871229031725306413136422634124755859375
-0.3095214923627800374106300296261906623840332031250000000
0.3225899728993956716571744891552953049540519714355468750
0.1319939517906780490630325175516190938651561737060546875
0.2499440649920851298393387196483672596514225006103515625
-0.4315499907428479442472735172486864030361175537109375000
-0.2322251279979268279163306942791678011417388916015625000
-0.7752273252259712643663647213543299585580825805664062500
-0.2254993411931710267648298895437619648873805999755859375
-0.4820963271344028133746917319513158872723579406738281250
0.3566707034294425149312246503541246056556701660156250000
-0.0641820529384769106195918197954597417265176773071289062
-0.1724249613439464978714710241547436453402042388916015625
0.0240149899608770589498618619472836144268512725830078125
0.3905746908996610700093299328727880492806434631347656250
0.1618239433918565450820636897333315573632717132568359375
0.4916797780820038599181032168417004868388175964355468750
0.3903154244205834233483187745150644332170486450195312500
0.4330630423502507819755180662468774244189262390136718750
-0.3584237676186876053741059422463877126574516296386718750
0.3841499972159821418848935081769013777375221252441406250
0.2391637585014742550804101028916193172335624694824218750
-0.5872168253219697264810861270234454423189163208007812500
-0.1197365382041881559649354471730475779622793197631835938
-0.1531263567060896502169953237171284854412078857421875000
0.7787088290187030859001993121637497097253799438476562500
-0.3521777360357840613858115830225870013236999511718750000
0.4836309666346953473059500083763850852847099304199218750
-0.5618838577215026219846549793146550655364990234375000000
-0.9465379857223924497944267386628780514001846313476562500
-0.0212421024897450592960890247695715515874326229095458984
-0.1662851185840876211408101426059147343039512634277343750
-0.3774975573887902058345389377791434526443481445312500000
0.9106138486780707141932111881033051759004592895507812500
