nn
1,10,10,10,10,10,1
dIn
0
dIntern
,
dOut
,
normP
1.0
normY
3.0033525681750186
w
-0.0685888869925519034653760286346368957310914993286132812
0.3591743679593068505617736718704691156744956970214843750
-0.0506520708007258332883360196774447103962302207946777344
0.0297006937976374910115318073167145485058426856994628906
0.6170097573847751482034595937875565141439437866210937500
0.2576127248667357538813860173831926658749580383300781250
0.1450355468776943212994012810668209567666053771972656250
-0.3877267209633132871715588407823815941810607910156250000
0.3202127422519744914808370594982989132404327392578125000
-0.4429168200200891414297643677855376154184341430664062500
-0.1532712906560526611166039856470888480544090270996093750
0.3675076970398433728881570914381882175803184509277343750
-0.2180029430765705045214275514808832667768001556396484375
-0.2182815462207411127959488794658682309091091156005859375
0.5111600591271617810562588601897004991769790649414062500
-0.0615319478631377661526080657949933083727955818176269531
0.0113737519761584991717651149656376219354569911956787109
-0.6710417057229137727247803013597149401903152465820312500
0.1248098229555534843804309730330714955925941467285156250
-0.2908302758420951428242062775098020210862159729003906250
-0.2944911175530658398180605672678211703896522521972656250
0.2761900238606044277744899773097131401300430297851562500
0.2135060052955629061877118601842084899544715881347656250
0.1045201801946143427279878324043238535523414611816406250
0.1581372544846122718542602569868904538452625274658203125
-0.4185082217331295706408411660959245637059211730957031250
-0.1977997375491431786276308457672712393105030059814453125
-0.0142330071559708028899882137352506106253713369369506836
0.4453813022214523908992589440458687022328376770019531250
-0.4327669741442105588724587050819536671042442321777343750
-0.2277334216773893027507824626809451729059219360351562500
0.3783810159394429550872018808149732649326324462890625000
-0.4054865336221638028035840761731378734111785888671875000
0.5312740498163764923944540896627586334943771362304687500
-0.1168170759727096552627045866756816394627094268798828125
0.1906327982997533532216749563303892500698566436767578125
-0.4475122452368022196722563421644736081361770629882812500
-0.5045169312975399389387121118488721549510955810546875000
-0.2977549033943689416048528073588386178016662597656250000
0.1935635399964812375372957831132225692272186279296875000
-0.1978327196041048952057650467395433224737644195556640625
0.3789684482832529899276607920910464599728584289550781250
0.4600252505829121041358575894264504313468933105468750000
-0.1553152549940675364315012529914383776485919952392578125
-0.2278471488949049827965609438251703977584838867187500000
-0.0666587436931158627828608587151393294334411621093750000
-0.1314645557260208097449805109135922975838184356689453125
-0.3225886176714740094517708257626509293913841247558593750
0.1380813221423722592096083872093004174530506134033203125
0.3041416665171465250061544338677776977419853210449218750
-0.2268353366871398435478113242425024509429931640625000000
0.0198617348647390223881359361257636919617652893066406250
-0.2734215563459274078716987332882126793265342712402343750
0.1403767385362463815390299259888706728816032409667968750
0.0148211126351296008235580714540446933824568986892700195
-0.1665692491471801595093182868367875926196575164794921875
-0.4217200986768647741342874724068678915500640869140625000
-0.2533609371991081271602297420031391084194183349609375000
0.1469214819415781692057976215437520295381546020507812500
0.3355569030419541243226433380186790600419044494628906250
-0.4605050834308373475245446115877712145447731018066406250
-0.3050130350601231166152160767524037510156631469726562500
-0.3700198852268544724708476678642909973859786987304687500
0.3057226505051254261680071522278012707829475402832031250
-0.3942239181893975041859334851324092596769332885742187500
0.4258028377903456118680480813054600730538368225097656250
-0.1761475475044138316871311644717934541404247283935546875
-0.3059860025178338105433795135468244552612304687500000000
-0.6981770081279239370530831365613266825675964355468750000
0.3684885412352163491789269755827262997627258300781250000
-0.1061836435095936254091597561455273535102605819702148438
-0.1123668133036740540697806522985047195106744766235351562
0.5248913927484148977953282155795022845268249511718750000
-0.2175625471439854574651207030910882167518138885498046875
-0.2387948911305264043658524997226777486503124237060546875
0.2661620795543430118001992923382204025983810424804687500
0.4470526605075373915987313466757768765091896057128906250
-0.4720736425119007040329677238332806155085563659667968750
-0.3690370120320153324300349595432635396718978881835937500
-0.4410261690130967693335151125211268663406372070312500000
-0.0083260869581722636578735574630627525039017200469970703
-0.2936218929716847836353110778873087838292121887207031250
-0.0499927498774711404072590426039823796600103378295898438
-0.1513888410331024891863904713318333961069583892822265625
-0.0271814641268164937371043521352476091124117374420166016
0.1638262937176588884824468550505116581916809082031250000
-0.0359405894281521406941060092776751844212412834167480469
0.4681036852915284041110055568424286320805549621582031250
-0.2545849305692158837111094271676847711205482482910156250
0.1645846070976624275772337568923830986022949218750000000
0.5290301629485617551651444046001415699720382690429687500
0.1137820702273529688275388593865500297397375106811523438
-0.2675895999956335313818556187470676377415657043457031250
-0.5319928331080134853436902631074190139770507812500000000
-0.2462184605541627713254371201401227153837680816650390625
0.3809237201176697840132590044959215447306632995605468750
-0.4758092189521865300605441007064655423164367675781250000
0.2173881660941658910957130501628853380680084228515625000
0.6842472730173181361124079558067023754119873046875000000
-0.0490723576020899443506095849443227052688598632812500000
-0.4725955388853335659149479397456161677837371826171875000
-0.2719922223118321769064209547650534659624099731445312500
-0.0994367961664056332349304057061090134084224700927734375
-0.1994986033168443806395941919618053361773490905761718750
-0.0679805023415434167555204680866154376417398452758789062
-0.2597358874261860295362680517428088933229446411132812500
-0.1603824084449174680599981002160347998142242431640625000
-0.1940257181092987504023028577648801729083061218261718750
-0.3219187160509768830252141924574971199035644531250000000
0.1809170512608328507120347694581141695380210876464843750
0.4685160203442169657428451046143891289830207824707031250
0.0763385625405512274754826762546144891530275344848632812
-0.1796732968690121778898571847093990072607994079589843750
-0.5248217647995471191180172354506794363260269165039062500
0.5240034186654516368264467018889263272285461425781250000
-0.1094002934364616125284541681139671709388494491577148438
-0.0445521475527790658532900636146223405376076698303222656
-0.2687263145864283164776509238436119630932807922363281250
0.5691035642479381762015577805868815630674362182617187500
-0.2491660404317698473963815786191844381392002105712890625
0.2965232734914586831820315637742169201374053955078125000
-0.0583769853688596712659730769701127428561449050903320312
-0.4697244934538319927064264902583090588450431823730468750
0.4543073155358970383055350339418509975075721740722656250
-0.3524774556486154897250173689826624467968940734863281250
-0.0059080125812416180164365897553579998202621936798095703
0.5106507856655990718053317323210649192333221435546875000
-0.2043141217525298314328097148973029106855392456054687500
-0.7045038402390674248110258304222952574491500854492187500
0.4376226733748552755187688489968422800302505493164062500
-0.6529998037379548536662809965491760522127151489257812500
-0.0693831064442424205740422848975867964327335357666015625
0.1781531851519533582450804942709510214626789093017578125
-0.0673662059426710230214396801784459967166185379028320312
-0.3686357159813195560893461788509739562869071960449218750
0.1156848076108254741445335866956156678497791290283203125
0.1556044064954412720069854003668297082185745239257812500
-0.4366239090995270299977448757999809458851814270019531250
-0.1797117416931136857360939984573633410036563873291015625
-0.0186104202948082393664908096297949668951332569122314453
-0.5955751124136635654693350261368323117494583129882812500
0.0590241197246449550428692987225076649338006973266601562
-0.1599274076398740640492235343117499724030494689941406250
-0.1117249508264729906947820836649043485522270202636718750
0.0976058062570938911317597330707940272986888885498046875
0.3997246337524066883695184060343308374285697937011718750
0.2812841594584993831773545025498606264591217041015625000
-0.1450141982683377517293621394856018014252185821533203125
0.2699662444260266802587011625291779637336730957031250000
0.0603037336819390798470230663497204659506678581237792969
-0.1216380934221786558335764993898919783532619476318359375
-0.1404851876294879176043650659266859292984008789062500000
0.3890451409004951344172695826273411512374877929687500000
0.2057582785570181427292624221081496216356754302978515625
-0.5406592740802930174837115373520646244287490844726562500
-0.0188735617689059984036781258964765584096312522888183594
0.1834107384704916354767334496500552631914615631103515625
0.0899596896095623266287333308355300687253475189208984375
-0.0764763722646367438695591545183560810983180999755859375
0.1743707089224261208570965209219139069318771362304687500
-0.0092304819569415091223829605837636336218565702438354492
0.4398658724648267237533616480504861101508140563964843750
-0.0934881156276201330523889510004664771258831024169921875
-0.3833728037403907884517195725493365898728370666503906250
-0.0794154590902655804773857539657910820096731185913085938
-0.7505770260169890573109796605422161519527435302734375000
0.3097483004659676852909910849120933562517166137695312500
-0.4517227648793819549943862057261867448687553405761718750
0.1637230499257593119288856087223393842577934265136718750
-0.3490019756443029086412366268632467836141586303710937500
-0.3552296838440184290064394190267194062471389770507812500
-0.2615595257132589668280786554532824084162712097167968750
-0.4990024393158385973556789849681081250309944152832031250
0.0475734170464272576595021746470592916011810302734375000
-0.1365906869698766679110946142827742733061313629150390625
0.0127570621871790045032124538693096837960183620452880859
-0.2854849233240113193232900812290608882904052734375000000
-0.1476652007674749134125136151851620525121688842773437500
0.4068618107243338610778948805091204121708869934082031250
-0.2028649342096469632146238382119918242096900939941406250
0.2011935917917016813927233442882425151765346527099609375
0.2496514275107100666595272286940598860383033752441406250
0.3519869726347861216275703100109240040183067321777343750
0.2685946535624261222174880003876751288771629333496093750
-0.3028242347214047947012716122117126360535621643066406250
0.1631275642899626121540279655164340510964393615722656250
-0.2297642767455173318236205659559345804154872894287109375
-0.0123843548930498963817070645632156811188906431198120117
-0.3945822737760498744030712714447872713208198547363281250
-0.4013153086728314389297622710728319361805915832519531250
0.0455745592002715915747046437900280579924583435058593750
0.0945010545421038489211085220631503034383058547973632812
-0.1668404552597406720337858132552355527877807617187500000
0.0906974438669874288843075760269130114465951919555664062
-0.3915584303420484579838500849291449412703514099121093750
-0.2419572377694639286893618645990500226616859436035156250
-0.0968484019107612587040634366530866827815771102905273438
0.3811631150757315844579409258585656061768531799316406250
-0.2766020243839399372909326757508097216486930847167968750
0.4265248728425267144004351393959950655698776245117187500
-0.4074286172428104313425478721910621970891952514648437500
-0.1555115559372747535693548570634447969496250152587890625
-0.1895604617782627732136546683250344358384609222412109375
0.1104329365321892603146736178132414352148771286010742188
0.1563617441602812851986215036959038116037845611572265625
0.1224361737831071023085982574230001773685216903686523438
0.2962155028225307296096957543340977281332015991210937500
0.3663300462536043800021445804304676130414009094238281250
-0.0449028611218571169216851046712690731510519981384277344
-0.2959620158518665999913821451627882197499275207519531250
0.3867190049474750201952133465965744107961654663085937500
-0.1508193340985817254562562084174714982509613037109375000
0.0485869598609451891491062269778922200202941894531250000
-0.2220486113331320565666970878737629391252994537353515625
-0.1257641338522945961830856731467065401375293731689453125
0.7831564572302948112891840537486132234334945678710937500
-0.2605177812604582698874366997188189998269081115722656250
0.3068520730249240657805387400003382936120033264160156250
0.6630983536225083518900191847933456301689147949218750000
-0.3032965058654822909645076833839993923902511596679687500
-0.2329984752529599134618365496862679719924926757812500000
-0.1507649112988175832406056997569976374506950378417968750
-0.2077978895974244843980471841859980486333370208740234375
0.0620601817666317293054056847267929697409272193908691406
0.5048871207511598235839755943743512034416198730468750000
-0.4447578893700778746023161147604696452617645263671875000
-0.1441090305205447730241274939544382505118846893310546875
-0.1663457728638862154202371357314405031502246856689453125
0.1720390134159592854246056958800181746482849121093750000
0.3142292330800878774610396249045152217149734497070312500
0.2951616792325624238912951113888993859291076660156250000
0.3794857027962862394687704181706067174673080444335937500
-0.0494607047503731606097332473837013822048902511596679688
-0.0303957104630617237772671757056741626001894474029541016
-0.2941658881395624036692026948003331199288368225097656250
-0.2405619973322294102846541363760479725897312164306640625
-0.1017737491848442754616144156898371875286102294921875000
0.2739393880128923597361279007600387558341026306152343750
0.2378025999196656525835891216047457419335842132568359375
0.4573947842811502684234881144220707938075065612792968750
-0.4638104581621802502411355817457661032676696777343750000
-0.4952115815653312380639761158818146213889122009277343750
0.1019023357520087297301003559368837159126996994018554688
-0.2825682586431088605394279511529020965099334716796875000
-0.6417095104469591193563360320695210248231887817382812500
-0.2654337643776252808613946854165988042950630187988281250
-0.2218766222881280447687402102019404992461204528808593750
-0.1328120212366806773829353005567099899053573608398437500
0.0220028890430325162197444655021172366105020046234130859
0.2392537541347408702741006436554016545414924621582031250
0.0891438318428617038069461386839975602924823760986328125
-0.2681526322396312056461908923665760084986686706542968750
0.1848733723594645217414011995060718618333339691162109375
-0.2031344663865333743935082111420342698693275451660156250
-0.1876696838294755198539576213079271838068962097167968750
-0.0542443498639990778764641277120972517877817153930664062
-0.2257201395441246205564311821945011615753173828125000000
0.1741105505446658430201978262630291283130645751953125000
0.3818543373679053054559062729822471737861633300781250000
-0.1483256479295315122257647999504115432500839233398437500
-0.3210178900297327442281414278113516047596931457519531250
-0.3826954420867497153047054325725184753537178039550781250
0.1263037195680055402302599532049498520791530609130859375
-0.1200095141991950747906159335798292886465787887573242188
-0.3645843356576856653106233352445997297763824462890625000
0.2012421626529706797370522508572321385145187377929687500
0.3230702963743545264030387897946638986468315124511718750
-0.4274013357871176976843230477243196219205856323242187500
-0.3126630664241406010184221031522611156105995178222656250
-0.2318656081780167965700201193612883798778057098388671875
0.0121052239090872378046714885613255319185554981231689453
0.4850401814334394101635439255915116518735885620117187500
0.0670178022275970536325573334579530637711286544799804688
-0.3967123756959273217503891828528139740228652954101562500
-0.3473582353365663455413425708684371784329414367675781250
0.0040612106319197326803616121537743310909718275070190430
0.2581402324486477550813390280382009223103523254394531250
-0.4929650608421318191965099231310887262225151062011718750
0.2224111632140866878781793047892278991639614105224609375
-0.3789269505661271297825010151427704840898513793945312500
-0.1447093292664398123115176986175356432795524597167968750
-0.1978091084143627498281858834161539562046527862548828125
0.0533802233183435503871550054100225679576396942138671875
-0.3501797709539137271050890376500319689512252807617187500
0.0424612654202627948230031051934929564595222473144531250
0.1925720078590070494239938625469221733510494232177734375
-0.2802465554632738720108875440928386524319648742675781250
0.3146785797761140202055685222148895263671875000000000000
-0.2702177242698595716063891813973896205425262451171875000
0.2965432794218481604708870236208895221352577209472656250
0.2645767112432773626728987892420263960957527160644531250
-0.3963753643945701621298383088287664577364921569824218750
-0.5757429884710192347085921937832608819007873535156250000
0.2518254148042923246109126012015622109174728393554687500
0.0310318647038305694962900815880857408046722412109375000
-0.6237694634402022320074365779873915016651153564453125000
-0.0406407469133243035019908973026758758351206779479980469
0.2546806102509129310362823161995038390159606933593750000
0.1756482147678611327457076640712330117821693420410156250
-0.5394266502290193665558604152465704828500747680664062500
0.3785819741294050855273667366418521851301193237304687500
-0.0691298908228239333828568646822532173246145248413085938
-0.1757852369785697088655496145293000154197216033935546875
-0.3327662904326132431442886172590078786015510559082031250
-0.1027853355901535425953596813997137360274791717529296875
-0.0679648324202336562294135546835605055093765258789062500
-0.1612389718623487566695473560685059055685997009277343750
0.2076886455111067175671735185460420325398445129394531250
0.2117429717959386503700613957335008308291435241699218750
-0.0569398828588972283348823566484497860074043273925781250
-0.3608321137212185947262810259417165070772171020507812500
-0.0812815693286817186891113351521198637783527374267578125
-0.1060257990689239260273524223521235398948192596435546875
0.1926046039448878199884518380713416263461112976074218750
-0.0797835249628515569275677421501313801854848861694335938
0.2612506218472191443780161534959916025400161743164062500
0.1960391815052329456126045670316671021282672882080078125
-0.4625360213461537917112309514777734875679016113281250000
-0.5284505039713203178308731366996653378009796142578125000
-0.3045475605523589868184330953226890414953231811523437500
-0.4045424822454766200507947360165417194366455078125000000
0.3302033185682448079845130450848955661058425903320312500
0.0523834607011021205491552166222390951588749885559082031
0.3659110040927027740487176288297632709145545959472656250
0.5028206315741939880226141212915536016225814819335937500
-0.0413821585292226332142284661586018046364188194274902344
0.1979894959067823867471247467619832605123519897460937500
0.2182600361933483279486267747415695339441299438476562500
-0.2652530424240207573838290500134462490677833557128906250
-0.1021484327240217704346747495947056449949741363525390625
0.4705442994731178774081570281850872561335563659667968750
-0.3792800053371856994210986613325076177716255187988281250
-0.4176696753818975871297425328521057963371276855468750000
0.1138335622470585950516408502153353765606880187988281250
0.2809121905025820375989553667750442400574684143066406250
0.1612281356439385082701676310534821823239326477050781250
-0.2379826047532244692739311631157761439681053161621093750
0.2958048278525375329728319684363668784499168395996093750
-0.1070763250987105258404952223827422130852937698364257812
0.1920667553963394114102669618660002015531063079833984375
-0.0577434428599682969540651811257703229784965515136718750
-0.0225134208111481166902922979033974115736782550811767578
0.2464458137223447253827401937087415717542171478271484375
-0.4347463571047708863481773278181208297610282897949218750
0.3297771326582443762731600145343691110610961914062500000
0.0458621619173619279874465348711964907124638557434082031
0.0222946643180824549679286405989842023700475692749023438
0.2186672256585722173838348680874332785606384277343750000
0.4975658624636550841913162912533152848482131958007812500
0.3074369919155022778944896799657726660370826721191406250
0.4007222643464777300792434289178345352411270141601562500
-0.2966860067257162114628954441286623477935791015625000000
-0.3410118658964019777712906034139450639486312866210937500
0.0545238617051599580576315418056765338405966758728027344
0.4754235492508054328197886206908151507377624511718750000
0.0919123770416370861058297236922953743487596511840820312
0.4936598173519136101283777406933950260281562805175781250
-0.3234757904044591181325074558117194101214408874511718750
-0.2363611228227532889967221763072302564978599548339843750
-0.4056914897567923672383471966895740479230880737304687500
0.4943244559772305146694293398468289524316787719726562500
-0.1630560647433286491914117277701734565198421478271484375
0.1698729427890203202977659202588256448507308959960937500
-0.2751893672891423392456999863497912883758544921875000000
0.3730056489386225360149751395510975271463394165039062500
0.1756544356082034297195093586196890100836753845214843750
0.2520221449701564031542488919512834399938583374023437500
-0.1039972568800714564085652114044933114200830459594726562
-0.2570624949308063511566047054657246917486190795898437500
-0.3565241341330227520245443884050473570823669433593750000
0.5423593164500153385176872689044103026390075683593750000
0.2734633632202060904425877652101917192339897155761718750
-0.1309408982935663101621059922763379290699958801269531250
-0.1713141962422487507566870590380858629941940307617187500
-0.2868871736961599583359827647655038163065910339355468750
0.3383418059094662200259051587636349722743034362792968750
0.2875124564387381287389189310488291084766387939453125000
-0.0257562073551321282782744503947469638660550117492675781
-0.4690987956020023497138993207045132294297218322753906250
-0.3198402849837643224795158403139794245362281799316406250
-0.4402881683969041004544919815089087933301925659179687500
-0.0697992825756671847470258285284216981381177902221679688
0.2459988651909137680195982511577312834560871124267578125
-0.2633971352514695163371527542039984837174415588378906250
0.3348888972430365540411401070741703733801841735839843750
-0.4602796578907346614073503587860614061355590820312500000
0.0470727379941913090521943274779914645478129386901855469
0.1442944860169264320592930062048253603279590606689453125
0.3828880150785593516893356991204200312495231628417968750
0.1266957371506081120315911903162486851215362548828125000
-0.1908556629369176915744787947915028780698776245117187500
-0.1767192544048940272549685914782457984983921051025390625
-0.3027484629167944141237001076660817489027976989746093750
0.1478563517278825290013344329054234549403190612792968750
0.5246693082138053076945993780100252479314804077148437500
0.1323134227963284614837391472974559292197227478027343750
0.3434449385833392431877086892200168222188949584960937500
0.1583494204605327138057901947831851430237293243408203125
0.4684860004024598567617942990182200446724891662597656250
0.2792120538128884943418483999266754835844039916992187500
0.4387395588394619738714652612543432042002677917480468750
0.4828813951119043101911643134371843189001083374023437500
0.3235680590932342171051061541220406070351600646972656250
-0.0906056204233003370518417796120047569274902343750000000
-0.1674632833800832054649276869895402342081069946289062500
0.4648868848098569594995410625415388494729995727539062500
-0.4784252953095508575920291605143574997782707214355468750
0.4637300650624648357123191999562550336122512817382812500
-0.2852909903080408371423004609823692589998245239257812500
-0.0758159707860984882765720271891041193157434463500976562
0.2473340956352108321869565088491071946918964385986328125
-0.2141936415479731292688114763222984038293361663818359375
-0.3783607776585569126837071962654590606689453125000000000
-0.1618202245280738749144688881642650812864303588867187500
-0.3852986643680316181104217321262694895267486572265625000
-0.4311658827855198716783036161359632387757301330566406250
0.1345643691654157536596869704226264730095863342285156250
0.4807098826477512187871354853996308520436286926269531250
0.2262172262526948862682019125713850371539592742919921875
-0.4928287996612178978317331257130717858672142028808593750
0.0497266954524793955427774960753595223650336265563964844
0.0443732415093502016723014946819603210315108299255371094
-0.4436670018323473074772778090846259146928787231445312500
0.4812430090568417528906763891427544876933097839355468750
-0.4091658672223675852208657488517928868532180786132812500
-0.1808075728526589431854887379813590086996555328369140625
0.2905536392769149101056314066227059811353683471679687500
-0.1306325275211638048400430989204323850572109222412109375
0.4571757126372109625300765856081852689385414123535156250
0.5090849741216227908324754025670699775218963623046875000
0.2219170787813898315654626003379235044121742248535156250
0.0106384671927398123669750162889613420702517032623291016
-0.4987895757442234456746632531576324254274368286132812500
0.3731439923467804731238572912843665108084678649902343750
0.4856503775356821317465971787896705791354179382324218750
-0.3387942985051174971111720424232771620154380798339843750
0.1564586743549244707285339472946361638605594635009765625
-0.1353277124111592066846299076132709160447120666503906250
0.3441561061110802732798674696823582053184509277343750000
0.0382382774282301537982498018664045957848429679870605469
0.5278508829244663580482210818445309996604919433593750000
0.3006959027866747957702386884193401783704757690429687500
0.1481990669914183267330543003481579944491386413574218750
-0.1263317056034913565820687608720618300139904022216796875
-0.2643067563846821510509244035347364842891693115234375000
0.5495535808119533793814071032102219760417938232421875000
0.0546440969782351973482725782105262624099850654602050781
-0.0693376407311597497962196712251170538365840911865234375
-0.2153415877956930679637537195958429947495460510253906250
-0.4019308345874390009377918886457337066531181335449218750
0.1123377383303968690686502895914600230753421783447265625
-0.0479365060065334719352492243160668294876813888549804688
0.0022887771838073531043000752305260903085581958293914795
-0.2939632723184736895483126772887771949172019958496093750
0.2027792394188812630240192902419948950409889221191406250
0.1920603712015568897975015261181397363543510437011718750
0.2535731975861265086180651451286394149065017700195312500
-0.2791992107468673212089527169155189767479896545410156250
-0.2474122243563030010271575065416982397437095642089843750
0.3086416529859047352957190923916641622781753540039062500
0.2389815880524247260208170473561040125787258148193359375
0.3078769401360307300663521345995832234621047973632812500
0.5359085904823517321204917607246898114681243896484375000
-0.1402472881042433339171537909351172856986522674560546875
-0.5264932496339248535477395307680126279592514038085937500
0.5266156404173155669568018311110790818929672241210937500
-0.4491256730445475353619144698313903063535690307617187500
-0.0438773515258455912291246647782827494665980339050292969
0.1059422790496891142453250722610391676425933837890625000
-0.0519301835032157793614615570731984917074441909790039062
-0.6224957360199384615029316591972019523382186889648437500
