nn
1,10,10,10,10,10,1
dIn
0
dIntern
,
dOut
,
normP
1.9999999999999984
normY
1.0
w
0.1816207200671657584489793180182459764182567596435546875
-0.5276582189725469440588767611188814043998718261718750000
-0.6580385528085328505909501473070122301578521728515625000
0.2341444171979226440694077382431714795529842376708984375
0.9550018402702127318093516805674880743026733398437500000
0.0510192832857571804128227199726097751408815383911132812
0.5172666951526027068197777225577738136053085327148437500
-0.3344261171314579228486252304719528183341026306152343750
1.2432793994089097466826387972105294466018676757812500000
0.1957431878290704918565978687183815054595470428466796875
0.1727857159654665186732103165923035703599452972412109375
-0.0892867452308111347880625885409244801849126815795898438
0.1041351188585978165823675567480677273124456405639648438
-0.2712757001358724884276796274207299575209617614746093750
-0.2310907551628686718014904499796102754771709442138671875
-0.4937219295829663456842695268278475850820541381835937500
0.1809654170777165171912770347262267023324966430664062500
0.1897227975831557167385454931718413718044757843017578125
-0.0078920374521651917576470225412776926532387733459472656
0.5663461989164888521486318495590239763259887695312500000
-0.0180907667602017360741761820008832728490233421325683594
0.0086973568037839159988733328532362065743654966354370117
0.0101473411829775504722217505104708834551274776458740234
-0.2897820652710027533593972748349187895655632019042968750
-0.0337032387291674798146523528430407168343663215637207031
0.3535960579760646926850142790499376133084297180175781250
0.1775399178868296012900884761620545759797096252441406250
0.3172235653670351096522495026874821633100509643554687500
-0.0791937705549562165341370700843981467187404632568359375
0.2299144385430064718711662408168194815516471862792968750
-0.0799437538819390697275579782399290706962347030639648438
-0.3620144904365757976272277574025793001055717468261718750
0.5948823816901237515608613648510072380304336547851562500
-0.4803034612047080709196222869650227949023246765136718750
0.3778074624617442367480180109851062297821044921875000000
-0.2644109955285418034343081217230064794421195983886718750
0.3416643752788291465982695171987870708107948303222656250
-0.1319085795695140173044990206108195707201957702636718750
-0.3347922947677643423780580178572563454508781433105468750
0.1162827275365429235964853660334483720362186431884765625
0.3713641164070006772668364192213630303740501403808593750
-0.5363747695095386625041555817006155848503112792968750000
0.5875302864668418001414806894899811595678329467773437500
-0.2969230425558896935278596629359526559710502624511718750
0.1939606832212983633656477877593715675175189971923828125
-0.5009297767559269809467537015734706073999404907226562500
-0.0625812940427717956382025477068964391946792602539062500
0.1813420736854506054580582485868944786489009857177734375
-0.2941091212054650627649721172929275780916213989257812500
-0.2438341750555396703070698549709049984812736511230468750
-0.3314975660704503335196591251587960869073867797851562500
0.4629065710581434789361310322419740259647369384765625000
-0.0987360192153973331707916827326698694378137588500976562
0.0213319814797135742789890855419798754155635833740234375
0.1888456302490840177377151576365577057003974914550781250
-0.1949125383766803221163854686892591416835784912109375000
-0.4335879153420857390344167470175307244062423706054687500
0.0906655347238094072581660043397278059273958206176757812
0.0218857922749835197284706822529187775216996669769287109
0.1372346321901499188733453138411277905106544494628906250
0.4662446286274300466523357044934527948498725891113281250
0.1173092811372524330026934080706269014626741409301757812
-0.1705854394143956898055591864249436184763908386230468750
-0.1239175253547470795245644126225670333951711654663085938
-0.3999146806972191936502269982156576588749885559082031250
0.7491998724070315640588546557410154491662979125976562500
0.0191236146019903574533316259476123377680778503417968750
0.7671100075452008670851000715629197657108306884765625000
0.2474393222169715689240376832458423450589179992675781250
0.2029114614380748415900512782172881998121738433837890625
-0.1483868696107312756815588272729655727744102478027343750
-0.1285243315681404985273417196367518045008182525634765625
-0.1430823353660445051982463837703107856214046478271484375
-0.1082329825151658320159242521185660734772682189941406250
-0.5057745293388388185817916564701590687036514282226562500
0.3177684179673659348175362993060844019055366516113281250
-0.1314693198856764777548988831767928786575794219970703125
0.1223631252629907711915180357209465000778436660766601562
-0.3916567194984841848715007017744937911629676818847656250
0.2978076260354555748754989963344996795058250427246093750
0.1074481271125309611580433966082637198269367218017578125
-0.3006597371174244970326583370479056611657142639160156250
-0.4222136156714749732898894762911368161439895629882812500
0.3410848775666725507527132776885991916060447692871093750
0.0718254883298931334767445378020056523382663726806640625
0.4135014742615407135062355337140616029500961303710937500
-0.2725834096261877115274785410292679443955421447753906250
0.4024077770488193594999870583706069737672805786132812500
-0.4361743142403595729916787604452110826969146728515625000
-0.4729246788070490259414668798854108899831771850585937500
0.4301445230826848598049139127397211268544197082519531250
-0.1663971312281068981597798028815304860472679138183593750
0.1791939329897605237551516665917006321251392364501953125
-0.3666215864318097539253926697710994631052017211914062500
0.2297424407384417444077939762792084366083145141601562500
0.0066108419886302628373786482995910773752257227897644043
0.0629565204087053353898539853616966865956783294677734375
0.0068807178607511905454874323595504392869770526885986328
0.2886185366620713232954642535332823172211647033691406250
-0.0248009589875202753062044536136454553343355655670166016
0.6304063037540704739214447727135848253965377807617187500
0.5745105363733309378204694439773447811603546142578125000
-0.6647513775338893537991680204868316650390625000000000000
0.4030887214707483123810050074098398908972740173339843750
0.4069097747810084819697351576905930414795875549316406250
0.5073448154687347777525019409949891269207000732421875000
-0.0700203269044119974706674724984623026102781295776367188
0.7029491206717833895467606453166808933019638061523437500
0.2978116237857175163661338501697173342108726501464843750
-0.3003018209030197671616235766123281791806221008300781250
0.1626017371392722288270249464403605088591575622558593750
-0.2494393319811468445745816779890446923673152923583984375
-0.3087671417142099361541340840631164610385894775390625000
0.0125968576856176593670166852234615362249314785003662109
0.1697592330956498030136714305626810528337955474853515625
0.2408326250292661396823490349561325274407863616943359375
0.5746811262194293501437414306565187871456146240234375000
0.3209781341070258586789520904858363792300224304199218750
0.4465981872937136998302776191849261522293090820312500000
0.0919618937049310608555785506723623257130384445190429688
0.5648042457661119897238677367568016052246093750000000000
0.1323298971939919355111925369783421047031879425048828125
-0.0967913158864371764300571499006764497607946395874023438
0.0553424716966739935197772126684867544099688529968261719
0.2464839864118088808009332524306955747306346893310546875
0.2683272052050284517399347805621800944209098815917968750
0.1501557645183941858135767688509076833724975585937500000
-0.5155959336990272312561955914134159684181213378906250000
0.2433265857104263407695299292754498310387134552001953125
-0.5266536789129234730211237547337077558040618896484375000
0.2050398531740988961047378325019963085651397705078125000
-0.3950373422580571447504382831539260223507881164550781250
0.5856273472204618357750405266415327787399291992187500000
-0.1068521987412218710034039759193547070026397705078125000
-0.3519925850090105945433549550216412171721458435058593750
-0.3398743419917765185012115125573473051190376281738281250
-0.3778093415084085582300588157522724941372871398925781250
-0.2052161559240048838148595677921548485755920410156250000
0.2879149086648540856181455183104844763875007629394531250
-0.3489956368649771989431940255599329248070716857910156250
-0.1830112173570655753618297012508264742791652679443359375
-0.0281954283029670592364279713137875660322606563568115234
-0.5049524831711960093372226765495724976062774658203125000
0.7063103587445666020627754733141046017408370971679687500
-0.1431203006664124310898245084899826906621456146240234375
-0.1503090417078757345947792600782122462987899780273437500
0.0221626560841632069820406059079687111079692840576171875
0.4348369311150010463329351750871865078806877136230468750
0.7902061260160355704584844716009683907032012939453125000
0.1873326009504478750766764960644650273025035858154296875
-0.2884998766082769727780998891830677166581153869628906250
0.6366283233786875772608482293435372412204742431640625000
-0.4428287961914295078891257162467809394001960754394531250
-0.6084530259624785220040621425141580402851104736328125000
0.3846340038217755941118980445025954395532608032226562500
-0.5428705113558326411649090914579574018716812133789062500
-0.2726723956774965151872436308622127398848533630371093750
-0.2514359709277945720273805818578694015741348266601562500
-0.0571830838244552080995575238375749904662370681762695312
0.5011836237401402494029412082454655319452285766601562500
0.1771011716400913982294440529585699550807476043701171875
0.1464875640061315542617137452907627448439598083496093750
0.1745769798542752826442381319793639704585075378417968750
0.0776491762963685827614312984223943203687667846679687500
-0.2998998536978367823735425190534442663192749023437500000
0.4311149176911657221467066847253590822219848632812500000
-0.3599630355403011794379608545568771660327911376953125000
0.4944438916054210708672655982809374108910560607910156250
0.3559726748291588416250874615798238664865493774414062500
-0.2544916309995927106157864727720152586698532104492187500
0.0753681435137202454521698768985515926033258438110351562
0.0531722281059978305051139102488377830013632774353027344
0.2064363451167485763448894431348890066146850585937500000
-0.1139197677364038735481344133404491003602743148803710938
-0.3567242174946542720981312868389068171381950378417968750
-0.1781988349166367946452282922109588980674743652343750000
0.4449616343136372220712360103789251297712326049804687500
-0.0935344971196638286237146076018689200282096862792968750
0.5517770270654891451300727567286230623722076416015625000
-0.2696817850744526179340709859388880431652069091796875000
0.3054514104869756607740782783366739749908447265625000000
-0.6790093930541374334097781684249639511108398437500000000
0.4716365383959092993926276449201395735144615173339843750
0.8400365903830392388940140335762407630681991577148437500
-0.4608991081827550351235345260647591203451156616210937500
0.2906145222741400302446379555476596578955650329589843750
-0.0163298869159715191734516537280796910636126995086669922
0.1485519443216662405227168619603617116808891296386718750
0.1872137742153734685235377810386125929653644561767578125
-0.0068943774286301341344684878720272536156699061393737793
-0.3439587921733012754188507642538752406835556030273437500
0.0333373251015158036936192331722850212827324867248535156
-0.0967804719809475105796181537698430474847555160522460938
-0.4903569113184949590511507722112582996487617492675781250
0.5439085651812278765504515831707976758480072021484375000
0.3514565547537876755157526531547773629426956176757812500
-0.3976028077992441178700744330853922292590141296386718750
0.3821663860864700779096381211275001987814903259277343750
0.3524371418055590177154101638734573498368263244628906250
0.1693229582113591757952519856189610436558723449707031250
-0.2971691096175418933533762810839107260107994079589843750
-0.0005617858969161447372023254764883404277497902512550354
-0.1280033605164871135517756783883669413626194000244140625
0.8237188122093866970985232001112308353185653686523437500
-0.4810952139097644519871721513482043519616127014160156250
-0.0772141236446403783633130046837322879582643508911132812
-0.2286434963288055122188069390176679007709026336669921875
0.2138513088702224951287433896141010336577892303466796875
-0.0526234330636191002805723826440953416749835014343261719
-0.2229638755193940891086157307654502801597118377685546875
0.0726259472741464795486621142117655836045742034912109375
-0.2708239213423599411889597377012250944972038269042968750
0.0005836049635338870543790901201930410024942830204963684
-0.2579340828578928768166633744840510189533233642578125000
-0.4264266294990448624702139568398706614971160888671875000
0.1667779311388519203340763397136470302939414978027343750
0.3958549162034506463392347086482914164662361145019531250
0.2418730351075513984593357008634484373033046722412109375
0.1784610942447860115755986498697893694043159484863281250
-0.4029252467626130429501074559084372594952583312988281250
-0.6458456069073774674649257576675154268741607666015625000
-0.3343937902515156657123895911354338750243186950683593750
-0.0992371929564566379600165646479581482708454132080078125
0.0004647939621087321675381442975805157402646727859973907
0.1320164725491900503673292632811353541910648345947265625
-0.0524931721909432449924004515651176916435360908508300781
0.4151353955924254046649934934976045042276382446289062500
-0.2120402404574139032522595016416744329035282135009765625
-0.4119571183180800177936475847673136740922927856445312500
-0.4561981448844734110537046944955363869667053222656250000
0.4064724944258645833450316331436624750494956970214843750
-0.2961671892073923784138855808123480528593063354492187500
-0.2807163464206121061828014262573560699820518493652343750
-0.5842160220599544873110176013142336159944534301757812500
0.2318669472272213150088049360419972799718379974365234375
0.3296784356591241915701573361729970201849937438964843750
-0.1243265245634611187997009551509108860045671463012695312
0.4080355902874642781696934434876311570405960083007812500
0.2122741533873051811287524515137192793190479278564453125
-0.3378014571792621323353955631318967789411544799804687500
-0.4006503308084126135923952460871078073978424072265625000
0.4243762130921786002168971663195407018065452575683593750
-0.2218075700971130492789029631239827722311019897460937500
-0.6556961568175168064698254966060630977153778076171875000
0.1608451880062173044994011661401600576937198638916015625
-0.0329186525729295090259007849908812204375863075256347656
0.3748361633565507333720745464233914390206336975097656250
0.3538947918707887052569560637493850663304328918457031250
0.2486341927352608838219794051838107407093048095703125000
0.0714609299748152487774532914954761508852243423461914062
-0.6120217370495003583741322472633328288793563842773437500
-0.1815731028427500226563040541805094107985496520996093750
-0.3931900595867072190081614735390758141875267028808593750
-0.2542024849593246815793179393949685618281364440917968750
0.5291770158716546657018398036598227918148040771484375000
0.3797758988727631401793871646077604964375495910644531250
-0.0130890541862572797049413253489547059871256351470947266
0.2597245320478325791846430092846276238560676574707031250
-0.2620342740973922723846101234812522307038307189941406250
0.4140826741207313532733280680986354127526283264160156250
0.0205392050531863420981260048847616417333483695983886719
0.3573851188891092878208155525499023497104644775390625000
-0.2051934771784651168058388748249853961169719696044921875
-0.1008258018524344767907763298353529535233974456787109375
0.0697589279013985513744344757469661999493837356567382812
-0.1798756703309210558394681811478221789002418518066406250
-0.4153882217133937904129936669050948694348335266113281250
-0.1589223155628654016169321039342321455478668212890625000
0.2628970124068318314769499011163134127855300903320312500
-0.3373217040274960054624386884825071319937705993652343750
-0.0184097388224237594467336265324775013141334056854248047
0.4340722900311997367595040486776269972324371337890625000
-0.1059720108943994348882355893692874815315008163452148438
-0.2499414196462926840425211594265419989824295043945312500
-0.1167263787119260654012720124228508211672306060791015625
0.0028598373299413100065424764295585191575810313224792480
0.8114720713951928399154667204129509627819061279296875000
0.5297419903583486799902857455890625715255737304687500000
-0.2718740976847967005802786388812819495797157287597656250
0.6889936576226832753988560398283880203962326049804687500
-0.3839349315255005667957277637469815090298652648925781250
-0.3452680033471410836476422900886973366141319274902343750
0.0532877710106931523625917179742828011512756347656250000
0.1151032112283757319337595959041209425777196884155273438
0.7996638300539055110860431341279763728380203247070312500
0.3695772682510652940024442614230792969465255737304687500
0.0448557511594734198423495286078832577913999557495117188
-0.3845670416388894952142152305896161124110221862792968750
-0.4568012052929797395250943736755289137363433837890625000
-0.1028740080077762547583475338797143194824457168579101562
-0.2585005081603781729171487313578836619853973388671875000
0.4225362605018191941574912107171257957816123962402343750
0.3706576439406369383178230236808303743600845336914062500
0.4120921008727599921250828174379421398043632507324218750
0.3325472092789141798085950085805961862206459045410156250
-0.4255521695002431048493463094928301870822906494140625000
0.0616662409811462794428926770251564448699355125427246094
-0.1007147371116950684832858087247586809098720550537109375
-0.1478433194785893078915250953286886215209960937500000000
-0.3896126418409146530130726659990614280104637145996093750
-0.3314005151166115603622586149867856875061988830566406250
0.2595172895663623302553446592355612665414810180664062500
0.3182178180532780342737453338486375287175178527832031250
0.2332072086989909476262283760661375708878040313720703125
-0.2902828090661445648024141519272234290838241577148437500
0.1561482719479839464948867089333361946046352386474609375
0.0695763940231749339337952164896705653518438339233398438
-0.5635708683993799761324794417305383831262588500976562500
0.0093618066945766135328321766451153962407261133193969727
-0.1439697656743168241444408295137691311538219451904296875
0.3007497134899385637929469794471515342593193054199218750
0.2407311315401623741383474452959490008652210235595703125
0.0970309759405402066922974313456506934016942977905273438
-0.0408599118345730691337358564396708970889449119567871094
-0.3246816842367574729166790348244830965995788574218750000
-0.6652317496123996143353451770963147282600402832031250000
-0.0459124935058376759666742827903362922370433807373046875
0.6916489341744251895249817607691511511802673339843750000
-0.2017763825294384694153393411397701129317283630371093750
-0.4972961614437154675982810658751986920833587646484375000
0.2622589568300960349844785923778545111417770385742187500
-0.2549670252939010284265464179043192416429519653320312500
0.4663621983637444845527397774276323616504669189453125000
-0.8275307331160913770773390751855913549661636352539062500
-0.0094051656493519975726913529001649294514209032058715820
-0.6235545683778864756163784477394074201583862304687500000
0.0175082044576018620862800645454626646824181079864501953
0.0512055166057126531775622879649745300412178039550781250
0.1500799957123433447936378115628031082451343536376953125
0.3456716767667984968603889228688785806298255920410156250
-0.3633163650902544450360664995969273149967193603515625000
-0.0360462949134229895808978483273676829412579536437988281
0.2059844691194215038354542457454954273998737335205078125
-0.1215134111148191281559505227960471529513597488403320312
0.3398360818288663209862932035321136936545372009277343750
0.4910510710959760105609461788844782859086990356445312500
0.0954135134558899977719192975200712680816650390625000000
-0.0780425832541021269328496146044926717877388000488281250
0.1206861758435606724049193871906027197837829589843750000
0.3362856426138419729809925229346845299005508422851562500
0.3986602095541543766543668425583746284246444702148437500
-0.1776870320141365755528539693841594271361827850341796875
0.2755177062759822659288033719349186867475509643554687500
0.0411725362988808324393730231349763926118612289428710938
0.1596103262361257824064608712433255277574062347412109375
0.4179132916195308355966631097544450312852859497070312500
-0.0534867623170673309185296773193840635940432548522949219
0.2229589444899962580315389004681492224335670471191406250
0.4999553041920485885185598817770369350910186767578125000
-0.7286589522233579696575134221347980201244354248046875000
-0.4431212398730579038463872620923211798071861267089843750
0.3527632255188818399815886550641153007745742797851562500
-0.2651824205892942543094648044643690809607505798339843750
0.3396111933565951757074685701809357851743698120117187500
-0.3721241811505328067610776088258717209100723266601562500
-0.1536989797067199181590524403873132541775703430175781250
-0.2773094192067069307938709243899211287498474121093750000
-0.4463461824429098556699102573475101962685585021972656250
-0.0028939454203992325508065786010547526529990136623382568
0.4721418715278055677764257325179642066359519958496093750
0.4055712722530696034972663710505003109574317932128906250
-0.1332141260426099316216408396940096281468868255615234375
-0.0768062611575558579213307552890910301357507705688476562
0.1781448170325585778073218534700572490692138671875000000
0.3255772476627310507701906772126676514744758605957031250
0.5232186906843772078445908846333622932434082031250000000
0.1522109659667562897578108049856382422149181365966796875
-0.4874393857466611246209708951937500387430191040039062500
0.1680977362259800100829920666001271456480026245117187500
-0.2078745292629483876201135217343107797205448150634765625
0.2717758193945625788678910339513095095753669738769531250
-0.2063248560423794342177927774173440411686897277832031250
-0.1917288313317174752725691178056877106428146362304687500
0.3960762217173464105890445807744981721043586730957031250
0.3000009384997813222106799457833403721451759338378906250
-0.2521817849066352867914986290998058393597602844238281250
-0.1773104796897976564995502712918096221983432769775390625
-0.3615504613836983960339921395643614232540130615234375000
-0.1198472406535729950505242413782980293035507202148437500
-0.0400315231268533675001997096387640340253710746765136719
0.3023369824434258279488574316928861662745475769042968750
0.3255853718046988753975767849624389782547950744628906250
0.8235850746187344251225681546202395111322402954101562500
0.2147502833405938449384819932674872688949108123779296875
0.5618164233571099064334930517361499369144439697265625000
0.2652474220545502636703361076797591522336006164550781250
0.3829781967180869717282121200696565210819244384765625000
-0.3506876558176936220512232011969899758696556091308593750
0.0521741173263901916734575081591174239292740821838378906
0.2098770760410428870557097980054095387458801269531250000
0.2613328193311210689842027932172641158103942871093750000
0.0227938326204922409035091845908027607947587966918945312
0.3292433365590476945783393603051081299781799316406250000
-0.2227664955619544084886030077541363425552845001220703125
0.0982552548954704479955424289983056951314210891723632812
0.3309572930131090551242323272163048386573791503906250000
0.1422476700588657938517656020849244669079780578613281250
0.1183700876192355505578390761911578010767698287963867188
0.3912999219874923606532490794052137061953544616699218750
0.2498137540915645049555138257346698082983493804931640625
-0.0345809004451030493898500139948737341910600662231445312
-0.2946609638895452687457066076603950932621955871582031250
0.6757709736621818619184409726585727185010910034179687500
0.2309216091779109081283394289130228571593761444091796875
-0.1923863256066646876263348531210795044898986816406250000
-0.3300977010567667235818589688278734683990478515625000000
0.4742744514392268073699199248949298635125160217285156250
0.6252788405262307280807476672634948045015335083007812500
0.3506298645677742298332191239751409739255905151367187500
0.1228068138385735447171143164268869441002607345581054688
0.2683599049263504787710132859501754865050315856933593750
0.4218385179237210680369685178447980433702468872070312500
0.0657235350046952715441506143179140053689479827880859375
0.3263897601988365315683893186360364779829978942871093750
-0.4880301023439421737037946513737551867961883544921875000
0.5226845723945293675782863829226698726415634155273437500
-0.3016603068310353408243429385038325563073158264160156250
-0.0495114465139180615071978763808147050440311431884765625
0.1519411277516642677642977332652662880718708038330078125
0.1810635487981399616153055376344127580523490905761718750
0.5831970807450368443625166037236340343952178955078125000
-0.0626945868988135757149393612053245306015014648437500000
-0.4479595867506762640886108783888630568981170654296875000
-0.0372489103498609974707278524874709546566009521484375000
-0.0552044016214781885221185575574054382741451263427734375
0.5233579454172775369258374666969757527112960815429687500
-0.0747751353298522908330525638120889198035001754760742188
0.1167061135370155294799232592595217283815145492553710938
-0.4315038428540978743264133754564682021737098693847656250
0.3248118438041956435036183847842039540410041809082031250
0.3632612427527721066233823421498527750372886657714843750
0.0076690181881439003011569077727926924126222729682922363
-0.4708512219517286823133872530888766050338745117187500000
-0.2219075730895566644917948906368110328912734985351562500
0.1741992448384970804120541743031935766339302062988281250
-0.4153737807741253451609964031376875936985015869140625000
-0.1841724107724048986600706712124519981443881988525390625
-0.1819686643343677023842985818191664293408393859863281250
-0.0704016917664167934942653914731636177748441696166992188
-0.0923796722498864408823493477029842324554920196533203125
-0.3688519877021383397419640459702350199222564697265625000
-0.4195651794147258750733442411728901788592338562011718750
-0.4109640229888232298982586598867783322930335998535156250
0.5078724176369285858712032677431125193834304809570312500
-0.5624138549200955461415674108138773590326309204101562500
-0.0011097710904119377668675117121210860204882919788360596
-0.0205631343722855915168157281414096360094845294952392578
0.3581787991060692011302535320282913744449615478515625000
-0.0749462679404738624233672794616722967475652694702148438
-0.2393680635216579588586682802997529506683349609375000000
-0.0849204293483463434899505273278919048607349395751953125
-0.0192831803098856002787186980640399269759654998779296875
-0.1325717221055839889487515392829664051532745361328125000
-0.3986994159114800040377701861871173605322837829589843750
-0.1325109795336447682245761825470253825187683105468750000
0.4631858502775259012196329422295093536376953125000000000
0.4241171031528284118827798465645173564553260803222656250
-0.3035523028165535985856138267990900203585624694824218750
-0.0797497787997203527732281713724660221487283706665039062
-0.3011605874226496171175426752597559243440628051757812500
0.5394622971632401231545372866094112396240234375000000000
-0.1595229625236600223825433886304381303489208221435546875
-0.4647132824081302016061556514614494517445564270019531250
-0.2498628123869521266975368689600145444273948669433593750
-0.3250812255814448104018765661749057471752166748046875000
0.6176496903007536731777804561716038733720779418945312500
0.0600173940774737374459490979461406823247671127319335938
0.3231711111307808415027409409958636388182640075683593750
0.3514439821093554572328798712987918406724929809570312500
0.0649221116852825019805095507763326168060302734375000000
0.1255953478680524038058052838096045888960361480712890625
