nn
1,10,10,10,10,10,1
dIn
0
dIntern
,
dOut
,
normP
1.9999999999999984
normY
1.2886529028224714
w
0.5010468912701930843667241788352839648723602294921875000
0.8456426448145512031473458591790404170751571655273437500
-0.5918714094153614269089302979409694671630859375000000000
0.9156259477799452151103309915924910455942153930664062500
0.9236489659985269717878964002011343836784362792968750000
-0.2422661807600910710558395066982484422624111175537109375
0.2514307454779537431832636684703174978494644165039062500
0.1995884443920816764261871867347508668899536132812500000
-0.2799014922050453990642893131735036149621009826660156250
0.8496576635312749203876592218875885009765625000000000000
-0.0649031031589374085566390704116201959550380706787109375
0.0605545841334504952868655891506932675838470458984375000
-0.1787895091059015229006945446599274873733520507812500000
0.2266093866441336868167155671471846289932727813720703125
-0.1750519577314240682319734787597553804516792297363281250
0.2379852236104675888839210529113188385963439941406250000
-0.1735999434012023001638880259633879177272319793701171875
-0.2763399674626908497643285045342054218053817749023437500
-0.3722604122383113001149013143731281161308288574218750000
0.4925272832933210165329285246116342023015022277832031250
-0.2122481888438127461959936681523686274886131286621093750
-0.5763735635227964504423425751156173646450042724609375000
0.1764779840020800349975615972653031349182128906250000000
-0.1194410978528513550545042676276352722197771072387695312
0.2386469145088000731735888848561444319784641265869140625
-0.4867672631280694495181649017467861995100975036621093750
0.5529826440581623314685089098929893225431442260742187500
0.2411413229730256513327901757293147966265678405761718750
0.0257685954359597076124277492681358125992119312286376953
-0.1860121426280137713060724991009919904172420501708984375
0.4739870047675722175561929816467454656958580017089843750
-0.6207320922579997457546596706379204988479614257812500000
-0.1686431796843740060776184463975368998944759368896484375
-0.1163820201230657408464352897681237664073705673217773438
0.7248104717414167730282770207850262522697448730468750000
0.3195839984825145085878261852485593408346176147460937500
-0.0104682453255490505450442384471898549236357212066650391
0.0637436347659030289047876749464194290339946746826171875
-0.0941852337802743522221504690605797804892063140869140625
-0.0418697673184689894698706780218344647437334060668945312
-0.2862507281908401868264490985893644392490386962890625000
0.1580244052193275350326473471795907244086265563964843750
-0.3476828497411346141632293438306078314781188964843750000
0.2643435962888756596278483357309596613049507141113281250
-0.4713169588891274464081959649774944409728050231933593750
0.2857389437202011439609350418322719633579254150390625000
-0.1329649647640755993904804199701175093650817871093750000
0.2148677376420121687417008615739177912473678588867187500
-0.1382097872623956891224850096477894112467765808105468750
0.1254167789914186481592395239204051904380321502685546875
0.5387836639351509804285456084471661597490310668945312500
0.1541858477383647174629999199169105850160121917724609375
0.5008788030047859329840775899356231093406677246093750000
-0.2433178633246829147829259909485699608922004699707031250
0.5248822939533304143822078913217410445213317871093750000
-0.1992121953065201789279115018871380016207695007324218750
0.3599369427663146048246289865346625447273254394531250000
0.3179863284350195051786158728646114468574523925781250000
-0.5678122713825539680243537077330984175205230712890625000
0.2991127620780706930503356488770805299282073974609375000
0.5263692491855578303727725142380222678184509277343750000
0.0944405014505872719698942319155321456491947174072265625
0.0755764887023379211550278000686375889927148818969726562
-0.5315129166327895449128959626250434666872024536132812500
0.7620940058420819784856803380534984171390533447265625000
-0.5124100304608530942473976210749242454767227172851562500
0.2259522423951786651574735742542543448507785797119140625
0.2591493358198445062789971871097804978489875793457031250
0.2917366289535776591179683236987330019474029541015625000
0.1094734153542618743104597456294868607074022293090820312
-0.4918177715788758508352884746273048222064971923828125000
0.3505308735083570992330237459100317209959030151367187500
0.0622370537360873929411120286658842815086245536804199219
-0.3424921426768228194248422369128093123435974121093750000
-0.2261936328885302827096381861338159069418907165527343750
0.0294021149176425904137044398112266208045184612274169922
-0.1537084431283358143538464446464786306023597717285156250
-0.0678401375836648889983138133175089024007320404052734375
-0.3783459661278023022923377993720350787043571472167968750
0.2719656812324434680405715880624484270811080932617187500
0.3446151710569773096715096016851020976901054382324218750
0.3639992801505819164376021035423036664724349975585937500
-0.3973345019819935486360407139727612957358360290527343750
-0.4149233567737996009050505108461948111653327941894531250
-0.1283450434280280494370174437790410593152046203613281250
-0.2245722622739595997209960387408500537276268005371093750
-0.3769706667284933310213546064915135502815246582031250000
0.4176502602874632708029878358502173796296119689941406250
-0.2002873712938960382157205231123953126370906829833984375
0.3294989407846721229944364495167974382638931274414062500
0.2184578112000309380036355832999106496572494506835937500
-0.5094604079895257431331856423639692366123199462890625000
-0.1300958025759246794450518791563808917999267578125000000
0.0584365852620665898742302601931442040950059890747070312
-0.0087175426610740236466057240249938331544399261474609375
0.4023183850122432070328670761227840557694435119628906250
0.2467778410665094901421667827889905311167240142822265625
-0.2966112799521388176948732962046051397919654846191406250
-0.0728935801419246798271700527038774453103542327880859375
-0.1996055540905495029324612232812796719372272491455078125
-0.0092540118455562720561902168014967173803597688674926758
-0.2188715524720030447536345263870316557586193084716796875
-0.1773758266548707829279862835392123088240623474121093750
0.4589096441045783514312006445834413170814514160156250000
0.2429277276245326022685588895910768769681453704833984375
0.4160017847540270485851010562328156083822250366210937500
0.0683704965429859229386622132551565300673246383666992188
-0.2252496453244294261075708618591306731104850769042968750
0.0862518929348311674809579585598839912563562393188476562
-0.3671588320143835404429921709379414096474647521972656250
0.1347515752356382157106651220601634122431278228759765625
-0.3057561012427942315206053081055870279669761657714843750
0.2404411691545975393591305646623368375003337860107421875
-0.9636678122644614097325188595277722924947738647460937500
0.2757096847586462673440621529152849689126014709472656250
-0.1262069962528830635584142783045535907149314880371093750
0.3825337502170821357694308062491472810506820678710937500
-0.0172524517387710810134571204343956196680665016174316406
-0.2482067722919342189769054130010772496461868286132812500
-0.4415698863827545173066368988656904548406600952148437500
0.1036228857141862497170947676750074606388807296752929688
-0.2767050506882592353363747861294541507959365844726562500
-0.0961736118153162788946275441048783250153064727783203125
-0.6765449523900790573804897576337680220603942871093750000
-0.1098910015379022525605634541534527670592069625854492188
0.3648728714277580942315637457795673981308937072753906250
-0.2545728860387554970401424725423566997051239013671875000
0.2966292692660848495656011891696834936738014221191406250
-0.5598323430349594342914087974349968135356903076171875000
0.3961809132967495372668054187670350074768066406250000000
-0.2715194565096987755481450221850536763668060302734375000
-0.5124509587288977874308670834579970687627792358398437500
-0.0970640635716978755764827724306087475270032882690429688
-0.1377315808647671946385315777661162428557872772216796875
0.0144651991456345857534060428406519349664449691772460938
0.2560438106668724844716678035183576866984367370605468750
0.2526557739506447020083612642338266596198081970214843750
0.8058814269218599335431463259737938642501831054687500000
-0.1093819980039128780813229013801901601254940032958984375
0.2002139372652722015821780132682761177420616149902343750
0.3773042315579543948267371433757944032549858093261718750
0.0447521895332885014107127119586948538199067115783691406
0.0801589395442641183819887373829260468482971191406250000
0.1704071278177708148593438863827032037079334259033203125
0.0047371949265217760949298053674283437430858612060546875
0.0936317252262056226586039997528132516890764236450195312
0.1437549327465206805420905311621027067303657531738281250
-0.4768059712814138317860113147617084905505180358886718750
0.3565680414729617830893459995422745123505592346191406250
-0.5978988166624406019877824292052537202835083007812500000
-0.3916039333881380368751479181810282170772552490234375000
-0.3439661386749452431921270090242614969611167907714843750
-0.4440634478119283024000196746783331036567687988281250000
-0.0208487703741751066732756925148351001553237438201904297
0.0572051644349296437019880556817952310666441917419433594
-0.3433331259504683874439479041029699146747589111328125000
0.3940584038914448639090437609411310404539108276367187500
0.4008646974646051241997213310241932049393653869628906250
-0.3649698954377896820133742039615754038095474243164062500
0.1394717104838935073374273088120389729738235473632812500
0.1389700687334591844290798690053634345531463623046875000
0.4304105197137229610326869533309945836663246154785156250
0.6821657638630432840542994199495296925306320190429687500
-0.4943679203965233304174375916772987693548202514648437500
-0.4720211230002074875855555546877440065145492553710937500
-0.4513360166835200804058558787801302969455718994140625000
-0.2775613528545664565605477491772035136818885803222656250
-0.7484493994408504269344462045410182327032089233398437500
0.8386501156496678488494467273994814604520797729492187500
-0.3986950444507475488364889315562322735786437988281250000
-0.1303481103765998794230540624994318932294845581054687500
-0.4967899736136014987586406732589239254593849182128906250
-0.5459847241500371817224390724732074886560440063476562500
-0.2435958436568529950072559131513116881251335144042968750
0.2421181686104600383480089931254042312502861022949218750
0.2117883543091812481584668148570926859974861145019531250
0.2165699505880328001872214827017160132527351379394531250
0.8068826928129971820524701797694433480501174926757812500
0.0858981641387099176254693588816735427826642990112304688
0.3319142150821508541191917629475938156247138977050781250
-0.4133795125128047476259496306738583371043205261230468750
0.2398987374391672311446654930477961897850036621093750000
0.4859379748659092834728312482184264808893203735351562500
-0.0758477447854934011539640437149500939995050430297851562
0.2301033901725916541725069919266388751566410064697265625
-0.5396199096997881250459272450825665146112442016601562500
0.2297541540063524900805447259699576534330844879150390625
0.0100433152683798397608594399343928671441972255706787109
0.0116409087147606379875064419593400089070200920104980469
-0.0170892174856387898951304293859720928594470024108886719
-0.2421064159440099450293359950592275708913803100585937500
-0.2674110913243498699465305890043964609503746032714843750
-0.5488199226909658001716252329060807824134826660156250000
-0.3917825692637627588155169178207870572805404663085937500
0.4884114690679433046227586601162329316139221191406250000
-0.2961532204253020106321514504088554531335830688476562500
-0.0537842249560498836258304322655021678656339645385742188
0.3446072648059780307860933135088998824357986450195312500
0.1173273572877118753332581491122255101799964904785156250
-0.1557506785029523777019733188353711739182472229003906250
0.2067251320022654159647146343559143133461475372314453125
0.1339235491974529457248621611142880283296108245849609375
-0.4618159933639622849455008690711110830307006835937500000
-0.4288378230920968925410363681294256821274757385253906250
0.3764056071875592213160643950686790049076080322265625000
0.0718512244337628780410653916987939737737178802490234375
0.4840709933727309066675559279246954247355461120605468750
-0.3122919254800508581659812534780940040946006774902343750
-0.3378960294782145101777359741390682756900787353515625000
-0.0027048175232209275067885023702274338575080037117004395
0.2323294712955663032794006994663504883646965026855468750
-0.4466683150878708596920318996126297861337661743164062500
-0.2520565153448874329278339700977085158228874206542968750
-0.2758514139361282202500547100498806685209274291992187500
-0.3781188966321070710208118725859094411134719848632812500
-0.4202499677969877001082465994841186329722404479980468750
-0.5483448012212475131121891536167822778224945068359375000
-0.6406305284319618875699120508215855807065963745117187500
-0.2385133883311827962536710856511490419507026672363281250
0.0300346502281248380061828839870941010303795337677001953
0.5119542971381254581331177178071811795234680175781250000
0.2918557647191219461824118752701906487345695495605468750
0.1276443953294939259723861368911457248032093048095703125
-0.3333296430089236483951253831037320196628570556640625000
0.3436732643885216931245452087750891223549842834472656250
-0.1901359638908178273375426670099841430783271789550781250
-0.3138097096661575102771735146234277635812759399414062500
-0.0594115873390144433319193240095046348869800567626953125
-0.0920755722670865417445185130418394692242145538330078125
-0.5004179193855462504103570609004236757755279541015625000
0.4174543703178023035249566419224720448255538940429687500
-0.0829489197650355447599679337145062163472175598144531250
0.4443893957123206117643121615401469171047210693359375000
-0.0078566959894717253859441896679527417290955781936645508
-0.0025021259806210904147460993840468290727585554122924805
0.3324961626666432801258110885100904852151870727539062500
0.2366850712285823166158849062412627972662448883056640625
-0.1448448663913521339274836918775690719485282897949218750
-0.2217534615427841637735895119476481340825557708740234375
-0.2434394169447600120292918290942907333374023437500000000
0.0110046173921086263419732986790222639683634042739868164
0.1554601862379176580031270304971258156001567840576171875
0.3860415213027669767420491098164347931742668151855468750
-0.4833436758068937466603642860718537122011184692382812500
0.0532372636309934033072011061449302360415458679199218750
0.2361811087018498844791736246406799182295799255371093750
0.4377175004619254239379699811252066865563392639160156250
-0.0207549008638082434219374050599071779288351535797119141
-0.1840164362078341164785655337254866026341915130615234375
0.1716365208141741316438810827094130218029022216796875000
-0.0874247659025949724886928038358746562153100967407226562
-0.6814319672249902204441696085268631577491760253906250000
0.5358886319307160084335350802575703710317611694335937500
0.3150227501035043342625385776045732200145721435546875000
-0.0624470306145917114504229061822115909308195114135742188
0.0846228397559895956225872737377358134835958480834960938
-0.0151233745086205902813381030114214809145778417587280273
0.2194982299437119310780985870223958045244216918945312500
0.1165777756648129354077880748263851273804903030395507812
0.0105177424525981534630947322739302762784063816070556641
0.2017501968010731727698470194809488020837306976318359375
-0.7865855444248147643193647127191070467233657836914062500
0.6649321274627648659105716433259658515453338623046875000
-0.2370879921755820185502727781567955389618873596191406250
0.1282907398502869111833746273987344466149806976318359375
-0.1691307967806209289207686197187285870313644409179687500
0.2537096199456730927224157312593888491392135620117187500
0.0230883054901976532413687692724124644882977008819580078
0.1752215027811957204217918615540838800370693206787109375
-0.2437535433536090756501124587884987704455852508544921875
0.5987573462851223382585885701701045036315917968750000000
0.0508133177890634779583223235022160224616527557373046875
0.4545932380308843612226610275683924555778503417968750000
0.2115245475833139598975662920565810054540634155273437500
0.3159461985020619589903390078688971698284149169921875000
-0.6314379672384393682449399420875124633312225341796875000
0.1254486210269222246083131722116377204656600952148437500
-0.3415544453870425489760975779063301160931587219238281250
0.1980991064817036462208932334760902449488639831542968750
-0.2933660347064528384208870193106122314929962158203125000
0.4224483704500076042265277465048711746931076049804687500
0.3506982681518638900186601858877111226320266723632812500
-0.2450383800963423230889759452111320570111274719238281250
-0.3936821461676336952884014408482471480965614318847656250
-0.3386897872937218445521523335628444328904151916503906250
-0.3802736970078546829832077946775825694203376770019531250
-0.4136395400461539417769074589159572497010231018066406250
0.3900116876823720435396580796805210411548614501953125000
-0.4053897667416866967826649670314509421586990356445312500
-0.5923462991540014987990048211941029876470565795898437500
0.5108704761667902660704498885024804621934890747070312500
0.6020691269845525050996570826100651174783706665039062500
0.0002089235727600253264123891794312726233329158276319504
0.0694447014744895424476212042463885154575109481811523438
0.1571560671744412496231291243020677939057350158691406250
0.2311471587579572717352505151211516931653022766113281250
-0.3164204178852047522063628548494307324290275573730468750
0.0306751082965715272943274527506218873895704746246337891
0.3205248522957291346102692841668613255023956298828125000
-0.6982785821946164706019999357522465288639068603515625000
0.4636170311462202708874258405558066442608833312988281250
0.2424515150061088419874977262225002050399780273437500000
-0.1709821213170379106127683144222828559577465057373046875
0.2608174430440283741994278443598886951804161071777343750
0.2368181400458499175076809706297353841364383697509765625
-0.2401303063321765796089835021120961755514144897460937500
0.2783016166228397536563932135322829708456993103027343750
0.1347493153077539973505594161906628869473934173583984375
-0.4982798303147554230818627729604486376047134399414062500
-0.5690534023792442885891773585171904414892196655273437500
0.1505390423394986632033010209852363914251327514648437500
1.2236796690301767753794592863414436578750610351562500000
-0.2691397263334953660063320057815872132778167724609375000
-0.2670146462718345770070982325705699622631072998046875000
-0.4901174753868280942192825477832229807972908020019531250
0.5955685624843113368243052718753460794687271118164062500
-0.3381434070449660378443468289333395659923553466796875000
-0.1204529407310695604538253178361628670245409011840820312
-0.6381393985498712284609723610628861933946609497070312500
-0.4089569313228451630237714198301546275615692138671875000
-0.2507969547469435789288638716243440285325050354003906250
-0.2002894975012892431198707754447241313755512237548828125
-0.2609942515117465444696165377536090090870857238769531250
0.1431983817835605632406981158055714331567287445068359375
-0.4541961343751324542417080465384060516953468322753906250
0.3936126243368857080540124115941580384969711303710937500
0.2374892385974434194650939389248378574848175048828125000
0.0179813820282682702844656574825421557761728763580322266
-0.0181479660281249552400417712760827271267771720886230469
0.5723939427149359326918443002796266227960586547851562500
-0.0242557011471194391982741933588840765878558158874511719
0.3834392048538412534064434566971613094210624694824218750
-0.6098835236579984719895719535998068749904632568359375000
-0.1440446818366296899416312271569040603935718536376953125
-0.2786481796794108012349511227512266486883163452148437500
-0.0947576858317694115108054120355518534779548645019531250
-0.0363246225421822929724235962112288689240813255310058594
-0.3743700885251060039848880478530190885066986083984375000
-0.1382371383776428708234362829898600466549396514892578125
0.1446832583227616875198862089746398851275444030761718750
0.3408458272243415909663610818824963644146919250488281250
0.1030219111972157930434690342735848389565944671630859375
0.3817653785269318755801748466183198615908622741699218750
-0.5436635574521786473667361860862001776695251464843750000
-0.0396249600373412072529255567587824771180748939514160156
0.0846753090164245464377401617639407049864530563354492188
0.1739349162254903990998400331591255962848663330078125000
0.2405597025043327841231644015351776033639907836914062500
0.3045440888581122940159673362359171733260154724121093750
-0.4292163753066328690799480227724416181445121765136718750
-0.0866278001787297302627166573074646294116973876953125000
0.4985468809320446337274290726782055571675300598144531250
-0.0625874150740520218683116127067478373646736145019531250
0.6069944554768126332433553216105792671442031860351562500
0.2751292566481667867250848757976200431585311889648437500
-0.1054431303639778855218978037555643822997808456420898438
0.0610169694791353467433481227999436669051647186279296875
0.1884780460415093339410219641649746336042881011962890625
0.2296340225891053132833974359527928754687309265136718750
0.3100642707519487006884162383357761427760124206542968750
-0.6309069367694161156734367068565916270017623901367187500
1.3699817478534537240619783915462903678417205810546875000
-0.5358840528350520271416712603240739554166793823242187500
0.5809612932791349271255398889479693025350570678710937500
0.3290512311707550763273388838570099323987960815429687500
0.1992201226395447222206058768279035575687885284423828125
0.5014590673297213418990736499836202710866928100585937500
0.2980494210743268590491084069071803241968154907226562500
-0.2910103088288898409707883274677442386746406555175781250
0.3309866767543870325063437576318392530083656311035156250
-0.0194071257341808522944859305425779893994331359863281250
0.0333190968001485787741700050901272334158420562744140625
0.3214698763653523472250128634186694398522377014160156250
-0.1482008717819449372665729924847255460917949676513671875
-0.1200095157470216222783676585095236077904701232910156250
-0.5798353335871535563228462706319987773895263671875000000
-0.3201711170171374076787174089986365288496017456054687500
-0.5115021360347851153704823445877991616725921630859375000
-0.3251949409748928765395703521789982914924621582031250000
0.3050151739509973647379581507266266271471977233886718750
-0.4115544788322232916399912028282415121793746948242187500
0.3544641104292606814674115867092041298747062683105468750
-0.2433820125590712701857398769789142534136772155761718750
-0.3788658556849137104549640753248240798711776733398437500
-0.0413456299307378635776721864658611593768000602722167969
0.2139256530161501579367921976881916634738445281982421875
-0.3123696489699290812502852077159332111477851867675781250
0.2948696751175169938896658550220308825373649597167968750
-0.2662083758984905013100785708957118913531303405761718750
0.2787580924561515738346884063503239303827285766601562500
0.1427371653007321883332991774295805953443050384521484375
-0.2122064312504751970589467191530275158584117889404296875
-0.4221785632716776315298545796395046636462211608886718750
0.3624399930696957650155809460557065904140472412109375000
0.1275996471106902174774688774050446227192878723144531250
0.2624742245550790165076193716231500729918479919433593750
-0.0193117741461821604276316577397665241733193397521972656
0.1864828754386385345487298081934568472206592559814453125
-0.0751554280263107971071789847883337642997503280639648438
0.1363049085856800068938809999963268637657165527343750000
0.0367463937054104544666088827398198191076517105102539062
-0.2140048756627219161963182614272227510809898376464843750
0.5100537447283459702163099791505374014377593994140625000
-0.0564333446785153652891509068467712495476007461547851562
-0.3871961668393820721334463996754493564367294311523437500
-0.5923072263192804554066128730482887476682662963867187500
0.1345001367754564691736618442519102245569229125976562500
0.0583228812343951630303706679114839062094688415527343750
-0.5677690343492582947249047720106318593025207519531250000
-0.2518063772043934722688618421670980751514434814453125000
0.2041217300293575453995487123393104411661624908447265625
-0.5323234652392688781574747736158315092325210571289062500
0.0258062996971025956916001575791597133502364158630371094
-0.0850776625564701877157958165298623498529195785522460938
0.0971558885545816958151377207286714110523462295532226562
0.0910939417454151023623154515007627196609973907470703125
0.5258024545530654014768856541195418685674667358398437500
0.3257415771965946893473642376193311065435409545898437500
-0.0188605016698760036275572815611667465418577194213867188
0.0635090383397689667299701454794558230787515640258789062
0.2500730630986799374326778888644184917211532592773437500
-0.5763900794176842756755263508239295333623886108398437500
0.0323588821282400074252905142202507704496383666992187500
0.1705180422959632069446200830498128198087215423583984375
-0.3068275512488378153896917410747846588492393493652343750
-0.1687784027834171585169542595394887030124664306640625000
-0.4017126290296005319824246271309675648808479309082031250
0.4620638047970601625102915477327769622206687927246093750
0.4704988485741107839821495417709229514002799987792968750
-0.0904532270392247872425883770119980908930301666259765625
0.0676965702153571879939875088894041255116462707519531250
-0.4831956285242128834589436792157357558608055114746093750
-0.4296157556588633408267696722759865224361419677734375000
-0.1973886912622911382619861342391232028603553771972656250
0.0564400961368355172376176653870061272755265235900878906
-0.4412639741272753601819545110629405826330184936523437500
-0.2798835374350120419606469113205093890428543090820312500
0.0529410081374886223870568358051968971267342567443847656
0.3960870725848601447971475408849073573946952819824218750
0.3998652880550520039015793827275047078728675842285156250
0.2142490891453691925772062631949665956199169158935546875
-0.1804956948671952166041165810383972711861133575439453125
0.1690794586225000117885031158948550000786781311035156250
-0.9983264641397430194658113578043412417173385620117187500
-0.1705131137452986223035367174816201440989971160888671875
0.4129113091965338488975589825713541358709335327148437500
-0.5580726263273975140677407580369617789983749389648437500
-0.1405085696400651396054115593869937583804130554199218750
-0.3166449729533136747683386147400597110390663146972656250
-0.0331661422550186477109512850347528001293540000915527344
0.0606916706011985662705399136029882356524467468261718750
0.1566230784084051419480232425485155545175075531005859375
0.2468502217124074749055040456369169987738132476806640625
0.0677162244593375317602834684294066391885280609130859375
0.0282376603249135105233591502837953157722949981689453125
0.2389702443408170395855449896771460771560668945312500000
0.0104527799642343596081550671783588768448680639266967773
-0.4517553557870072622471013801259687170386314392089843750
0.3696576647000447413127233176055597141385078430175781250
-0.4508941523007145568691100834257667884230613708496093750
0.6652498048505761651938428258290514349937438964843750000
0.5982389846208640005187362476135604083538055419921875000
0.8858366473629690762692234784481115639209747314453125000
0.4990799015424637330440305049705784767866134643554687500
-0.6041399356300537482056256521900650113821029663085937500
-0.4690146552906379051606222674308810383081436157226562500
-0.0709316529310447529965699686727020889520645141601562500
-0.4300467930664912397098476048995507881045341491699218750
-0.2581438250385119648200316078145988285541534423828125000
-0.4886232359005883152391902513045351952314376831054687500
0.1083393099634067380243607203738065436482429504394531250
