nn
1,10,10,10,10,10,1
dIn
0
dIntern
,
dOut
,
normP
1.9999999999999984
normY
1.517916432153049
w
-0.9858718906971885020951162914570886641740798950195312500
-0.4737897297932214812909990087064215913414955139160156250
0.1367584005578217076770641824623453430831432342529296875
0.6425175648458575361487987720465753227472305297851562500
0.8306444933920240636382459342712536454200744628906250000
-1.0533812300249316695754941974882967770099639892578125000
0.0368403377356954844779046709390968317165970802307128906
-1.2923620952548746654287015189765952527523040771484375000
0.3818710817098719401130324513360392302274703979492187500
1.3355971673653674880455355378217063844203948974609375000
0.1670248645659059838486371063481783494353294372558593750
0.0315607715834834157142552157893078401684761047363281250
-0.6412083353500449556250373461807612329721450805664062500
-0.0266790559089646987789290477621761965565383434295654297
0.2228369473314394111351788296815357170999050140380859375
0.0989600126403526597629323191540606785565614700317382812
-0.2130666875448085639810358316026395186781883239746093750
-0.3459235101161979852868455509451450780034065246582031250
0.2048673817770943761384927483959472738206386566162109375
-0.0269454383615201804869077051307613146491348743438720703
-0.1710084727230195278391278179697110317647457122802734375
0.2554721961644199068608429570303997024893760681152343750
0.2533448788475131663311401553073665127158164978027343750
-0.2160441243382969500608226098847808316349983215332031250
-0.8213889003401007027349578493158333003520965576171875000
0.0598279649888972323013014431580813834443688392639160156
-0.2044849508559154205311614305173861794173717498779296875
-0.3096205612663366912862272783968364819884300231933593750
-0.3748501320618898846603883612260688096284866333007812500
-0.5719851718099066006928410388354677706956863403320312500
-0.5528525293705290888368608648306690156459808349609375000
0.0671087066709531859798332220634620171040296554565429688
-0.3251823545713540264401331114640925079584121704101562500
0.2411743462891948741599890126963146030902862548828125000
0.2462087403816690667213151755277067422866821289062500000
0.4466545818200307604861620802694233134388923645019531250
0.3272977932587788352236657374305650591850280761718750000
-0.2772931814782515491657477468834258615970611572265625000
-0.2181179425587722320312167312295059673488140106201171875
-0.0880676962947392755198805502914183307439088821411132812
-0.4500955111505253181114483140845550224184989929199218750
0.5705163788743767838695930549874901771545410156250000000
-0.1100055886824705675408608840371016412973403930664062500
-0.0411063970041283879841564896651107119396328926086425781
0.4059696514121564070443071159388637170195579528808593750
-0.2234788929832733916924780714907683432102203369140625000
0.3305151359965836088683488469541771337389945983886718750
0.4237833875077388623431318137591006234288215637207031250
-0.4434709934497385042106998298550024628639221191406250000
0.1805014973955444135267356386975734494626522064208984375
0.0963841609544658223240887195970572065562009811401367188
0.3553578330112884264835315661912318319082260131835937500
-0.3485045764407238011450829162640729919075965881347656250
-0.3028480986610751490850645950558828189969062805175781250
0.6621726343000308157016320365073624998331069946289062500
-0.5512024207112361517957310752535704523324966430664062500
0.0657789238660795444468831760786997620016336441040039062
0.3604784346104321079984345033153658732771873474121093750
-0.1113106755785389645474481312703574076294898986816406250
-0.0594927209248956520570850159401743439957499504089355469
0.1934311803935749862759507777809631079435348510742187500
-0.1745315025640648831650736383380717597901821136474609375
-0.3175726761160059807842515056108823046088218688964843750
-0.5877648581937447991307976735697593539953231811523437500
0.4278810075367212584218634674471104517579078674316406250
-0.2959970318500145802786960302910301834344863891601562500
-0.3106919402880906067032640294200973585247993469238281250
0.4746809034449407382894037255027797073125839233398437500
-0.0514867319253144578583558654827356804162263870239257812
0.5349304030976274049180574365891516208648681640625000000
-0.4730199308684209236197659720346564427018165588378906250
0.2688366798282244007900487758888630196452140808105468750
-0.1147558442915607990197912613439257256686687469482421875
-0.1918404591833797467881339571249554865062236785888671875
-0.6803790821858684001455230827559716999530792236328125000
-0.2057617540210234241548903355578659102320671081542968750
-0.4260152660376486100091142361634410917758941650390625000
-0.7718217177060762157481121903401799499988555908203125000
-0.3345847755072365314887861131865065544843673706054687500
-0.5634337458070218795924688492959830909967422485351562500
0.2115961722521307597499884423086768947541713714599609375
0.4823469459036118789363456471619429066777229309082031250
0.3817735613562167062973173869977472350001335144042968750
-0.1170721904457687756462291872594505548477172851562500000
-0.2708118561306349647566094063222408294677734375000000000
0.1665702429455424293802678903375635854899883270263671875
-0.0756651316448048866236675280561030376702547073364257812
0.0669730498690842973585901631849992554634809494018554688
0.2725709687782181811499526702391449362039566040039062500
-0.3408179683017016903257001558813499286770820617675781250
-0.7979581595225058165965492662508040666580200195312500000
-0.2957469112012407475020836500334553420543670654296875000
-0.3265388223842353720982600862043909728527069091796875000
0.6912729216492613515399057178001385182142257690429687500
-0.9066283907406549325003197736805304884910583496093750000
-0.4245232246043620372155658060364658012986183166503906250
-0.3923703186524348240915571750520030036568641662597656250
-0.6597075733561974519858495114021934568881988525390625000
-0.1588603439732581834586966351707815192639827728271484375
-0.3504141884165384857041658506204839795827865600585937500
0.3038664103670463134676538174971938133239746093750000000
-0.2075825798941789979146221867267740890383720397949218750
-0.4353849909699033515764199364639353007078170776367187500
-0.4029960371183965439634278027369873598217964172363281250
-0.1647340008610081174555972438611206598579883575439453125
0.4315633483237046874592124368064105510711669921875000000
-0.1426392628936958562047010445894557051360607147216796875
0.4277648466056767073695255021448247134685516357421875000
0.1122981798163840694293469368858495727181434631347656250
0.5604736326847844507526019697252195328474044799804687500
-0.0726231576927891531170189409749582409858703613281250000
-0.5529140755540150609093075217970181256532669067382812500
0.0610051726624216208993978227681509451940655708312988281
-0.3202632894994417167566780335619114339351654052734375000
0.9699956456437069940434980708232615143060684204101562500
-0.2210080850411259845156308756486396305263042449951171875
0.5131922096157480739364586952433455735445022583007812500
0.8267791737731603474159669531218241900205612182617187500
0.1399765342801034817554750588897150009870529174804687500
0.5181309117107510964217453874880447983741760253906250000
0.1288367412333658035272776487545343115925788879394531250
-0.5951565641041468568417371898249257355928421020507812500
-0.4398794946596092381163600748550379648804664611816406250
0.1157587842911493442032977441158436704427003860473632812
-0.2781450975102530698279679199913516640663146972656250000
-0.0707833645734035621366331270110094919800758361816406250
0.0152040547013264186471115380072660627774894237518310547
-0.1409496145235098196746292842362890951335430145263671875
0.1465264756190295114546273680389276705682277679443359375
-0.3913033945851484562972188996354816481471061706542968750
0.6526481314762762053760525304824113845825195312500000000
-0.0528284297917549217071808698165114037692546844482421875
-0.2242014933318352554181274172151461243629455566406250000
-0.0556921591525506159969793884556565899401903152465820312
-0.2592813410320923828145112111087655648589134216308593750
-0.4927969353671402541472446046100230887532234191894531250
0.3616471831840422646031640852015698328614234924316406250
-0.6804617780138338956064103513199370354413986206054687500
0.2072674989773913845070296702033374458551406860351562500
-0.5774352010066587936876203457359224557876586914062500000
-0.1972498396885725424620972034972510300576686859130859375
-0.0966053738040271864351282715688284952193498611450195312
-0.2761280957049770945488376128196250647306442260742187500
0.0379392508489663632387234315501700621098279953002929688
0.1479313236061403913357281680873711593449115753173828125
0.5533615204985415925165170847321860492229461669921875000
-0.5123107425287295457749792149115819483995437622070312500
0.5712610998283024210664393649494741111993789672851562500
-0.0170332740190477296970961162969615543261170387268066406
0.1304805958762251250071528829721501097083091735839843750
-0.3795947093046139753091949842200847342610359191894531250
0.1999035028992765250510643681991496123373508453369140625
-0.5919398451259181292982702871086075901985168457031250000
-0.2862122339874522691793856665753992274403572082519531250
-0.3396548350428396090272542551247170194983482360839843750
-0.1170131114671961042317249734878714662045240402221679688
0.1507275696886709870359055685185012407600879669189453125
-0.3625692510786662769994848076748894527554512023925781250
0.0513056634658019677930340662896924186497926712036132812
0.2968256863519013744046048941527260467410087585449218750
-0.3417752273156318132407704979414120316505432128906250000
0.0248620894082544827141667553860315820202231407165527344
0.0615816709482175372869505736161954700946807861328125000
-0.4953449009237723132947905924083897843956947326660156250
-0.6409805589079944354580220533534884452819824218750000000
0.1287060781295006062219243858635309152305126190185546875
-0.4958093112273278535440113046206533908843994140625000000
0.6928584985772093807199212278646882623434066772460937500
0.1116337681959146260757265167740115430206060409545898438
0.4856619572018497921206403589167166501283645629882812500
0.5899667679546289900116562421317212283611297607421875000
-0.5865248047473232695381284429458901286125183105468750000
-1.2942163781261715183035221343743614852428436279296875000
0.0014292719750030162279702539152026474766898900270462036
0.1096412095378690998437321013625478371977806091308593750
-0.0242374024132679527498979155097913462668657302856445312
-0.3657529936033102058168253734038444235920906066894531250
0.3183808585150499914639965481910621747374534606933593750
-0.3373915583187983568969059433584334328770637512207031250
-0.8409049447983624192559659604739863425493240356445312500
-0.1106527704184635252371293745454750023782253265380859375
0.3868417839065540486664929176185978576540946960449218750
0.4392924773548528838418292252754326909780502319335937500
0.3300099128773621437460406013997271656990051269531250000
-0.2452134763300952147169198269693879410624504089355468750
-0.3044414658570549492289103454822907224297523498535156250
0.0091041190957634639258078124157691490836441516876220703
-0.0313584560211084481529120182585756992921233177185058594
0.2281997437898919123266949782191659323871135711669921875
-0.4810455967574762681238098593894392251968383789062500000
0.4899873437224069872009124537726165726780891418457031250
-0.0028974580308079502660723036910894734319299459457397461
-0.6068885609201296604808817392040509730577468872070312500
0.1326886947187184695451378502184525132179260253906250000
-0.0828604243702662640602696342284616548568010330200195312
0.3483971175591156765882772106124320998787879943847656250
0.2910522047318751526212565750029170885682106018066406250
-0.4548545640705576320605985074507771059870719909667968750
-0.2669266697102745111713772985240211710333824157714843750
0.1454038174415124284877265381510369479656219482421875000
0.5769598721917472694542539102258160710334777832031250000
-0.5078950854706731909971040295204147696495056152343750000
-1.1665775165364464793782417473266832530498504638671875000
0.2593785921638698255264898762106895446777343750000000000
0.8835103305507377990934969602676574140787124633789062500
-0.4851675346846229253117144253337755799293518066406250000
0.0816100661235718977115638494979066308587789535522460938
-0.3769798965412138880282100217300467193126678466796875000
0.3536423786136989599881985668616835027933120727539062500
-0.5359382764371924956492421188158914446830749511718750000
0.0229148413290246738549527094619406852871179580688476562
-0.1612504404144221303862849481447483412921428680419921875
-0.0994788076914397273453616321603476535528898239135742188
0.1185354994474051154584870459984813351184129714965820312
0.6515647785204853326135321367473807185888290405273437500
-0.4058336137520806574663367882749298587441444396972656250
0.0700193251604116495556695554114412516355514526367187500
-0.0858997125609578388027998130382911767810583114624023438
0.1259824536923439264324287023555370979011058807373046875
0.2653995771985676599413750409439671784639358520507812500
0.4711881044072180890758261284645413979887962341308593750
-0.1197713060617160291121408022263494785875082015991210938
-0.6279960041092161882048117149679455906152725219726562500
0.3658574705770567536688986365334130823612213134765625000
0.3397434227561340613910090269200736656785011291503906250
0.3430870272042989554961422982160001993179321289062500000
-0.5149738622404099741558525238360743969678878784179687500
-0.0463740338733086496225688222239114111289381980895996094
0.4193617585704578210048509845364606007933616638183593750
-0.4353408027465138774303454738401342183351516723632812500
-0.0499881520051389874326197571008378872647881507873535156
-0.2916268185376877375425408445153152570128440856933593750
0.4459191945165615900137368043942842632532119750976562500
0.5879762499738357961476253876753617078065872192382812500
-0.3981632024553906079589182809286285191774368286132812500
0.1538830958416842198399621111093438230454921722412109375
-0.2531212491866824954023229565791552886366844177246093750
-0.6899577504792110405062999234360177069902420043945312500
0.1400921372486594596029618742250022478401660919189453125
-0.1287577846055856511942039333007414825260639190673828125
0.3038513573921515220632727505289949476718902587890625000
0.0231051847082520481202472240056522423401474952697753906
-0.3135555741225358739043826972192618995904922485351562500
-0.3473410817634515757035273963992949575185775756835937500
-0.0679025124679534797245139543520053848624229431152343750
-0.7976646428164517743653050274588167667388916015625000000
0.0130169333891265222996613815098498889710754156112670898
0.0272485068904634551711918533101197681389749050140380859
0.5548414635757371593527409459056798368692398071289062500
0.3920561572824506346712780668894993141293525695800781250
0.4492231905907026479063404167391126975417137145996093750
-0.4169653201072338610799761227099224925041198730468750000
0.6679964598558616462042891726014204323291778564453125000
-0.5527401998613876710209069642587564885616302490234375000
0.4762250337200188421427071716607315465807914733886718750
0.3350031909773436011867886463733157142996788024902343750
0.1455016518918882117983315538367605768144130706787109375
0.4814190157364383604310376085777534171938896179199218750
-0.3910524044998847648102469065634068101644515991210937500
-0.5482486015260324974107675188861321657896041870117187500
-0.0705242845482962482650535207540087867528200149536132812
-0.2238745099853953479662749259659904055297374725341796875
-0.2519961881814781756716570271237287670373916625976562500
0.3156169371829186109934539672394748777151107788085937500
-0.4610477570487863663295513561024563387036323547363281250
1.2498902888056728777144144260091707110404968261718750000
0.2632932577621102665510477436328073963522911071777343750
-0.1863034627410197763275334637000923976302146911621093750
-0.0141373348682745543503092022774580982513725757598876953
0.3429099399524475622058616863796487450599670410156250000
-0.0169820348804149423571629995421972125768661499023437500
0.1409118097328377061661086599997361190617084503173828125
-0.2350237142459678241213083538241335190832614898681640625
0.6934034675677590575659792193619068711996078491210937500
-0.2734442741508301133457337073195958510041236877441406250
-0.0541618339500185910773133457496442133560776710510253906
0.0781442615321639721948088208591798320412635803222656250
-0.1208041839976796288924631994632363785058259963989257812
0.3962886372185134287171592859522206708788871765136718750
0.0803958847953973460009891027766570914536714553833007812
0.3796948107951990114550255839276360347867012023925781250
0.4456608463443352818877940535458037629723548889160156250
-0.7395136412455036722946033478365279734134674072265625000
-0.0406896308942047008061493329478253144770860671997070312
-0.5058718111131954575654390282579697668552398681640625000
-0.0787742237216387808373951884277630597352981567382812500
0.2351330427671723954929916544642765074968338012695312500
-0.2859046319776440414628382313821930438280105590820312500
0.6757740128910714183518848585663363337516784667968750000
0.4880735886034153203638652485096827149391174316406250000
-0.2353619200055875881893996393046109005808830261230468750
0.0325227163684918274544344285459374077618122100830078125
0.2423749366914818847984491867464384995400905609130859375
-0.7066806574035504606712265740497969090938568115234375000
-0.0236658934402787062001305429248532163910567760467529297
-0.1668055611313146724405953591485740616917610168457031250
-0.1026091053069303205003137691164738498628139495849609375
-0.2084180642141418571267053039264283142983913421630859375
-0.0150542163881502051581140477765075047500431537628173828
-0.2291512868592056884065044641829445026814937591552734375
0.3490451493000168436964258944499306380748748779296875000
-0.2001857478763818254385853379062609747052192687988281250
-0.2117676315984734214392659623626968823373317718505859375
0.6112987556223443696978847583523020148277282714843750000
0.2746596247028337822726484773738775402307510375976562500
-0.0505626916603929485449775427241547731682658195495605469
-0.3033379994110024235887124177679652348160743713378906250
-0.2247859402497473513271586398332146927714347839355468750
-0.3855524985096810963725033616356085985898971557617187500
-0.2891473454742002346939955259585985913872718811035156250
0.4982743721629691591168409559031715616583824157714843750
0.4654632904290837980276762664288980886340141296386718750
-0.3650499419586524241232439180748770013451576232910156250
-1.0056185422038124155363902900717221200466156005859375000
-0.2481981392987744616807077591147390194237232208251953125
0.4655944502359214975939494252088479697704315185546875000
-0.0422212443809664925153946057889697840437293052673339844
-0.0593454864659693562267683830668829614296555519104003906
-0.2511493580842829032029328573116799816489219665527343750
0.3423063766521447504054265209560981020331382751464843750
-0.1050729307519286254146706482970330398529767990112304688
0.4367131263238549498950646921002771705389022827148437500
-0.1985424909496249223916919390831026248633861541748046875
0.3469523425714002851094619472860358655452728271484375000
0.4640953969463690875763006715715164318680763244628906250
-0.0878399603741752688090826950428890995681285858154296875
0.1693556159297555929743595015679602511227130889892578125
-0.2290303441112688520586715412719058804214000701904296875
-0.2107862874385388607390012793985079042613506317138671875
-0.0208340466357589751411616418863559374585747718811035156
-0.4691366576830268142472846193413715809583663940429687500
0.2867272273278887451120056084619136527180671691894531250
0.2214329881821492929105943403556011617183685302734375000
-0.4830677913229153297436369030037894845008850097656250000
0.1325281764288016583819285187928471714258193969726562500
0.8371062953979926390957189141772687435150146484375000000
0.0565358243908078914041759333031222922727465629577636719
0.0855275815077225359805979110205953475087881088256835938
-0.7417630899970222291273103110142983496189117431640625000
-0.1478889954454331301381131424932391382753849029541015625
0.1121768524028095709299535087666299659758806228637695312
-0.3424434728652528958647849322005640715360641479492187500
0.2688615725053346561246314649906707927584648132324218750
0.1456064307743664409944273074870579876005649566650390625
-0.2661940050714803329690028022014303132891654968261718750
0.0395804037309457831805836747207649750635027885437011719
0.3437094551473335313218626652087550610303878784179687500
-0.0819055339749574229379902590153506025671958923339843750
0.2727137386946104635754295486549381166696548461914062500
0.0811226054081443104237791885680053383111953735351562500
0.5626873175650478620113403849245514720678329467773437500
0.4313773691472403970514903903676895424723625183105468750
-0.1133136420777936942405617060103395488113164901733398438
-0.0657491218085134582205242281816026661545038223266601562
-0.2561959129714845295744396480586146935820579528808593750
0.0875127552738062114423556181463936809450387954711914062
-0.3935869841645380229344652889267308637499809265136718750
0.2394552357495134398135405717766843736171722412109375000
-0.1402253836582716128855707893308135680854320526123046875
-0.1711394783515461093248433144253795035183429718017578125
0.2804814165994005126236743308254517614841461181640625000
0.1963308345118290887398870836477726697921752929687500000
-0.2174364439430900020067127798029105179011821746826171875
0.1444839171401059718657933217400568537414073944091796875
0.3423301641687190866036871739197522401809692382812500000
0.0832632207662823836669119259568105917423963546752929688
-0.2135616218766581697607875867106486111879348754882812500
-0.1679999303396424448209245383623056113719940185546875000
0.0374413383262845664289919511702464660629630088806152344
-0.2302796501628313063925190817826660349965095520019531250
-0.3495157060550698746581588238768745213747024536132812500
-0.2045480978001402994070900831502513028681278228759765625
0.8298563712325301988670389619073830544948577880859375000
-0.1972285635504756051705754771319334395229816436767578125
0.4240852965239433891575515644944971427321434020996093750
-0.0324821473591291876026332374749472364783287048339843750
0.2563154094321260512145954635343514382839202880859375000
-0.1602061640927991414962150429346365854144096374511718750
-0.2658979472053611958770602541335392743349075317382812500
-0.4741664873498068200063926269649527966976165771484375000
-0.9572811940197173408151343210192862898111343383789062500
-0.1111492866482924751769800764122919645160436630249023438
0.1832003838907516057865620950906304642558097839355468750
0.3994860528402226496069715722114779055118560791015625000
0.3245664640431918934737609561125282198190689086914062500
-0.6167343984099531439824204426258802413940429687500000000
0.2740675111741124880815334563521901145577430725097656250
-0.2904979003427056727382193912490038201212882995605468750
0.3696942992931946392332065443042665719985961914062500000
-0.5820629961418140041473634482827037572860717773437500000
0.4546524537655835529470493838744005188345909118652343750
0.2919480252321819402361313677829457446932792663574218750
0.6400920377245100656438125952263362705707550048828125000
-0.0773322362548504865786824780116148758679628372192382812
-0.0866691538817068174438418282079510390758514404296875000
0.5146791652038490427756300960027147084474563598632812500
-0.4092230600452310684822521125170169398188591003417968750
0.0910464552874936244863945944416627753525972366333007812
0.2071495793142797414709832537482725456357002258300781250
-0.0527327330962190851670889912838902091607451438903808594
0.1238019657464346778841246532465447671711444854736328125
0.6944106273043012533818796327977906912565231323242187500
-0.1359479121996203521138824044101056642830371856689453125
-0.5342406811990363380004964710678905248641967773437500000
-0.0909430533735427620856128783088934142142534255981445312
-0.8773140117732373122194644565752241760492324829101562500
-0.1270705218700941274700966232558130286633968353271484375
0.3832741165618813727888891662587411701679229736328125000
0.2340452302053686040039792715106159448623657226562500000
0.2540188584683211181491913066565757617354393005371093750
0.4493957498526356952872617966932011768221855163574218750
0.1748270879660439869329735529390745796263217926025390625
-0.3262092764672768763212218345870496705174446105957031250
0.4150179921404327787470833754923660308122634887695312500
-0.3951101362389668469887737956014461815357208251953125000
-0.1694869512418614998505717039734008722007274627685546875
0.5016662494503276725765772425802424550056457519531250000
0.3439203330102899025533247368002776056528091430664062500
0.1434267155200805998749302716532838530838489532470703125
-0.2743908138599047141781284153694286942481994628906250000
-0.3741820646387645221686568675067974254488945007324218750
-0.1755367928292962953484845911589218303561210632324218750
0.2488190741132993433204489974741591140627861022949218750
0.0987063667794946530964494968429789878427982330322265625
0.2589601840546781885699090253183385357260704040527343750
-0.3610039775671533002210367158113513141870498657226562500
-0.0299800448710789771422646765586250694468617439270019531
-0.4917297984616700312621162538562202826142311096191406250
0.2984453060359286147296131730399793013930320739746093750
0.2227554093997829443019043083040742203593254089355468750
-0.5491051822617035726992185118433553725481033325195312500
-0.5226123294057259949241256435925606638193130493164062500
0.0856475412914046302370607577358896378427743911743164062
-0.2372370537600894946361762549713603220880031585693359375
0.0797755398034198925927285017678514122962951660156250000
0.0548864142825569029104926244144735392183065414428710938
-0.1475177421384236131629563715250696986913681030273437500
0.1726446657095613568255743075496866367757320404052734375
-0.5738920220143453043704084848286584019660949707031250000
0.2916303599222773157428889589937170967459678649902343750
0.4241902183469574705299010020098648965358734130859375000
0.2098478419628532209983973189082462340593338012695312500
-0.6197758859902482431181169886258430778980255126953125000
0.1063639664616451985246214917424367740750312805175781250
0.0732111113475698987995698985287162940949201583862304688
-0.0685942293895649424229077339987270534038543701171875000
0.4946951736860707438125928092631511390209197998046875000
-0.2713861243926625754774306642502779141068458557128906250
-0.4794872707467048855711766464082757011055946350097656250
-0.0794384040047981382359765234468795824795961380004882812
0.1366705145285309896951986274871160276234149932861328125
0.3684517931376773414164915720903081819415092468261718750
-0.1881202414339228912165680185353267006576061248779296875
0.4845982393818442646171718024561414495110511779785156250
-0.2853200075999174911700606571685057133436203002929687500
-0.3690357487129860003527426215441664680838584899902343750
-0.2326643524246554683987397993405465967953205108642578125
-0.3595782995135114457063707504858030006289482116699218750
-0.3184243903812961073995779770484659820795059204101562500
0.2893018598388468198834289069054648280143737792968750000
-0.4270761136055205020589653486240422353148460388183593750
0.6754511871659698574177355112624354660511016845703125000
-0.8698753908486607233641052516759373247623443603515625000
-0.1636426304757041538806561220553703606128692626953125000
-0.4978508967266936369178154109249589964747428894042968750
0.7592161729941705461399692467239219695329666137695312500
0.2235955876392287933196456606310675852000713348388671875
0.0538745112412876564489394581869419198483228683471679688
0.4818159088422522828842886610800633206963539123535156250
0.1794490420959619358942660483080544508993625640869140625
0.3153900079395449695951469948340672999620437622070312500
