nn
1,10,10,10,10,10,1
dIn
0
dIntern
,
dOut
,
normP
1.9999999999999984
normY
1.517916432153049
w
-0.6810052095578896791394640786165837198495864868164062500
-0.3608567650768881862610726329876342788338661193847656250
0.0563075925376286118284596682315168436616659164428710938
0.4979267934126010430873066070489585399627685546875000000
0.5561196304984793448156210615707095712423324584960937500
-0.6519228156175572719277511168911587446928024291992187500
0.0885220770744210017078046348615316674113273620605468750
-0.9457879385042357034407700666633900254964828491210937500
0.1805366906226945067359679342189338058233261108398437500
0.9090296918253022440126187575515359640121459960937500000
0.2100052370420618097490716991160297766327857971191406250
0.0419278897456888122174945010556257329881191253662109375
-0.5702095879524775590141416614642366766929626464843750000
-0.0117444430965747085432449026143331138882786035537719727
0.1975962514759132815367337343559483997523784637451171875
0.1502278797118002662269731217747903428971767425537109375
-0.2273855756655673576727139106878894381225109100341796875
-0.3286773548215252693793786420428659766912460327148437500
0.0184398727364133985240357560542179271578788757324218750
0.0827813470914670890277164971848833374679088592529296875
-0.0563838310116385674208849820843170164152979850769042969
0.2180982194118063488552650142082711681723594665527343750
0.2677415884221064912296128568414133042097091674804687500
-0.2248547956294340843808043928220286034047603607177734375
-0.6479636287914654069197695207549259066581726074218750000
0.0308016738667272055307577716121159028261899948120117188
-0.1786013695065641060377714666174142621457576751708984375
-0.1308073344140457672235555719453259371221065521240234375
-0.3446379817815839463612803683645324781537055969238281250
-0.4556966240892835751097322827263269573450088500976562500
-0.4801861983180553683503433148871408775448799133300781250
0.0689417811136773667213262228870007675141096115112304688
-0.3407080321750902696109619682829361408948898315429687500
0.2130128580677092264838989876807318069040775299072265625
0.3283714612604479721191808039293391630053520202636718750
0.4332560980989527132933858410979155451059341430664062500
0.3379344750870961755495613942912314087152481079101562500
-0.1988891782836179900062489878109772689640522003173828125
-0.1996941753377644013234260000899666920304298400878906250
-0.0365800515636603984503949504869524389505386352539062500
-0.4329162246714641781863974756561219692230224609375000000
0.5416312663037164965018632756255101412534713745117187500
-0.1853365421976861104891298737129545770585536956787109375
-0.1346241266168406447434335859725251793861389160156250000
0.3554442633632675652144428113388130441308021545410156250
-0.1567446548794253213809923863664153032004833221435546875
0.3050598005032267301395165759458905085921287536621093750
0.3831799068402511609932048486371058970689773559570312500
-0.4257325064132587155718567828444065526127815246582031250
0.1614775760034990736979665371109149418771266937255859375
-0.0074609323035987017147530053762238821946084499359130859
0.3710514269990926594644520264409948140382766723632812500
-0.3369902477514452043827475336001953110098838806152343750
-0.2720724117360434068935148843593196943402290344238281250
0.5388557649781837710634135873988270759582519531250000000
-0.5379161105047545188284630057751201093196868896484375000
0.0512297627450177678332110531300713773816823959350585938
0.2304469910281090327952568941327626816928386688232421875
-0.1386903514288637118134772663324838504195213317871093750
-0.1429475685721676436745752880597137846052646636962890625
0.0400461125814099913600152547132893232628703117370605469
-0.1428292759083532315056430661570630036294460296630859375
-0.2639548168395043359346630040818126872181892395019531250
-0.4919481508979437478501495206728577613830566406250000000
0.3111959956108956149023470061365514993667602539062500000
-0.3150438138948637445402312096121022477746009826660156250
-0.3147845078661318796164891864464152604341506958007812500
0.3519070375023300445427310023660538718104362487792968750
-0.0987150227039643030080284802352252881973981857299804688
0.4493757432368812865242091447726124897599220275878906250
-0.3451962313009487304249489625362912192940711975097656250
0.2213964099951604702631868804019177332520484924316406250
-0.1074379605206540744255505615001311525702476501464843750
-0.2161616050604537875301502936054021120071411132812500000
-0.5050089279070741898891583332442678511142730712890625000
-0.2264095949972071974976017827430041506886482238769531250
-0.4028865531020935364381330145988613367080688476562500000
-0.5907918477575968552173435455188155174255371093750000000
-0.2966033226995621885357934388594003394246101379394531250
-0.4432906017476650473163601873238803818821907043457031250
0.2169385747781716333726365064649144187569618225097656250
0.4721261370397452639124935558356810361146926879882812500
0.3527288976842425372026923469093162566423416137695312500
-0.1532182523734908208279392738404567353427410125732421875
-0.2962799657014850707170694477099459618330001831054687500
0.1932742560112135632444108068739296868443489074707031250
-0.0876935631797663150965860268115648068487644195556640625
0.0497782570319310960216263595157215604558587074279785156
0.2799293295511424140009637540060793980956077575683593750
-0.3475225620984164764948332049243617802858352661132812500
-0.5673329966392116618933982863381970673799514770507812500
-0.4024951082363301124722454460425069555640220642089843750
-0.3757814501343764157503812839422607794404029846191406250
0.5667657066092753881392241055436898022890090942382812500
-0.7109441511609678743255358313035685569047927856445312500
-0.3853511524174552116406289314909372478723526000976562500
-0.3819242683649675673684953380870865657925605773925781250
-0.4571151148406895625697643481544218957424163818359375000
-0.0743000054036213053443304943357361480593681335449218750
-0.2175726345432505981491999591526109725236892700195312500
0.2455305985845386840260573535488219931721687316894531250
-0.2118815477736696317734299555013421922922134399414062500
-0.3969943642910471193196997319319052621722221374511718750
-0.3624422229815978391265218760963762179017066955566406250
-0.2023385765649233225538239366869674995541572570800781250
0.4235264798864721846882730460492894053459167480468750000
-0.1396324706414199534609821284902864135801792144775390625
0.3872335376536076845255252010247204452753067016601562500
0.1014366046527209463956609170054434798657894134521484375
0.5320000210397208828538850866607390344142913818359375000
-0.2296011208551737570182638137339381501078605651855468750
-0.4675847965509999371036542470392305403947830200195312500
0.0684415298630858537354271220465307123959064483642578125
-0.2668318111358959354717512724164407700300216674804687500
0.7453324934315236349746669475280214101076126098632812500
-0.2116592443284203151065980819112155586481094360351562500
0.4923341666982706255062396394350798800587654113769531250
0.5902337895630552777603838876530062407255172729492187500
0.0720081617044882327238752850462333299219608306884765625
0.3566531804058156729375639315549051389098167419433593750
0.0691084864502429785382275895244674757122993469238281250
-0.5451768991558771926264626017655245959758758544921875000
-0.2958016921727375514450386617681942880153656005859375000
0.3035014273650120109060424056224292144179344177246093750
-0.2144796761380610705671756477386225014925003051757812500
-0.1877104939135922079262996930992812849581241607666015625
0.0593136041660458496194152644420682918280363082885742188
-0.0989074004462642958346307864303526002913713455200195312
0.1030965446030836507596006867970572784543037414550781250
-0.3807251740528151406905976728012319654226303100585937500
0.4738053279577782439524469282332574948668479919433593750
-0.0467939643672899627246941633984533837065100669860839844
-0.3040781564247600488037903687654761597514152526855468750
-0.0677584007115693276457335514351143501698970794677734375
-0.3318825731520483324210601949744159355759620666503906250
-0.4050703582854665585344378087029326707124710083007812500
0.2913224892690438605491465295926900580525398254394531250
-0.4936200810870828292742373832879820838570594787597656250
0.0909553517404374650690002113151422236114740371704101562
-0.5520467526644358136067580744565930217504501342773437500
-0.0084261475775011373395839697764131415169686079025268555
-0.0387943622796811798947302918350032996386289596557617188
-0.0710476704971456235471194418096274603158235549926757812
0.0315843382792178675733119064261700259521603584289550781
0.2101072265233713265430992578330915421247482299804687500
0.4925961929299740860166423317423323169350624084472656250
-0.4532489208134641844871737248467979952692985534667968750
0.5255202181336368072450682120688725262880325317382812500
0.0746960157301451987965634771171608008444309234619140625
0.1778007030712560332386118489012005738914012908935546875
-0.3064359968227800545825800782040460035204887390136718750
0.2304898367218591870297927926003467291593551635742187500
-0.4960500868110777616948325885459780693054199218750000000
-0.2990492624610912031357656815089285373687744140625000000
-0.3350090697256072891363487542548682540655136108398437500
-0.1218997967274117188996029881309368647634983062744140625
0.1646260382582351022850986055345856584608554840087890625
-0.3178925646806028404434130152367288246750831604003906250
0.0832974768137077770102649765249225310981273651123046875
0.3176352294056325464843837380612967535853385925292968750
-0.2027949919525800503983248290751362219452857971191406250
-0.0015193237189679792767393884389548475155606865882873535
0.0452010029727767381757530529284849762916564941406250000
-0.5120617249325153386152464918268378823995590209960937500
-0.5739559889353883503915199071343522518873214721679687500
0.0875782907157922757557244608506152871996164321899414062
-0.4751272633149073998382050376676488667726516723632812500
0.5577556452457955726842442345514427870512008666992187500
0.1753889230341396932022490773306344635784626007080078125
0.4307442716807213800578324480738956481218338012695312500
0.4773112301460376016848385916091501712799072265625000000
-0.3410474916613018270261648012819932773709297180175781250
-0.9902990509302587174289556060102768242359161376953125000
-0.0261839918373399857531858003767410991713404655456542969
-0.0984947578351228203441536379614262841641902923583984375
-0.0749575318249609268139721507395734079182147979736328125
-0.2158525320337071062848366409525624476373195648193359375
0.2998939708500891199172144752083113417029380798339843750
-0.2942143263324253910084848939732182770967483520507812500
-0.5333837605597021580550176622637081891298294067382812500
-0.1044926665083999589578311883997230324894189834594726562
0.3540125585841428779154682615626370534300804138183593750
0.4025368469308853169863482435175683349370956420898437500
0.3362262521731347875153517179569462314248085021972656250
-0.2255005532384705690951420820056227967143058776855468750
-0.3034896090653876887799356154573615640401840209960937500
-0.0159793511443428910834274603303128969855606555938720703
-0.0562126102574617148022184665023814886808395385742187500
0.2116749238701848834232066565164132043719291687011718750
-0.4997539048458843335964729703846387565135955810546875000
0.4508734798670831489530996805115137249231338500976562500
0.0588003040853204289595268505763669963926076889038085938
-0.4763590330288961505189604395127389580011367797851562500
0.1490344395128720966781088463903870433568954467773437500
-0.1582514147391447800750086116750026121735572814941406250
0.3391650690357296271670861642633099108934402465820312500
0.3544238141171114353511484296177513897418975830078125000
-0.3856085191066656037151005875784903764724731445312500000
-0.2368259353917975817971353080793051049113273620605468750
0.2420112836791765698052358857239596545696258544921875000
0.4615519059155696046659045350679662078619003295898437500
-0.3247264269061709840435980822803685441613197326660156250
-0.9394624956590350572938064033223781734704971313476562500
0.2660126530128676392017439411574741825461387634277343750
0.6601875412725902725341597943042870610952377319335937500
-0.5366500723597583677459965656453277915716171264648437500
0.2256872411462913230462135061316075734794139862060546875
-0.3789031596803462131894946196553064510226249694824218750
0.3955084568660266475248477036075200885534286499023437500
-0.2860884088727597140966452116117579862475395202636718750
-0.1006882305160378965336320788992452435195446014404296875
-0.1550235890022182705383357870232430286705493927001953125
-0.1577188031004410073698807082109851762652397155761718750
0.1209757793073297227337548065406735986471176147460937500
0.5987480916403756792121271246287506073713302612304687500
-0.3664451391853419393029867023869883269071578979492187500
0.0466990683525174213319708371727756457403302192687988281
-0.0010478744538067971160677505082503557787276804447174072
0.0722369650212593278348904846097866538912057876586914062
0.2819975309679740305135453581897309049963951110839843750
0.4186383112947027473893513160874135792255401611328125000
-0.0063409242326929269456536886195863189641386270523071289
-0.4288629406855704040424370759865269064903259277343750000
0.3907343252441161651766776685690274462103843688964843750
0.2039965019248775046634136742795817553997039794921875000
0.3001748422010825922967569567845202982425689697265625000
-0.4017446377488398390198653942206874489784240722656250000
-0.0195611923117966247931409640159472473897039890289306641
0.4684540739826301702919408853631466627120971679687500000
-0.2596413383052620371671537213842384517192840576171875000
-0.2874706316296483099570480135298566892743110656738281250
-0.3859540826941290081464330796734429895877838134765625000
0.1455145945624993775169286891468800604343414306640625000
0.5923461901952351560396436980227008461952209472656250000
-0.4656541909214129137950521908351220190525054931640625000
0.2321825256317398555871989174193004146218299865722656250
-0.3377370526663200367423200987104792147874832153320312500
-0.6631341356472754133832836487272288650274276733398437500
0.0228299763859450416392249394448299426585435867309570312
-0.2273706191555382172264643259040894918143749237060546875
0.2143770357317680008701898941581021063029766082763671875
0.0181620289398880634113009335806054878048598766326904297
-0.0514328874163096638749692601777496747672557830810546875
-0.1882051239096685923968266251904424279928207397460937500
-0.0484437407728945529372666101153299678117036819458007812
-0.5431561404617986088538827971206046640872955322265625000
-0.1503458751144395033616518730923417024314403533935546875
0.1651237612533809073767088193562813103199005126953125000
0.1842620050184003432924839671613881364464759826660156250
0.2412039191069366705910681503155501559376716613769531250
0.4639206425492149454825607790553476661443710327148437500
-0.4188609354292402442432319276122143492102622985839843750
0.5153138840613296078885241513489745557308197021484375000
-0.6049458535743644782556316386035177856683731079101562500
0.4768919307096103343823756404162850230932235717773437500
0.2508131318352083138911723381170304492115974426269531250
0.2961659902695288892893188403832027688622474670410156250
0.4152368848930553801857001872122054919600486755371093750
-0.1515992410227743059092375688123865984380245208740234375
-0.4510843524887435673775826217024587094783782958984375000
0.0241485842231273957481096914534646202810108661651611328
-0.2258544105458044903844694317740504629909992218017578125
-0.1412275370972816690429141317508765496313571929931640625
0.1427553097153520800244308475157595239579677581787109375
-0.3695396053600482622059075765719171613454818725585937500
1.0584242838288959731585237022954970598220825195312500000
0.2004249477500815446173731970702647231519222259521484375
-0.3558385843577329121778518583596451207995414733886718750
0.1758947540489609051572728048995486460626125335693359375
0.2852282471602102242869136716763023287057876586914062500
-0.0004009432389192622088643080946468444381025619804859161
0.1462264382828922237855806542938807979226112365722656250
-0.1666748694737230085394230627571232616901397705078125000
0.6402254539658175369609693916572723537683486938476562500
-0.3630461801412723787940706188237527385354042053222656250
0.0225554888649011214818429493789153639227151870727539062
-0.0251142889335466933109497489340355969034135341644287109
-0.1520715474185293514253203284170012921094894409179687500
0.4485113909415282540393832277914043515920639038085937500
0.0481411895853979532322597378879436291754245758056640625
0.3276486769286651723476211373053956776857376098632812500
0.4094796614235566289963230701687280088663101196289062500
-0.6169654394624998205998167577490676194429397583007812500
0.1041397420919201177724744411534629762172698974609375000
-0.4846339925065551446081713038438465446233749389648437500
-0.0050849812014920128810935295859962934628129005432128906
0.2042769557269814850730682564972084946930408477783203125
-0.1818288674047255082388829805495333857834339141845703125
0.3908831459173249256444648835895350202918052673339843750
0.3823429381418943506787400110624730587005615234375000000
-0.2469983237866883174493892738610156811773777008056640625
0.0245769245623797191746540136136900400742888450622558594
0.1705460815618963510420513784993090666830539703369140625
-0.6179823557929431387947261100634932518005371093750000000
0.0486746184394153888486123094025970203801989555358886719
-0.2320926739386353354621661537748877890408039093017578125
-0.0175346832306734687345617373921413673087954521179199219
-0.2143595120938099618523864364760811440646648406982421875
-0.0683762499931532402586142893596843350678682327270507812
-0.1867562995467887121403549599563120864331722259521484375
0.3636648258499529107190539889415958896279335021972656250
-0.2096457503108024311710977372058550827205181121826171875
-0.2324612967659960560684595520797302015125751495361328125
0.5107130327858652174555231795238796621561050415039062500
0.1846201728333242142454651002481114119291305541992187500
-0.0191900556849455040941965222600629203952848911285400391
-0.2785569088311796726031843718374148011207580566406250000
-0.2712016473185769327436389630747726187109947204589843750
-0.2766294366737192533811651173891732469201087951660156250
-0.3027205857631938279439509642543271183967590332031250000
0.4668542073804189396213359941611997783184051513671875000
0.4509506696418306703755263242783257737755775451660156250
-0.4069019275760591969337554019148228690028190612792968750
-0.7158429394159780967399342443968635052442550659179687500
-0.1386859442898699945612150941087747924029827117919921875
0.4148325677952780510260311075398931279778480529785156250
0.0817011715931278414970506673853378742933273315429687500
-0.0438621999295919912098540294209669809788465499877929688
-0.4117331859385751635649342006217921152710914611816406250
0.3737713354559925593711966484988806769251823425292968750
-0.1037909491493102659420699751535721588879823684692382812
0.4311825945460601161585145746357738971710205078125000000
-0.1712179411730482825326760121242841705679893493652343750
0.3719624266303089843432871930417604744434356689453125000
0.4519806499921031339717103492148453369736671447753906250
-0.0603895807718371549488445282349857734516263008117675781
0.1610600922242928778604920125872013159096240997314453125
-0.2328174457558413734670210715194116346538066864013671875
-0.2234777506894403409365423840426956303417682647705078125
-0.0288341562447943129676719564713494037277996540069580078
-0.4335720673240944234017035796568961814045906066894531250
0.2791852530322035397247759647143539041280746459960937500
-0.0195210279798809990814412174131575739011168479919433594
-0.5750278011778673370457681812695227563381195068359375000
0.1304847817123295228292079173115780577063560485839843750
0.6766777891154373003601563141273800283670425415039062500
0.2691222739810401609616974383243359625339508056640625000
-0.0150319067419902724358493628642463590949773788452148438
-0.3707891480565910780065053131693275645375251770019531250
-0.0021372555392788314572449781536533919279463589191436768
0.1917616163048802280233218198191025294363498687744140625
-0.3038866025078311716711709777882788330316543579101562500
0.2811352770150356006340075509797316044569015502929687500
-0.0198657321986432967853009046166334883309900760650634766
-0.3191425775515690510530930623644962906837463378906250000
0.0744966816498903450227686562357121147215366363525390625
0.2240716627929830728760407509980723261833190917968750000
-0.1780519106375131055397531554262968711555004119873046875
0.4609106270153811579781688578805187717080116271972656250
0.1235435503305584298283648081451246980577707290649414062
0.5017014142247037122857022950483951717615127563476562500
0.3977443583883047972804547498526517301797866821289062500
-0.0176595485753073752621666869799810228869318962097167969
-0.0644950316948858515253562018187949433922767639160156250
-0.2406063856868172201597388948357547633349895477294921875
0.0477493532444666080039041844429448246955871582031250000
-0.3825300178512509585715406501549296081066131591796875000
0.2406221259965936609681591562548419460654258728027343750
-0.0966271172964983104947123138117603957653045654296875000
-0.1862110065680835646606539057756890542805194854736328125
0.1859962775407727753052000707612023688852787017822265625
0.1488650035717581920913232806924497708678245544433593750
-0.1650647056102246545972178637384786270558834075927734375
0.1321465748875049195376618627051357179880142211914062500
0.3141570815437642050227395884576253592967987060546875000
-0.1056981182886031350731670386267069261521100997924804688
-0.1796197992446300906177469869362539611756801605224609375
-0.1696824784457924839564668673119740560650825500488281250
0.0771731738638609526814704508979048114269971847534179688
-0.2449254904310933234068414776629651896655559539794921875
-0.2398503936372632094897738852523616515100002288818359375
-0.1672014706966626629291994277082267217338085174560546875
0.5681740868170708225193266116548329591751098632812500000
-0.2068207033369943714795624600810697302222251892089843750
0.4023837929132352830841057311772601678967475891113281250
-0.0071167093377199463349880304008365783374756574630737305
0.2619339172778672453212323034676956012845039367675781250
-0.1598496897052257836868704998778412118554115295410156250
-0.3038456527005106710959125848603434860706329345703125000
-0.4592167939814855714963925947813550010323524475097656250
-0.9066161512214475637350119541224557906389236450195312500
-0.0019696473582765418319784345158041105605661869049072266
0.1790722303168265916450963004535879008471965789794921875
0.4146278204328562311253847383341053500771522521972656250
0.3538917846918621656904235805995995178818702697753906250
-0.4996740499476219898866702351369895040988922119140625000
0.2276256240546841447258685775523190386593341827392578125
-0.2877093659285396287650371505151269957423210144042968750
0.3075591847994054717219114536419510841369628906250000000
-0.5497906374331340551009361661272123456001281738281250000
0.4813404670941208163270630393526516854763031005859375000
0.1709485033561347622210746521886903792619705200195312500
0.5871488369474950896886866757995449006557464599609375000
-0.0786641118455773252771123793536389712244272232055664062
-0.0601941773175438538112658193313109222799539566040039062
0.3305259972136740387327336065936833620071411132812500000
-0.3953659750608198852894759056653128936886787414550781250
0.0814645002952434638121559373757918365299701690673828125
0.1359685972140121379414523516970803029835224151611328125
-0.0780197313750603249626891511070425622165203094482421875
0.3133771454019144697689114309469005092978477478027343750
0.4088400377019442699655371598055353388190269470214843750
-0.0294755029747921747096395250764544471167027950286865234
-0.4596423508154074966114421840757131576538085937500000000
-0.0177636586218824880922806386251977528445422649383544922
-0.4970509292339103102342789952672319486737251281738281250
-0.2153190820700041641089228505734354257583618164062500000
0.3603334158048305257970866932737408205866813659667968750
0.1082702731122941047781083057088835630565881729125976562
0.2478074944517109079455963183136191219091415405273437500
0.4993692337145446136226212274777935817837715148925781250
0.1888915489738280661935476700818981043994426727294921875
-0.3919476641793206428410201169754145666956901550292968750
0.4239764186769749421124231503199553117156028747558593750
-0.4299268333964212374098678992595523595809936523437500000
0.0279974433008608539208417198551615001633763313293457031
0.4841305449495456048047969943581847473978996276855468750
0.3454043285538453966765359837154392153024673461914062500
0.1199253341236406755765386833445518277585506439208984375
-0.2470676596415813941476358195359352976083755493164062500
-0.3641424949296475643834014590538572520017623901367187500
-0.2241376382774346032178414134250488132238388061523437500
0.2257647517701660833111532156181056052446365356445312500
0.0917964870285893907997376572893699631094932556152343750
0.2683835389573369645255240811820840463042259216308593750
-0.5226038491049856959946851020504254847764968872070312500
-0.0055502902697408106752474665768204431515187025070190430
-0.4994323771678643719695855907048098742961883544921875000
0.2902980014631325045293408493307651951909065246582031250
0.2085373022952105581673265533027006313204765319824218750
-0.5870490478931486011404672353819478303194046020507812500
-0.3348811963069601715936585151212057098746299743652343750
0.1904646759746180806338600177696207538247108459472656250
-0.2422183471867533077759304660503403283655643463134765625
0.0433336376874984829932202501368010416626930236816406250
0.2029695840940506923466557509527774527668952941894531250
-0.1624834155984199168809567481730482541024684906005859375
0.1816147980349173129965834050381090492010116577148437500
-0.4176290602084759551182457926188362762331962585449218750
0.3262861013820695932352577983692754060029983520507812500
0.3477435304223122636280152164545143023133277893066406250
0.1910634107153782457189095111971255391836166381835937500
-0.3877030889017443193722556316060945391654968261718750000
0.1163492679778738853046959889070421922951936721801757812
0.1214459448966728333241249515594972763210535049438476562
-0.0421009298890374361601374175734235905110836029052734375
0.4703564564313278406615381754818372428417205810546875000
-0.2694630249595287296848766800394514575600624084472656250
-0.4351422286073700074204850807291222736239433288574218750
-0.0930441925945563463873355658506625331938266754150390625
0.2210797268528166270584733865689486265182495117187500000
0.4818497971777167543372399904910707846283912658691406250
-0.2472312295499436707313378747130627743899822235107421875
0.4982846275830478122159661324985790997743606567382812500
-0.2476415963408824527647311697364784777164459228515625000
-0.1177697198902165204303926770990074146538972854614257812
-0.2660864489036112168207637296291068196296691894531250000
-0.3560743799038794676903307845350354909896850585937500000
-0.3487781955180804804861338652699487283825874328613281250
0.3111296260170075544948531387490220367908477783203125000
-0.4561466761786023282887470031710108742117881774902343750
0.3685210523561063822306493875657906755805015563964843750
-0.7588981118430709882360929441347252577543258666992187500
-0.0130016562952199564440203261028727865777909755706787109
-0.5150907106604479812617114475870039314031600952148437500
0.5213108514648043811945399284013547003269195556640625000
0.2352564281615211472242776835628319531679153442382812500
-0.0336041759306315857003255587187595665454864501953125000
0.3292262421959346041511196290230145677924156188964843750
0.1400991854620774745843192476968397386372089385986328125
0.2992545728608776989254636191617464646697044372558593750
