nn
1,10,10,10,10,10,1
dIn
0
dIntern
,
dOut
,
normP
1.9999999999999984
normY
1.0
w
0.0018696049256968091077657501131170647568069398403167725
-0.8577270212024455942056988533295225352048873901367187500
-0.4602605123954908727945678492687875404953956604003906250
1.0004655632036225654246663907542824745178222656250000000
0.1407468937210925863379173961220658384263515472412109375
0.9208157833647467871429626029566861689090728759765625000
-0.8822045978884190953195343354309443384408950805664062500
0.0012443407551412444863453421461940706649329513311386108
-1.0435458901867322722978315141517668962478637695312500000
-1.0521188749939218709528176987078040838241577148437500000
0.3926942632973494662351754413975868374109268188476562500
-0.1120757270519893572524594560491095762699842453002929688
0.0860971406340028666548391811375040560960769653320312500
0.0532994166639789712647257147182244807481765747070312500
-0.0403601314002731900720810642724245553836226463317871094
-0.0347393042008313293611543315364542650058865547180175781
0.1761396329170639429850808710398268885910511016845703125
0.2533847386321373962303482585411984473466873168945312500
-0.0064364239461721234336621932925481814891099929809570312
-0.2257994054013511830980576178262708708643913269042968750
-0.0241340703092424863074327845424704719334840774536132812
-0.1110710374800064209610539478489954490214586257934570312
-0.2631536125969087813736280168086523190140724182128906250
-0.2725168062830149451336581023497274145483970642089843750
-0.1458108287952538106857502953062066808342933654785156250
0.4858992241126789957128551122877979651093482971191406250
0.0300624919217268686544297651153101469390094280242919922
-0.1826080002841690141934805069467984139919281005859375000
0.0744466581917310188387659763975534588098526000976562500
0.1607488176786654732186576666208566166460514068603515625
-0.3231996190903404508887319934729021042585372924804687500
0.4843928678726867054216143060330068692564964294433593750
-0.3977416369243462201943373202084330841898918151855468750
0.5342405569480727089981542121677193790674209594726562500
-0.5372888345479878147159524814924225211143493652343750000
0.0551772362605826086068283586882898816838860511779785156
0.5911928432414933487493158281722571700811386108398437500
0.1035154937189469437353039893423556350171566009521484375
-0.1002648345720314332352174346851825248450040817260742188
0.5541563092144973223796000638685654848814010620117187500
0.0469963200995987193109293400539172580465674400329589844
-0.1242568210225077907082891215395648032426834106445312500
0.3767836370173122673143950578378280624747276306152343750
0.5921144798856138313780661519558634608983993530273437500
0.0081693230437106904850974586906886543147265911102294922
-0.2321483632415889397648811609542462974786758422851562500
0.0894711711078080423886760286222852300852537155151367188
0.5384058084471624594513627926062326878309249877929687500
-0.1645272162279516059424366858365829102694988250732421875
-0.0479323572908187736651974830692779505625367164611816406
0.3427180950955530658319503345410339534282684326171875000
0.1595023683100185996064368509905762039124965667724609375
0.3029502731381382152342496283381478860974311828613281250
-0.4110520988064371161740950810781214386224746704101562500
0.1328679493168542780079377507718163542449474334716796875
0.4773946008723010114849216734000947326421737670898437500
-0.8434618064045423801999845636601094156503677368164062500
-0.0841830416835505496164770988798409234732389450073242188
0.0215630345619948274316080016888008685782551765441894531
-0.5662508615921117982594523709849454462528228759765625000
0.2290437552419241906687119580965372733771800994873046875
-0.1456479102682048110128931739382096566259860992431640625
-0.4486886691798485093940485057828482240438461303710937500
0.1146684664885108395626645005904720164835453033447265625
0.3269669994783078181832536301953950896859169006347656250
0.1760844867644304756471029804743011482059955596923828125
0.1421073603053387979233690430191927589476108551025390625
0.2631841606531622468345688048430019989609718322753906250
0.1918191468165659496758479463096591643989086151123046875
-0.0616969383419941549973053440680814674124121665954589844
0.5590992117202802091924240812659263610839843750000000000
-0.2942075816830546641789112527476390823721885681152343750
-0.1589218614685071750969314052781555801630020141601562500
-0.4960918283438622844450094362400704994797706604003906250
0.1547808969866693307171345850292709656059741973876953125
0.1733040184858763432806938453722978010773658752441406250
-0.2728197993423455147699030476360348984599113464355468750
-0.5036570943460280114223337477596942335367202758789062500
0.5006989794637984880765202433394733816385269165039062500
-0.5479053365082865445501170142961200326681137084960937500
-0.3791917413149118454285257939773146063089370727539062500
-0.0519437730764354121948400688779656775295734405517578125
0.5725151115543484214853720004612114280462265014648437500
0.2814471664801472816641592089581536129117012023925781250
0.2558220721571453082354707930790027603507041931152343750
-0.3053924690522807350312461949215503409504890441894531250
0.5631795268741249804733683959057088941335678100585937500
-0.0904379305074258094121475437532353680580854415893554688
-0.4202728692012646649622809036372927948832511901855468750
0.2903859754333399378900537612935295328497886657714843750
-0.0349668800426599091224488802254199981689453125000000000
0.4561665200715836476774711627513170242309570312500000000
0.2469971704161732228843817438246333040297031402587890625
0.1926375699169312616376714686339255422353744506835937500
0.3388237344796741767893877295136917382478713989257812500
0.4313111615654060537750069670437369495630264282226562500
-0.1592102756705462140995877007298986427485942840576171875
0.3303798135837314742246917376178316771984100341796875000
-0.0814944530215120643834580960174207575619220733642578125
0.4148217846754088666827442466455977410078048706054687500
-0.3219701787526375591497185268963221460580825805664062500
0.2455999855735094827835496289480943232774734497070312500
-0.0932976086786044128684736165268986951559782028198242188
0.4664694293403205405112998960248660296201705932617187500
-0.5252657532218690805692062895104754716157913208007812500
-0.6646450020053915608286843053065240383148193359375000000
0.7962778424103668095668240312079433351755142211914062500
0.5641174568202310668496579637576360255479812622070312500
-0.1589859933472033970414116765823564492166042327880859375
0.1381623369764735098641494914772920310497283935546875000
0.1988836659654169003452750530414050444960594177246093750
-0.1737687368376973906514137979684164747595787048339843750
-0.1118531372098181125851468209475569892674684524536132812
0.3659858176933160622823493213218171149492263793945312500
-0.1156768394099650654194277876740670762956142425537109375
-0.6085511982509617112668820482213050127029418945312500000
0.7156183087449571322835595310607459396123886108398437500
-0.3694681362835507965058923218748532235622406005859375000
-0.7346770337583558019289853291411418467760086059570312500
0.8255581352596618183170562588202301412820816040039062500
-0.1402112162182593546599917999628814868628978729248046875
-0.1909904113882572584959262940174085088074207305908203125
0.2889198147815315587116913320642197504639625549316406250
0.5654853009271655350787000315904151648283004760742187500
0.4124082388872290505510420643986435607075691223144531250
0.2010172078733855616228254348243353888392448425292968750
0.4501975375658717193338986817252589389681816101074218750
0.2519046041696354487626763329899404197931289672851562500
0.4123392719282425455951113235641969367861747741699218750
-0.1447425153913015072326686549786245450377464294433593750
-0.5519788311128547286799062021600548177957534790039062500
-0.1143188723978103699119301950304361525923013687133789062
0.2331906230741939700656928380340104922652244567871093750
0.3664484986340909578039770622126525267958641052246093750
-0.3059331417711216860588763211126206442713737487792968750
-0.5148842154357372580264495809387881308794021606445312500
-0.0587165397466591770792021520719572436064481735229492188
0.1604310220779093520970803865566267631947994232177734375
0.3307945866317226757402636394544970244169235229492187500
-0.0133889655441321673429166949631508032325655221939086914
-0.4429744845821254051188020639528986066579818725585937500
0.3900597845316774447965713079611305147409439086914062500
-0.4420428373660313381421360645617824047803878784179687500
-0.3715753160440266045227986069221515208482742309570312500
0.3314977140163014035501021226082229986786842346191406250
-0.0591195975956338368173526021109864814206957817077636719
0.4864131534755263830405169755977112799882888793945312500
0.1392609753046401277476462610138696618378162384033203125
-0.2199288940355449972763324240077054128050804138183593750
0.1257693395846338213495130275987321510910987854003906250
0.3705289443023691564604860104736872017383575439453125000
0.4806229762731087928884221582848113030195236206054687500
-0.3532976882502182336409646268293727189302444458007812500
0.3962762277805954025389212347363354638218879699707031250
-0.0062652946305339725016625429532268753973767161369323730
-0.2439066372377347580169271168415434658527374267578125000
0.2738453975763461833992096217116340994834899902343750000
-0.4308286080593169420360766252997564151883125305175781250
-0.5012178362128191233537677362619433552026748657226562500
-0.3290003526945091683053590259078191593289375305175781250
1.0336030542788727792924419190967455506324768066406250000
-0.1610934938427276419403710860933642834424972534179687500
-0.6104114758494481041140033994452096521854400634765625000
-0.1416995845669619946693984502417151816189289093017578125
-0.0138336701567934473172671872021055605728179216384887695
-0.0919793247429954302640808805335836950689554214477539062
-0.2873054770771862886924452595849288627505302429199218750
0.3280195975214443837586486552027054131031036376953125000
-0.4096688851871098102641610694263363257050514221191406250
0.0291568146848100590018404432157694827765226364135742188
-0.0937903716524086938921556111381505616009235382080078125
0.3580964705497093891750637340010143816471099853515625000
-0.2174672848480515841007587596322991885244846343994140625
-0.0044509622789046347779429169122522580437362194061279297
0.3117623295816674966474124630622100085020065307617187500
-0.6387574823080265362662544248451013118028640747070312500
0.1749511812366946750252338915743166580796241760253906250
0.5151119790550043875398955606215167790651321411132812500
0.2526146106594273077483592260250588878989219665527343750
-0.0539664255584877197713389307409670436754822731018066406
-0.5837370049683214823232901835581287741661071777343750000
0.8143880736208781723206584501895122230052947998046875000
0.2050578739201547873172160052490653470158576965332031250
0.3985708386923829671388830320211127400398254394531250000
-0.2172614249941055286630131604397320188581943511962890625
-0.8508176854571497527146561878907959908246994018554687500
0.0234421134462311844814941252934659132733941078186035156
0.2006395747843852661596031339286128059029579162597656250
-0.3255656305399807770584175159456208348274230957031250000
-0.4700119465999804124756167311716126278042793273925781250
0.9251267085311279947390517008898314088582992553710937500
-0.5718871369498726986435599428659770637750625610351562500
-0.8510425563481277544397585188562516123056411743164062500
-0.3124659571309555960993975531891919672489166259765625000
-0.1410908649508456624843688587134238332509994506835937500
-0.0396745554615839796097631619886669795960187911987304688
-0.2276546685617152343539260073157493025064468383789062500
0.3361197327028826453698684417759068310260772705078125000
0.2070585833478212067770840576486079953610897064208984375
-0.5385190655213506483178775852138642221689224243164062500
0.4019420150067138930438659372157417237758636474609375000
0.2200383899375364105122088176358374767005443572998046875
0.1733220687871646903399636130416183732450008392333984375
-0.3630639802441134600385908015596214681863784790039062500
-0.1314296841171894714150880645320285111665725708007812500
0.1617618094665401740073207292880397289991378784179687500
0.1861284606518066042646353253076085820794105529785156250
0.3259501815508706323853971298376563936471939086914062500
-0.4799060183965345727230555894493591040372848510742187500
0.2800215401017749350387475715251639485359191894531250000
0.0739112327655584017138679087111086118966341018676757812
0.5765429540003561559302625028067268431186676025390625000
0.3271538478103421798692806987673975527286529541015625000
0.2611966664406099591921872615785105153918266296386718750
-0.2553653897040988884903356392896967008709907531738281250
-0.7130577803514124290984455001307651400566101074218750000
-0.1061477476722253315832844577926152851432561874389648438
0.5361704198576408009202509674651082605123519897460937500
0.1585110315484716536627018967919866554439067840576171875
-0.0359141690889364442740294691702729323878884315490722656
0.3108487499920448704493480818200623616576194763183593750
-0.5115902559976618357850952634180430322885513305664062500
-0.4228556058734363465312355856440262869000434875488281250
-0.4873637049823573152984579337498871609568595886230468750
0.1376154034891406974239203009346965700387954711914062500
0.9598541106332089123398532137798611074686050415039062500
0.3375900624428764262852098454459337517619132995605468750
0.2868563178107482181111720365151995792984962463378906250
0.2702896565308205989452972062281332910060882568359375000
-0.2273848430315242308275003324524732306599617004394531250
0.6371264770645448383135089898132719099521636962890625000
0.7515416101738638943174919404555112123489379882812500000
-0.0773532043231913574166114244690106716006994247436523438
0.1353654449078147692375750921200960874557495117187500000
-0.5845721182616797628739391257113311439752578735351562500
-0.1874421557024673612446008519327733665704727172851562500
-0.2552259303490485575771629100927384570240974426269531250
-0.1428683312560452001171995561890071257948875427246093750
0.0318553005851199902420667342539672972634434700012207031
0.1220140553087015328204145703239191789180040359497070312
-0.2768581600343135162844987462449353188276290893554687500
-0.1985407633523494086436045336085953749716281890869140625
0.5555220120032223762862599869549740105867385864257812500
-0.2584748609860459955811506915779318660497665405273437500
0.6899269640997695018924673604487907141447067260742187500
-0.3079221224837680459529565268894657492637634277343750000
0.5627876130123511400071834032132755964994430541992187500
0.0227735053479565727196920477126695914193987846374511719
-0.5699782448995276418202138302149251103401184082031250000
0.3255631225665427397331086467602290213108062744140625000
-0.1471240199027949446808349875936983153223991394042968750
-0.6973027440500689788649424372124485671520233154296875000
0.3326767675819026215400242563191568478941917419433593750
-0.9334077602815269436575817962875589728355407714843750000
-0.0662773486407232798045541244391642976552248001098632812
-0.3188978423976687182062050851527601480484008789062500000
0.2443211851156379954552733124728547409176826477050781250
0.0077428008524749207183712762514460337115451693534851074
0.2676150858506563534611188970302464440464973449707031250
0.0867961026641754507249260086609865538775920867919921875
-0.7962482630782782289102783579437527805566787719726562500
-0.3018085332375990414988109478144906461238861083984375000
-0.0101324361050222112867746915298994281329214572906494141
-0.3872863888515467034601158502482576295733451843261718750
-0.5697677830693140821338715795718599110841751098632812500
-0.4000068399224737669683804597298149019479751586914062500
0.1451203487631137212243714884607470594346523284912109375
-0.3020518416827752683495589280937565490603446960449218750
-0.0207589218399507197121423018870700616389513015747070312
0.0141716439574186975347558359317190479487180709838867188
0.6311723407572743527182979050849098712205886840820312500
0.0546530117435813714288350695369445020332932472229003906
-0.1377717635462687439940054900944232940673828125000000000
-0.2010026238773281181959617924803751520812511444091796875
-0.4467679829810425329306156072561861947178840637207031250
-0.3184070078498623668217248905421001836657524108886718750
-0.2823845393039665085943568101356504485011100769042968750
0.3868546081106734035870431398507207632064819335937500000
0.1238870266182499901841396194868138991296291351318359375
-0.0734012070849130865424214675840630661696195602416992188
-0.2186889001703198609494194215585594065487384796142578125
0.1156211096589485204377822924470819998532533645629882812
0.2601609489615801518169746486819349229335784912109375000
-0.2594439015433430140156190191191853955388069152832031250
-0.4174244924638057518961886671604588627815246582031250000
0.0396775799461881878427149672461382579058408737182617188
-0.3939800556368378559035647867858642712235450744628906250
0.2963152064428087317793369948049075901508331298828125000
-0.0358452239400322281159816384388250298798084259033203125
-0.2026113498245427357868919671091134659945964813232421875
0.6322677524789032110774655848217662423849105834960937500
-0.0431756732428099920806374711901298724114894866943359375
0.3814531355046665295205343682027887552976608276367187500
-0.0763952206933947997047340550125227309763431549072265625
-0.3537479218657850199569736560079036280512809753417968750
-0.1222019838118160173223714082268998026847839355468750000
-0.3963533370553906087785378531407332047820091247558593750
-0.3020685676529343277607608797552529722452163696289062500
0.4155734889969900924810985998192336410284042358398437500
0.8322506110539668044978611760598141700029373168945312500
-0.3733615498354676542902552682789973914623260498046875000
0.3650270194608067897412695401726523414254188537597656250
-0.0269133058776588711402677489559209789149463176727294922
0.0277630634244490220874368446857261005789041519165039062
0.2828339302834081969706403469899669289588928222656250000
0.0576820942659037119715215169435396092012524604797363281
0.3629698517989370376568558640428818762302398681640625000
0.0044363103069438580838834695896366611123085021972656250
-0.4345224367802494880308472602337133139371871948242187500
0.1583159066493940447806210158887552097439765930175781250
-0.0272600160166853455745439305246691219508647918701171875
0.3437673448271747478344195769750513136386871337890625000
-0.3536667291701642845680453319801017642021179199218750000
-0.6216791495589182314773779580718837678432464599609375000
0.0188927038683200931856731585867237299680709838867187500
0.1974977366284534074925005597833660431206226348876953125
0.2270884109425873875753865149818011559545993804931640625
0.0744040628085804039981709934181708376854658126831054688
0.3908701540039189459285751127026742324233055114746093750
-0.2542840722520761653768772703188005834817886352539062500
0.0851356407065938375344771316122205462306737899780273438
0.4012442034384537947744320263154804706573486328125000000
-0.3552744435590880489606036007899092510342597961425781250
-0.0196586628690659966089970822622490231879055500030517578
-0.4115226261051528333645421753317350521683692932128906250
0.2330727756720035181992045636434340849518775939941406250
-0.3260966532821946706199867094255750998854637145996093750
-0.2578920581204415807263785609393380582332611083984375000
0.2609275466165171808441414214030373841524124145507812500
-0.0529494640063855187550601044677023310214281082153320312
0.2662526545689394841254227230820106342434883117675781250
-0.3494501303846737627623042499180883169174194335937500000
0.1763538936281834612618268920414266176521778106689453125
-0.0585307998073514440529052649253571871668100357055664062
-0.4741877608184396630797152738523436710238456726074218750
0.3930865756395993670935240515973418951034545898437500000
-0.3041038969156572568941498957428848370909690856933593750
0.3192009337203444152564202340727206319570541381835937500
-0.0792710234657007378755722015739593189209699630737304688
0.4079884413864781622649502423882950097322463989257812500
0.2678026392218759710317499411758035421371459960937500000
-0.2207289857462405024968177258415380492806434631347656250
-0.2175878591390749960954309472072054632008075714111328125
0.0290859230163886262054973030899418517947196960449218750
0.3744503541663815049389540945412591099739074707031250000
0.1972306019030352908227854413780733011662960052490234375
-0.0235083011085877591206383385724620893597602844238281250
-0.0846134626409536377833475739862478803843259811401367188
0.4300231755850087989045960057410411536693572998046875000
-0.4910852753708216389405549762159353122115135192871093750
0.0719887885824080780983180716248170938342809677124023438
0.0725924715363405886892067542248696554452180862426757812
0.1579986259006686544204001165780937299132347106933593750
0.2797343588988060458788709183863829821348190307617187500
-0.4517030768581228872271537966298637911677360534667968750
-0.5103189732479322948677236126968637108802795410156250000
0.5902134029987656793636574548145290464162826538085937500
0.5519014550786561779105454661475960165262222290039062500
0.5231390148912372639600221191358286887407302856445312500
-0.0580193317236998434838213256625749636441469192504882812
-0.2376208331767369064113637477930751629173755645751953125
-0.1908593165078620867980419006926240399479866027832031250
-0.4515605796359480339496883516403613612055778503417968750
0.5078459727716618798964987036015372723340988159179687500
0.4536410812627044708555956731288461014628410339355468750
0.0017394640021695592646544525905483169481158256530761719
0.1399024694732894924520394397404743358492851257324218750
0.0689057883827545458732544148006127215921878814697265625
-0.3506745854477082979805402374040568247437477111816406250
-0.2653843881842702367990227685368154197931289672851562500
0.0797183589814515758398272282647667452692985534667968750
0.3236479720845966134845639317063614726066589355468750000
-0.2114929766600734117876214668285683728754520416259765625
-0.2570032821689577362533896121021825820207595825195312500
0.3751365459881674246922500515211140736937522888183593750
-0.5227233991377657762456010459573008120059967041015625000
-0.3077845106109819983686293198843486607074737548828125000
-0.5036803002761875980297645583050325512886047363281250000
0.0804925553069485849588815540300856810063123703002929688
0.0651094818107541550844530320318881422281265258789062500
-0.2297463116808087235654056712519377470016479492187500000
0.6810932086599913448665688520122785121202468872070312500
0.2492370631623155585732121153341722674667835235595703125
0.0968604011845259765811633201337826903909444808959960938
-0.2882148457524009721453239762922748923301696777343750000
0.4707817166298703948079662495729280635714530944824218750
0.5355775732771946850974131848488468676805496215820312500
0.0648649824146209919017991296641412191092967987060546875
-0.0848907766042330674816085434031265322118997573852539062
-0.0256944564122032897968139764088846277445554733276367188
0.2730860684881343813934506670193513855338096618652343750
-0.5892333389589486936088746915629599243402481079101562500
-0.2829378810111090603029992962547112256288528442382812500
-0.1517361026690340897182807111676083877682685852050781250
-0.1701910615493786582685942221360164694488048553466796875
0.1336505986448663640953071762851323001086711883544921875
-0.0098916511937658033182252381720900302752852439880371094
-0.2751006329097824276708195156970759853720664978027343750
0.2280612931031784362811976052398676984012126922607421875
0.6980013159793103660888391459593549370765686035156250000
0.4144715828413191860413178346789209172129631042480468750
0.3961631425863171851453614635829580947756767272949218750
0.2653179843289348305290786811383441090583801269531250000
0.3309324695375399638663793666637502610683441162109375000
0.0796267408757508066141639346824376843869686126708984375
0.0328623284647850052997419822986557846888899803161621094
0.2815995163482896135320743269403465092182159423828125000
-0.1771035283810970251128225072534405626356601715087890625
-0.4468475654813482966787319128343369811773300170898437500
-0.5071015910427409956184874317841604351997375488281250000
0.1995894455431692637858986927312798798084259033203125000
-0.3407006857169391222939225372101645916700363159179687500
0.2335497170159937796451998792690574191510677337646484375
-0.0466849316537434888552127176808426156640052795410156250
0.1791251487712914591821089516088250093162059783935546875
0.3959605811976177891509109940670896321535110473632812500
0.3284664212049694942407995768007822334766387939453125000
0.1125121703092760994113774586367071606218814849853515625
-0.3892821028009626482813132497540209442377090454101562500
0.0492689869990543746758326904000568902119994163513183594
0.0403308754690258897124266468381392769515514373779296875
0.2700448451868215360427427640388486906886100769042968750
-0.1939063703113847181302986655282438732683658599853515625
0.4767400591378697649602713681815657764673233032226562500
-0.0080716973110544643771335771020858373958617448806762695
-0.2155190502802947771776587160275084897875785827636718750
-0.4295262733361349671845630382449598982930183410644531250
0.2243313422374598742337070689245592802762985229492187500
0.1184701903261961009050651227880734950304031372070312500
-0.2159016134376997575472501011972781270742416381835937500
0.4790801451096859953082685024128295481204986572265625000
-0.4841055198270213799638383989076828584074974060058593750
-0.0272743767044767090879098248024092754349112510681152344
-0.4325491524012448074643089057644829154014587402343750000
-0.4490568861486350926703892127989092841744422912597656250
0.1759057025337493196381899451807839795947074890136718750
0.3229643693778819213413555644365260377526283264160156250
0.2695862437529317756634839042817475274205207824707031250
0.5473464616787542258435905750957317650318145751953125000
-0.3483640879638588705446977655810769647359848022460937500
-0.3464510213634343083199951252026949077844619750976562500
-0.1932153525572067875870629904966335743665695190429687500
-0.0478764000426133498611314109894010471180081367492675781
0.4471084285934296409514843162469333037734031677246093750
0.3259610301185792424760734320443589240312576293945312500
-0.2481896990206892417152317875661537982523441314697265625
-0.0027349910688617621971896465282725330325774848461151123
-0.5970329331292937302677614752610679715871810913085937500
0.4698408745773995920380627921986160799860954284667968750
-0.1198826524865925641227804021582414861768484115600585938
0.4799940853301518095541666752978926524519920349121093750
-0.0465393288636311575068305046443128958344459533691406250
-0.0168248059663519411444099205255042761564254760742187500
-0.4702990620745886585218897835147799924015998840332031250
0.1339523714690677991256961831822991371154785156250000000
-0.1797044461622844535586551728556514717638492584228515625
0.6267836487709756987385389948030933737754821777343750000
0.1799915358558549505207935226280824281275272369384765625
0.1284651402194755265284697998140472918748855590820312500
-0.3672009312433902605832258814189117401838302612304687500
-0.0359569072568846626047900372213916853070259094238281250
0.7062650697304706515211591977276839315891265869140625000
-0.0214456856630774045369136615590832661837339401245117188
-0.2644404357490529600127615594828967005014419555664062500
-0.4401491698265044272275758885371033102273941040039062500
-0.4911253729647864219032271648757159709930419921875000000
0.4721398680331724273528948288003448396921157836914062500
0.5296612092591329590263171667174901813268661499023437500
0.5755323045177418439521943582803942263126373291015625000
0.3721244072266236546653317418531514704227447509765625000
-0.3560959364174367536293175362516194581985473632812500000
