nn
1,10,10,10,10,10,1
dIn
0
dIntern
,
dOut
,
normP
1.9999999999999984
normY
1.0
w
0.3554394590833007128161113996611675247550010681152343750
-0.5822951195819157099720086989691480994224548339843750000
-0.1557711851190193286242902104277163743972778320312500000
-0.0609280839174779972888806867103994591161608695983886719
-0.9768347881372992924653431145998183637857437133789062500
0.3623970150783570320918158813583431765437126159667968750
0.3662013394834283674939001684833783656358718872070312500
-0.0818247751717326859965950802688894327729940414428710938
-0.5357775719475798004154398768150713294744491577148437500
0.5864440061753000144051384268095716834068298339843750000
0.1978545388407862148927307543999631889164447784423828125
-0.3633214696568676238541684142546728253364562988281250000
-0.1213810262263445294284025521847070194780826568603515625
-0.2328240373766972681757181362627306953072547912597656250
-0.4911572929000074250183160984306596219539642333984375000
-0.4363970535812391471353066663141362369060516357421875000
0.0821898247861208575137936804821947589516639709472656250
-0.2055074370445688913822124277430702932178974151611328125
-0.3617120199989820039654375705140409991145133972167968750
-0.3224051697325123200243979226797819137573242187500000000
-0.1862889016168113309745990591181907802820205688476562500
-0.0109550047520388573601968218440561031457036733627319336
-0.1489235955839516289955781758180819451808929443359375000
-0.1476854658471000170116838035028195008635520935058593750
-0.2026578056315729847725037870986852794885635375976562500
-0.3553317262120456732077400374691933393478393554687500000
-0.2919878564225347750138439550937619060277938842773437500
0.1260050296238290068462362114587449468672275543212890625
0.1830672882950879765129315046578994952142238616943359375
-0.1902230569416882011157809984069899655878543853759765625
0.5040417229498663775899558459059335291385650634765625000
-0.2946807174736449375096469793788855895400047302246093750
-0.0063717372351617196715722890587585425237193703651428223
0.5799379671513924527914696227526292204856872558593750000
0.3358873312398866217698412128811469301581382751464843750
-0.5099611330236917261515827703988179564476013183593750000
0.0226623456363220510123568374183378182351589202880859375
0.2713201656624826263453087449306622147560119628906250000
0.0126593913561726355287984091546604759059846401214599609
-0.3795539830586713292426281896041473373770713806152343750
-0.1376547718378801077321327284153085201978683471679687500
-0.4122894587176637037906345994997536763548851013183593750
0.4448203062110765437786596976366126909852027893066406250
0.5056658346421357697053622359817381948232650756835937500
-0.4388970054075519988678877325583016499876976013183593750
0.0704666358342695281491430137066345196217298507690429688
-0.3740522656960497682732125213078688830137252807617187500
0.3269623595201802124243783964629983529448509216308593750
-0.3759889148373302680816721021983539685606956481933593750
-0.4877645545934081172667617920524207875132560729980468750
0.3737876380873911830171607562078861519694328308105468750
-0.4608004529657440118128874928515870124101638793945312500
0.4821881339342953265436619858519406989216804504394531250
-0.2623756636900178018656504264072282239794731140136718750
0.2156422292591246847592856283881701529026031494140625000
0.1619152867910403637008442956357612274587154388427734375
-0.2880224079839953654769146851322147995233535766601562500
0.3228713638909895822237672291521448642015457153320312500
-0.4241869008241546668003252307244110852479934692382812500
0.3634449516994760487342830401757964864373207092285156250
0.7007235959626166854619100377021823078393936157226562500
0.3233779312520679849463078880944522097706794738769531250
0.7336279925061636175698254191956948488950729370117187500
0.5575315985469241342187274312891531735658645629882812500
0.0386671208562287677112934147771738935261964797973632812
-0.2782873987015161976188437620294280350208282470703125000
-0.2544889325472982632980745165696134790778160095214843750
-0.4680469161104399145045817931531928479671478271484375000
0.2808328218053325331382552576542366296052932739257812500
0.1513253802658794666680108775835833512246608734130859375
-0.4132703547076524430714528079988667741417884826660156250
-0.0114284051808570125130515293676580768078565597534179688
0.3121248721022542582659298204816877841949462890625000000
-0.1516597328461882498995549894971190951764583587646484375
0.1124550138660901366094435616105329245328903198242187500
0.0287292252856446994613293099973816424608230590820312500
0.3110574931225176809057586524431826546788215637207031250
-0.0277171693610270206131751535849616630002856254577636719
0.3709046628431256764635293166065821424126625061035156250
0.3378239876106121086785094576043775305151939392089843750
-0.1367117855150983829481958764517912641167640686035156250
0.3414671129124700055257335407077334821224212646484375000
-0.1768613361195634225975226172522525303065776824951171875
-0.4067901604372133883558149136661086231470108032226562500
0.1429795814599848502446377551677869632840156555175781250
0.4609077742080359696430491567298304289579391479492187500
0.3187944914794242912137178791454061865806579589843750000
-0.0026674125046942985875486620273022708715870976448059082
0.4182470506020943279423818239592947065830230712890625000
-0.0654414401270609208394191114166460465639829635620117188
0.1813966141931205866555387729022186249494552612304687500
0.2108346053059024505227370127613539807498455047607421875
0.5354569057198966808286400009819772094488143920898437500
-0.3792608405078228273055174213368445634841918945312500000
-0.4350493136942267802247386043745791539549827575683593750
0.3241551636905135591604221190209500491619110107421875000
-0.2619153548191895941599227626284118741750717163085937500
-0.1718892449971684832643603613178129307925701141357421875
-0.2079464311043025537273365443979855626821517944335937500
-0.0608023607879622021710197543598042102530598640441894531
0.4583018115832469541182092598319286480545997619628906250
0.2931100660188925011162552891619270667433738708496093750
0.4666697198748240849042190347972791641950607299804687500
0.2058687269308709100190668550567352212965488433837890625
-0.2761648033394555334929520995501661673188209533691406250
0.2699906738448999976576203607692150399088859558105468750
-0.3147064655948864642098783406254369765520095825195312500
-0.4717596127144458861835119023453444242477416992187500000
-0.2112523635757811435453845660958904772996902465820312500
-0.0483702277217420428812033605936449021100997924804687500
-0.0894184721220509237671336677522049285471439361572265625
0.1842003417668615083968575163453351706266403198242187500
-0.2470074658549070434343519764297525398433208465576171875
-0.3710056875704609846700066100311232730746269226074218750
-0.0333922149467959852864318293086398625746369361877441406
0.3490005617755053135553566789894830435514450073242187500
-0.0571590580074140264255078136557131074368953704833984375
-0.3868427794683641507411664406390627846121788024902343750
0.2913915843685730422407687001395970582962036132812500000
0.5813809747460674248742407144163735210895538330078125000
-0.1465025689864159763597939445389783941209316253662109375
0.1755527669257757328313829248145339079201221466064453125
0.3835556797947537455151234553341055288910865783691406250
-0.2206815334272066164711390001684776507318019866943359375
0.0982514565502212583458785388756950851529836654663085938
-0.0613218384299643176627014895530010107904672622680664062
0.2405268773546135330221318326948676258325576782226562500
0.0154112274639374817464254618926133844070136547088623047
-0.3510123463365203422270610644773114472627639770507812500
-0.0343692972828113160743690457366028567776083946228027344
0.3726182828995204809885422037041280418634414672851562500
0.4654138575139448175121970052714459598064422607421875000
-0.3305433848157584564297906126739690080285072326660156250
0.0702154609873215929116696543133002705872058868408203125
0.3490930606462674390400025004055351018905639648437500000
-0.5039580522407421936392779571178834885358810424804687500
-0.3417952652786799272455198206444038078188896179199218750
-0.4782223105141467089929108169599203392863273620605468750
0.1849241387490872801091512656057602725923061370849609375
0.0755478216606802754906624386421754024922847747802734375
-0.0094567494849251941546608435373855172656476497650146484
0.1995861161421515483915811728365952149033546447753906250
-0.4377321617166527456532776341191492974758148193359375000
0.0486616696404125748109947835473576560616493225097656250
-0.2216042638730111868916594630718464031815528869628906250
0.0716870086050032662150499618292087689042091369628906250
0.0450526321275568283897250410063861636444926261901855469
0.3664788488659521115131667556852335110306739807128906250
0.2397118015969033066880911064799875020980834960937500000
-0.4742851437685831617052656383748399093747138977050781250
-0.3292294829199237660155574758391594514250755310058593750
0.6725091733944726923866141987673472613096237182617187500
-0.4112633203376633850290033933561062440276145935058593750
0.1061744067210308589688239067072572652250528335571289062
0.5901717796960352924173776045790873467922210693359375000
-0.4267341012833281155280928942374885082244873046875000000
-0.2481169957797485503547818552760872989892959594726562500
-0.0294294773608301495071426501226596883498132228851318359
0.1351682432384187781959639096385217271745204925537109375
-0.0823827218953132878187517462720279581844806671142578125
-0.1017154157699082656085565190551278647035360336303710938
0.8300597275212824310841597252874635159969329833984375000
0.0415167657341608195564752747941383859142661094665527344
0.2388650814747571848872809141539619304239749908447265625
0.4381924016262406795796380265528568997979164123535156250
-0.3355005721284756159406015285640023648738861083984375000
-0.1435341814128202053701954810094321146607398986816406250
-0.1229042207027701283372778107150224968791007995605468750
0.2864421714406716890088944182934937998652458190917968750
-0.5134723801669258680391294547007419168949127197265625000
-0.0518310673806663749219048042959911981597542762756347656
0.2567290090394683810259834899625275284051895141601562500
0.1702821279625352790532133440137840807437896728515625000
0.4049524786950750021574663151113782078027725219726562500
-0.0962875058893006147142656914184044580906629562377929688
-0.3470540899867224360342277122981613501906394958496093750
-0.0848122120390729927752460071133100427687168121337890625
-0.2792306374774874422328707623819354921579360961914062500
0.4296517474705479622265613670606398954987525939941406250
-0.1027665523625567178811479607247747480869293212890625000
0.2888785242747812231911552771634887903928756713867187500
-0.4990882336569165689255100915033835917711257934570312500
0.4470122867307288472282778002409031614661216735839843750
-0.3769405835812512650662142732471693307161331176757812500
0.2393721743754096409340093032369622960686683654785156250
0.2947219713676766938981188559409929439425468444824218750
0.2748762942785225593667064458713866770267486572265625000
-0.2953680591354019280281306691904319450259208679199218750
-0.4191105663420414684239290181722026318311691284179687500
0.2926659310207206932119561315630562603473663330078125000
0.0581257002270357883699780643382837297394871711730957031
0.0515164405819185655666103684779955074191093444824218750
0.4212820793888035209029396810365142300724983215332031250
0.3541658092735228136049840941268485039472579956054687500
0.3844411268386177527034419654228258877992630004882812500
0.0246928503076110951452992736676606000401079654693603516
0.1805908163618092088231747993631870485842227935791015625
-0.2768750035986133339882542259147157892584800720214843750
0.0564477368739809345909996807222341885790228843688964844
0.1264468683803969817347478965530171990394592285156250000
0.2737953074867718883389500206249067559838294982910156250
-0.2249854492122288773803262529327184893190860748291015625
-0.3456601382402426092532721213501645252108573913574218750
-0.1610221488549927193467681263427948579192161560058593750
0.2218592759209204179349228525097714737057685852050781250
-0.4289198725598554196025702367478515952825546264648437500
-0.4186798086898768089803013481287052854895591735839843750
-0.1509859838669910525599249240258359350264072418212890625
-0.1712215054921429613354888488174765370786190032958984375
-0.3115403977076439678839392399822827428579330444335937500
-0.4005973261468370738569433342490810900926589965820312500
0.1253784430833512486547220987631590105593204498291015625
0.5264634503614440408370001023286022245883941650390625000
-0.0069582951125767688455026060978525492828339338302612305
0.3389096738516980678035395158076426014304161071777343750
0.1321922806745532974481704968638950958847999572753906250
0.1568956886027969011010441136022564023733139038085937500
-0.0557252827468141601063855716802208917215466499328613281
-0.0383340478163852610427042577612155582755804061889648438
-0.5768668240399053015465824501006864011287689208984375000
-0.1529405075578388339962998543342109769582748413085937500
0.2081870186256477295305700181415886618196964263916015625
-0.2840297627068213981438304926996352151036262512207031250
-0.5008182687530076115933752589626237750053405761718750000
-0.3639023407850668356822154692054027691483497619628906250
-0.1098626946770760171023795237488229759037494659423828125
-0.4491000031895147071026030971552245318889617919921875000
0.4847691688886037741923473731731064617633819580078125000
-0.0667204572896700626172261650026484858244657516479492188
-0.5439247866679750575968910197843797504901885986328125000
-0.2299843576254833876770788947396795265376567840576171875
0.0959329846202533614851759580233192536979913711547851562
0.1204912557374825526901318539785279426723718643188476562
0.3775833396858077062319125616340897977352142333984375000
-0.1239827379959992648128519476813380606472492218017578125
0.1580852487669865136243885217481874860823154449462890625
0.5378848912927193248734170083480421453714370727539062500
-0.2999682776493200475620426459499867632985115051269531250
0.0845616779479492902682480348630633670836687088012695312
0.0292728120213429608698074702033409266732633113861083984
-0.0647396376562398151444099880791327450424432754516601562
-0.0079105989635495227441097654264012817293405532836914062
-0.2809137220639285614787183931184699758887290954589843750
-0.2854289812863779474128023139201104640960693359375000000
-0.4792150969850992314746918054879643023014068603515625000
0.0786363410111270977331798803788842633366584777832031250
-0.1990337853843429094524708489188924431800842285156250000
0.4851415067617514953468571548000909388065338134765625000
0.3585055628195502053223719940433511510491371154785156250
0.1389962328771799371374129350442672148346900939941406250
0.1102806930040235444678842213761527091264724731445312500
0.3687873063532473572045944365527248010039329528808593750
0.0664769333338491308360573839308926835656166076660156250
-0.0972360628659779124838280495168874040246009826660156250
-0.4064969530088360372133138298522680997848510742187500000
0.0963035683585332369371911909183836542069911956787109375
0.3201113166511679875014806384569965302944183349609375000
0.4155294051161715906950178123224759474396705627441406250
0.6306236818653542242074649948335718363523483276367187500
0.3136753085204522228934820304857566952705383300781250000
0.0002054925087858105103508221667141242505749687552452087
-0.5475096335471916209058917957008816301822662353515625000
-0.2425886664222004218682826603981084190309047698974609375
-0.2083750556490241712115363270640955306589603424072265625
-0.4257038447402228253935163593268953263759613037109375000
-0.3461798639121408949215208394889486953616142272949218750
0.3723116812656661611669051126227714121341705322265625000
-0.0875677710096165323738759411753562744706869125366210938
-0.8389505550269031886045922874473035335540771484375000000
0.3700805516730618638376881790463812649250030517578125000
0.4598086794549166023138297987316036596894264221191406250
-0.1238053791577897466691382533099385909736156463623046875
-0.3799997795645366771566386887570843100547790527343750000
-0.4745606785169714791905448691977653652429580688476562500
-0.2372998544480411642343398170851287432014942169189453125
0.3616947134815568509758065829373663291335105895996093750
-0.3212611492340367580489157717238413169980049133300781250
-0.3749650750041702562675993704033317044377326965332031250
-0.0574178102297579484591949494642904028296470642089843750
-0.0889014154787415022962449029364506714046001434326171875
-0.3106042084374505685140377408970380201935768127441406250
0.3982249371471100474195736751426011323928833007812500000
-0.0968037468116032667753145801725622732192277908325195312
-0.2295407167831706174432326861278852447867393493652343750
0.0402550552938214789566728768477332778275012969970703125
-0.1866161895085333422006357295686029829084873199462890625
-0.2019158122764783402924848587645101360976696014404296875
0.0485730627975123271933277635525882942602038383483886719
0.3684918699425192567531439635786227881908416748046875000
-0.2415036761983246349494436344684800133109092712402343750
0.2077030260677192319285211397072998806834220886230468750
0.0743630807909690938473090682236943393945693969726562500
0.1617983080760504177586511787012568674981594085693359375
-0.0756244560972974821932979239136329852044582366943359375
0.1154339588696351587282507011877896729856729507446289062
-0.0787956785272775489525898251486069057136774063110351562
-0.3812170356350891853303153311571804806590080261230468750
0.2462980540356431158333094799672835506498813629150390625
-0.4533842873174570575756092694064136594533920288085937500
-0.0243905277237832854297927553943736711516976356506347656
-0.4481580696199645164057301371940411627292633056640625000
0.1294583886266623684591081655526068061590194702148437500
0.0827508297326469133281534595880657434463500976562500000
-0.2903756743986074528862673105322755873203277587890625000
0.2777869518216292687995405685796868056058883666992187500
0.0855303171825232688707529860039358027279376983642578125
-0.3692216193137680679825507468194700777530670166015625000
0.0242343014120898897489908563329663593322038650512695312
-0.7234350662912263363324427700717933475971221923828125000
0.2673694224692439447288450082851340994238853454589843750
-0.0944394520568434953089465011544234585016965866088867188
0.0416668856411024288166622397966420976445078849792480469
-0.3775680768193276359845356182631803676486015319824218750
-0.3518941268359125351672389570012455806136131286621093750
-0.3766078503269183475055115195573307573795318603515625000
-0.0018995380225626540965366828572769009042531251907348633
0.4170744288920040787616017041727900505065917968750000000
0.1596892259390931823048731530434451997280120849609375000
-0.0371832093350492956518316134406632045283913612365722656
-0.2363225195641335263374571695749182254076004028320312500
-0.3637284407676376618567815057758707553148269653320312500
-0.3720103656193028962562152628379408270120620727539062500
0.3341202904277522645060116701642982661724090576171875000
-0.2927103286973782858559900432737777009606361389160156250
0.2169710305663908600504186097168712876737117767333984375
-0.0523646760806292868584144173382810549810528755187988281
0.2925447165560285944785334777407115325331687927246093750
-0.4410365884823033710837592025200137868523597717285156250
0.5676264318372392647660262809949927031993865966796875000
-0.3377644838250642989052607845223974436521530151367187500
0.4943071007326699239925460460653994232416152954101562500
-0.4850031336051347508053765977820148691534996032714843750
-0.4525277122874548085817991704971063882112503051757812500
0.0590627762696500704930890890409500570967793464660644531
-0.3294891762141520241691239334613783285021781921386718750
0.5412696342942663330077834871190134435892105102539062500
0.0899264694167178219030844843473460059612989425659179688
0.4646884645277318814926559298328356817364692687988281250
-0.0262345306734820850336209474562565446831285953521728516
-0.3021098119962362105184183747041970491409301757812500000
0.1578300955290695417598811900461441837251186370849609375
0.1190127276947363921255629293227684684097766876220703125
0.2395497356002155298071443212393205612897872924804687500
-0.1075777322629288268451830390404211357235908508300781250
-0.3712051925087654913326673522533383220434188842773437500
0.3468462750175777542516186713328352198004722595214843750
-0.5190631156582334870819295247201807796955108642578125000
-0.0347193514923612028821864328165247570723295211791992188
0.2231839371694773754839502544200513511896133422851562500
0.4131285618211822385781317734654294326901435852050781250
0.3285306608593379085192509592161513864994049072265625000
-0.1750476820719320258934459388910909183323383331298828125
0.0938383726855637340102944676800689194351434707641601562
-0.2460670849329624765289281640434637665748596191406250000
0.2559132167341774399815790275170002132654190063476562500
0.3471822759122338286630338188842870295047760009765625000
0.5422764968899641546684620152518618851900100708007812500
-0.4287724405369802704868220644129905849695205688476562500
0.3528067198165016904454205359797924757003784179687500000
-0.2105056247603451502481419765899772755801677703857421875
0.3870034036639502517118671676144003868103027343750000000
-0.2971130259250366334455861760943662375211715698242187500
-0.2027836798948755847593616863377974368631839752197265625
0.3479435250823513792184371595794800668954849243164062500
-0.2205645196156963694367192374556907452642917633056640625
0.1591081684970607201812242692540166899561882019042968750
-0.2116245721402537915967201342937187291681766510009765625
-0.2877496785158878411792215956666041165590286254882812500
0.3213607882102971213811315465136431157588958740234375000
0.4165050304956923188370865318574942648410797119140625000
0.4750220019990355480032917512289714068174362182617187500
-0.3617914107285148395121154862863477319478988647460937500
-0.0249543508082469452091789463565874029882252216339111328
0.2793032969746153670875798979977844282984733581542968750
0.1261551918364756941226545450263074599206447601318359375
-0.1610819016267052983248930786430719308555126190185546875
-0.4926860272378597027653768236632458865642547607421875000
0.1880521962149747650094866457948228344321250915527343750
-0.2281553650589550341631905894246301613748073577880859375
-0.2888355764712409179395535829826258122920989990234375000
-0.1413180475055541007733950209512840956449508666992187500
0.2189287757230761188864676114462781697511672973632812500
0.0470709237199336341661570770611433545127511024475097656
-0.0155108601726490682309878010869397257920354604721069336
-0.0846721041288689968418168518837774172425270080566406250
0.3313623263803159302298695365607272833585739135742187500
-0.3762689964586866109286233950115274637937545776367187500
0.4053084476721368623053365354280686005949974060058593750
0.3510869589261860768125700360542396083474159240722656250
0.2768255281175069359989038275671191513538360595703125000
0.3568810488500552269286458795249927788972854614257812500
-0.2212922201288990697864988987930701114237308502197265625
-0.0182222602235727476616133913012163247913122177124023438
-0.4248239923471293644219315410737181082367897033691406250
0.0586932741872576782538040163217374356463551521301269531
0.0359800944949962703267587471600563731044530868530273438
-0.1829191591670691341420251774252392351627349853515625000
0.4768422797887326702870325334515655413269996643066406250
-0.0344159646524512877197032878484606044366955757141113281
-0.2413532663934085387147376877692295238375663757324218750
0.0326625354656983335477349328357377089560031890869140625
0.0541454217366321571835996451227401848882436752319335938
-0.1290609559031792030747709532079170458018779754638671875
0.1074347059215636224216439131851075217127799987792968750
-0.6166145915935722365830429225752595812082290649414062500
-0.2251659417681813601941342994905426166951656341552734375
-0.0692118327945766831366114502088748849928379058837890625
-0.3641799528406218233733682154706912115216255187988281250
-0.3969723608995744390526283496001269668340682983398437500
0.1829057506404892230467140734617714770138263702392578125
0.4891155774324518201723321908502839505672454833984375000
0.3536541515329622575869450429308926686644554138183593750
0.3159110991774989884994795374950626865029335021972656250
-0.2012516281177059163098874705610796809196472167968750000
0.4048082097871616991113796757417730987071990966796875000
0.3091156962268610808308721971116028726100921630859375000
0.2238558148149074056298957202670862898230552673339843750
0.1099632912647765248248532543584587983787059783935546875
0.4030254102408974969939947641250910237431526184082031250
0.3903031407937852526046640377899166196584701538085937500
-0.3653585143894857445445722987642511725425720214843750000
0.3674402380643611021326933041564188897609710693359375000
0.0317090998929464920608189970607782015576958656311035156
0.3362638114842685932437404972006333991885185241699218750
-0.1119465131765332022162340308568673208355903625488281250
0.4017062765194430729032148974511073902249336242675781250
0.2215695977134249095019669084649649448692798614501953125
-0.4457062894980960976454298361204564571380615234375000000
-0.0970259624183548580189651033833797555416822433471679688
0.4213357050739470754940896313200937584042549133300781250
-0.0687868180405696721946284810655924957245588302612304688
0.1290458048015798442342827456741360947489738464355468750
0.0346882351590091578263930216508015291765332221984863281
-0.0803421933264199666924199050299648661166429519653320312
0.4797809335572348343745829879480879753828048706054687500
0.2494309805353299436259106869329116307199001312255859375
0.2972986837228640544239510745683219283819198608398437500
0.7126517962952068074855560553260147571563720703125000000
0.1654987638452420084522742627086699940264225006103515625
0.2781784345717065454195449092367198318243026733398437500
0.3369437075985484142393033835105597972869873046875000000
0.0838657068428639851376260594406630843877792358398437500
-0.1466418602570227214254572345453198067843914031982421875
-0.1744699293849200361083973120912560261785984039306640625
-0.1664768045531526685643086693744407966732978820800781250
-0.2936557712910626283253634483116911724209785461425781250
-0.2346706193988672695116548538862843997776508331298828125
-0.1295121507510989533606959867029218003153800964355468750
-0.4615726330619139283761853675969177857041358947753906250
-0.2310589954161495207518584038552944548428058624267578125
-0.4729101531377867262406766712956596165895462036132812500
0.0377386281059496897505312063003657385706901550292968750
0.3653876427869346410481909970258129760622978210449218750
-0.3562876378025437995589186357392463833093643188476562500
0.1096565634478118417272085594049713108688592910766601562
-0.3121174352956276321080508751037996262311935424804687500
-0.3272280990091734897973196893872227519750595092773437500
-0.2639204250031809140253358236805070191621780395507812500
0.3385053358169125004017985247628530487418174743652343750
0.5387482001480363713596943853190168738365173339843750000
-0.1322837107328942718442732484618318267166614532470703125
0.3720676332165940847218621456704568117856979370117187500
-0.0701073775169634705317633915910846553742885589599609375
0.2757001797450946423140294427867047488689422607421875000
-0.3655122620250795817398170584056060761213302612304687500
-0.0437863942697153118999153775803279131650924682617187500
0.4418505981462807485904420445876894518733024597167968750
-0.6191808664662553640667397303332109004259109497070312500
-0.1387323851206204716746128724480513483285903930664062500
0.2826624310226978908922035316209075972437858581542968750
0.4224236740100651421592203860200243070721626281738281250
