nn
1,10,10,10,10,10,1
dIn
0
dIntern
,
dOut
,
normP
1.9999999999999984
normY
1.4323951761789169
w
-0.9904883084467036580278431756596546620130538940429687500
-1.2782473887532310730108520147041417658329010009765625000
-1.3594932204250582685745030175894498825073242187500000000
-2.2714468191180117173644248396158218383789062500000000000
1.6819248274593725511749653378501534461975097656250000000
0.4059437723880252590902273368556052446365356445312500000
1.5518076761830741361336549744009971618652343750000000000
-0.0244272858609470497337490257905301405116915702819824219
-1.2627151176508453200852954978472553193569183349609375000
-2.1535995856098475442763628961984068155288696289062500000
1.0212915459670264262115324527258053421974182128906250000
-0.3326712045338190981702553017385071143507957458496093750
-0.7239022419536305097409467634861357510089874267578125000
-0.0719593515302788533372080337358056567609310150146484375
0.2236860329048518392092148587835254147648811340332031250
-0.6937192316494569244156309650861658155918121337890625000
1.0307051203736039557412595968344248831272125244140625000
-0.0290088777891999195779337838985156849958002567291259766
0.0320825490950843519866175768129323842003941535949707031
-1.4046670822650331178493843253818340599536895751953125000
0.3669131843639090173603278799419058486819267272949218750
0.7364772826046603881877672392874956130981445312500000000
0.5704784602750740951648822374409064650535583496093750000
-0.8970799401422473451361838669981807470321655273437500000
-0.0371314094961199686606434511304541956633329391479492188
-0.4380883985635626309829149249708279967308044433593750000
0.4822475517209335871271491669176612049341201782226562500
-0.7789271722180365342680374851624947041273117065429687500
0.2450878905177365507661590982024790719151496887207031250
0.0301765664847812031812424038434983231127262115478515625
0.5941942748288087106089960798271931707859039306640625000
-0.3775834696836096737726506944454740732908248901367187500
0.5153937893863617114575959021749440580606460571289062500
0.1702755606226448170659182324016001075506210327148437500
0.7256653834207458242389066072064451873302459716796875000
-0.4106842086350417364570830613956786692142486572265625000
0.1994364140626656844990094441527617163956165313720703125
0.2095064433090023103822829853015718981623649597167968750
-0.7341731833500684256677004668745212256908416748046875000
-0.9470029052353602372349428151210304349660873413085937500
0.3815109695201625017446644960728008300065994262695312500
0.1830501213923456105270304306031903252005577087402343750
-0.1440956437068920681365824520980822853744029998779296875
-0.2748372650219836899054826062638312578201293945312500000
0.1383626875360320362950972139515215530991554260253906250
-0.0489431346334014694132719114350038580596446990966796875
0.6090399342787612413374631614715326577425003051757812500
1.0835143613050344235659849800867959856986999511718750000
-0.5941657871981720351328704055049456655979156494140625000
-1.1776559232199694804421596927568316459655761718750000000
1.0103608237773609168641542055411264300346374511718750000
1.0159825239361219839651084839715622365474700927734375000
0.7002407617480278512189784123620484024286270141601562500
-1.5207062416549248506925096080522052943706512451171875000
1.0417092891134098753269654480391182005405426025390625000
-0.9664035263957072574569906464603263884782791137695312500
0.8267749480272807982572658147546462714672088623046875000
0.3094940111740436261555942110135219991207122802734375000
-0.2114300870812683974531154262876952998340129852294921875
-0.4598351091346735142195711887325160205364227294921875000
-0.5682553548323271419562274786585476249456405639648437500
0.0244357765664933689053750498487715958617627620697021484
-0.5067861590297798590754041470063384622335433959960937500
1.1159788586869452409189307218184694647789001464843750000
-0.2541561865008807319377126532344846054911613464355468750
0.9286177442590026753777010526391677558422088623046875000
-0.9056328068909438311351323136477731168270111083984375000
-0.4483996431111937353009011530957650393247604370117187500
0.8462353729390121870324037445243448019027709960937500000
0.8745800914888287591608673210430424660444259643554687500
-0.4265436980493517715729012707015499472618103027343750000
-0.2121723866167496419521398820506874471902847290039062500
-0.3694267590910981224894271690573077648878097534179687500
0.0779327449989861975598870458270539529621601104736328125
-0.2177623465107746680846645404017181135714054107666015625
0.0916376099685653200399571005618781782686710357666015625
-0.3356189352437017880959047033684328198432922363281250000
0.6348985769566229953042579836619552224874496459960937500
0.0436993050267832847111115768257150193676352500915527344
0.2860842034241237175073990783857880160212516784667968750
0.1522608369904926428617386591213289648294448852539062500
-0.2656969445523103545703236250119516626000404357910156250
-0.0049775952165374334063008276984874100890010595321655273
-0.1769885378740943537856367129279533401131629943847656250
-0.8587119835903463949122738085861783474683761596679687500
0.5262582710318880474531511026725638657808303833007812500
0.0180000558909040146715607733085562358610332012176513672
-1.6384405388016851645716087659820914268493652343750000000
0.2155912800284565944419767902218154631555080413818359375
0.9382808048195317995876507666253019124269485473632812500
0.3824487573408650864514868317201035097241401672363281250
-0.3146526401894950697446518006472615525126457214355468750
-0.1708251293049647401289803383406251668930053710937500000
0.1950595622989221289422800964530324563384056091308593750
0.0127154387663927174317857193841518892440944910049438477
0.0118207740212238586463566747397635481320321559906005859
0.1317729287735824872385137496166862547397613525390625000
0.0546229269356820409941910554607602534815669059753417969
0.0474878538504768729633376267429412109777331352233886719
0.0037914985417474072679211438696711411466822028160095215
0.6673520424308060361440197993943002074956893920898437500
-0.0917204559901999283422213693484081886708736419677734375
0.0928241782184147656842299056734191253781318664550781250
-0.8293826368380131652813247455924283713102340698242187500
-0.0702558465955008815129190224979538470506668090820312500
-0.8281045100882856724311409379879478365182876586914062500
0.8080127971613669801698165429115761071443557739257812500
0.3822017458314209137348882450169185176491737365722656250
-0.4849770718117189516327414366969605907797813415527343750
-0.6335426033170903359348358208080753684043884277343750000
0.8610791705835795228907159071241039782762527465820312500
0.0518183028350041180454255140830355230718851089477539062
0.9368519675840606408812050176493357867002487182617187500
-0.6564940113814708988471124939678702503442764282226562500
1.4562465610402226534603187246830202639102935791015625000
-0.0504704625337367013271361315673857461661100387573242188
0.3503971981373225075273580841894727200269699096679687500
1.8788963114970167467276951356325298547744750976562500000
-1.1963684411435524523881213099230080842971801757812500000
-1.4147844316194166935929388273507356643676757812500000000
0.3415739875813897374889904767769621685147285461425781250
0.5589911174150390404946620037662796676158905029296875000
-0.0385122134433398197184139633009181125089526176452636719
-0.4291782577460294123561368451191810891032218933105468750
-0.3037842850413394191200211480463622137904167175292968750
-0.1410076104679175990064265988621627911925315856933593750
0.2419161841789725375662101214402355253696441650390625000
-1.1607670716048756887062154419254511594772338867187500000
0.3548834154616033464968438693176722154021263122558593750
0.6867186539739794648440351920726243406534194946289062500
1.0981323965616356375107898202259093523025512695312500000
0.1440446039122086352435303524543996900320053100585937500
0.1258422047223929085557614371282397769391536712646484375
-0.2345972329513699161651629765401594340801239013671875000
1.5405563794031333912926129414699971675872802734375000000
-0.8037768669480246375158571936481166630983352661132812500
0.6267673527784585196798161632614210247993469238281250000
-0.5571550543934244981159054077579639852046966552734375000
0.4312680683817298188387212576344609260559082031250000000
0.4559245415639768261861775044962996616959571838378906250
0.5281157802399708556251312074891757220029830932617187500
-0.8752018630481422922784418005903717130422592163085937500
-0.0216073475509189552590250116281822556629776954650878906
-0.0973398584966561342124435896039358340203762054443359375
1.0004696347126154076789816826931200921535491943359375000
-1.2530561729711058305269943957682698965072631835937500000
0.6236167360601708731238090877013746649026870727539062500
-0.5009559298707865204747236020921263843774795532226562500
-0.2288429310870174482328565090938354842364788055419921875
0.1242133162254516753897348735335981473326683044433593750
0.0769583628199219660359631234314292669296264648437500000
-0.5593223329582598379872138139035087078809738159179687500
0.3146949204141220035602088955783983692526817321777343750
0.5411582842588408270856348281085956841707229614257812500
1.3825012607555688948224315026891417801380157470703125000
-0.6710587618688894639973341327277012169361114501953125000
0.9467076572948160961828989456989802420139312744140625000
-0.4120607521763189340369137880770722404122352600097656250
0.7006603910976726412584980607789475470781326293945312500
1.1246511306185698053639043791918084025382995605468750000
-1.5196354929999700278386853824486024677753448486328125000
0.8511243865121292939690533785324078053236007690429687500
0.2689972182522623600497979623469291254878044128417968750
0.5805059495759496979161440322059206664562225341796875000
-0.2265972549214293474406645145791117101907730102539062500
2.1274476565262316896109950903337448835372924804687500000
-0.1683906315013060650542797702655661851167678833007812500
0.7825961392312353881450803783081937581300735473632812500
-0.2576220300679775698782236759143415838479995727539062500
-0.2229371657180028443168140483976458199322223663330078125
0.2075893056277462733749672452177037484943866729736328125
0.3932852469578765330915359754726523533463478088378906250
0.0809676177540992608738790181632793974131345748901367188
-0.1143977492887685298850186654817662201821804046630859375
0.7144244430912075616291190272022504359483718872070312500
0.4249648123233270013976436985103646293282508850097656250
0.7657757666455049516684994159732013940811157226562500000
0.2607318608746252985852720485127065330743789672851562500
1.5527731729366223145660796944866888225078582763671875000
0.7868719416761009721739128508488647639751434326171875000
-0.7048074506065146183075853514310438185930252075195312500
0.1822285727023215673447964491060702130198478698730468750
0.2670094695447611243821484094951301813125610351562500000
0.4755034000971379293254415188130224123597145080566406250
-1.3695210253108087705697926139691844582557678222656250000
0.6810048871399526637659960215387400239706039428710937500
-0.5514618559687166632343746641709003597497940063476562500
0.5851979191329712559621611944749020040035247802734375000
-0.4439009363338592417669303813454462215304374694824218750
-0.0344254939823550321076339741921401582658290863037109375
1.2791370799745753750187304831342771649360656738281250000
-0.1825759828975607734768971113226143643260002136230468750
-0.5410870500765201374093749109306372702121734619140625000
-0.3533607315503299317605012674903264269232749938964843750
0.2226274080044603198569319602029281668365001678466796875
-0.9045637846819545302423648536205291748046875000000000000
0.7023044719782921552209131732524838298559188842773437500
-0.7368633210794204302374055259861052036285400390625000000
0.4279188928251213552833576159173389896750450134277343750
0.6296406659037704356407516570470761507749557495117187500
0.2732153933058628636487696894619148224592208862304687500
0.7012779798674155795623619269463233649730682373046875000
1.8215783254533775004091467053513042628765106201171875000
1.9741617011983638718675138079561293125152587890625000000
0.6890885128424028005511559058504644781351089477539062500
0.7005062878925751856939996287110261619091033935546875000
0.3971255018076714771169122286664787679910659790039062500
0.2843472286170134477600868194713257253170013427734375000
1.1389032774944176651388261234387755393981933593750000000
1.2201412705909566724926662573125213384628295898437500000
-0.0635255338552518922234924048098037019371986389160156250
-0.4311439187285044938313660622952738776803016662597656250
-0.6732780491251588728118804283440113067626953125000000000
-0.7094628006330226943632055736088659614324569702148437500
-0.4703603605335566761880272679263725876808166503906250000
-0.2897730398382108440991089537419611588120460510253906250
0.1798540959327965815806038563096080906689167022705078125
0.0653317710871713086540069070906611159443855285644531250
-1.1839874102990792792411411937791854143142700195312500000
-1.1149332879053726053086847969098016619682312011718750000
-0.1069699180998019416577449192118365317583084106445312500
-0.2144666135209513657677860010153381153941154479980468750
-0.5847993076808518653209034710016567260026931762695312500
-0.3928400546988155550565124940476380288600921630859375000
-0.7729091751301548907093774687382392585277557373046875000
-0.1762811394729062175468214945794898085296154022216796875
-0.5436047776543568854634713716222904622554779052734375000
-0.5093053281191051162579697120236232876777648925781250000
-2.0432026666546638793420243018772453069686889648437500000
-1.4903715033224149699719873751746490597724914550781250000
0.0753491537546962242277714949523215182125568389892578125
-0.1764822212145029656227279701852239668369293212890625000
-0.7020694222105777759779243751836474984884262084960937500
0.1960906317356164163534515409992309287190437316894531250
-0.3129949942261509576724165526684373617172241210937500000
-0.4037690095417978963787675183993997052311897277832031250
-0.0373229912781212549988119064892089227214455604553222656
-0.0410690018835979664402202615747228264808654785156250000
-0.2136661010976472208078291714627994224429130554199218750
-0.4738312564198435827833577604906167834997177124023437500
-0.5679884482282806512642991947359405457973480224609375000
0.1130469253392969719573812881208141334354877471923828125
0.9659039171363421605320809248951263725757598876953125000
-0.2938550132661471581130285812832880765199661254882812500
0.5173763857235870178286063492123503237962722778320312500
0.7002706135462566372495984978741034865379333496093750000
-1.6445027078003306986175857673515565693378448486328125000
0.9039296176681594907620365120237693190574645996093750000
-0.4653976902147696770306595226429635658860206604003906250
0.4833514125170129682729225351067725569009780883789062500
0.5139521010234189279941574568510986864566802978515625000
0.2611768234773391705871858903265092521905899047851562500
-0.3209437498078906991771930279355728998780250549316406250
0.3235045971183995727749049819976789876818656921386718750
0.0950281408325511223189607790118316188454627990722656250
0.5266384242765350665038681654550600796937942504882812500
0.4501646198589944192214318263722816482186317443847656250
-0.5648822043976691187339156385860405862331390380859375000
1.2816692343149689303771765480632893741130828857421875000
0.5700676645511226769968970984336920082569122314453125000
1.5918836508742864044307907533948309719562530517578125000
-0.2746743645290060098496098817122401669621467590332031250
0.1414615342920829688111439281783532351255416870117187500
-0.1306037906605024556672134394830209203064441680908203125
0.7714144715052734246896193326392676681280136108398437500
0.4720079147923054718738455903803696855902671813964843750
0.4411180557464469131900841603055596351623535156250000000
-0.1687191825282432500188178892130963504314422607421875000
-0.0060221783768378937817811191735017928294837474822998047
0.3015403374155897209263343938800971955060958862304687500
1.4382987962337385745570372819202020764350891113281250000
-0.4020117778947082665119694411259843036532402038574218750
-0.7010133346420378552821262019278947263956069946289062500
-0.0591982305366320210593400474863301496952772140502929688
0.4752590618923454024447039500955725088715553283691406250
0.6718203581498880527789197003585286438465118408203125000
0.3473692393652023091554781331069534644484519958496093750
-0.0938699661293554421526152964361244812607765197753906250
0.6540868053522508329677975780214183032512664794921875000
-0.1821205120668447363652120429833303205668926239013671875
-0.1872103788249070976945631628041155636310577392578125000
-1.8140885249627363151603276492096483707427978515625000000
0.3132215707037733221085318291443400084972381591796875000
-0.0444545178346778327438393318971066037192940711975097656
0.3919524644179953054567988601775141432881355285644531250
0.2846480920414612425517475458036642521619796752929687500
-0.2843641409838191802528228890878381207585334777832031250
0.2996170089706370331938956041994970291852951049804687500
0.9665340423135819758471143359201960265636444091796875000
-0.4641270467684074363390323014755267649888992309570312500
0.3255322091373337722863823273655725643038749694824218750
0.1464144221048905014637142585343099199235439300537109375
-1.4762606409326890499755791097413748502731323242187500000
0.1614682071511954197795546406268840655684471130371093750
-0.1388772820199568047705440676509169861674308776855468750
0.3778335237104426536092205424210987985134124755859375000
2.0045014988640921238527425884967669844627380371093750000
-1.2960334840762208763464968797052279114723205566406250000
0.1938415864943126287744945557278697378933429718017578125
-0.6486020602101159049368561682058498263359069824218750000
0.0747365845302878362144127777355606667697429656982421875
-1.4000967706226579156947309456882067024707794189453125000
0.1973363405395286429566681363212410360574722290039062500
0.1369414650805397259958340328012127429246902465820312500
0.4916460668044081994132454838108969852328300476074218750
-0.4271735488477888531555493045743787661194801330566406250
0.2566811196645401027538468952116090804338455200195312500
0.1592514815064552113899054575085756368935108184814453125
-0.2736814161287904334507459225278580561280250549316406250
-0.1093425908848982275323180601844796910881996154785156250
-0.1212988451185365718076880625631019938737154006958007812
0.2293233368077423617314991588500561192631721496582031250
-0.6111671639485863893881401054386515170335769653320312500
-0.1808815439584770534686697374127106741070747375488281250
-0.0288770071263549088502742279160884208977222442626953125
-0.2328819485014624601770805156775168143212795257568359375
1.3319394740085381823035959314438514411449432373046875000
-0.2190517315972175804716925995307974517345428466796875000
0.1508149363888728056171117941630654968321323394775390625
0.5963415875625363016254709691565949469804763793945312500
-0.3056135071848499196178750025865156203508377075195312500
-0.2277525280441514143880965548305539414286613464355468750
-0.2377433985946335592842615369590930640697479248046875000
-1.4352600352150919338356516163912601768970489501953125000
2.4580181239234817347494299610843881964683532714843750000
-0.6755360451983578595758217488764785230159759521484375000
0.2472126209166534138716997404117137193679809570312500000
-0.0667643663482167804001932154278620146214962005615234375
-0.5451191506987143053919453450362198054790496826171875000
0.2368143530985352962492385131554328836500644683837890625
1.0985095675963076899961379240266978740692138671875000000
0.1006116301714439359438202359342540148645639419555664062
0.1212642419498103640851383033805177547037601470947265625
-1.5420388610685060726268602593336254358291625976562500000
1.1898563306864819999475457734661176800727844238281250000
-0.1809508365854014810825134418337256647646427154541015625
0.0394603820751620731899222960237239021807909011840820312
-0.7698008885667475542646798203350044786930084228515625000
1.1215328332676957057145727958413772284984588623046875000
-0.8832358089009555435211495932890102267265319824218750000
-0.2395391415738721274664158045197837054729461669921875000
-0.0001120653241645785946900559792993590235710144042968750
-0.1022316245485808683390871465235250070691108703613281250
0.2133194052681235408641668982454575598239898681640625000
0.0785477253134439501458530230593169108033180236816406250
0.1816467913667560996060501565807498991489410400390625000
-0.4580270407734739479543861762067535892128944396972656250
-0.1770447404157846627015260310145094990730285644531250000
-0.7159736399991775135376315120083745568990707397460937500
-0.4289773868348042418219279170443769544363021850585937500
-0.4210603205859924091924995082081295549869537353515625000
0.1897701773003753755730826924263965338468551635742187500
1.8158211656351934681907778212917037308216094970703125000
-0.2015047658633179750164998722539166919887065887451171875
0.2560037512390554992336433315358590334653854370117187500
0.0438669252084984764850084104637062409892678260803222656
-0.4508925206573038968471678344940301030874252319335937500
-0.2470237360182365171645813006762182340025901794433593750
-0.2468183093183712872864532528183190152049064636230468750
-0.7810695150168733835727152836625464260578155517578125000
-0.1252290673289146449853603826340986415743827819824218750
-0.4027507627495644504378446981718298047780990600585937500
0.1647705519792227457642752597166690975427627563476562500
0.0555006266180648397123853499124379595741629600524902344
-0.1871394376778722778986718822125112637877464294433593750
0.8372004063948487173618673296004999428987503051757812500
0.2827130500724265860235107084008632227778434753417968750
-1.5460465933406475347311470613931305706501007080078125000
-0.4248044741642074684229157810477772727608680725097656250
0.5013052951438781157378343777963891625404357910156250000
0.3701036193638657101345756927912589162588119506835937500
0.9772307893364430286808897108130622655153274536132812500
-0.4013057734687999755784915123513201251626014709472656250
0.6931036070297156292951967770932242274284362792968750000
1.6253193865177530952337292546872049570083618164062500000
0.1006472266855416852759930179672664962708950042724609375
0.9134177751966876535050232632784172892570495605468750000
0.1544935922703040975800803380479919724166393280029296875
-0.0628271078123793236258620709122624248266220092773437500
0.8987074782977796383320878703671041876077651977539062500
-0.1363627144426537152188672052943729795515537261962890625
0.3412478275458202814363062316260766237974166870117187500
-0.5612407103467959013087806852126959711313247680664062500
-0.0001749677234172200557260623554611811414361000061035156
-0.0751640577934065690079989963123807683587074279785156250
0.2437064320959016483492121096787741407752037048339843750
-0.0796048375167732746859883263823576271533966064453125000
0.0990850108955064756699471217871177941560745239257812500
0.9860381845081117591078623263456393033266067504882812500
-0.3670908271617334683867284184088930487632751464843750000
-0.5222570744238309581319867902493569999933242797851562500
0.8264909509292743816644133403315208852291107177734375000
0.7125325569117835211585543220280669629573822021484375000
-0.1264005300484967730945129460451425984501838684082031250
-0.0049727739695046013768120474196621216833591461181640625
-0.0609186853025791841265146331352298147976398468017578125
0.1602910000177020233280700267641805112361907958984375000
0.7305052288374401792125922838749829679727554321289062500
0.4323076668593162641407445789809571579098701477050781250
-0.3457784446893554797242131826351396739482879638671875000
0.3040796514357606561418378987582400441169738769531250000
-0.1918265477551652775645152360084466636180877685546875000
0.3268572431886154205926686699967831373214721679687500000
0.1769530519337654816958149694983148947358131408691406250
-0.4274024045102998714540376568038482218980789184570312500
-0.3579194484919731578109747260896256193518638610839843750
0.3879054249229988426961313052743207663297653198242187500
0.3781362838231471235062031155393924564123153686523437500
-0.5136114548220522824095723990467377007007598876953125000
0.3051214915241412528601472331502009183168411254882812500
0.4356041586990682112912054435582831501960754394531250000
-0.1289252227422755248120722626481438055634498596191406250
0.2610837478359877006361955409374786540865898132324218750
-0.8170812372550878555088615939894225448369979858398437500
-2.4304022840788768178299505962058901786804199218750000000
0.1803346720936365721321692490164423361420631408691406250
0.2044661705365491966013280489278258755803108215332031250
-0.0441864346815299402493337765918113291263580322265625000
-0.4224246298131491550442717652913415804505348205566406250
-0.7420092817078201008484938938636332750320434570312500000
-0.2500013223523087080302218510041711851954460144042968750
-0.6435445701102473492483113659545779228210449218750000000
-0.5545627532883599108970429369946941733360290527343750000
0.7076043821877495698657867251313291490077972412109375000
0.7320749995042241664577886695042252540588378906250000000
0.1954270156134745028975174818697269074618816375732421875
0.3088356071959467152865386196936015039682388305664062500
-0.1102399142343413462885592934981104917824268341064453125
-0.3609433581335989571492461891466518864035606384277343750
0.8616247247174571022299005562672391533851623535156250000
-0.2775235616397164206681225095962872728705406188964843750
0.1457995087787389565381346301364828832447528839111328125
0.1154614296287446301159107520106772426515817642211914062
-0.1364808942490219334509049531334312632679939270019531250
0.2816782682355101763427285277430200949311256408691406250
0.3940425893122188605310896036826306954026222229003906250
-1.0381323059387339569070718425791710615158081054687500000
-0.6349987005900281644699134631082415580749511718750000000
1.0994533115369446996112401393475010991096496582031250000
0.3153917281250757098653991761239012703299522399902343750
0.1849129243351472495771048443202744238078594207763671875
0.4822353948896872521956424861855339258909225463867187500
-0.5335693295200872876549169632198754698038101196289062500
0.5236095098231345890127386155654676258563995361328125000
0.0983313784152255038195633574105158913880586624145507812
0.0827002329913853057030692639273183885961771011352539062
0.3369232344660039735195766752440249547362327575683593750
-0.5283782423416378826175332505954429507255554199218750000
0.5641717450148051593572517958818934857845306396484375000
1.0697202857384517926675471244379878044128417968750000000
0.3925515983332070746314457210246473550796508789062500000
0.4283914403662421599428000718035036697983741760253906250
-0.2769299211803198379477919388591544702649116516113281250
0.4933079273777833950731519507826305925846099853515625000
-0.0770916406686953104010484594255103729665279388427734375
0.0494811036633830692021973618466290645301342010498046875
-0.2022196786201914397995693661869154311716556549072265625
0.0233694857597508270918851280839589890092611312866210938
0.2513703472627635271408053085906431078910827636718750000
-0.5971157892525642552072895341552793979644775390625000000
-0.1860397949336599077163612037111306563019752502441406250
1.5123741344027277211381488086772151291370391845703125000
-0.8597151044905730898904039349872618913650512695312500000
0.7114928909404532042515256762271746993064880371093750000
0.7972250504147280203426362277241423726081848144531250000
0.1396594687838986492689485885421163402497768402099609375
-1.1748623597095104731380388329853303730487823486328125000
-0.7576210687994220371876963326940312981605529785156250000
1.8538527538623523760463740472914651036262512207031250000
-1.8113177433893155043875822229892946779727935791015625000
0.5352076878370423118624898961570579558610916137695312500
