nn
1,10,10,10,10,10,1
dIn
0
dIntern
,
dOut
,
normP
1.9999999999999984
normY
1.0
w
-0.7905320831397403269491519495204556733369827270507812500
-0.3547929083663912686041896904498571529984474182128906250
0.1162181274245835810310367719466739799827337265014648438
-0.9877086932216413428520240813668351620435714721679687500
-0.8159815669370916735303467248741071671247482299804687500
1.0550518549348137931076507811667397618293762207031250000
0.6904935254105230013621508078358601778745651245117187500
1.4963044870825181753559718345059081912040710449218750000
-0.3191741058081455362227529803931247442960739135742187500
-0.5303814112394610313927501010766718536615371704101562500
-0.1603862939285733701932912254051188938319683074951171875
-0.1382658677004387492992520947154844179749488830566406250
0.5135175835628674745336752494040410965681076049804687500
-0.0875482784738729064022422221569286193698644638061523438
0.7171541781689801942079043328703846782445907592773437500
0.6023601672547918006728195905452594161033630371093750000
0.2219191590047250861594818616140400990843772888183593750
1.2157589076786889936698798919678665697574615478515625000
-0.3283747444408504079227384409023215994238853454589843750
-0.5650113091721414848578319833904970437288284301757812500
-0.1546897847260906844191197251348057761788368225097656250
-0.6137343327198375719788714377500582486391067504882812500
-0.5635405286318131423684008041163906455039978027343750000
-0.6164576503385131855949907730973791331052780151367187500
-0.1750566647323223701260275220192852430045604705810546875
-0.1825571051242629583288845651622978039085865020751953125
0.0681130936989399193848271352180745452642440795898437500
-0.0122809387312302741718239573742721404414623975753784180
0.2642945100442026795661831783945672214031219482421875000
-0.0813698749437794105476839945367828477174043655395507812
0.4614234400326506779776991606922820210456848144531250000
0.0912441295840661220628575733826437499374151229858398438
-0.3470924044344664283201495891262311488389968872070312500
-0.0646330468758836151899060951109277084469795227050781250
0.0596671254561191577447942790968227200210094451904296875
0.1176509401499721829686961882543982937932014465332031250
-0.5193421294840255830749242704769130796194076538085937500
-0.2887906236770581003270308428909629583358764648437500000
-0.0552937686419277402150029843141965102404356002807617188
-0.0716494538233142103100803410598018672317266464233398438
0.3962126354744409661989834603446070104837417602539062500
-0.3806924505591288143691031109483446925878524780273437500
0.5307992773017592424977806331298779696226119995117187500
0.1660041377421278274706395450266427360475063323974609375
-0.4524946070245935425546690566989127546548843383789062500
-0.2571724588286749546561793522414518520236015319824218750
-0.2693375753350189527601798999967286363244056701660156250
0.4644395184892722294733857779647223651409149169921875000
-0.3032260355222600733959836816211463883519172668457031250
0.4878602196736769869289673806633800268173217773437500000
0.5798923539480670408252649394853506237268447875976562500
-0.7950789652197113310805320907093118876218795776367187500
-0.3153314943322692021077102708659367635846138000488281250
-0.4065784447387307820598323360172798857092857360839843750
0.5949482487949933062765239810687489807605743408203125000
-0.7110419818409333680975237257371190935373306274414062500
-0.5453862093093851948211181479564402252435684204101562500
-0.3251709460115013161640717953559942543506622314453125000
0.2555729527033170911387571777595439925789833068847656250
-0.3111768849862244779025388652371475473046302795410156250
0.0678940893212327256645011175351100973784923553466796875
-0.9925230860183790193573827309592161327600479125976562500
-0.0892875751257370953162251225876389071345329284667968750
-0.2078653478043853974899235481643700040876865386962890625
0.6595913902266280492980854432971682399511337280273437500
0.4004151424814543780428266472881659865379333496093750000
0.0844812405314562114844179063766205217689275741577148438
0.6253124160977192591559514767141081392765045166015625000
0.2399380097092474184439225837195408530533313751220703125
0.3329219354882881343193901102495146915316581726074218750
0.2724745131462781855269383868289878591895103454589843750
0.5386134961291049183529366928269155323505401611328125000
0.3156211965039785183329001938545843586325645446777343750
0.8051535183785625271468688879394903779029846191406250000
-0.0094596865349126351557584868601225025486201047897338867
0.5736745861370432519876771948474925011396408081054687500
0.4310546563404229480909179983427748084068298339843750000
0.3076981683677404433296942443121224641799926757812500000
-0.6283026160485908340191940624208655208349227905273437500
0.5140628718774566952021132237860001623630523681640625000
-0.3442514852031052230429963856295216828584671020507812500
0.3787683609492125125228767501539550721645355224609375000
0.0352889435400481343840795034338952973484992980957031250
0.3176904825877704952041824526531854644417762756347656250
-0.4273225959229824399976394033728865906596183776855468750
0.4661602226849428931565455513919005170464515686035156250
0.0442730724968465397251016213431284995749592781066894531
0.4360480293810802265852544223889708518981933593750000000
-0.2664978096961627129779515144036849960684776306152343750
0.5950065793748036124810596447787247598171234130859375000
-0.3658599309964584711529766991588985547423362731933593750
-0.5592764337471322066974721565202344208955764770507812500
0.4444260194667566388204704708186909556388854980468750000
1.1595502110431714637428513015038333833217620849609375000
0.0438469781376707445907925375649938359856605529785156250
0.8937238637284599107601934520062059164047241210937500000
0.2229131046001295302083633487200131639838218688964843750
0.6210213851859262002008676972764078527688980102539062500
-1.0137614993486041559123123079189099371433258056640625000
0.9214971013176861402982353865809272974729537963867187500
-0.2768826769989168878893792680173646658658981323242187500
-0.3336324069752423793211448810325236991047859191894531250
-0.4313160627842609895488124038820387795567512512207031250
-0.2372204169534107565109337656394927762448787689208984375
-0.4459093330190352921782448447629576548933982849121093750
-0.0954218386617310260211510808403545524924993515014648438
0.2593271628754421631590787455934332683682441711425781250
-0.0040504328324328531946152409659589466173201799392700195
0.1830752636163101854105406118833343498408794403076171875
-0.0344886583513158984093394110459485091269016265869140625
0.3471179414035009958006128272245405241847038269042968750
0.3919128539035681701996338688331888988614082336425781250
-0.2554490126460137733310773455741582438349723815917968750
-0.5738830083324009123657560849096626043319702148437500000
-0.2070167228223987188062693576284800656139850616455078125
-0.3443237501953934631693243773042922839522361755371093750
-0.0078531297241610856230131787469872506335377693176269531
0.1458051410681307502592574110167333856225013732910156250
0.0539937105870714334487914243254635948687791824340820312
-0.4824725355001686644129677006276324391365051269531250000
0.3917712379719284765400288961245678365230560302734375000
-0.1444986369204850351621871595853008329868316650390625000
0.0603722572619804012661326453326182672753930091857910156
0.1300685526756940879611335049048648215830326080322265625
0.6760355095462849961407414411951322108507156372070312500
0.2558735772295394617081853994022822007536888122558593750
-0.2149785873897881727234704385409713722765445709228515625
-0.0848613440286503789566907585140143055468797683715820312
-0.6099218915405412166919063565728720277547836303710937500
0.3224987747663267678710496966232312843203544616699218750
-0.3118256445496204731782086128077935427427291870117187500
0.2388262202367682496273459946678485721349716186523437500
-0.3287680615278971707482469355454668402671813964843750000
0.5600860838408350250716694063157774507999420166015625000
0.1144041665712224459250379027253075037151575088500976562
0.2261677609570214020351386352558620274066925048828125000
-0.2251360688163905054981483999654301442205905914306640625
-0.3597635656034656737034538309671916067600250244140625000
0.2862803291357173818276748988864710554480552673339843750
-0.4602912941420602144226847940444713458418846130371093750
-0.1830097951030625891277736627671401947736740112304687500
-0.0216082816929306503750396473151340615004301071166992188
1.0221345024340433571552466673892922699451446533203125000
-1.0090540688694533688618548694648779928684234619140625000
0.8381525567159842093900579129694961011409759521484375000
0.2951872484447270461593859636195702478289604187011718750
-0.5286426006036906155571841736673377454280853271484375000
-0.3001292458742535473881218877068022266030311584472656250
-0.4590735487426332861460309686663094907999038696289062500
0.0586950518063889398190369206531613599509000778198242188
-0.1308153934859593303663416463678004220128059387207031250
0.1390842938666436157113537319673923775553703308105468750
0.4309266474421608039691022895567584782838821411132812500
0.0647304358140750463190826735626615118235349655151367188
0.7623590280446279621173744089901447296142578125000000000
-0.4490897938810119449648539102781796827912330627441406250
0.4622412618674403561591645939188310876488685607910156250
0.1596960088942775413123342787002911791205406188964843750
-0.1635658865166525754997195463147363625466823577880859375
-0.0741458326014227397937617070056148804724216461181640625
-0.7228938060075968952133962375228293240070343017578125000
0.1212114017702283635946614026579482015222311019897460938
0.1828211991476488551544576921514817513525485992431640625
-0.1611116559866911934761901648016646504402160644531250000
1.4039042376862949090821075515123084187507629394531250000
-0.1455799809777276465627693369242479093372821807861328125
0.6202396440533592958388453553197905421257019042968750000
0.4119192484453650937581414837040938436985015869140625000
-0.1369107441539594016699510348189505748450756072998046875
-0.3257257322566342594427624135278165340423583984375000000
-0.5626177932145324245283291020314209163188934326171875000
0.2369530489388106953008161781326634809374809265136718750
-0.2905114372801917421718087553017539903521537780761718750
0.3353615836262691662916779478109674528241157531738281250
-0.0193281456258932206326850433697472908534109592437744141
-0.3972596968372689718584922502486733719706535339355468750
0.7388501115110821526599238495691679418087005615234375000
-0.5700152887653573419157737589557655155658721923828125000
0.5515835534203721302048961661057546734809875488281250000
0.4071198524912025829003425769769819453358650207519531250
-0.5063648751914244794392061521648429334163665771484375000
-0.1256007419852839535057142938967444933950901031494140625
0.1516161016409905692992055037393583916127681732177734375
-0.1054107107251097685818308491434436291456222534179687500
1.1350567728956888480240650096675381064414978027343750000
-0.6776208961556879906140693492488935589790344238281250000
0.8476482404086149724520282688899897038936614990234375000
0.2532468589200808639638751174061326310038566589355468750
0.2463046004966134017166723424452356994152069091796875000
0.2159250055273960189339277349063195288181304931640625000
0.3190401661100399355319723326829262077808380126953125000
0.0513381637749190933295295735661056824028491973876953125
0.0380183944886299737819790323101187823340296745300292969
-0.4636921112953399926048803081357618793845176696777343750
0.4521704764923543673482697613508207723498344421386718750
-0.1662014068482682571659125869700801558792591094970703125
-0.2268637368748142035812520589388441294431686401367187500
-0.1115386003665464753620284454882494173943996429443359375
-0.4396231430025465680699880977044813334941864013671875000
-0.1491316594934718187115407772580510936677455902099609375
-0.3678174028104661541505038258037529885768890380859375000
0.1371653238809406039067084748239722102880477905273437500
0.5017280249046738305196413421072065830230712890625000000
0.2629307698317362995688029059238033369183540344238281250
0.0970600889268445621294034708625986240804195404052734375
-0.5093214019216191212890976203198079019784927368164062500
0.3932808321816620988897739152889698743820190429687500000
-0.3065070833022196516992607939755544066429138183593750000
0.2992693059230393526348734667408280074596405029296875000
-0.1476922471489762467289352798616164363920688629150390625
0.7110558250221573617366743746970314532518386840820312500
0.5375779144602219616899674292653799057006835937500000000
0.1531038338810440380122201986523577943444252014160156250
0.0000091076653574873739360739932635624427348375320434570
-0.8571797009890627094819137710146605968475341796875000000
0.8660992214847529346855026233242824673652648925781250000
-0.6248399455741813213194291165564209222793579101562500000
-0.3025999643698442653771962795872241258621215820312500000
0.0592385991836038502955652518267015693709254264831542969
0.1881686979350768451624276167422067373991012573242187500
-0.8179096209536100836601235641865059733390808105468750000
0.0528053988134037782797847171423200052231550216674804688
0.3262187557513172020406955198268406093120574951171875000
-0.4745111097415139478350454282917780801653861999511718750
0.2024068982574602493240689682352240197360515594482421875
-0.8893343583988386757965827200678177177906036376953125000
0.9963208241802602449510573023871984332799911499023437500
-0.2154596884208939411298189270382863469421863555908203125
-0.3569004827020066938914055754139553755521774291992187500
0.2743592031602589687011573005293030291795730590820312500
-0.0525044736671895842516910590802581282332539558410644531
-0.3137216212781757662675374831451335921883583068847656250
-0.3397525445299767188345185786602087318897247314453125000
0.5314083866004113421155352625646628439426422119140625000
-0.4527828587282798356028479247470386326313018798828125000
-0.6881694804311585533795891933550592511892318725585937500
0.2663507414665714501111892786866519600152969360351562500
-0.3451409656866185615697872890450526028871536254882812500
0.3994397778425823886117029815068235620856285095214843750
-0.1573814189354025006029047517586150206625461578369140625
-0.4130440774016596039430737619113642722368240356445312500
-0.1452611373536683569973604335245909169316291809082031250
-0.4937358974135861444665351882576942443847656250000000000
-0.0964363053398935021753857199655612930655479431152343750
-0.0122930079567028713305454346027545398101210594177246094
-0.8146433343775522084584395088313613086938858032226562500
0.2206836311322872279383489058091072365641593933105468750
0.1605011393305390554608891306997975334525108337402343750
1.1932395203315353526818398677278310060501098632812500000
-0.1210830207640321010131856382940895855426788330078125000
-0.4405724904486181259244403918273746967315673828125000000
0.3579190797214535368908627788187004625797271728515625000
0.0291380925027646640879108730359803303144872188568115234
-0.2815988403093695469081580995407421141862869262695312500
-0.2521880081784664273669704925850965082645416259765625000
-0.2886721459067179695878735401493031531572341918945312500
-0.5061557939947882722719896264607086777687072753906250000
-0.1783638215736123300292348403672804124653339385986328125
0.4079999691780440418398256952059455215930938720703125000
0.0432714570446413038240507376031018793582916259765625000
-0.3740568149614120208035217274300521239638328552246093750
0.0160916257419846907283922377018825500272214412689208984
0.7107805183958130212928949731576722115278244018554687500
0.2176629412293938359290734751994023099541664123535156250
1.0479366468939117496006474539171904325485229492187500000
-0.0264766522911309698518067534678266383707523345947265625
-0.0141239634287178318639011109780767583288252353668212891
0.3964298445056818609444349021941889077425003051757812500
0.2665687977963646648760231983033008873462677001953125000
-0.2978295947551057309965472086332738399505615234375000000
0.1671430821539770239514410832271096296608448028564453125
-0.0850458308968989745713074057675839867442846298217773438
0.2490055221528898188321221596197574399411678314208984375
-0.5656670348454743146859868829778861254453659057617187500
0.0880095051431899200178321507337386719882488250732421875
-0.2800664104298405954196482525730971246957778930664062500
-0.8627178472513207241334498576179612427949905395507812500
0.0790962361560244714420164768853283021599054336547851562
-0.5861383478004036362563056172803044319152832031250000000
0.1812457621306669541816347646090434864163398742675781250
0.4442160843436949169138472370832460001111030578613281250
0.3064202610659937930925877935806056484580039978027343750
-0.5031537427466782341767270736454520374536514282226562500
-0.3140594408624910460758883345988579094409942626953125000
0.9534448832650235239327685121679678559303283691406250000
0.4561932909765427646142654793948167935013771057128906250
0.3265373806840050630029281819588504731655120849609375000
0.8497909420105820288426912156865000724792480468750000000
-0.6797445484151933836614034589729271829128265380859375000
0.1966355679279866153219558100317954085767269134521484375
-0.5757668617124616083913224429124966263771057128906250000
-0.1720184211407752850053753945758217014372348785400390625
-0.2954788357345380367391385334485676139593124389648437500
0.1778160935807918674456118424132000654935836791992187500
-0.0478769116612514852859838754284282913431525230407714844
-1.2932283427196111791346311292727477848529815673828125000
-0.3512916734572801846780976120498962700366973876953125000
0.1448060630232019807550614132196642458438873291015625000
1.1780080213477710504577089523081667721271514892578125000
-0.2065596971384016933281912997699691914021968841552734375
0.4998714424885098983608600065053906291723251342773437500
0.5090942074659599025920897474861703813076019287109375000
0.0793494044850944213465027132770046591758728027343750000
-0.3669201393403559441352967951388563960790634155273437500
-0.3451965300429266081394530374382156878709793090820312500
0.8869916598562839205044383561471477150917053222656250000
0.2299663048867910952743898178596282377839088439941406250
-0.2429771560440428523897082868643337860703468322753906250
-1.3032632631024769764849224884528666734695434570312500000
-0.2131263727832360121983157341674086637794971466064453125
0.0441998213603105177815777437899669166654348373413085938
0.0098529801781826430173705233528380631469190120697021484
0.7897777641398059378374796324351336807012557983398437500
0.0872614726814372881902315270963299553841352462768554688
-0.2264187412807379118362405279185622930526733398437500000
-0.1526393821058533162293713303370168432593345642089843750
-0.3012842861337558519885249097569612786173820495605468750
0.4155854712153094765447747249709209427237510681152343750
0.4700214454678326991832193471054779365658760070800781250
-0.4607630241586887498428382059501018375158309936523437500
-0.3028503156562377118810047704755561426281929016113281250
0.4393786323189207143613543848914559930562973022460937500
-0.4992309773252789351083436031331075355410575866699218750
0.0149575833590699664582546191127221391070634126663208008
-0.4548395805279752956984395950712496414780616760253906250
0.7027364486812640587132250402646604925394058227539062500
-0.2116814997380882801270018944705952890217304229736328125
0.3110204070894254657630995097861159592866897583007812500
0.2980528902235634047812595781579148024320602416992187500
0.0629866896286595673304375964107748586684465408325195312
-0.2051376378561855229332167027678224258124828338623046875
-0.0534889323973616326313162971928250044584274291992187500
0.2000079028296021799171455768373562023043632507324218750
-0.1989962329800625817632919734023744240403175354003906250
0.1866827519916041122627348158857785165309906005859375000
0.4214551637470629885662276592483976855874061584472656250
0.2365307206764459546644019383165868930518627166748046875
-0.2985772440549570583279148650035494938492774963378906250
0.3744331279683966173799092302942881360650062561035156250
-0.0946489664995051743767717766786518041044473648071289062
-0.3784049122238207774060470001131761819124221801757812500
-0.2169973164176068336495006860786816105246543884277343750
-0.3454341979609240054216456883295904844999313354492187500
0.0401616690884384480719759835665172431617975234985351562
0.2007502056003636070613538322504609823226928710937500000
0.1961459378474466885844407215699902735650539398193359375
-0.1990988572598111350231420146883465349674224853515625000
0.4272719935944426228324743988196132704615592956542968750
0.1149840596738528203379914316428767051547765731811523438
0.3133941877788060659248969841428333893418312072753906250
0.0838758832249530406066639898199355229735374450683593750
0.0489204723375107133898076483546901727095246315002441406
-0.1336216733647008492180674465998890809714794158935546875
-0.0232532624856832091653213723247972666285932064056396484
0.5169667544147202864479595518787391483783721923828125000
-0.4174270247401374867024514969671145081520080566406250000
-0.3490541691734915796807570131932152435183525085449218750
-0.0746526935641803890408851884785690344870090484619140625
-0.3572570602232628123040569789736764505505561828613281250
-0.5975394627680271630865149745659437030553817749023437500
0.4160893536090657929271685588901164010167121887207031250
-0.3278019694778446235794433505361666902899742126464843750
-0.0198295361362116930037391426822068751789629459381103516
0.0208582157502595344489293438527965918183326721191406250
-0.4718667637236945711087798827065853402018547058105468750
-0.4518284898874517785394289148825919255614280700683593750
0.2947746050238331805282143704971531406044960021972656250
-0.0877022183673102362355677996674785390496253967285156250
-0.3234688756007728649422006128588691353797912597656250000
-0.2669774231157828747740268227062188088893890380859375000
-0.1580043599922104358146413005670183338224887847900390625
0.5061563016895072042444780890946276485919952392578125000
0.1029799585559548341651137093322176951915025711059570312
0.3919939596101388312732183294428978115320205688476562500
-0.3110811524571423514196055748470826074481010437011718750
0.5684934464542451548751955670013558119535446166992187500
-0.3606770327746406934465994709171354770660400390625000000
-0.4783278584030635771640049824782181531190872192382812500
0.3785742892170311235666702032176544889807701110839843750
-0.5577195734437984109277408606430981308221817016601562500
0.0152457594174410272780395558811505907215178012847900391
-0.1411069770850574278675537698291009292006492614746093750
0.1844327777169801063639198446253431029617786407470703125
0.0270584262783737823643281927843418088741600513458251953
-0.3512978228733927288374161435058340430259704589843750000
0.3950447023941017210546533533488400280475616455078125000
0.0427823299383270974627357929875870468094944953918457031
-0.2843699258973085841617489677446428686380386352539062500
0.1863283550982615943691911297719343565404415130615234375
0.0885726562531824052060258622987021226435899734497070312
0.4874144172655982543140851248608669266104698181152343750
0.2531040070872470626461847587052034214138984680175781250
-0.1848210447387015342712857091100886464118957519531250000
0.1441717886565790085473537374127772636711597442626953125
0.6113744969811855112240550624846946448087692260742187500
-0.3993975996610508172324216502602212131023406982421875000
0.2132705900767662976491578774584922939538955688476562500
0.2830367538573681507330093154450878500938415527343750000
0.5078865980449216444014837179565802216529846191406250000
-0.2071954898298833391834250505780801177024841308593750000
-0.4065904388338614783293678556219674646854400634765625000
0.2522618601079493205752157791721401736140251159667968750
-0.0059329278684201978977252878166837035678327083587646484
0.4426910766235825356318400736199691891670227050781250000
-0.3410298800107688377281078828673344105482101440429687500
0.2380881400369945499750912176750716753304004669189453125
-0.2386063253198494049645006498394650407135486602783203125
-0.7528041347623627421725700514798518270254135131835937500
0.3180385372393592091633252039173385128378868103027343750
-0.9755045325653967092094376312161330133676528930664062500
0.5680132859310818016496114069013856351375579833984375000
0.1271387827538320303144558920394047163426876068115234375
0.4066419836918570007711082325840834528207778930664062500
0.1213158592522887574416401434973522555083036422729492188
-0.1945674258050098803796146285094437189400196075439453125
-0.0761308931811662814581609382003080099821090698242187500
-0.2006335586642738755269732564556761644780635833740234375
0.3645238342099160755438447267806623131036758422851562500
0.5922934081650120807793769017735030502080917358398437500
-0.2686696821008690005960772850812645629048347473144531250
0.2200983914567213872715001343749463558197021484375000000
-0.3333916842749340969653815136553021147847175598144531250
0.0232223650663127695326082289284386206418275833129882812
-0.3895459252535615757295772709767334163188934326171875000
-0.4953228482446976332909116536029614508152008056640625000
0.0643520759108659884395464700901356991380453109741210938
-0.2729722906659300951659474776533897966146469116210937500
-0.5284401053809917314652011555153876543045043945312500000
0.1751223421522418721707481381599791347980499267578125000
-0.1795050362389645770555546278046676889061927795410156250
0.4184899453721678819206886146275792270898818969726562500
0.1594098295587142444240669192367931827902793884277343750
0.4828334882224971646991207308019511401653289794921875000
-0.4677945894389632375265364316874183714389801025390625000
-0.9061253738153923764642172500316519290208816528320312500
-0.3892110630686639871633758502866839990019798278808593750
-0.3638435523542264959928616008255630731582641601562500000
-0.4452740959541969245627512918872525915503501892089843750
-0.3637388803624962418936661379120778292417526245117187500
0.7905898003788141004122280719457194209098815917968750000
-0.2125282877779003098961396744925878010690212249755859375
-0.0787787472539159677742404142009036149829626083374023438
-0.4637788453104089159140244191803503781557083129882812500
-0.3128399113891491278849343871115706861019134521484375000
0.4356913816456029486801071470836177468299865722656250000
-0.4059501897807719639210688455932540819048881530761718750
0.3485509436657041604235018894542008638381958007812500000
0.3887228834440723534981998454895801842212677001953125000
-0.5418625519589349570637182296195533126592636108398437500
-0.4105711529686613125988969841273501515388488769531250000
-0.0435806054857491159681970316341903526335954666137695312
-0.0272728067326362365319081249026567093096673488616943359
-0.0670070762308321715705616838931746315211057662963867188
0.2228116655651839472795927576953545212745666503906250000
-0.0883888515803391838776548183886916376650333404541015625
0.2640597791780603942335403644392499700188636779785156250
0.2755060895506245555175439676531823351979255676269531250
-0.1447171194683102568578902946683228947222232818603515625
-0.4547077082215708054846459162945393472909927368164062500
-0.2163033836125858866417104309221031144261360168457031250
0.3578321002056297772675463875202694907784461975097656250
-0.1985946482845112603943249496296630240976810455322265625
-0.1767996711834103618077307373823714442551136016845703125
0.1201786660015567581583084688645612914115190505981445312
1.1314697716954078554607576734269969165325164794921875000
-0.5460614972679986856007872120244428515434265136718750000
0.3238241320714128068658510528621263802051544189453125000
1.0939236241071681465797382770688273012638092041015625000
0.4426477477881176070262370103591820225119590759277343750
0.4406499009458660354177084172988543286919593811035156250
0.3884417109377643617662556607683654874563217163085937500
