nn
1,10,10,10,10,10,1
dIn
0
dIntern
,
dOut
,
normP
1.9750000000000072
normY
1.0
w
0.8607458265818964671112212272419128566980361938476562500
0.5445862788053967840085078933043405413627624511718750000
-0.4390450352613717854843855548097053542733192443847656250
-0.5573559304335820030473769293166697025299072265625000000
-0.2937700965884098014413439159397967159748077392578125000
-0.8473125487134886002493772139132488518953323364257812500
0.3430322495409969807411698639043606817722320556640625000
-0.5278120731009223742802305423538200557231903076171875000
-0.6329156184984038313601217851100955158472061157226562500
-1.1378108253001648630942099771345965564250946044921875000
0.1379530720710459568145722641929751262068748474121093750
0.2541881366048474588659189521422376856207847595214843750
0.2151090814750213908723708300385624170303344726562500000
-0.1504676057672720279612121885293163359165191650390625000
0.2400154959759726314150185544349369592964649200439453125
-0.1746392719593964359958704335440415889024734497070312500
-0.6253993466346733365313070862612221390008926391601562500
0.3754026178851574968575732782483100891113281250000000000
-0.5155158914118727064845870700082741677761077880859375000
0.0715150108221285774057207618170650675892829895019531250
-0.6171668452386193104430844869057182222604751586914062500
0.2837007427558108640930356614262564107775688171386718750
-0.4977044061627987070473011499416315928101539611816406250
0.0005128278371571986940860576886791477591032162308692932
0.1378319853199052869019425315855187363922595977783203125
-0.1079910748448289770085040117919561453163623809814453125
0.2471976101957270022246859753067838028073310852050781250
-0.6290594851208075599657831844524480402469635009765625000
-0.0228083981085573130054289237023112946189939975738525391
-0.5594752407404196548057484505989123135805130004882812500
-0.6019820570780799462440313618571963161230087280273437500
-0.3251672289271258509124606916884658858180046081542968750
-0.2157237822674883398477163609641138464212417602539062500
-0.2839292170520584246418138718581758439540863037109375000
0.3182970518878285304253950016573071479797363281250000000
0.2512505909240109747138092188833979889750480651855468750
0.4059629199178446112838969384029041975736618041992187500
0.2221344667828004937337738056157832033932209014892578125
-0.2749625623173945210275803674448980018496513366699218750
-0.0505418441393171921638405308385699754580855369567871094
-0.0802830946515045579259250985160178970545530319213867188
0.1629826135102353801276109379614354111254215240478515625
-0.1992927555955691099054405412971391342580318450927734375
-0.1539322207632210504080205737409414723515510559082031250
0.2565754635721130272330015031911898404359817504882812500
-0.2861690790244606485970280118635855615139007568359375000
0.1939165325309679110965532800037181004881858825683593750
0.0230463766931596307496743492038149270229041576385498047
0.3685882864433734362741290624398970976471900939941406250
0.3508991651987019566583114738023141399025917053222656250
0.1474341519403251921094266663203598000109195709228515625
0.0307123555428660544031060908309882506728172302246093750
0.4318005989770371533253978668653871864080429077148437500
-0.3299007908595787408323474210192216560244560241699218750
-0.2821907513247325915983765298733487725257873535156250000
-0.1622353968258452294737281818015617318451404571533203125
-0.2473011248158293040599886580821475945413112640380859375
0.5914163069262171612550105237460229545831680297851562500
-0.1861174076103303820506340571228065527975559234619140625
0.4244067833626830044124744745204225182533264160156250000
0.5006176772255740425876524568593595176935195922851562500
0.1181811259013141185425510570894402917474508285522460938
-0.1154616487181203687839570193318650126457214355468750000
0.0595203392632787722793530349463253514841198921203613281
0.4122369729164720442149416612664936110377311706542968750
0.1359064434751401095891054637831985019147396087646484375
-0.2329292154450787466490879751290776766836643218994140625
0.0765883757205853693550423599845089484006166458129882812
-0.3478794291626615131640676281676860526204109191894531250
0.3620655382833713464840741380612598732113838195800781250
0.5074280403535654793145681651367340236902236938476562500
0.4579648376060545533761114711523987352848052978515625000
0.1625670043637816586379329919509473256766796112060546875
0.1140490345559197343794366474867274519056081771850585938
0.1388605247028768530093145727732917293906211853027343750
0.2901251430748881809940087350696558132767677307128906250
-0.1707073592059926980812889496519346721470355987548828125
0.4610084142110739691133858286775648593902587890625000000
-0.2850741955622493883915069545764708891510963439941406250
0.6452367500277412792897280269244220107793807983398437500
-0.3925377769743466638274753677251283079385757446289062500
-0.3742329121711867601085543810768285766243934631347656250
0.3452506392493906450802398921950953081250190734863281250
-0.3989970598789416844631716685398714616894721984863281250
-0.2479799040272689103492353979163453914225101470947265625
0.4048396596999808694228306649165460839867591857910156250
-0.6403279134433885744215331214945763349533081054687500000
-0.3157153645198936264826272690697805956006050109863281250
-0.0496046771015897294820895524480874883010983467102050781
-0.1531272959941727684896051187024568207561969757080078125
0.5723399355651641595699175013578496873378753662109375000
-0.0544290901446196281887601742255355929955840110778808594
-0.3847388011986507261319445660774363204836845397949218750
-0.3097698656226604008168123982613906264305114746093750000
-0.5654865489008483736554921961214859038591384887695312500
0.3932802336142432464427542981866281479597091674804687500
0.3067307194399022662878451228607445955276489257812500000
0.2728365139663733729413763740012655034661293029785156250
-0.1394785671577315755431669686004170216619968414306640625
0.3165435961274744580684625816502375528216361999511718750
0.6823914422798044165929809423687402158975601196289062500
0.1530543710524101819192566154015366919338703155517578125
-0.0503308639707099464422057621959538664668798446655273438
-0.5342308910894274509573165232723113149404525756835937500
0.2381736943650885340861833583403495140373706817626953125
0.1929554135469491449317303022326086647808551788330078125
-0.5186167827397325513771875193924643099308013916015625000
0.2237698521795233042031014747408335097134113311767578125
-0.0045822538581262979920372124809091474162414669990539551
0.1421990107953999549206258734557195566594600677490234375
0.3205664201727393414209643651702208444476127624511718750
0.6511355402766457745045158844732213765382766723632812500
0.4427216919894356728093498531961813569068908691406250000
-0.4849641273931193929946914522588485851883888244628906250
-0.6382510866094392998348894252558238804340362548828125000
0.3802014450951252122479218087391927838325500488281250000
0.4268659534163762314662449171009939163923263549804687500
0.6352401616529506078734357288340106606483459472656250000
-0.2466744110457760874588473143376177176833152770996093750
0.3577277969704988902499565028847428038716316223144531250
0.3090457287127258978465249583678087219595909118652343750
-0.1664954857776403396307784987584454938769340515136718750
-0.2642985555316095802602660569391446188092231750488281250
0.1986122652568311219845043069653911516070365905761718750
-0.2352672913336393556438252971929614432156085968017578125
-0.4696462878274950680790311707824002951383590698242187500
0.3093010986948990792555491680104751139879226684570312500
0.2585737401804070745292563060502288863062858581542968750
0.3094858788652153913645292959699872881174087524414062500
0.0686883904341184237107853505222010426223278045654296875
-0.7606837298016757564766976429382339119911193847656250000
0.4993877486698867773640131417778320610523223876953125000
-0.7501559742103900418896955670788884162902832031250000000
0.3138010674631384611110718196869129315018653869628906250
-0.0013869673002803203747113069965735121513716876506805420
0.0972213455614580057684293024067301303148269653320312500
-0.1045067170221937319363192386845184955745935440063476562
0.3861495715550873897292660785751650109887123107910156250
-0.2311995899942202170596061705509782768785953521728515625
0.0345342159611610396985348359066847478970885276794433594
-0.3115545091465013460840793868555920198559761047363281250
-0.2336701700188591745988020420554676093161106109619140625
0.0731013387329065983388787230978778097778558731079101562
0.3571674202336453940453964150947285816073417663574218750
-0.3690915970254852185306049250357318669557571411132812500
0.3740295980085158733530192876060027629137039184570312500
0.5434227399725908291827636276138946413993835449218750000
-0.1607727850039263606252148974817828275263309478759765625
-0.4319627435096144441040166839229641482234001159667968750
0.2792627984481115821502328344649868085980415344238281250
0.2347871246804098255278603346596355549991130828857421875
0.2437994916860851957185474248035461641848087310791015625
-0.1223741101303885553397421404042688664048910140991210938
0.3327226438059027180393911748979007825255393981933593750
0.1920566816487619399289599186886334791779518127441406250
-0.2047926907537364338285357234781258739531040191650390625
-0.3025621098710040701718071431969292461872100830078125000
-0.1585729861955323394262507008534157648682594299316406250
-0.3944897901634535908321765873552067205309867858886718750
-0.2631044536739127748248279203835409134626388549804687500
0.0075442292593721205218315617457847110927104949951171875
0.2123013983530441517455500388678046874701976776123046875
0.1679815191978025756824877134931739419698715209960937500
-0.5743765031220734451622433880402240902185440063476562500
-0.1193066034277019127340935256142984144389629364013671875
-0.2486480802917982735333879418249125592410564422607421875
-0.4834202450244926008160462060914142057299613952636718750
0.4190230063058753007254608746734447777271270751953125000
-0.1606275116881493436604699809322482906281948089599609375
0.0912969620329322911755909331077418755739927291870117188
0.4830898192049840056405685118079418316483497619628906250
-0.4132570034039200757014498321950668469071388244628906250
-0.1791350417634712255399165314884157851338386535644531250
0.0377319862448129358933890387106657726690173149108886719
0.1970930489257191053908968569885473698377609252929687500
0.1652417818069147614767899767684866674244403839111328125
-0.3563568927657306817380344909906852990388870239257812500
0.4618471474613084493121561990847112610936164855957031250
0.0991336250673497398899769450508756563067436218261718750
0.1557285404662102634709697213111212477087974548339843750
0.0241869604595039318362115210447882418520748615264892578
-0.1063455109669339121447606544279551599174737930297851562
-0.1663283331396668562884855191441602073609828948974609375
0.2212467448014308335491051593635347671806812286376953125
-0.4913559119185564871834515088266925886273384094238281250
0.3446571522730224601538395745592424646019935607910156250
-0.3089013052323294483691995537810726091265678405761718750
-0.2396919844052796955136130918617709539830684661865234375
-0.1327338646524889309574746221187524497509002685546875000
0.1465255894574239714511776355720940046012401580810546875
-0.4929258888456605203209903720562579110264778137207031250
-0.3911387857777988141805280974949710071086883544921875000
0.0330118461321395398333500281751184957101941108703613281
-0.5292119186732566760156259988434612751007080078125000000
0.0569327742213506585167159812499448889866471290588378906
-0.5978899205723089416153470665449276566505432128906250000
0.2888742287911246209297644327307352796196937561035156250
0.3846904119216635331568454603257123380899429321289062500
0.3215160127476085483166912126762326806783676147460937500
-0.1675763724489746919754651344192097894847393035888671875
-0.7879258768450725369802967179566621780395507812500000000
0.0441527915797318565305218385219632182270288467407226562
-0.3383647538904664409109557254851097241044044494628906250
0.1729521925486212641231986708589829504489898681640625000
-0.4537249158624377942672367680643219500780105590820312500
-0.2033656107923514366753181548119755461812019348144531250
0.2240722573712038701021498354748473502695560455322265625
-0.4951564012583805629574840168061200529336929321289062500
-0.4990726691410902748913258619722910225391387939453125000
-0.3149393386265563754555785180855309590697288513183593750
-0.0280481975798212122830133097295401967130601406097412109
0.2752501056073106133759154090512311086058616638183593750
0.0962828760998486604671953159595432225614786148071289062
-0.4178369332903608124318850514100631698966026306152343750
0.2129877718108434681010265876466291956603527069091796875
0.1621722291805918758633708876004675403237342834472656250
-0.0503521398209579515437006591582758119329810142517089844
0.4562812335431364330062820044986438006162643432617187500
-0.3903987981800111084496052171743940562009811401367187500
-0.4141151272386477955045336329931160435080528259277343750
-0.7011197801858480849190868866571690887212753295898437500
0.6251919432820227662261913792463019490242004394531250000
-0.2379461219123894522020634667569538578391075134277343750
0.5083226320952517474083265369699802249670028686523437500
-0.2275711589219671093786701021599583327770233154296875000
0.4036670684553967380914230034250067546963691711425781250
0.2858718006491178798000873939599841833114624023437500000
-0.2701527385227605604356426738377194851636886596679687500
-0.3534049327405928142553648285684175789356231689453125000
-0.2841827843960936239575687523029046133160591125488281250
0.0816624545416602259928495755048061255365610122680664062
0.2320092510770301319489306024479446932673454284667968750
-0.1916260810001302605787287802741047926247119903564453125
-0.3459666920656435662451144708029460161924362182617187500
-0.1056642353710251919229889949747303035110235214233398438
-0.5587084707961524898678362660575658082962036132812500000
-0.4025083054203326127229445319244405254721641540527343750
-0.0455880755528340897431149869589717127382755279541015625
-0.1099344346807501759943903607563697732985019683837890625
-0.1176352582315405292945342807797715067863464355468750000
-0.4474451065173942754249480913131264969706535339355468750
-0.1323726586752396183754854064318351447582244873046875000
-0.8057641952211701541486377209366764873266220092773437500
0.2102939199124488067749183528576395474374294281005859375
-0.0064188905103197968493589087302098050713539123535156250
0.2317078860967301534579121380374999716877937316894531250
0.1886403525134600356327752024299115873873233795166015625
-0.4395111338699934089291332384163979440927505493164062500
0.4078630341488340693700820338563062250614166259765625000
0.0726231998522192528922047927153471391648054122924804688
-0.0314635818532857103324573699865140952169895172119140625
0.4286431589475665493438327757758088409900665283203125000
0.1092896267702947316058370574864966329187154769897460938
0.0679345946322416072149508181610144674777984619140625000
0.2504738379532311931541244121035560965538024902343750000
0.2766785985786138768460773462720680981874465942382812500
0.2663289555749398518358361798163969069719314575195312500
-0.1261446402079673401175341496127657592296600341796875000
-0.1209450879679833112945175344066228717565536499023437500
0.4511481879069376144109071447019232437014579772949218750
0.1151767827044259118185465240458142943680286407470703125
-0.1872210427117659281570638540870277211070060729980468750
-0.7486473693843953558513248935923911631107330322265625000
0.0344363016013797679226726700107974465936422348022460938
0.0935510156326932601489332341770932544022798538208007812
-0.4849086012147727497989535550004802644252777099609375000
-0.0689430061718590420083430103659338783472776412963867188
-0.0079395023600651731809918487670074682682752609252929688
-0.2509665528497244113559361267107306048274040222167968750
-0.2488164486434470135112206889971275813877582550048828125
-0.0473875954048959546760499961237655952572822570800781250
-0.0581236478665008854394002923982043284922838211059570312
0.3002509597600580559806360270158620551228523254394531250
-0.7739745424328919876089116769435349851846694946289062500
0.3082200073149826136109652452432783320546150207519531250
0.1395296649833574487153953214146895334124565124511718750
-0.1295278055511327186533065969342715106904506683349609375
-0.6211362354377659711346382209740113466978073120117187500
-0.0348408866229904176647913516262633493170142173767089844
0.2052720915619178077005102522889501415193080902099609375
0.0691715050778018009092207307730859611183404922485351562
-0.2619384950353276786394474129338050261139869689941406250
-0.3253836130289333716802957496838644146919250488281250000
-0.4388199178037521241968477170303231105208396911621093750
-0.4152073714213604382905487000243738293647766113281250000
-0.3449365957596783327510081562650157138705253601074218750
-0.5309818197472799816694077890133485198020935058593750000
-0.2009537897918900473115400018286891281604766845703125000
-0.3747240278281344649791151368845021352171897888183593750
-0.0786993916943865001734081943141063675284385681152343750
0.6164277075112244430599162114958744496107101440429687500
0.3311033271209181116923048193712020292878150939941406250
-0.2646035870000256751133349553128937259316444396972656250
0.0307650697630098904356010791616427013650536537170410156
0.1672307045617747733867730630663572810590267181396484375
0.2522674215567084488043292367365211248397827148437500000
0.0037719493253874757793253635895780462305992841720581055
-0.0346271197793295987255035583984863478690385818481445312
0.1792089934701580344889038087785593234002590179443359375
-0.5127367173174462999796219264680985361337661743164062500
-0.5053645127410660853328749908541794866323471069335937500
0.5170188070211345632287702756002545356750488281250000000
0.4141939616766331933028766343340976163744926452636718750
-0.1514376773852246227392015498480759561061859130859375000
0.0613504434777670318301723284548643277958035469055175781
-0.0482220884402572644300555282370623899623751640319824219
-0.2369379203576121306618063044879818335175514221191406250
-0.2555914530886871927073400456720264628529548645019531250
0.5087094339569554479751900544215459376573562622070312500
0.1721255728172126076014336604202981106936931610107421875
0.4325241005488358880803900774481007829308509826660156250
-0.5444014679606381523768732222379185259342193603515625000
0.5009913638024068305298897030297666788101196289062500000
0.2358617341799598143836647068383172154426574707031250000
0.1754076708919384552931575171896838583052158355712890625
-0.4384340769162506368239462517522042617201805114746093750
-0.1753750650846117309367144798670778982341289520263671875
-0.0267980685334489494853205115987293538637459278106689453
0.3319301501162456036198022957250941544771194458007812500
0.4008574965682629720475915746646933257579803466796875000
-0.3585256622400980752729537925915792584419250488281250000
0.0770324308893697295985703021869994699954986572265625000
-0.5454106108770693239762294979300349950790405273437500000
-0.4695899060693745075134586386411683633923530578613281250
0.3023452254506759917518365909927524626255035400390625000
-0.4128975176239275679535012386622838675975799560546875000
-0.0791944479334853179697262248737388290464878082275390625
0.5632784065055047584280600858619436621665954589843750000
-0.0112021076849039783601691411263345798943191766738891602
0.0938427184143171555508189385363948531448841094970703125
0.5029892771943589302452437550527974963188171386718750000
0.3015392810462108053037866284284973517060279846191406250
0.1730637509200709522882988267156179063022136688232421875
0.3539732604272169402825909401144599542021751403808593750
0.2016334582527905538995582901407033205032348632812500000
-0.3197019056305333006839930476417066529393196105957031250
-0.2438805850212824033462766237789765000343322753906250000
0.1456121781890350463939398650836665183305740356445312500
-0.0941563081360045767143063244475342798978090286254882812
-0.4361348526026959104839875180914532393217086791992187500
-0.2613725846332257685133981794933788478374481201171875000
0.3696780439497226455891620844340650364756584167480468750
0.2983658721636635036134066467639058828353881835937500000
-0.2522815084301727184268315795634407550096511840820312500
0.0536906672054774172786473229734838241711258888244628906
-0.2427842941009750454828264309981022961437702178955078125
0.2590529648997087486250734400528017431497573852539062500
0.0043069406362807472615772397261935111600905656814575195
0.0695408263892222933133524520599166862666606903076171875
0.1673872585286622360900565809060935862362384796142578125
0.2876349987937634189449909172253683209419250488281250000
0.3342008541622749628885458150762133300304412841796875000
-0.2054265614401484252304896926943911239504814147949218750
-0.1620085774378917098381691630493151023983955383300781250
0.2223237091972147805307713497313670814037322998046875000
-0.1499589854637853325591834163788007572293281555175781250
0.5886926265158366478047469172452110797166824340820312500
0.2513713127127966684426496613014023751020431518554687500
0.3866552954462191271645110646204557269811630249023437500
-0.1100144865861831244835400411830050870776176452636718750
0.1309691964064172986503820084180915728211402893066406250
-0.0253999464707687291897819648056611185893416404724121094
-0.2888454143008172270157274397206492722034454345703125000
0.1172126902064462572461422951164422556757926940917968750
0.3410668700536483299856627127155661582946777343750000000
0.2331913992968432103314313508235500194132328033447265625
0.3943048293132856429998867042741039767861366271972656250
0.3161143677784213346093622476473683491349220275878906250
0.1240335870124104067357961866946425288915634155273437500
-0.4595702825685395453980675029015401378273963928222656250
-0.4012480302590917813354565168992849066853523254394531250
0.0489327979883662222970741595418076030910015106201171875
0.2423730763296343959645184895634884014725685119628906250
-0.0219135735770321256332682224865493481047451496124267578
-0.4949661043354249279069279054965591058135032653808593750
0.3430686263590004281276435449399286881089210510253906250
0.1355223705578868231835798496831557713449001312255859375
-0.0426470089581044708992862979357596486806869506835937500
-0.3318832369153967287722650780779076740145683288574218750
0.2537438959837270968655786873569013550877571105957031250
-0.4325670203341263619911671867157565429806709289550781250
-0.1911148507752555847361009000451304018497467041015625000
-0.3333039523184010421985590255644638091325759887695312500
-0.2766442710583875141949761200521606951951980590820312500
-0.3723260825888557445928483957686694338917732238769531250
0.1586147241450459599576561231515370309352874755859375000
-0.5819488318726668829583559272577986121177673339843750000
0.0221824463322556446331912383129747468046844005584716797
0.1116421275385445915917514980719715822488069534301757812
-0.1500963845199106139194356046573375351727008819580078125
0.3228142720384410968570421118783997371792793273925781250
0.0392601523787056982950360861650551669299602508544921875
-0.2677565349271553984955573923798510804772377014160156250
-0.2079132805279021167788044976987293921411037445068359375
-0.2916692857754353274124525796651141718029975891113281250
-0.3982550573500745483279672498611034825444221496582031250
0.1986025267712555331112156409290037117898464202880859375
-0.2220718631425326050621293916265130974352359771728515625
0.2052849807935454851115508745351689867675304412841796875
-0.4601854473666872613613065823301440104842185974121093750
0.1602508387195210326492400554343475960195064544677734375
0.0985232692826716188738700452631746884435415267944335938
0.1324444364400545470772385669988580048084259033203125000
-0.4078442060575684369183591115870513021945953369140625000
-0.1005628161104138301729093996073061134666204452514648438
0.1145281891744009544753524210136674810200929641723632812
0.2777483670493565148795767072442686185240745544433593750
-0.1039878976384598363580380464554764330387115478515625000
0.4864119537274464444287502828956348821520805358886718750
0.1187117444629138263145762266503879800438880920410156250
-0.2481907030473677056026104992270120419561862945556640625
0.2012270043631456672983404132537543773651123046875000000
-0.4261450485421914291528366902639390900731086730957031250
0.2137614452718050173096742128109326586127281188964843750
0.1600248050522957432573178948587155900895595550537109375
-0.3504634981038583507739758715615607798099517822265625000
-0.0304495945042291445148396888953357120044529438018798828
-0.2899390461810880670334711339819477871060371398925781250
0.0792652565335191655604418770053598564118146896362304688
-0.4663870671677436408053551986085949465632438659667968750
0.4657769021742074744274475506244925782084465026855468750
-0.1360123451475406808341972464404534548521041870117187500
0.2674483422321501380203301323490450158715248107910156250
0.5804453835817112716810584061022382229566574096679687500
0.3071505510706643571339213849569205194711685180664062500
0.1178625308103127267145282530691474676132202148437500000
-0.3059517491758879104146728877822170034050941467285156250
-0.3874436839737600002386841424595331773161888122558593750
-0.4416050146072067472680089394998503848910331726074218750
0.2529995987509536803372611757367849349975585937500000000
-0.3087709267290685843931896670255810022354125976562500000
0.2546112895544360710253783963707974180579185485839843750
0.0439059400652892575789287832321861060336232185363769531
-0.1655786971010219932320950420034932903945446014404296875
-0.2638394620356157016516363000846467912197113037109375000
-0.0740603803990651649025167557738313917070627212524414062
0.2135814650104161382948575464979512616991996765136718750
-0.3315294662826392402266151293588336557149887084960937500
0.0331042780674698292053825809944100910797715187072753906
0.0319264259485547707839714348665438592433929443359375000
-0.1929009700020555551081002931823604740202426910400390625
0.5719596919897041997771225396718364208936691284179687500
0.0597317348478993009885940068670606706291437149047851562
0.3039568374254065785677880739967804402112960815429687500
0.1210971477954941172283653827435045968741178512573242188
-0.2565612807901896941231711934960912913084030151367187500
-0.3933581980304358682865029095410136505961418151855468750
0.2169333916706958076403566337830852717161178588867187500
-0.4118806399986842947669174463953822851181030273437500000
-0.1130370979791414931536763788244570605456829071044921875
-0.1617176231567334088179421769382315687835216522216796875
0.1656469497162853521388115041190758347511291503906250000
-0.2780657089679795523906591370177920907735824584960937500
0.2637136513851447983114439921337179839611053466796875000
0.3221029271842830166150406512315385043621063232421875000
0.4635044008962374562088371021673083305358886718750000000
-0.1479082222362410603544446985324611887335777282714843750
0.0840251178780099805543102320370962843298912048339843750
-0.1811475670466723975060574503004318103194236755371093750
-0.0477182315926900357805351404749671928584575653076171875
0.1761916751752889143123326221029856242239475250244140625
-0.2276798137546546252352186456846538931131362915039062500
0.3120159005088751213996545175177743658423423767089843750
-0.2146495687969872945277671760777593590319156646728515625
0.2635534540060690544827082248957594856619834899902343750
0.0029187217395051801710481598206570197362452745437622070
-0.3160652115622522018156814738176763057708740234375000000
0.1314194772627913787577114135274314321577548980712890625
0.2583814522444678463131140233599580824375152587890625000
0.2283604765230330679859349629623466171324253082275390625
0.7122167610828624706442724345833994448184967041015625000
