nn
1,10,10,10,10,10,1
dIn
0
dIntern
,
dOut
,
normP
1.9750000000000072
normY
1.0
w
-0.0126596991380320024467298622994348988868296146392822266
1.4220778502501836282334579664166085422039031982421875000
0.0873538562742950108752637561337905935943126678466796875
-0.3560152652784431825949695848976261913776397705078125000
0.4875518697114171740025767576298676431179046630859375000
-1.0116552425721037078432118505588732659816741943359375000
-0.8290483404150280621891511145804543048143386840820312500
-0.0035407211175438341871357650347817980218678712844848633
0.2530064079165824653117056186601985245943069458007812500
-0.3555207590946022344624566358106676489114761352539062500
-0.3800845469533482567925375406048260629177093505859375000
0.8556554531472243541045941128686536103487014770507812500
0.0030843248600039593725063991058732426608912646770477295
-0.0148557457870773651498197409637214150279760360717773438
0.5161457522114386575751154850877355784177780151367187500
-0.5985258887193845023233507163240574300289154052734375000
-0.6193225246017524110442309392965398728847503662109375000
-0.0523565558901998087670826009798474842682480812072753906
-0.1960385833102015196161005405883770436048507690429687500
0.0453598320274761906967242452992650214582681655883789062
0.4078503009374738752512712380848824977874755859375000000
-0.2744322634279084405228843479562783613801002502441406250
-0.0291556411963944973886331268886351608671247959136962891
-0.4560133778400431436850226418755482882261276245117187500
-0.4057194833466867822657775377592770382761955261230468750
0.1033365200690093965718574509082827717065811157226562500
-0.2967103660551947408308137710264418274164199829101562500
0.1444534701499261275525753944748430512845516204833984375
0.2334867433315160889506501007417682558298110961914062500
0.3016513551727966202520292426925152540206909179687500000
0.4643071033724062712799707242083968594670295715332031250
-0.0592493188897361203193447920511971460655331611633300781
-0.8534346114731133914332872336672153323888778686523437500
-0.9318881112053327697708482446614652872085571289062500000
0.5341353330249285491504451783839613199234008789062500000
0.6727409084662868687942705037130508571863174438476562500
0.7188638932100535061664459135499782860279083251953125000
-0.1335854548582321166261266398578300140798091888427734375
0.4881575536038292306706409817707026377320289611816406250
-0.3738524484801451497339996876689838245511054992675781250
0.3237042893183694203251832277601351961493492126464843750
-0.1456752702887005868070957603777060285210609436035156250
-0.3730241391144295537429798059747554361820220947265625000
0.0716242428017322269040434434828057419508695602416992188
0.4014385009669482196059675516153220087289810180664062500
0.4996279359300271893928879762825090438127517700195312500
-0.0582253894123861762133209651892684632912278175354003906
-0.3399360371394076762996405705052893608808517456054687500
-0.0131610371304914514078987508582940790802240371704101562
0.3522334651804308602862647603615187108516693115234375000
0.3971414788912042137525304497103206813335418701171875000
-0.5051448947547920731437898211879655718803405761718750000
0.1766944113782011605007227217356557957828044891357421875
-0.0397861313321943854681705943221459165215492248535156250
0.2169521551939870840364221749041462317109107971191406250
-0.0286918906451412367153430693633708870038390159606933594
-0.5264271245832300438749484783329535275697708129882812500
-0.4880936293471810905053587248403346166014671325683593750
-0.3171411930657169753189350558386649936437606811523437500
0.4403659960456531297090521093196002766489982604980468750
-0.1793974723067163490330955255558365024626255035400390625
0.2938232664999664844884819103754125535488128662109375000
-0.2396693135887172088072105680112144909799098968505859375
-0.0854667499931194701856540518747351597994565963745117188
0.5592146489770396522445139453338924795389175415039062500
0.5874731971100061178603368716721888631582260131835937500
0.2515515452020183895243121696694288402795791625976562500
0.3409999243044927186296888521610526368021965026855468750
0.3442497133299631251190930925076827406883239746093750000
0.0754391802872756839226653369223640765994787216186523438
0.4829551041919222797993427320761838927865028381347656250
-0.4409343877311961978904264469747431576251983642578125000
0.8086312756770066556555320858024060726165771484375000000
0.8209636561975264257284834457095712423324584960937500000
-0.1445575956472914258554851585358846932649612426757812500
0.1095173351174454356993237524875439703464508056640625000
-0.7324506587771389964913737458118703216314315795898437500
0.4244273289045670249919339767075143754482269287109375000
-0.5117668688283051325882411219936329871416091918945312500
0.1444571231218483298164301231736317276954650878906250000
-0.5021718689762278975408094083832111209630966186523437500
-0.5623391107114726894522505062923301011323928833007812500
0.0227187273492484749504161101185673032887279987335205078
0.6477218982990116113995782143319956958293914794921875000
0.2256313539020780856159120730808353982865810394287109375
-0.5193834998431631211346370946557726711034774780273437500
-0.7451330038136855238306566207029391080141067504882812500
-0.3531892717478861132285317125933943316340446472167968750
0.0888350001040717762723630812615738250315189361572265625
-0.0216770949507919946652734211056667845696210861206054688
-0.3635408438054771318448388228716794401407241821289062500
0.1710105820920533314932754365145228803157806396484375000
-0.3098806954330881602288627618690952658653259277343750000
0.2914511867896528163335290173563407734036445617675781250
-0.3431786908926606760594779643724905326962471008300781250
0.3819556734739995018657054970390163362026214599609375000
-0.4024516067764847826460083979327464476227760314941406250
-0.1312837683637926022850450635814922861754894256591796875
0.1985181689588497166987224318290827795863151550292968750
-0.4447605417502883407010472183173988014459609985351562500
0.0993501418724856560915625891539093572646379470825195312
-0.4290548571904817531930120821925811469554901123046875000
-0.0033805373439059383140758985319962448556907474994659424
-0.1309929752458709462104025078588165342807769775390625000
0.3796514291602501312006268108234507963061332702636718750
-0.2949101278441406126518131713964976370334625244140625000
0.4298161375100743031296701701648999005556106567382812500
-0.0172421616598680479959249112198449438437819480895996094
0.2944290837826942230925908461358631029725074768066406250
0.0966542020957053826801796958534396253526210784912109375
-0.1761682946362381207983105468883877620100975036621093750
-0.2970232059908576860429718635714380070567131042480468750
-0.3379484448709306199098989509366219863295555114746093750
0.4539403721722487516920807593123754486441612243652343750
0.1215309103368747978279884591756854206323623657226562500
-0.1149333484647661468569523890437267255038022994995117188
-0.4197689356403653260230157684418372809886932373046875000
-0.4453922747843653828780929870845284312963485717773437500
0.1930312473669381634344688336568651720881462097167968750
0.0147607613331362901021304168125425348989665508270263672
-0.3028794757642583879153619363933103159070014953613281250
0.3020798275569053781275385972548974677920341491699218750
-0.0858559858788277563412805193365784361958503723144531250
-0.1791233955031230340448900051342207007110118865966796875
-0.4135630535915000294266974378842860460281372070312500000
0.4081050746389872641017859677958767861127853393554687500
0.1410417686099454948056575176451588049530982971191406250
-0.4941978565785716259739501765579916536808013916015625000
-0.2540717180187667123547612391121219843626022338867187500
-0.5071723718847338524540191428968682885169982910156250000
-0.0700406403125621301875014523830031976103782653808593750
-0.1526403457934283891539450905838748440146446228027343750
-0.4342600261551096685330719537887489423155784606933593750
0.0102500098390266893011446569516920135356485843658447266
0.2020118490820262402429818848759168758988380432128906250
-0.2034668002801928721190449778077891096472740173339843750
-0.1883352064089567623472731838774052448570728302001953125
0.4220416553250423974397165238769957795739173889160156250
-0.1814727925346131531814108939215657301247119903564453125
-0.1766205018092924516892594510864000767469406127929687500
0.1575105789400256806054301250696880742907524108886718750
-0.0745133593992194365185355309222359210252761840820312500
-0.1781253073741844439314974124499713070690631866455078125
-0.1400430590205218039923096284837811253964900970458984375
0.4982496526868632202855735613411525264382362365722656250
0.3689136650149141272159170057420851662755012512207031250
0.3818450372854460539429055643267929553985595703125000000
0.4782575030373305002839856570062693208456039428710937500
0.5445995853027651989464175130706280469894409179687500000
-0.1648101510338613184813993939314968883991241455078125000
-0.6583808114909973641104556918435264378786087036132812500
-0.6666795087345689374558332929154857993125915527343750000
0.3733156700056363686002214308246038854122161865234375000
-0.6453622141539770984408619369787629693746566772460937500
-0.1815180730372391026961054194543976336717605590820312500
-0.3131407897150267349850594200688647106289863586425781250
-0.1554600475317414187692577343113953247666358947753906250
-0.4882923050441106971319982221757527440786361694335937500
-0.0616113018618355198774416692231170600280165672302246094
0.5665499728438369020366849326819647103548049926757812500
-0.6350075358607568665192388834839221090078353881835937500
-0.5450401497764493230491211761545855551958084106445312500
0.6924823915564145559997655254846904426813125610351562500
-0.7830134768511731735429748368915170431137084960937500000
-0.3964917245373290044518910235638031736016273498535156250
-0.0566139519387529599470099128666333854198455810546875000
0.3516172870839662789599344705493422225117683410644531250
-0.1449271718899646788081270187831250950694084167480468750
0.2554365064170258659004275614279322326183319091796875000
0.5918439447304373324243442766601219773292541503906250000
0.5427217726495454641622018243651837110519409179687500000
-0.0354189110808894175308481067077082116156816482543945312
-0.2857788254476990030816807575320126488804817199707031250
0.1527441631699671398258999488461995497345924377441406250
0.3746342436899344763290287119161803275346755981445312500
-0.4215536338414231920523889129981398582458496093750000000
-0.2491045784311326505289230226480867713689804077148437500
-0.5020148050915079762646087147004436701536178588867187500
0.1643325310833262109522223681778996251523494720458984375
-0.4902643154923944646128575186594389379024505615234375000
0.2732559248749952818258179831900633871555328369140625000
0.5782582762108173790593923513370100408792495727539062500
0.2147037390221966657311014614606392569839954376220703125
0.5542902923417352134549673792207613587379455566406250000
0.5368035489691067585482642243732698261737823486328125000
0.2793687210867119574686512351036071777343750000000000000
-0.1453283291169973900913703346304828301072120666503906250
-0.0374747751846260315766734549924876773729920387268066406
-0.2180664720012862045628310170286567881703376770019531250
-0.2440749314557802140956965786244836635887622833251953125
0.3196395004466565104017661269608652219176292419433593750
0.6068252262785031048153427946090232580900192260742187500
-0.8290888623388000810976450338785070925951004028320312500
0.8351283185771036787770071896375156939029693603515625000
0.3188323927645974054101429828733671456575393676757812500
-0.4211500749129593046404806955251842737197875976562500000
0.1268926391784014895414145485119661316275596618652343750
-0.1038259273169795521285507788888935465365648269653320312
0.1895668986784731224748412614644621498882770538330078125
-0.2656163419162131389406056314328452572226524353027343750
0.2402099560206627515412947104778140783309936523437500000
0.2669209116835420392277455903240479528903961181640625000
-0.1562734553464439346548431331029860302805900573730468750
0.4081173768446407779109108560078311711549758911132812500
-0.5026007546261075376037297246512025594711303710937500000
0.3265710618550047295016725001914892345666885375976562500
-0.1959087814370424063259434888095711357891559600830078125
0.1676281025260735746407192436890909448266029357910156250
-0.4513466394779187540464704397891182452440261840820312500
0.4388305213841959817600013593619223684072494506835937500
0.3506285854089021825075178639963269233703613281250000000
0.1422864724671423497515121425749384798109531402587890625
-0.3554563908602322852559041166387032717466354370117187500
-0.1971291245282238147051856458347174338996410369873046875
0.2418774734210061283512516183691332116723060607910156250
-0.2585976052106524480933558152173645794391632080078125000
-0.2896868137547360944061836107721319422125816345214843750
-0.2182486661535313066107022450523800216615200042724609375
0.4787333129984880919494116824353113770484924316406250000
-0.3463892470831283487697760392620693892240524291992187500
-0.2367938846568237720724425798835000023245811462402343750
-0.1819168934401498016750764463722589425742626190185546875
0.3395740931435211606981283694040030241012573242187500000
-0.2502724325285717865696710759948473423719406127929687500
-0.5438753059513861121132549669709987938404083251953125000
-0.3424386004983553388747452572715701535344123840332031250
-0.4334723490728730754817377146537182852625846862792968750
0.3392680244084175233965083862130995839834213256835937500
0.2624577168412757233184606775466818362474441528320312500
-0.1953606766176091413811377606180030852556228637695312500
0.1529080014566376044538031919728382490575313568115234375
0.6158900116816379277651094525936059653759002685546875000
-0.0611633503895096242164441946442821063101291656494140625
-0.1155424185906462619666257296557887457311153411865234375
0.3321465517496069441705230929073877632617950439453125000
-0.2285021352570656139047144961295998655259609222412109375
0.5641907542636709349537227353721391409635543823242187500
-0.2140338620515656320453246053148177452385425567626953125
0.0693478030958135788219820483391231391578912734985351562
0.1877495032525541840406901883397949859499931335449218750
-0.7228899730521551880713104765163734555244445800781250000
0.6546721960713912658036406355677172541618347167968750000
-0.2561211263065117926807090498186880722641944885253906250
-0.4174690046493703121655016730073839426040649414062500000
-0.4853624600684307011100315776275238022208213806152343750
-0.1999858101071986804520008718100143596529960632324218750
0.1899758481385011021913555850915145128965377807617187500
0.4742791944077138777124957869091304019093513488769531250
0.4238569838027443914540981495520099997520446777343750000
0.5362965671862319760876403051952365785837173461914062500
-0.8991941038057917889858572380035184323787689208984375000
0.0197173195763864980700752482789539499208331108093261719
0.0028269028209843127114053729087572719436138868331909180
0.2691705376853129050296331570280017331242561340332031250
-0.7678802878715639268492054725356865674257278442382812500
-0.1026131964388920930764115269084868486970663070678710938
0.3834026740416925371768286368023836985230445861816406250
0.0680854261218406670019831494755635503679513931274414062
0.6094389273755032032653389251208864152431488037109375000
-0.3300561244832753149403004044870613142848014831542968750
0.5901507256983895555180197334266267716884613037109375000
-0.1469572618892657500655474223094643093645572662353515625
0.0934130923189366579872938700646045617759227752685546875
0.3480379728837550423747870809165760874748229980468750000
-0.1081448910524734907667721017787698656320571899414062500
0.4453929440996086674964260510023450478911399841308593750
0.3527329007982276665167375995224574580788612365722656250
0.1185112107922795116055070252514269668608903884887695312
0.2264824151460743117958429593272740021347999572753906250
-0.6525538950402366422665068057540338486433029174804687500
-0.6621604339920624804349813530279789119958877563476562500
0.8518995872205715746972032320627477020025253295898437500
0.1851529554866166438209518219082383438944816589355468750
-0.2828689606025160951929819930228404700756072998046875000
-0.5483871314899002591403132100822404026985168457031250000
-0.3653062665475598769226905915274983271956443786621093750
-0.4536253102654256852410696865263162180781364440917968750
0.4135092578443202993021543534268857911229133605957031250
0.2321966705652747930965773548450670205056667327880859375
-0.0932554699946868126403387577738612890243530273437500000
0.1081732052151532785799759039946366101503372192382812500
-0.0560046978558247574020434456087969010695815086364746094
0.2370523260884797311920380025185295380651950836181640625
-0.4257698361678473597535798944591078907251358032226562500
-0.8844006547829085240763902220351155847311019897460937500
-0.5516828365531049049863554500916507095098495483398437500
0.2252700245512372356770924852753523737192153930664062500
0.5673549175740775218912403943249955773353576660156250000
-0.1315161697530449202986346790567040443420410156250000000
0.0086035875898790390575721076515947061125189065933227539
0.2265616742592803101175036317727062851190567016601562500
-0.0101157203482300679653338448815702577121555805206298828
0.2282452124561454298579121768852928653359413146972656250
0.3638819507098944305845122926257317885756492614746093750
-0.2282026504023355051309351892996346578001976013183593750
0.3703322324144870392181871920911362394690513610839843750
0.1198868659464603914077684976291493512690067291259765625
0.3341651132634259613318761239497689530253410339355468750
-0.2274819238768118756510716593766119331121444702148437500
-0.1378248787029747179921912447753129526972770690917968750
-0.4429068973796980168700088142941240221261978149414062500
0.1773532019552873373324786143712117336690425872802734375
0.2694931545581175647008365103829419240355491638183593750
-0.0813049850437356641519315303412440698593854904174804688
-0.5446681126879426848574894393095746636390686035156250000
-0.1949889170303441554565893056860659271478652954101562500
-0.1078016416493874363169425123487599194049835205078125000
-0.3318796712813175675549359766591805964708328247070312500
-0.1090523685519043661784621690458152443170547485351562500
0.0257460520753358436396585062766462215222418308258056641
-0.4956217414379472385732583461503963917493820190429687500
0.4137222090645510386153205217851791530847549438476562500
0.2374241990873943441986426705625490285456180572509765625
-0.1245217991782308908366161404046579264104366302490234375
0.4797824070877922397748704952391562983393669128417968750
0.2633107159877270397885240527102723717689514160156250000
0.5273400474649054814335613627918064594268798828125000000
-0.4104293436479301004915498651826055720448493957519531250
-0.2760009800283836911560797489073593169450759887695312500
0.3617408837729297332863609426567563787102699279785156250
0.0476232423395144474631557329757924890145659446716308594
0.1399881053532021635277260429575107991695404052734375000
0.2865964342853565827162753976153908297419548034667968750
-0.3797367851740950928096651750820456072688102722167968750
-0.1505602498653867415967511078633833676576614379882812500
-0.1337120598246801517205994969117455184459686279296875000
-0.1931681589514810948315925998031161725521087646484375000
0.4003548496300696202254698619071859866380691528320312500
-0.4574284350015161426661336463439511135220527648925781250
-0.0755603994429305397817486777967133093625307083129882812
0.5323260664111983953006301817367784678936004638671875000
-0.4961306745486468994243978158920072019100189208984375000
-0.2174658835282078928052840183227090165019035339355468750
0.5003402956155731384768614589120261371135711669921875000
0.5090562241698568524128631906933151185512542724609375000
-0.3068080900655747456085009616799652576446533203125000000
-0.0896582906638392768128298371266282629221677780151367188
0.3233139321714226799286961977486498653888702392578125000
0.0915954666789638716206667368169291876256465911865234375
-0.5851029928502822219371637402218766510486602783203125000
-0.2448838171448913247907341883546905592083930969238281250
-0.2140800766989587877731082699028775095939636230468750000
-0.4506179492092092786492685263510793447494506835937500000
-0.3693299598389486182448138151812599971890449523925781250
-0.1392330006126162034174598147728829644620418548583984375
0.0698150779437287649642485121148638427257537841796875000
0.0796892671587234452390546834976703394204378128051757812
0.3563439131643050816755646792444167658686637878417968750
0.0468103656985152799530069955835642758756875991821289062
-0.2207412197650598928433396395121235400438308715820312500
0.7211014062339364816267561764107085764408111572265625000
-0.0888392976938890688298755549112684093415737152099609375
-0.2978694502586477499406214519694913178682327270507812500
0.3683133116583515720421360128966625779867172241210937500
-0.1739591448749451818578393158531980589032173156738281250
0.1574108348207951812991467477331752888858318328857421875
-0.4334141522551426262133134059695294126868247985839843750
-0.1821904825081384904361669896388775669038295745849609375
0.4920134590061266410820906003209529444575309753417968750
-0.3674062122555915577137852778832893818616867065429687500
-0.5576570111039961252785701617540325969457626342773437500
0.2971458074810811589294701207109028473496437072753906250
-0.4094510538379314001922182342241285368800163269042968750
0.4262522293382849936094203258107881993055343627929687500
-0.5630543452866565434788981292513199150562286376953125000
-0.3681973164719966606917012086341856047511100769042968750
-0.3750115283933840859553754398802993819117546081542968750
-0.0215312200054142387217748222383306710980832576751708984
0.2856709489928050405005421907844720408320426940917968750
0.0182517490719393653264557286775016109459102153778076172
0.2473700234553318499930441021206206642091274261474609375
-0.0617754114334721354806490012379072140902280807495117188
-0.1194913431665087233390920573583571240305900573730468750
0.3764654190913283016151069659827044233679771423339843750
-0.2318396299464352550145918030466418713331222534179687500
0.3614340897549068731819943423033691942691802978515625000
0.3161124121730433667032400535390479490160942077636718750
0.3038040758813890795941858868900453671813011169433593750
0.5159263125446660325224002008326351642608642578125000000
0.2428340578365391910775628048213548026978969573974609375
0.3579380495950270635319157008780166506767272949218750000
-0.1269963656858178469022391254839021712541580200195312500
0.2641713593043825136774671591410879045724868774414062500
-0.4666119647150154814418954174470854923129081726074218750
-0.1260897011333106665365022536207106895744800567626953125
0.1958483448981443997283236058137845247983932495117187500
-0.0171133629836466918949788862391869770362973213195800781
-0.1412089374911000283496775864477967843413352966308593750
0.3928199317732885553766664088470861315727233886718750000
0.0993485670473670950952893576868518721312284469604492188
0.9762354365118303123338705518108326941728591918945312500
0.4685372970013647608844564729224657639861106872558593750
0.0002913844179247144757297083295100037503289058804512024
0.4249562969868996287203799511189572513103485107421875000
0.1677140370188109075311189144485979340970516204833984375
-0.0752814601868704441622881518014764878898859024047851562
-0.1135773890893917448252636859251651912927627563476562500
0.0040568268978774021243927094815262535121291875839233398
0.2001765660463928897527807748701889067888259887695312500
-0.4961776447374914855714678196818567812442779541015625000
0.6100830972888310332891137477417942136526107788085937500
0.2413538032508945330167904330664896406233310699462890625
-0.0606833341982501023315066390750871505588293075561523438
0.4049658684586042167730113305879058316349983215332031250
-0.0838453873158049173275330190335807856172323226928710938
0.3921061195265396204234775723307393491268157958984375000
-0.0220989754419557045406197204329146188683807849884033203
-0.3863981865392986936313945989240892231464385986328125000
-0.3921723490327944650069014187465654686093330383300781250
0.0742951950444319247912616788198647554963827133178710938
0.0926286405583941763186572870836243964731693267822265625
0.3904802368034638870852859326987527310848236083984375000
-0.1288098035532163898597701745529775507748126983642578125
0.6452041814979327938317510415799915790557861328125000000
0.2270262894485537141786579695690306834876537322998046875
-0.4490908326862432797810242846026085317134857177734375000
0.0540641296239006419188655172547441907227039337158203125
0.0467787669122679758415550566041929414495825767517089844
0.3471788568914758732475434044317808002233505249023437500
0.1911393378436463119651733677528682164847850799560546875
-0.5481600872170528937488143128575757145881652832031250000
0.3755082139656845119368711038987385109066963195800781250
-0.3585672579126606418498113271198235452175140380859375000
0.4951415620731049460623296454286901280283927917480468750
-0.2581052303512498258264429296104935929179191589355468750
0.0417216346254758729816813911384087987244129180908203125
0.3920460452850814125902445539395557716488838195800781250
-0.2228706481022774965605748320740531198680400848388671875
0.0768225334862464581675567387719638645648956298828125000
0.3187515956905845881941274910786887630820274353027343750
-0.4084714135612105834205465271224966272711753845214843750
0.1142704612473665198857375457919260952621698379516601562
-0.4718044198844936754078105423104716464877128601074218750
-0.0829837869382127057971132444436079822480678558349609375
-0.2546068875950502352623061597114428877830505371093750000
0.0371296439310911177700269547585776308551430702209472656
0.5069739628928806585150823593721725046634674072265625000
-0.4023466581687613619067178660770878195762634277343750000
0.1389798709563717926673831470907316543161869049072265625
0.0286713448941949312909205360710984678007662296295166016
0.1342081263715854400064841911444091238081455230712890625
0.3831585319583817317301566163223469629883766174316406250
0.2830043291810650507578372980788117274641990661621093750
-0.6246606775417540280415096276556141674518585205078125000
-0.1758107248299634606247821011493215337395668029785156250
0.1144640536415045678486634983528347220271825790405273438
0.5157795363906366725714747190068010240793228149414062500
0.3671925914756037356845297381369164213538169860839843750
0.1598259107386833521857738560356665402650833129882812500
0.2779230145894206471801624047657242044806480407714843750
0.0285947290293797062865621683158678933978080749511718750
0.4101491012420310777741860874812118709087371826171875000
-0.0428168441034494431929324775865097763016819953918457031
-0.3401659734895284836753148738353047519922256469726562500
-0.0648973461199035955848657408751023467630147933959960938
-0.4884989262523630748624725583795225247740745544433593750
0.2868417707132854266305344026477541774511337280273437500
0.1625959434573032158510841327370144426822662353515625000
0.3514496341261067469119439010682981461286544799804687500
0.2345637938505853448134530481183901429176330566406250000
0.7429521598572472740329430962447077035903930664062500000
-0.2221397434071781806785850221785949543118476867675781250
0.0758684061304157192351382832384842913597822189331054688
-1.0721722380627278781162203813437372446060180664062500000
0.3309239846408790763909735233028186485171318054199218750
-0.0987348180159788452181501838822441641241312026977539062
0.5996343550786336074054361233720555901527404785156250000
0.1921465051389876499410291899039293639361858367919921875
-0.6529630285697638480968407748150639235973358154296875000
0.2810817325102408781312135488406056538224220275878906250
0.6735084852975136149311197186762001365423202514648437500
