nn
1,10,10,10,10,10,1
dIn
0
dIntern
,
dOut
,
normP
1.9500000000000075
normY
1.012935032010553
w
0.6234356490514411097692004659620579332113265991210937500
0.0381368577188262655730532912912167375907301902770996094
0.4069614544564685298944084479444427415728569030761718750
0.2413320717265811099494499103457201272249221801757812500
-0.2072657131030511690195083929211250506341457366943359375
-0.5135832326370229905521114233124535530805587768554687500
-1.5520160568782259691289482361753471195697784423828125000
-0.7364018619133357868022926595585886389017105102539062500
0.5131108724819491984092678649176377803087234497070312500
0.7693789942512188062551103939767926931381225585937500000
-0.0370731364777952612787892405776801751926541328430175781
-0.2553076036703015860851451179769355803728103637695312500
-0.2544344535372356497227031013608211651444435119628906250
-0.1336887242109095763620274510685703717172145843505859375
0.1034550873507071311330207663559122011065483093261718750
0.1997422572836314857980255510483402758836746215820312500
-0.0658723195366004155015815513252164237201213836669921875
-0.3594368314283095666716860705491853877902030944824218750
0.4631771320121472745867663434182759374380111694335937500
0.3254968517852659948275118040328379720449447631835937500
0.1160321154392487535966793643638084176927804946899414062
0.4427825082267817236036933081777533516287803649902343750
-0.4496634401843157546885265674063703045248985290527343750
-0.2123396603111201430547083646160899661481380462646484375
0.2843336824550493080465685125091113150119781494140625000
0.1301413366642602265077499623657786287367343902587890625
-0.5044112058317471447566049391753040254116058349609375000
-0.1018629534135954833873327629589766729623079299926757812
0.4723423477798814884565103966451715677976608276367187500
-0.3704437403273294071581744901777710765600204467773437500
0.3691513351116784136252135795075446367263793945312500000
-0.0729370041134437263607992463221307843923568725585937500
-0.4424715435242240757496290370909264311194419860839843750
-0.3423589207908532827673298015724867582321166992187500000
0.1297551122225677477928229563985951244831085205078125000
0.1288210784384272167280016674340004101395606994628906250
0.3492667328820688865675947454292327165603637695312500000
-0.4164261581978674353621272530290298163890838623046875000
-0.1330630612049540084651511051561101339757442474365234375
0.0045961945957729080647347075228026369586586952209472656
-0.3926928933832604107223573919327463954687118530273437500
0.4434881944434446721103881827730219811201095581054687500
0.0683570973506254370155588162560889031738042831420898438
-0.4203078864412561066465912062994902953505516052246093750
0.2046996768532579613619759584253188222646713256835937500
0.1682288348096394881014958855303120799362659454345703125
-0.1461483549053146646645728878866066224873065948486328125
0.1610218617925930351120200612058397382497787475585937500
0.3720190414112601318130657546134898439049720764160156250
-0.2064497061736723648728286661935271695256233215332031250
-0.4360771708108490685162905720062553882598876953125000000
-0.0909744018465202808343406104540918022394180297851562500
-0.3450893553481163555929356334672775119543075561523437500
-0.1828854753865951365821018725910107605159282684326171875
0.4258193740554604422854367840045597404241561889648437500
0.2309261633150545556247834610985592007637023925781250000
-0.0793476681266328254249486917615286074578762054443359375
0.1193350347297695290826879954693140462040901184082031250
-0.1187695667314375563838879656941571738570928573608398438
-0.5023267387978449516339196634362451732158660888671875000
-0.2359951495327592685402606775824096985161304473876953125
0.1889268933550245221919539062582771293818950653076171875
0.3025950976203664044561492119100876152515411376953125000
-0.0000006380421697124000722511905081546501605771481990814
-0.4135639643211268534628288762178272008895874023437500000
0.4490712521775842569482506405620370060205459594726562500
0.2148121106758935638936236500740051269531250000000000000
0.4797616828914227915525714251998579129576683044433593750
0.4298831715123080376983466521778609603643417358398437500
0.2892894044735173086912993767327861860394477844238281250
0.2226124464999850172119977287366054952144622802734375000
-0.4906830544485514256081160056055523455142974853515625000
0.3647143269221801986645914439577609300613403320312500000
0.1389648423456298353961813063506269827485084533691406250
0.2817125907725101519041288611333584412932395935058593750
0.6015976909056733878955469663196709007024765014648437500
0.2289896344960887508701574688529944978654384613037109375
-0.2910704305185642937203738256357610225677490234375000000
-0.2543693255718427748135468391410540789365768432617187500
0.0337619950399095647419756005547242239117622375488281250
-0.2298298341870650407514631297090090811252593994140625000
0.2793528876410497074900263214658480137586593627929687500
0.0515007813463378150142801814581616781651973724365234375
1.1865863308783350937858358520315960049629211425781250000
-0.4117701555476376285014339373447000980377197265625000000
0.2894240163027742562817934413033071905374526977539062500
-0.0193427628241045479473569912443053908646106719970703125
-0.3765913543206758640202735932689392939209938049316406250
-0.7205396935890030496452141051122453063726425170898437500
1.1095538816923755653931493725394830107688903808593750000
0.0624748910747253485831187447274714941158890724182128906
-0.3618427476161138467425359976914478465914726257324218750
-0.3360363389390213506580096236575627699494361877441406250
0.8893399033422950683558383389026857912540435791015625000
-0.1464502870801581424498039041282027028501033782958984375
0.0488553050810580993812415329102805117145180702209472656
0.4712759578909112567757233591692056506872177124023437500
0.2288762551573162162821262199940974824130535125732421875
0.0956243560531850889105953683611005544662475585937500000
-0.1246424089147991770554213530886045191437005996704101562
0.1736904997038999365344125180854462087154388427734375000
0.5090462522432281922135643981164321303367614746093750000
0.3852386738310411007368827540631173178553581237792968750
-0.1969887138200343001948056098626693710684776306152343750
-0.0245363252944362786323040381830651313066482543945312500
-0.4659005397741506904196739924373105168342590332031250000
-0.1815545345133796062420117323199519887566566467285156250
-0.3390627591735989043719712299207458272576332092285156250
0.4730321043592272123312625353719340637326240539550781250
-0.1806804532904124904746367974439635872840881347656250000
0.3562646161316456727696788675530115142464637756347656250
-0.1830701008994424228149000555276870727539062500000000000
0.2036466174350092805944711926713353022933006286621093750
-0.1294886649289669067197650065281777642667293548583984375
0.3872051692084855223363604181940900161862373352050781250
-0.4763962210796281460112311378907179459929466247558593750
-0.5632230105037338008244773845945019274950027465820312500
-0.2372380953466020903075417436411953531205654144287109375
0.4190114454008753708258439019118668511509895324707031250
-0.4886142074539281399125911775627173483371734619140625000
-0.4654537466361984843210564122273353859782218933105468750
-0.3301359551718549001364522155199665576219558715820312500
0.5374838382336926123628018103772774338722229003906250000
0.0534936344782241182671533863413060316815972328186035156
-0.1031483266578220869824633609823649749159812927246093750
-0.3140827531175040543409693327703280374407768249511718750
-0.1255170322592581433340797048003878444433212280273437500
0.0895113970497798533410005461519176606088876724243164062
0.3372204311335996740339737698377575725317001342773437500
-0.2705479247636871642512801372504327446222305297851562500
-0.4087225354968150869972021155263064429163932800292968750
-0.2196201177890226563516051783153670839965343475341796875
-0.0900084277449951786209680903994012624025344848632812500
-0.2211973070601600810380915618225117214024066925048828125
-0.0194907121632411500788961689067946281284093856811523438
0.0512646233998545267085411580865184077993035316467285156
0.1624528698527212267066488493583165109157562255859375000
-0.0824005740046621359962131236898130737245082855224609375
-0.2444489779193633471887636687824851833283901214599609375
0.4460803681354192917751788627356290817260742187500000000
0.0502139427472131152918599639178864890709519386291503906
0.0551669369604553053165751919095782795920968055725097656
-0.4186075283509512745538927447341848164796829223632812500
-0.0250563661654442312864965458629740169271826744079589844
0.3155431082713196500044716685806633904576301574707031250
0.4916030378987880089525219773349817842245101928710937500
0.4992073756124393857369625493447529152035713195800781250
-0.4131961673893279618496876537392381578683853149414062500
-0.0604376516189663870459725103501114062964916229248046875
0.0986973983418565070646621961714117787778377532958984375
-0.0421113334403031419617136066335660871118307113647460938
0.5310265648028067442254496199893765151500701904296875000
-0.5427419356251560467185868219530675560235977172851562500
-0.0815002908802805181576189852421521209180355072021484375
-0.0629598468660783339156949978132615797221660614013671875
0.2603586967724544898317162733292207121849060058593750000
-0.0191315587925896118948188018293876666575670242309570312
-0.6169403988147442730038960689853411167860031127929687500
0.0890405656478337192982763781401445157825946807861328125
0.4389078032505391302464659020188264548778533935546875000
-0.0294180974441357462323409777127380948513746261596679688
0.8664072770967363723570997535716742277145385742187500000
-0.3672549505744329145784377033123746514320373535156250000
0.5303071577274082182285042108560446649789810180664062500
-0.0142498698534152239830730124481306120287626981735229492
0.2586561850199130541128056393063161522150039672851562500
-0.1778922928733103203668974856554996222257614135742187500
0.7741920999375146994481156070833094418048858642578125000
-0.9721283295692336734461491687397938221693038940429687500
-0.0342208630654862525077852808408351847901940345764160156
0.0140995262920861497840663290048723865766078233718872070
0.1067680403634516939082033104568836279213428497314453125
-0.1398312239888371832918778636667411774396896362304687500
-0.3954576304474244907716240504669258370995521545410156250
0.4066906127501535572754676195472711697220802307128906250
0.6150306352366542439469299097254406660795211791992187500
0.2721335840041801956701306153263431042432785034179687500
-0.2365698969646922722454007725900737568736076354980468750
0.5954338867905235588295909110456705093383789062500000000
-0.2899109358469864061724763359961798414587974548339843750
0.0186936155158929744046769627630055765621364116668701172
0.1749139257458559304492240471518016420304775238037109375
0.5372279099675590918749890079197939485311508178710937500
0.4713370496457108260734969462646404281258583068847656250
0.3143670972941699504055179659189889207482337951660156250
-0.0091129372487414300046948412159508734475821256637573242
0.2811077224778479877187464808230288326740264892578125000
0.5728213041266104754711818713985849171876907348632812500
-0.3422419847106135115666347701335325837135314941406250000
0.1295050299787141312446436813843320123851299285888671875
0.1795830219585387299563450369532802142202854156494140625
0.3475892534886963480822430483385687693953514099121093750
0.5027721906738850110585303809784818440675735473632812500
0.1215601880171528620389054253791982773691415786743164062
0.3858021386211150094425192946800962090492248535156250000
-0.3280295313486734642971498487895587459206581115722656250
0.2790603140058864339856370406778296455740928649902343750
0.2768122778337734346543186347844311967492103576660156250
-0.3862049707773728135506985381653066724538803100585937500
-0.0465639735460474588069068602180777816101908683776855469
-0.0438265167461251159419788336890633217990398406982421875
-0.1497962674650112901986176439095288515090942382812500000
0.5081555249624115644380140111024957150220870971679687500
0.3664468307286066761641052380582550540566444396972656250
-0.4430384953514432400112355026067234575748443603515625000
-0.0992221828796681221129816208303964231163263320922851562
0.4076927539595237570679842065146658569574356079101562500
-0.1904837015386618426227016698248917236924171447753906250
-0.0203570263632770302730801148527461919002234935760498047
-0.3628215165165601385766080966277513653039932250976562500
0.4946763249306111998038204546901397407054901123046875000
-0.4305997190077141545394567856419598683714866638183593750
-0.4091555337319127128026252648851368576288223266601562500
0.2006888092333485862361897034134017303586006164550781250
-0.3982275873044399672195936545904260128736495971679687500
0.4392520331615091810917306247574742883443832397460937500
-0.4161596552612213395505591506662312895059585571289062500
-0.4229051830011666401887282518146093934774398803710937500
-0.0326811232249004796068803102571109775453805923461914062
0.4658392419128590811183698860986623913049697875976562500
0.1681256390277070522643043659627437591552734375000000000
0.7092846987643901535136592428898438811302185058593750000
0.4608492807047866457459406319685513153672218322753906250
0.5347878585902553494335620598576497286558151245117187500
-0.2435217186103628694837652801652438938617706298828125000
-0.7318555969208538902748273358156438916921615600585937500
-0.4587166877290515532017423083743778988718986511230468750
0.3878861333519980636452828548499383032321929931640625000
-0.6591710003193403943910766429326031357049942016601562500
0.3039601819069341903656322756432928144931793212890625000
0.0015659824713806413856026500397433665057178586721420288
0.3708752959043123964555377369833877310156822204589843750
-0.4251996602583446582812598535383585840463638305664062500
0.3644468403957729085718142414407338947057723999023437500
-0.2287231080296052432299092060929979197680950164794921875
-0.0905300134605555167910395653052546549588441848754882812
0.1740171114055723278202236770084709860384464263916015625
-0.3864015181803600595955572316597681492567062377929687500
-0.1484307239529866762062226825946709141135215759277343750
0.4465125033019247680066143857402494177222251892089843750
0.2379365616602578115124089208620716817677021026611328125
0.2906265645631894156686314545368077233433723449707031250
0.4320031612960688605085124436300247907638549804687500000
0.3651995216940582822395811035676160827279090881347656250
-0.0023763345258177494961904230308391561266034841537475586
0.2763618535714459922836283567448845133185386657714843750
0.1780049006603417749428075467221788130700588226318359375
0.0247992204223324262668537443232708028517663478851318359
0.1439820967467224099856082375481491908431053161621093750
-0.1931099361607490072501036593166645616292953491210937500
0.0482338313078487998519783275241934461519122123718261719
-0.2962138034266644237568755215761484578251838684082031250
0.2315726151388934339614422697195550426840782165527343750
-0.1666354515638630295892852473116363398730754852294921875
0.4562602583613178941490673423686530441045761108398437500
0.1365311739439535043683093817890039645135402679443359375
-0.4917446810185086003563981194020016118884086608886718750
-1.0248889290002931584666612252476625144481658935546875000
0.4514196846944871777118635236547561362385749816894531250
-0.4351814508892586363941745730699039995670318603515625000
-0.3079216257324072225642908051668200641870498657226562500
-0.6609456887154538939910253247944638133049011230468750000
-0.2042627701517667759834040452915360219776630401611328125
-0.3523787874494618277410040718677919358015060424804687500
-0.1319070115961368250268037627392914146184921264648437500
-0.1972678914823770002229252895631361752748489379882812500
-0.1150912809299973887933177252307359594851732254028320312
0.6385958400769388143558558112999889999628067016601562500
-0.1422805684543578808032293636642862111330032348632812500
0.3556534428784557388958376122900517657399177551269531250
-0.1789315149739864607703054844023426994681358337402343750
0.4096774627769992904724460913712391629815101623535156250
-0.2008509903150186015619027557477238588035106658935546875
0.5089980512866496553670003777369856834411621093750000000
0.2629193183420525103954901169345248490571975708007812500
0.1760834994810150655464298097285791300237178802490234375
0.1435956008480337720012443014638847671449184417724609375
-0.3851739846653120524777591526799369603395462036132812500
-0.5213051544894269362373506737640127539634704589843750000
-0.3201955624477988981979592608695384114980697631835937500
-0.5153043804074560751971034733287524431943893432617187500
-0.0824303979956161753106513856437231879681348800659179688
-0.2806122701228727089883818734961096197366714477539062500
0.3272308126794338800635841835173778235912322998046875000
0.1715957969389126369641473957017296925187110900878906250
0.4788949367639203646973555805743671953678131103515625000
0.1201016559951436496467280790056975092738866806030273438
-0.2648023410281939993282662726414855569601058959960937500
0.0506662778631133056683744086967635666951537132263183594
0.3355752906071932661902224026562180370092391967773437500
-0.4070719089559001191425124943634727969765663146972656250
0.4699505875234037954868426822940818965435028076171875000
0.4305040050976478571698180530802346765995025634765625000
-0.2129459545561494804299940142300329171121120452880859375
0.5931702631382663737369398404553066939115524291992187500
-0.0510931933952517292052419861647649668157100677490234375
0.4772143542132823990087331367249134927988052368164062500
0.0766348920748185641338423579327354673296213150024414062
-0.5686920394916171739296828491205815225839614868164062500
0.5585488028769490798097763217811007052659988403320312500
-0.5131288387752782620410130220989231020212173461914062500
0.1887245552187861996618067905728821642696857452392578125
-0.1532535534714000446943060751436860300600528717041015625
0.0865565169475351753325398362903797533363103866577148438
-0.0837731727913586382561206278296594973653554916381835938
-0.0914464759431670021205817988629860337823629379272460938
0.1246527937591061369060341235126543324440717697143554688
0.2838370146979760089145372603525174781680107116699218750
-0.1182775124961804869005987939090118743479251861572265625
0.0637285688077982859223169498363859020173549652099609375
0.3720603813581613850125506814947584643959999084472656250
-0.7698023696236980795148951983719598501920700073242187500
0.0459899668499106975549928222335438476875424385070800781
0.2573840588411046570449514092615572735667228698730468750
0.5964763299689680442483563638234045356512069702148437500
-0.3881198431655179525989751709857955574989318847656250000
-0.6389880207696067015987750892236363142728805541992187500
0.4480251973057455816551453153806505724787712097167968750
0.1092786443761890047277063331421231850981712341308593750
0.4378514276867534471548992769385222345590591430664062500
-0.4455221512386534632454981874616350978612899780273437500
0.3738467234268729177948387132346397265791893005371093750
-0.5112096323355999061277543660253286361694335937500000000
-0.5657289343423698158019874426827300339937210083007812500
-0.2265366726294454069456918432479142211377620697021484375
-0.5035637304067070996183019815362058579921722412109375000
0.5161601186456502565746973232307936996221542358398437500
0.7419024375724868614057072591094765812158584594726562500
0.2042158490854012187210031470385729335248470306396484375
-0.1071474641419836310030078152522037271410226821899414062
-0.1769207811065507673919938724793610163033008575439453125
0.0140573082850373176633240746014053001999855041503906250
0.4044034213626065410451815296255517750978469848632812500
0.4242670010393312929330988936271751299500465393066406250
-0.5991278718952575133016580366529524326324462890625000000
-0.0958933953152271284503527226661390159279108047485351562
0.1094555506117554505296496358823787886649370193481445312
0.2113786492814492545821991598131717182695865631103515625
-0.2156239013745382404607653370476327836513519287109375000
0.4583549227340264486940668575698509812355041503906250000
0.1818691921220159379846137426284258253872394561767578125
0.0134066520044934713723483454828055982943624258041381836
0.2591726158251170253343786953337257727980613708496093750
0.2178700365448790754463459506951039656996726989746093750
-0.0731313875863629364593165860242152120918035507202148438
0.1471318234033834326801581937615992501378059387207031250
0.1442443748851217344419950450173928402364253997802734375
0.1757246077665549077728712745738448575139045715332031250
0.3952344270484067778603787246538558974862098693847656250
-0.2066040266431528049650978573481552302837371826171875000
-0.2789285861842968894386274314456386491656303405761718750
0.1957172275022551755085942204459570348262786865234375000
0.0462412691142966084112408964301721425727009773254394531
0.4856847619807871385688713417039252817630767822265625000
0.1535866669146634111431382052614935673773288726806640625
0.2469713504734674658358528631652006879448890686035156250
-0.2432129126063496959986309775558765977621078491210937500
-0.4932468171937569589857730534276925027370452880859375000
-0.1751961228763971867294912954093888401985168457031250000
0.2943202109730175819457542729651322588324546813964843750
0.2690785683346549328476271512045059353113174438476562500
0.0696479559419937721553850451527978293597698211669921875
-0.0712532198334734911959742476028623059391975402832031250
-0.1799677826078151521294046233379049226641654968261718750
0.2008776674773400383600119312177412211894989013671875000
-0.5965856598389721598962864845816511660814285278320312500
0.2357934497461115219696381473113433457911014556884765625
-0.1048458717309495857872292390311486087739467620849609375
0.1291913383449288521553910413786070421338081359863281250
0.0040728524746570940809342609156828984851017594337463379
0.0498403940464336933646727345603721914812922477722167969
-0.1521038382635001018350351387198315933346748352050781250
-0.3985344182575304983195962904574116691946983337402343750
-0.0845689411894519627033162123552756384015083312988281250
0.4284447514777267040919639384810579940676689147949218750
0.1697075355079037672911823619870119728147983551025390625
-0.1414101763297152536402734313014661893248558044433593750
-0.4259539959105433926112027620547451078891754150390625000
-0.0053374657579818175073826935772558499593287706375122070
0.3775393115476901595428671498666517436504364013671875000
0.2717367445527900104984553308895556256175041198730468750
-0.1704354222521189954342446526425192132592201232910156250
0.3567901387978526517308353049884317442774772644042968750
0.3887642740511746963782968578016152605414390563964843750
0.5864949450972318789609971645404584705829620361328125000
-0.4107759772835233857968262327631236985325813293457031250
0.5290118266650195577582849182363133877515792846679687500
-0.2983031089580251427051393875444773584604263305664062500
0.0009973411036183095750712324090159199840854853391647339
0.3232370614196422575759015671792440116405487060546875000
0.2645036892695872832170778110594255849719047546386718750
-0.2427606381526602741249831751702004112303256988525390625
0.3151111428973886741111698484019143506884574890136718750
0.0387631129934952328719433012338413391262292861938476562
-0.1644415634643982826457175860923598520457744598388671875
0.5266790150819752325261902115016710013151168823242187500
-0.4472391063660424714854002559150103479623794555664062500
-0.3005837754861605537470836679858621209859848022460937500
0.0642099497505263655527940613865212071686983108520507812
0.1518489257456580587835048845590790733695030212402343750
0.1389938166398924646038892660726560279726982116699218750
0.1010465531390686150237101514903770294040441513061523438
0.2346692789336232987107422331973793916404247283935546875
0.4554977082917727737587654246453894302248954772949218750
-0.3724043587144385547560432314639911055564880371093750000
-0.0138221790028868526251093484802368038799613714218139648
-0.3606328020467973738405476069601718336343765258789062500
-0.3015278538279180797765377519681351259350776672363281250
0.0657372403136386174171690299772308208048343658447265625
0.4396451996003712947569397329061757773160934448242187500
0.0949693406926449823490798962666303850710391998291015625
-0.0016198828421698757262098267162286902021151036024093628
0.3794136304674112780688233215187210589647293090820312500
0.3936047811925967865320785676885861903429031372070312500
-0.3081904057500248206302728704031324014067649841308593750
-0.5721994927669900032896066477405838668346405029296875000
0.3157768874946743076215227574721211567521095275878906250
-0.2634714833584037019242884980485541746020317077636718750
-0.6173855066077795772372382998582907021045684814453125000
0.5212008144489868044502145494334399700164794921875000000
0.5443869732498732849634848207642789930105209350585937500
-0.1895007159122038820076028287076042033731937408447265625
-0.4856048242226217448447300739644560962915420532226562500
0.3038394269868113228838524264574516564607620239257812500
0.1404184998008923268564274167147232219576835632324218750
0.4407757775871094518826964758773101493716239929199218750
0.0606505594032365757950486795380129478871822357177734375
-0.4974168925391378448530588229914428666234016418457031250
0.1200662043735028217117388749102246947586536407470703125
0.5042747901285572487140029807051178067922592163085937500
-0.3233839649856322107090988993149949237704277038574218750
0.0321918209044424752374169429458561353385448455810546875
0.2050966680385605533931681065951124764978885650634765625
-0.2818455097300985867647682425740640610456466674804687500
0.1841490818285409225563142854298348538577556610107421875
-0.5179499042771495975756579355220310389995574951171875000
-0.3676468126903422173334945455280831083655357360839843750
0.3893391973328462762893309445644263178110122680664062500
-0.3194340077330491967089187710371334105730056762695312500
-0.5043366732981707789562619836942758411169052124023437500
0.0204957548919100784878821741585852578282356262207031250
0.1229948558230744559693903283914551138877868652343750000
-0.2194313384752671625133046973132877610623836517333984375
0.0519062559090322575561238238606165396049618721008300781
0.1849349768844260888389641195317381061613559722900390625
-0.0979395659986726507817422771040583029389381408691406250
0.2851697198011887146584797392279142513871192932128906250
0.3414412212690384196278614581387955695390701293945312500
-0.3296797469246013911892134728987002745270729064941406250
0.4239185590171656303759561978949932381510734558105468750
0.0108608994297530129374829144239811284933239221572875977
0.2621512628278936385406439057987881824374198913574218750
-0.2865263330334892333262075680977432057261466979980468750
-0.0058030475117583938879373128827410255325958132743835449
-0.1682652827353823543621302860628929920494556427001953125
0.3513297506691206439910502012935467064380645751953125000
0.4792842810822007248994225392380030825734138488769531250
0.4065115518208930467380923801101744174957275390625000000
-0.1854025892205374281829222127271350473165512084960937500
0.0593991350524796513088432448057574220001697540283203125
0.2845752524295483421035157789447112008929252624511718750
-0.1354369475711631187753170024734572507441043853759765625
-0.2581519875352947801516734216420445591211318969726562500
0.7331248970261747821552944515133276581764221191406250000
0.1867321556627344891765574175224173814058303833007812500
0.4907030000231379363029304840893018990755081176757812500
0.1185103226573253759612569524506398010998964309692382812
-0.4640484152325767830404856795212253928184509277343750000
-0.3980175454687563396660721082298550754785537719726562500
0.9222691819427981663181981275556609034538269042968750000
0.0831512065493307528374344883559388108551502227783203125
