nn
1,10,10,10,10,10,1
dIn
0
dIntern
,
dOut
,
normP
1.9999999999999984
normY
1.0
w
0.5019934703626753869087906423374079167842864990234375000
-0.9555206689660651342421715526143088936805725097656250000
-0.3964764080315236749463281284988624975085258483886718750
-0.4146598891362381356096022955171065405011177062988281250
-1.0177279089898032538030747673474252223968505859375000000
-0.5196600992021583875768442339904140681028366088867187500
-0.1855591357643745775707344591864966787397861480712890625
-0.6209271020831005349904785362014081329107284545898437500
0.5199523717198556438390255607373546808958053588867187500
-0.9695409881853659372907827673770952969789505004882812500
0.1282276839441451599110877168641309253871440887451171875
-0.2620872804489196017385665982146747410297393798828125000
-0.3818835367331168129112484166398644447326660156250000000
-0.0704541075496359359142672929010586813092231750488281250
-0.5363679478875010842031656466133426874876022338867187500
0.4017731295500913124563169276370899751782417297363281250
0.2324034093813772128278571926784934476017951965332031250
-0.3068485380279527552360718800628092139959335327148437500
-0.0382114328385802851095753851495828712359070777893066406
-0.4363299954248708312221083360782358795404434204101562500
0.2519150595560192829047707618883578106760978698730468750
0.3061323931606466097754548627563053742051124572753906250
-0.2373703657759861085363439769935212098062038421630859375
0.4168927677289857580689158567111007869243621826171875000
0.1237230613273533202933762709108123090118169784545898438
-0.5296127759976069215852589877613354474306106567382812500
-0.2447825896614608531809409441848401911556720733642578125
0.4627358656599047104229782689799321815371513366699218750
-0.3625714883679682087880280505487462505698204040527343750
-0.0411963147163249554516539774340344592928886413574218750
0.5709986355949425718137035801191814243793487548828125000
0.3532292772578204398392642815451836213469505310058593750
-0.2045069181596945173673418594262329861521720886230468750
0.1917152717489236934955698643534560687839984893798828125
-0.3993876921239457589152266336895991116762161254882812500
0.0084904702232949762208402688656860846094787120819091797
-0.2175327787043707661318592272436944767832756042480468750
-0.3359286190562445484353304436808684840798377990722656250
0.8864047652269769761446127631643321365118026733398437500
-0.1548387039415867472147425587536417879164218902587890625
0.5444665033774930273935410696140024811029434204101562500
-0.0359036318444370949887201049932627938687801361083984375
-0.2478435246611736531008318706881254911422729492187500000
0.1296805715211399590014451632669079117476940155029296875
0.2535730226232329465041459570784354582428932189941406250
0.2806655496605793276287954540748614817857742309570312500
-0.0242443923759007931573172811567928874865174293518066406
0.1344282126547926559112511313287541270256042480468750000
-0.0261140541197925624139486444619251415133476257324218750
0.3927469397570063081026603413192788138985633850097656250
-0.2298249191405305202895448246636078692972660064697265625
-0.0435695772081737681125090944078692700713872909545898438
0.1606617780657280114553486782824620604515075683593750000
-0.4453860042045665323939829249866306781768798828125000000
0.0227470282791530052646233883706372580491006374359130859
0.2748351466579410096180424716294510290026664733886718750
-0.1133370125372731018753569287582649849355220794677734375
0.3630387060235387708395649042358854785561561584472656250
0.5287253318387366007868877204600721597671508789062500000
0.5367782748871712250604559812927618622779846191406250000
0.7010825518951412371748688201478216797113418579101562500
-0.1613173718823226188145980586341465823352336883544921875
-0.2436205771078581994171230462598032318055629730224609375
0.1433140967394035125703766198057564906775951385498046875
0.3481823634026432467969414119579596444964408874511718750
0.3457527715362952447364364161330740898847579956054687500
-0.3907890377907154988434967890498228371143341064453125000
-0.0302559865361048327403459268225560663267970085144042969
0.8046291060613112167132499052968341857194900512695312500
0.4373743614473075136395152640034211799502372741699218750
0.0874880205851956277429692931946192402392625808715820312
0.3694572504043912575255603769619483500719070434570312500
-0.1295292760410677035398663292653509415686130523681640625
0.0578441021440002853259976234312489395961165428161621094
-0.0518869372922037344619816678914503427222371101379394531
-0.3717276063273311503820650614215992391109466552734375000
0.3830543134736952848307112162729026749730110168457031250
-0.4554288826930216749211410842690384015440940856933593750
-0.2802691192315616697250391098350519314408302307128906250
-0.4041857290932490687218603397923288866877555847167968750
-0.3725955642457198790928885046014329418540000915527343750
0.0323898748718820447822785979496984509751200675964355469
-0.2564824777533069588564273999509168788790702819824218750
-0.1062189576997283058101828601138549856841564178466796875
0.0878419681398310975284360324621957261115312576293945312
-0.0118878695176335893307628666093478386756032705307006836
-0.3203025461437558618627008399926126003265380859375000000
-0.5066214458322476632545772190496791154146194458007812500
-0.1024515291163959063158728213238646276295185089111328125
-0.2825382490685759417914368896163068711757659912109375000
-0.2458749762815586603625916950477403588593006134033203125
0.3078576421534601759155691524938447400927543640136718750
-0.3652462762449978361800617676635738462209701538085937500
-0.2592088097175064831390045583248138427734375000000000000
0.2433780049624805208452471561031416058540344238281250000
0.3076194306061860728185308744286885485053062438964843750
-0.0298346761770468885122120639152853982523083686828613281
-0.2225039694513639976225505279217031784355640411376953125
0.6370839683690876498189936683047562837600708007812500000
0.0110772685013900366174377509764781279955059289932250977
-0.0117355895739428769952716891111776931211352348327636719
0.1077602144394979727382022360870905686169862747192382812
0.3422574289809592884559208414430031552910804748535156250
-0.0009325553876462097874569523447974006558069959282875061
-0.0739400722300816715115701072136289440095424652099609375
-0.4944688823454013726355071867146762087941169738769531250
-0.0366361358829389027746969986765179783105850219726562500
0.0849964961051997702767835107806604355573654174804687500
-0.4174740828323231234264767408603802323341369628906250000
-0.4783835474538190024595962768216850236058235168457031250
0.6586018280902264931953027371491771191358566284179687500
0.2094508322554849422125755609158659353852272033691406250
0.0432325504702677637647312280932965222746133804321289062
0.1274406959653978099744620067212963476777076721191406250
-0.2994958923828185404225621368823340162634849548339843750
-0.3411002201076486772812756953499047085642814636230468750
-0.3188889247974319718359481612424133345484733581542968750
-0.6747481401024397751342576157185249030590057373046875000
0.7998924153462900754618658538674935698509216308593750000
0.6334980462457863170655514295503962785005569458007812500
-0.3901353405604019441987873051402857527136802673339843750
-0.2438671574933140573371304071770282462239265441894531250
0.0985400534761392971061511047992098610848188400268554688
0.2815265629415796833079355110385222360491752624511718750
-0.3425596861774222734453587690950371325016021728515625000
-0.2183246122123329024944382581452373415231704711914062500
0.0889391931378194916524293489601404871791601181030273438
0.5354055902639625053041072533233091235160827636718750000
0.2554936095601477719085892204020638018846511840820312500
0.1588445727132521967384093386499444022774696350097656250
0.0100606314394750713525628071920436923392117023468017578
0.1097470241648484112761963160664890892803668975830078125
-0.5607072212628538832035474115400575101375579833984375000
-0.4616654850287258970986670192360179498791694641113281250
0.6167683956159025759902192476147320121526718139648437500
-0.2581382086339169545929905780212720856070518493652343750
0.1364637969416046536785813714232062920928001403808593750
-0.3621084433495533327906912290927721187472343444824218750
-0.5218253035666512440471365152916405349969863891601562500
0.1467728969084601264860623359709279611706733703613281250
0.5380776405343719037688288153731264173984527587890625000
0.2528936149734844485159612759161973372101783752441406250
-0.1031149773716530521072698434181802440434694290161132812
0.2435096374295190047032377833602367900311946868896484375
0.4710858985963952694220324701745994389057159423828125000
-0.2598752394355723360774845787091180682182312011718750000
-0.3783105812097581899244858050224138423800468444824218750
-0.2093123046461888292490982621529838070273399353027343750
0.0097814933884210076425747004691402253229171037673950195
0.3398537249337958976447282566368812695145606994628906250
0.1047515496657729638929623661169898696243762969970703125
-0.1367463839264881908519555508974008262157440185546875000
0.4326484744070099308643762014980893582105636596679687500
0.4080101193872633369430502625618828460574150085449218750
-0.0749351080442710315576704260820406489074230194091796875
-0.1483230499481323072519245442890678532421588897705078125
0.1744807634067765123031534812980680726468563079833984375
0.0239103112571974925348872176300574210472404956817626953
0.3903135945692202124490677306312136352062225341796875000
0.5264968837949008939602890677633695304393768310546875000
-0.4857219449420114854021335304423701018095016479492187500
-0.1426442294872913019165849846103810705244541168212890625
0.1844540409203425102013795822131214663386344909667968750
0.2300668305969006399713805421924917027354240417480468750
-0.2508168653513289103607064589596120640635490417480468750
-0.3912084037501332156594457956089172512292861938476562500
-0.2741217948529252601552741452906047925353050231933593750
0.2375140107528541100201380231737857684493064880371093750
-0.4587466453972208202394256204570410773158073425292968750
0.0156157465081345446511473795681013143621385097503662109
0.0384336167569024958479140252620709361508488655090332031
-0.3018079903370068928225578019919339567422866821289062500
0.2628654313426074806692156471399357542395591735839843750
0.3807335606801330318837983668345259502530097961425781250
0.2966482184787728182406851829000515863299369812011718750
-0.0596859729333319988242578801873605698347091674804687500
0.0532697866903243874570073046470497502014040946960449219
-0.2774969838238182662237818476569373160600662231445312500
-0.0706882355516776639259290959671488963067531585693359375
0.0396338715228648844068892742598109180107712745666503906
-0.2153843549094057452375494676743983291089534759521484375
0.2962991771487540337837174320156918838620185852050781250
0.2029860160332169760621923160215374082326889038085937500
-0.2581159018816675532193016806559171527624130249023437500
-0.1734301826728286699541570214933017268776893615722656250
-0.1694106000859759986187924596379161812365055084228515625
-0.1456900315317104510626222690916620194911956787109375000
-0.2577656527837936528690931936580454930663108825683593750
-0.4886260274282116511379570056305965408682823181152343750
-0.1159269392375416179996605592350533697754144668579101562
0.1909207640306641862171233015033067204058170318603515625
-0.3881445424983612224600904028193326666951179504394531250
-0.2487829684659101647792311950979637913405895233154296875
0.4190085594034773097682489151338813826441764831542968750
-0.4362546840085167465517201890179421752691268920898437500
0.3281768432666788415374981013883370906114578247070312500
0.3950357543362497114713960399967618286609649658203125000
0.0579340378494393529185124691593955503776669502258300781
0.1949108323191797442763828485112753696739673614501953125
0.1153126278584886282851940109139832202345132827758789062
-0.2593314220303762351882426173688145354390144348144531250
-0.5974894384313863548996437202731613069772720336914062500
0.4902784778969320189645486607332713901996612548828125000
0.5493372599460009109151314987684600055217742919921875000
0.0828091006575279037216219535366690251976251602172851562
0.4169350277937043380838133543875301256775856018066406250
-0.5606404134478402134789121191715821623802185058593750000
0.0586086857503881897279995882854564115405082702636718750
0.4743705622038760782999133880366571247577667236328125000
0.0266491101187636657277035823199184960685670375823974609
0.4043028005836753480117806702764937654137611389160156250
0.0742587076074181229312642926743137650191783905029296875
-0.3706062594793299580508971757808467373251914978027343750
-0.7208594970978190463739565529976971447467803955078125000
0.5584720576756301291254658281104639172554016113281250000
-0.4206403820198234000393711085052927955985069274902343750
-0.0980126114495833283823955639491032343357801437377929688
-0.5480433592055500291451153316302224993705749511718750000
0.1079041781843067537849378823011647909879684448242187500
-0.6012265262638391005722837689972948282957077026367187500
-0.4431023084741676498765627911780029535293579101562500000
0.4845496901462620908951350884308340027928352355957031250
-0.5405040514322843048233835361315868794918060302734375000
-0.0842062391178042268791159585816785693168640136718750000
-0.1097530977319494671640143224067287519574165344238281250
0.2733983830091492039926492907397914677858352661132812500
0.5596571015551473626814527051465120166540145874023437500
0.4674672335794363142724705539876595139503479003906250000
-0.0920212007794541098082419239290175028145313262939453125
-0.3915282820049797996020402024441864341497421264648437500
-0.1028579716349979911171885760268196463584899902343750000
-0.1996856019932015946505288184198434464633464813232421875
-0.1792245887878460286479764818068360909819602966308593750
0.1096896927903677210203170488966861739754676818847656250
0.0064454038134803531140404331267745874356478452682495117
-0.1824545808001859226177288064718595705926418304443359375
-0.4471003419469687378828837154287612065672874450683593750
0.1727071284283144547710975302834413014352321624755859375
-0.0432940806739366759736675760450452798977494239807128906
0.3918394588060055139244752808735938742756843566894531250
0.2494070015859702615923509938511415384709835052490234375
0.2191509084364549331258587017146055586636066436767578125
0.4203602356379267934727295141783542931079864501953125000
0.2951495225694978352670716503780568018555641174316406250
-0.1520376099964666771757748620075290091335773468017578125
-0.4336654560039009953520405815652338787913322448730468750
0.3276130545465963384010876779939280822873115539550781250
0.1193932738094763829073130523283907677978277206420898438
-0.0510114814345999992295510594431107165291905403137207031
-0.2679910238212536710555866648064693436026573181152343750
-0.0499172536797405086428369713758002035319805145263671875
-0.0009007884984039682928214087809237753390334546566009521
-0.5091531814597080041195908961526583880186080932617187500
0.1649137561120335992992380624855286441743373870849609375
-0.3000210235119269985837320291466312482953071594238281250
-0.1512135979788428730152816115150926634669303894042968750
-0.2572894033231851174114979130536084994673728942871093750
-0.1456387210445045099493910356613923795521259307861328125
0.3121881694135161811054501868056831881403923034667968750
0.1594104281298003578104527377945487387478351593017578125
-0.4409847866214678391294512493914226070046424865722656250
-0.1983732407748895754107110178665607236325740814208984375
0.1275558727651878720976696968136820942163467407226562500
0.3439540350032820881231998555449536070227622985839843750
0.5728986097747043038097558564913924783468246459960937500
-0.2884016979259150237346887024614261463284492492675781250
-0.3211939376533302081817566886456916108727455139160156250
0.0267144860519595989112318079605756793171167373657226562
0.2851396661384904551717056619963841512799263000488281250
-0.1996367953034804965106729923718376085162162780761718750
-0.5411689445786117547143589945335406810045242309570312500
0.1111038445591101264664501968582044355571269989013671875
-0.1007152540130789863948024276396608911454677581787109375
-0.5264000113784972345598589527071453630924224853515625000
0.8950741921290339409011949101113714277744293212890625000
-0.1403719937654319127595670124719617888331413269042968750
-0.0453754253059317144702866642091976245865225791931152344
-0.2409976348902632681259206037793774157762527465820312500
-0.2519472366857529732619980222807498648762702941894531250
-0.0181457567300186244085846709594989079050719738006591797
0.4775947697484791421018712753721047192811965942382812500
0.3771680717321591602697594680648762732744216918945312500
0.1432240630869848208028827230009483173489570617675781250
0.6066700875987635077635218294744845479726791381835937500
-0.4765246297976927780659650579764274880290031433105468750
-0.4320774610783725822038547903503058478236198425292968750
-0.4230946587245207890504161696298979222774505615234375000
0.1876888426259848419164200095110572874546051025390625000
-0.2854019520570499901523930930125061422586441040039062500
0.0201408475311101627103216316072575864382088184356689453
-0.0157609926025791581560842047338155680336058139801025391
0.0331108866173308938329888917451171437278389930725097656
0.3467259021967333820768430996395181864500045776367187500
-0.4104773009460022659133926481445087119936943054199218750
-0.0216248583685243120355856660808058222755789756774902344
0.5097901041343418926388153522566426545381546020507812500
0.2259047291599722007138240087442682124674320220947265625
-0.4512510788487733015550418258499121293425559997558593750
-0.5669172990517924448639064394228626042604446411132812500
-0.0032387661251888615748795174908991612028330564498901367
0.4227133466670491834804579411866143345832824707031250000
0.1254844654113101976022903727425727993249893188476562500
-0.2816371500981345588066062646248610690236091613769531250
-0.1273599511743868650803790387726621702313423156738281250
0.0839285086175058925306302626268006861209869384765625000
0.3969829260898193323825466904963832348585128784179687500
-0.3580190320989095065229435022047255188226699829101562500
0.2799421712630230651974727607012027874588966369628906250
0.3588706923718423258407028697547502815723419189453125000
0.1523727448507972703772850309178465977311134338378906250
-0.1346976306326903016774565458035795018076896667480468750
0.2612634358883594298816888112924061715602874755859375000
-0.4636193281000960397797427958721527829766273498535156250
-0.2781274082835656358270171040203422307968139648437500000
0.5301733863584831007997877350135240703821182250976562500
-0.0836784066321748232208932449793792329728603363037109375
-0.0023419992368019877312934617918926960555836558341979980
-0.5063616996609940912321690120734274387359619140625000000
0.4339765324482384722948324906610650941729545593261718750
0.0477717373414394338992927657727705081924796104431152344
-0.2847895143327294764645785107859410345554351806640625000
-0.3296643944560350147909844054083805531263351440429687500
0.1368886473731742159376523204628028906881809234619140625
-0.1825472417799861302167840904076001606881618499755859375
-0.2188634081623447857900544022413669154047966003417968750
0.4123319744971549183354397882794728502631187438964843750
0.6955238908103495987234055064618587493896484375000000000
0.3603713065698841422346276885946281254291534423828125000
-0.3896734086751828529671115575183648616075515747070312500
0.3677935956344872692191927399107953533530235290527343750
0.4644097032601486318981187650933861732482910156250000000
0.3661657780752963220471940530842402949929237365722656250
0.4657608677473250580192143388558179140090942382812500000
-0.0798445220710446573741947418056952301412820816040039062
0.2969562803970683395604623910912778228521347045898437500
0.2802596967523482973660975403618067502975463867187500000
0.4580856780932691663110745139420032501220703125000000000
-0.0589990272081979683083119425646145828068256378173828125
-0.4162797729765932985834808732761302962899208068847656250
-0.2760669969514055188675172303192084655165672302246093750
-0.3581168326333944995631952679104870185256004333496093750
-0.1046939901082721141589715330155740957707166671752929688
0.1736694650922301352835575016797520220279693603515625000
0.1036606958048123250382133164748665876686573028564453125
0.3394675162491783693141655930958222597837448120117187500
-0.2671891930249429281118977996811736375093460083007812500
-0.0393971524939306094736934937827754765748977661132812500
0.3034994697509351135877864180656615644693374633789062500
-0.2270342172297894478560920106247067451477050781250000000
-0.5028927751025809023133206210331991314888000488281250000
-0.4299788286526520786345884062029654160141944885253906250
-0.2477793326805592388772936374152777716517448425292968750
-0.2996765129911440617149764875648543238639831542968750000
-0.3713630693502147361861887020495487377047538757324218750
0.3078833175444693481814795177342602983117103576660156250
0.3697952560513448339030162514973198994994163513183593750
0.2869860695741892064880573798291152343153953552246093750
-0.1926802698323248907996685375110246241092681884765625000
-0.3781007344907403311395910350256599485874176025390625000
-0.4235315402637315207456936150265391916036605834960937500
0.3026633063963386494066298837424255907535552978515625000
-0.1250796289358975521555095156145398505032062530517578125
-0.2988302986087602586273703764163656160235404968261718750
0.1073397265406372258489398063829867169260978698730468750
-0.2070624347548090937731757321671466343104839324951171875
0.3060152896486431073341805131349246948957443237304687500
-0.4604248973426477431480918767192633822560310363769531250
0.0970843252524929561930733257213432807475328445434570312
-0.2088011594859763564446808459251769818365573883056640625
0.2540333055590632826969965663010952994227409362792968750
0.0016475840444602329187828715362229559104889631271362305
-0.3675993653091569890456469238415593281388282775878906250
-0.2194104580308313123815366907365387305617332458496093750
-0.2686240949209658390728350241261068731546401977539062500
-0.4611259927209643283418927239836193621158599853515625000
-0.4222664169198744321676031177048571407794952392578125000
0.0963361083366232606728374321392038837075233459472656250
0.2371102521819887787302150172763504087924957275390625000
0.4160759364902765766736081332055618986487388610839843750
-0.4200635250192787384371229109092382714152336120605468750
-0.3620151749859219503235863157897256314754486083984375000
-0.2678065887711871262411023053573444485664367675781250000
0.3339414583326492103054761173552833497524261474609375000
-0.4030553911922394871858443821110995486378669738769531250
0.6356081135100317691666305108810774981975555419921875000
0.3735170204077269962006369041773723438382148742675781250
-0.0402406739126182980137436118184268707409501075744628906
0.0525780382627921150096028668485814705491065979003906250
0.4064904087540384125532000325620174407958984375000000000
0.1207840318063206075382964854725287295877933502197265625
0.2976297022739312625461138850369025021791458129882812500
0.1612727423778862467784733780717942863702774047851562500
-0.6369450024395546527955502824625000357627868652343750000
0.1438335230149426768875287052651401609182357788085937500
0.4195375747194702298337176671338966116309165954589843750
0.1888074245240642101695272003780701197683811187744140625
0.0534411511129000565967217539764533285051584243774414062
0.3572026429020827564819740018720040097832679748535156250
-0.0882348391256849717834143120853696018457412719726562500
0.5016939167118886766516538955329451709985733032226562500
0.3889893196476409409356733704044017940759658813476562500
-0.5498868729216929152059378793637733906507492065429687500
0.0357268893854544022925523449885076843202114105224609375
0.1260363554609082725743718356170575134456157684326171875
-0.5087738472219601737478456016106065362691879272460937500
-0.0989400606219690559317569977793027646839618682861328125
0.3665681263422807534269054485775995999574661254882812500
0.0288567050617630181663653132773106335662305355072021484
-0.2761629342913627382927188591565936803817749023437500000
-0.0944507180411509744688558498637576121836900711059570312
0.4399680669292124757241424504172755405306816101074218750
0.3791738992949026387790922854037489742040634155273437500
-0.1092438823250714424739626906557532493025064468383789062
0.5221581074307051206773166995844803750514984130859375000
-0.5575219455573439120144030312076210975646972656250000000
-0.5674562612999752841957956661644857376813888549804687500
-0.0692030723156222410397120370362245012074708938598632812
0.2238690059989141556417990841509890742599964141845703125
-0.2370381174425200965227844562832615338265895843505859375
0.4749945311888287280410736457270104438066482543945312500
0.1387639625120201669616903927817475050687789916992187500
-0.0699120115511500522798016277192800771445035934448242188
-0.2984296430257948884445795556530356407165527343750000000
-0.2961549102927147347763536799902794882655143737792968750
0.5020722820454034396320253108569886535406112670898437500
-0.2260177604920477756333951901979162357747554779052734375
-0.4108419208210049577978395518584875389933586120605468750
-0.3895206416301311702632403921597870066761970520019531250
0.3780137359189733037290181982825743034482002258300781250
0.3208753906392560195648400167556246742606163024902343750
0.2965227785092370837993769328022608533501625061035156250
0.1645680353595491696161445815960178151726722717285156250
0.4550261781749520006989939702179981395602226257324218750
-0.3789527593534295357713403973320964723825454711914062500
0.1868126196671348049349603570590261369943618774414062500
-0.3436310038678930811606448969541816040873527526855468750
-0.2891814721511803409903507144917966797947883605957031250
0.0946863597416616881163875518723216373473405838012695312
0.3819614462164999113547025899606524035334587097167968750
0.3668774586826886729973296041862340644001960754394531250
-0.0870307741442219173766403628178522922098636627197265625
-0.4326710948350251939586996741127222776412963867187500000
0.3090355929257210254590404474583920091390609741210937500
0.1693770971979525474804262330508208833634853363037109375
0.3863504910388214641514537106559146195650100708007812500
0.0700640021566137916053662593185435980558395385742187500
0.4515247052863635701669409172609448432922363281250000000
-0.0389773652154861427465704082351294346153736114501953125
0.2718930242628554427852805019938386976718902587890625000
-0.2489986932035492817050226221908815205097198486328125000
0.4525267341309717750164054450578987598419189453125000000
-0.3612496340673412298372113582445308566093444824218750000
0.2569433240806939799938390933675691485404968261718750000
0.1740219323169663323547240452171536162495613098144531250
-0.0920098607864591744309734622220275923609733581542968750
-0.4486761043257483372315164160681888461112976074218750000
-0.4149271142012328494885764484934043139219284057617187500
0.3385232674198697111478395527228713035583496093750000000
-0.0729645196197603596033331996295601129531860351562500000
0.1082302352971532821701572402162128128111362457275390625
0.2446641294990999360159378284151898697018623352050781250
-0.4522813452518115173717205834691412746906280517578125000
0.5986615669560034769247636177169624716043472290039062500
0.3565507522314232402571576585614820942282676696777343750
-0.5569378400548125052083037189731840044260025024414062500
0.3436672657244999595782530832366319373250007629394531250
0.0429741420498617326950707706600951496511697769165039062
-0.2922192061856135336661566270777257159352302551269531250
0.1742505024665759461033331945145619101822376251220703125
-0.3592865625300162846222917778504779562354087829589843750
0.4333978286661780976452007507759844884276390075683593750
