nn
1,10,10,10,10,10,1
dIn
0
dIntern
,
dOut
,
normP
1.9999999999999984
normY
1.0
w
-0.3936200524560075075797271892952267080545425415039062500
-0.5038027826267900133316857136378530412912368774414062500
0.7475396500729181159528025091276504099369049072265625000
0.9921104746435317478514548383827786892652511596679687500
-0.4305242305779223288553225756913889199495315551757812500
0.3365086540515238033854927834909176453948020935058593750
-0.4362412737794628680987329971685539931058883666992187500
-1.0828509141375883828573023492936044931411743164062500000
-0.1888148138956127208842872278182767331600189208984375000
0.2201767017850467245132506377558456733822822570800781250
0.1357566789158254350056154180492740124464035034179687500
0.2810935633700854530125923247396713122725486755371093750
0.4129491608344476039071935247193323448300361633300781250
0.2499823608904687133325239756231894716620445251464843750
0.2241340505167126184726811288783210329711437225341796875
-0.1830030370268132533517757565277861431241035461425781250
-0.5418516314776384845686152402777224779129028320312500000
-0.3058818843038826895686099760496290400624275207519531250
-0.0145027722354901904278090540856283041648566722869873047
0.0295829946971314407255793099693619296886026859283447266
-0.1188703621776427549194821153832890558987855911254882812
-0.2140447577601293227544942965323571115732192993164062500
0.0689283259367201028844363008829532191157341003417968750
-0.2546841490536142504907957118120975792407989501953125000
-0.3449704929861632796139758738718228414654731750488281250
-0.4342200515084075895799742283998057246208190917968750000
-0.0929201774636707611421115871053189039230346679687500000
0.1434215333488003396578136516836821101605892181396484375
0.4403963930929891690269073478702921420335769653320312500
0.0957237001787586139212038460755138657987117767333984375
0.0066304351257881425502072048061563691589981317520141602
0.4280826679163403092331918742274865508079528808593750000
-0.1509690102993189453339795136344037018716335296630859375
0.3012150296259170079160583100019721314311027526855468750
-0.3093094896612100241917175935668637976050376892089843750
-0.4078752470929307705205246747937053442001342773437500000
-0.3600161508152866507437295240379171445965766906738281250
-0.1426889739163211545669440738492994569242000579833984375
-0.3444757877161101489171812772838165983557701110839843750
0.4500649364548583442058315995382145047187805175781250000
0.6826122097789986131743944497429765760898590087890625000
-0.3138563276733082330061108677909942343831062316894531250
-0.3636010230807226739635495960101252421736717224121093750
-0.0893070974167080589012357449973933398723602294921875000
-0.2159353279143267634321290415755356661975383758544921875
0.4665638989443531281509081054537091404199600219726562500
-0.4510014479442233659156613612140063196420669555664062500
-0.3565859644968895070249459422484505921602249145507812500
-0.2099782483720919190606224447037675417959690093994140625
-0.2829704421584197659989001749636372551321983337402343750
0.7540548943798411896111133501108270138502120971679687500
-0.5872576981580751587230793120397720485925674438476562500
-0.0858344315800680657257970551654580049216747283935546875
-0.2558622480882690730652484489837661385536193847656250000
0.4853859638990964953109141788445413112640380859375000000
0.2851665926239380643991694341821130365133285522460937500
-0.3830540766679403352767963042424526065587997436523437500
0.0584409734959594195924381665463442914187908172607421875
-0.2160337508952109852877754292421741411089897155761718750
-0.5856512004422131933978334927815012633800506591796875000
0.1057848233710892010828175102687964681535959243774414062
0.4400787016214736668828777510498184710741043090820312500
-0.0828991695340117740187224626424722373485565185546875000
0.4677186761245772927964026166591793298721313476562500000
0.3248427586594581084611377264081966131925582885742187500
-0.1984793945132332926295504194058594293892383575439453125
0.3024340251116429123534601330902660265564918518066406250
0.1299318882366947702777792983397375792264938354492187500
-0.3408234686387752732095179908355930820107460021972656250
0.4342134202955293398318303843552712351083755493164062500
0.2777546583778339184256367389025399461388587951660156250
0.3153964724875704672690801544376881793141365051269531250
-0.0550261551233961893059287717733241152018308639526367188
0.1793150710954545812292337814142229035496711730957031250
-0.3223156554338235668666357014444656670093536376953125000
-0.4127279604585608607791868962522130459547042846679687500
-0.3522523635689762122602530780568486079573631286621093750
0.3444312338221268698923438478232128545641899108886718750
-0.0585861317274506548935519845144881401211023330688476562
-0.3183049906647428262118637576350010931491851806640625000
-0.5408598017156749371281421190360561013221740722656250000
0.2770853656336731973830467268271604552865028381347656250
-0.2056423275713850917778557914061821065843105316162109375
0.2780897257545013601109928913501789793372154235839843750
0.3143760516167081742189282067556632682681083679199218750
0.4624640373284008010301704416633583605289459228515625000
0.3778567749373631379228299920214340090751647949218750000
-0.3360154694569653099911477056593867018818855285644531250
-0.3335440251443755332871887731016613543033599853515625000
0.4516773811553014272845985033200122416019439697265625000
-0.7583364317335467008618365980510134249925613403320312500
0.0408908550332603981658508018881548196077346801757812500
-0.2274433881117893241352589939197059720754623413085937500
0.4236975437968252822251713496370939537882804870605468750
-0.5944891187266897469854143309930805116891860961914062500
0.0617994796108456631578143003480363404378294944763183594
0.5233933568522304291548152832547202706336975097656250000
-0.3649354537549948096497587357589509338140487670898437500
0.4434256860699784530410738625505473464727401733398437500
0.7982888528935182526069525010825600475072860717773437500
0.2919053723520063647889344338182127103209495544433593750
0.5068649893926174820890651062654796987771987915039062500
0.3839175707619246202817464563850080594420433044433593750
0.0405401131930265487546272140662040328606963157653808594
-0.3138976117490404615928412113134982064366340637207031250
0.2904617801381099706503619017894379794597625732421875000
0.4054036230232136439610712841385975480079650878906250000
-0.1827215022612243000565968031878583133220672607421875000
0.1209720844694291974619204665941651910543441772460937500
0.2524036081385663266019037109799683094024658203125000000
0.2571822809009706167771014406753238290548324584960937500
0.1870835247803616929740400109949405305087566375732421875
0.3262950646867958104380136319377925246953964233398437500
-0.1089107454437405198000021755433408543467521667480468750
-0.4293901888008128109319727627735119313001632690429687500
-0.2663557624323395489618349074589787051081657409667968750
-0.4072371122599252601936825612938264384865760803222656250
0.2495916797874890569186590028039063327014446258544921875
-0.4045588982072313433135946070251520723104476928710937500
-0.0434117718903530985796734853465750347822904586791992188
0.6019079797872386450308113126084208488464355468750000000
0.4037762242669419854301793293416267260909080505371093750
-0.1891241536994355265655087805498624220490455627441406250
0.2493087723108779463210282756335800513625144958496093750
0.0574883278131265995636312027272651903331279754638671875
0.1256216859469965474449537623513606376945972442626953125
0.2523494032972791734081852155213709920644760131835937500
-0.0866756976591850358815349864016752690076828002929687500
0.0036038329896179869052397215511973627144470810890197754
-0.0943947790139731679470713743285159580409526824951171875
-0.8419195764479415755587865533016156405210494995117187500
0.6694370154460920208094876215909607708454132080078125000
-0.0228352969460859610284497733800890273414552211761474609
-0.5449475609582975499378676431661006063222885131835937500
-0.0866264001987732262799468685443571303039789199829101562
0.6426344682480765735377303826680872589349746704101562500
0.0427483531648527731450215583208773750811815261840820312
-0.0732458959747901844350437272623821627348661422729492188
0.2585991997841971534732863347016973420977592468261718750
0.6343128909551674077249572292203083634376525878906250000
-0.2194246449843335056151261142076691612601280212402343750
-0.3124693668201845020426787868927931413054466247558593750
0.1056809098562708909563312431600934360176324844360351562
0.2462535869543220623523183121506008319556713104248046875
0.4104996245824362177678779062262037768959999084472656250
0.4635032082115781437714474577660439535975456237792968750
-0.1464163668515824356930465910409111529588699340820312500
-0.3455813349563229830430088895809603855013847351074218750
-0.1549279625320367503871210601573693566024303436279296875
-0.4094513159088903897497857542475685477256774902343750000
0.0096871101179379776047184691378788556903600692749023438
0.3205144603849896522973494938923977315425872802734375000
-0.2715539456080861002718052077398169785737991333007812500
-0.0050480113209846379923595449668027868028730154037475586
0.4856978186066548408561516225745435804128646850585937500
-0.5327239140704714825957921675581019371747970581054687500
0.3935062931099280736368939415115164592862129211425781250
-0.1567306778973102110441573131538461893796920776367187500
0.1997410897759435977061315270475461147725582122802734375
0.3113034781222575597681156978069338947534561157226562500
0.0829074496164009522303217636363115161657333374023437500
-0.0438695298197508271043076888417999725788831710815429688
-0.1056989891859940605689516246457060333341360092163085938
0.3227689664914905609549578002770431339740753173828125000
0.0834616428182347047659561667387606576085090637207031250
-0.3070192405928494627787017634545918554067611694335937500
-0.3386521999219415657300658040185226127505302429199218750
0.3630801315909665261116856527223717421293258666992187500
-0.4547850500267053841518816170719219371676445007324218750
-0.3002510327807171863767621289298404008150100708007812500
-0.4398695841592398791952689407480647787451744079589843750
-0.0117653190933082428537570507387499674223363399505615234
-0.4220913612490398425514115388068603351712226867675781250
-0.3977477197184158264064990362385287880897521972656250000
-0.3626963276250050327575991104822605848312377929687500000
-0.2750650435992775255655828914314042776823043823242187500
-0.4369788264145472722610463733872165903449058532714843750
0.4450618581656761163500846123497467488050460815429687500
0.1436409930397168077664815655225538648664951324462890625
-0.0181219169987350582629037631932078511454164981842041016
0.0899695343518805146221239965598215349018573760986328125
0.0605279119368195284156541902120807208120822906494140625
-0.2402688486092433572949289555253926664590835571289062500
0.1810602553455585017605500297577236779034137725830078125
-0.3051006301017754607229903740517329424619674682617187500
-0.1045397850011767493239034365615225397050380706787109375
0.3898898766232282708799061765603255480527877807617187500
-0.2612983034558375439182498212176142260432243347167968750
-0.1075790273213683423403352890090900473296642303466796875
0.4317622388529147037239397377561544999480247497558593750
0.4462181563575602361026994913117960095405578613281250000
-0.3300665990551018835752472568856319412589073181152343750
-0.3632873176416134275434899336687522009015083312988281250
-0.3421653134976282428780791633471380919218063354492187500
0.2492388906479385546344218482772703282535076141357421875
0.0878450275844172706607437817183381412178277969360351562
-0.3400007402389278454712950860994169488549232482910156250
-0.3075372742987008134463167152716778218746185302734375000
-0.1001174199430144573508272287654108367860317230224609375
0.3797623260806515244070169501355849206447601318359375000
-0.5195305129678012834304468015034217387437820434570312500
-0.2288794578330211604288990656641544774174690246582031250
-0.4786366021937733528091030166251584887504577636718750000
-0.1217064954274474364304126083879964426159858703613281250
0.1713216846226458534019343460386153310537338256835937500
-0.4355403305371932654033173548668855801224708557128906250
0.1799901788281998982199638703605160117149353027343750000
-0.4297292453350018415214606193330837413668632507324218750
0.2740063424215438137032663235004292801022529602050781250
0.0786143636733323825094288395121111534535884857177734375
0.6384267912543002410075132502242922782897949218750000000
-0.0690420672179592742612186384576489217579364776611328125
0.1165334637227729980279988808433699887245893478393554688
-0.0188776859179331721327876891791675006970763206481933594
-0.0011159453759147233090770479080333643651101738214492798
0.2338019437017558599389843720928183756768703460693359375
-0.0242221604506840382242671694257296621799468994140625000
-0.2363934478442491771144062795428908430039882659912109375
0.1357939136845094929562094421271467581391334533691406250
0.0565815045277840850124206895088718738406896591186523438
0.1855855573175363149029948317547678016126155853271484375
0.1699061586188387595885984637789078988134860992431640625
0.3601530149579250661417972878552973270416259765625000000
-0.2394362983992729676518962378395372070372104644775390625
0.8907398835278017568128916536807082593441009521484375000
-0.2496189079046660097560561553109437227249145507812500000
0.4156692988926615761613447830313816666603088378906250000
-0.2759908402566880747386335315241012722253799438476562500
0.0988594796863058455915762579024885781109333038330078125
0.1582746339727323092727573339288937859237194061279296875
0.1018779155956199555799202016714843921363353729248046875
-0.4126829012274320640507596635870868340134620666503906250
0.3634899684471016856335268130351323634386062622070312500
-0.1431410101829355685509881368489004671573638916015625000
-0.1569770352616650377353124667934025637805461883544921875
-0.3172542265751673862261839076381875202059745788574218750
-0.0893874389020964804641877776703040581196546554565429688
-0.5215411725965224398748887324472889304161071777343750000
-0.0533226609584939170716211265244055539369583129882812500
-0.1472214562480211041961553064538748003542423248291015625
0.4420022770967514946782728202379075810313224792480468750
-0.1769321696421206069338438737759133800864219665527343750
-0.1909240516989374192302619803740526549518108367919921875
-0.0420524915516543168481078396325756330043077468872070312
0.0417210954318177340560680477210553362965583801269531250
0.1219772533367905753554083503331639803946018218994140625
-0.0242680432000413892623669198655989021062850952148437500
0.9469617104416827579882465215632691979408264160156250000
0.1988787946105677328922922697529429569840431213378906250
0.2376053052850968239084750166512094438076019287109375000
-0.4172846030902837011211659046239219605922698974609375000
-0.3969740852824795718234440755622927099466323852539062500
0.3944760928034754532411909622169332578778266906738281250
-0.3435502808526704199287848950916668400168418884277343750
0.4469258626315169014020511895068921148777008056640625000
-0.3006803786443524861837772732542362064123153686523437500
-0.4554102313204318464023856449784943833947181701660156250
-0.4736179989010661506299015854892786592245101928710937500
-0.5088556870698256462404174271796364337205886840820312500
-0.4279197275659835653094376084482064470648765563964843750
-0.3859962840435782194248304222128354012966156005859375000
-0.3526799141918951496776912790664937347173690795898437500
0.2790830315116270554653965518809854984283447265625000000
0.3289138314131534457374073099344968795776367187500000000
0.0452868350697000557336657777796062873676419258117675781
0.2695989550080217234118151736765867099165916442871093750
0.0629064537209879925949707057952764444053173065185546875
-0.2430949288325621182593749836087226867675781250000000000
0.3073458030384574879434467220562510192394256591796875000
0.2461926634148732806472992251656251028180122375488281250
-0.2624868077404471367053417907300172373652458190917968750
0.0438467965560062414298592159411782631650567054748535156
0.2235593520059765970664500400744145736098289489746093750
-0.2472116000975989325016968223280855454504489898681640625
0.3721348997261252344870285924116615206003189086914062500
-0.3536903704670636416906859267328400164842605590820312500
-0.2203207830785016418939648019659216515719890594482421875
0.4650433330117664243452679784240899607539176940917968750
-0.3305459031425533322767762456351192668080329895019531250
-0.0456938928198797750246384907768515404313802719116210938
-0.3244707384705214359144065383588895201683044433593750000
-0.4364058218905533248488382014329545199871063232421875000
-0.2088390833164478488370718878286425024271011352539062500
0.0358977674053187201241854609179426915943622589111328125
-0.3477314531112570827886543156637344509363174438476562500
-0.0732442738533714277071595688539673574268817901611328125
-0.4618471822142664606758444278966635465621948242187500000
0.4193875777673901628084252024564193561673164367675781250
0.5869214512062091992916634808352682739496231079101562500
-0.0982680002617177805745996010955423116683959960937500000
0.3094190345549715503992160847701597958803176879882812500
-0.1959234203308729549419808790844399482011795043945312500
-0.3847825619966475096944691358658019453287124633789062500
0.0490265181536791855299028952686057891696691513061523438
-0.2901307307719570571791223301261197775602340698242187500
-0.3684639285840737299437819274317007511854171752929687500
-0.0864931973827687272660114103928208351135253906250000000
-0.5943795951603894067716282734181731939315795898437500000
0.2906820266907396699274102047638734802603721618652343750
-0.4282454930581490737395711221324745565652847290039062500
0.2080577666906973099969491158844903111457824707031250000
0.2494316327187527382314158330700593069195747375488281250
0.3887077733157460190938081723288632929325103759765625000
0.0477388844544959153881613644898607162758708000183105469
0.1698207250363869547093997880438109859824180603027343750
-0.3389684948320418889089467029407387599349021911621093750
-0.4871438458849330355171503015299094840884208679199218750
-0.1422500294438037160560384108975995332002639770507812500
0.1582001522950900462838319526781560853123664855957031250
-0.2613366748924983440360847453121095895767211914062500000
0.0098518553772548624059002264630180434323847293853759766
0.1063516036282078219832314402992778923362493515014648438
-0.0786957489588557546067448811299982480704784393310546875
0.2860088264965031101816350656008580699563026428222656250
0.4229122641269962845633756387542234733700752258300781250
-0.4733323894381760710281525916798273101449012756347656250
-0.3253698195945033955212011278490535914897918701171875000
-0.2529873271298672676721253083087503910064697265625000000
0.3397284261670250327114217725466005504131317138671875000
0.4873378529994148444792756436072522774338722229003906250
-0.3425974537606277237067331498110434040427207946777343750
0.2443566370380268748530028233290067873895168304443359375
-0.3464921983515206194148561280599096789956092834472656250
-0.4888273619611968601184059934894321486353874206542968750
0.0912204152022778325115126563105150125920772552490234375
-0.0989160790494749836421206623526813928037881851196289062
-0.2447949605925481275647825896157883107662200927734375000
-0.3417838446589401835140620278252754360437393188476562500
0.3049814867332508727670870030124206095933914184570312500
0.0115351459729144019406010812645035912282764911651611328
-0.4170935751317242923263961529301013797521591186523437500
0.0415942223913707068150280576901423046365380287170410156
0.4129303006423610811204127912787953391671180725097656250
-0.1367886585250531750190816637768875807523727416992187500
-0.0391611449976741951561898247291537700220942497253417969
0.4390914569338574824364229698403505608439445495605468750
-0.2281494284122757565391736989113269373774528503417968750
-0.5279654570839136251692025325610302388668060302734375000
0.4191209146651524997118087867420399561524391174316406250
0.3801133211608859752139721877028932794928550720214843750
0.0008366086627727797701836731647517808596603572368621826
-0.4853047457430346156570521998219192028045654296875000000
0.4210160505117211404702004529099212959408760070800781250
0.3657178623804714923117842317878967151045799255371093750
-0.4791018335180912135484732061740942299365997314453125000
-0.1180292249613387467466196767418296076357364654541015625
-0.4955845644667548066664153338933829218149185180664062500
-0.0795795250214048344172823590270127169787883758544921875
-0.3542979655484929102371438602858688682317733764648437500
0.2648833806927707312794950667012017220258712768554687500
0.2078519677027878542752148405270418152213096618652343750
-0.2991762696924430975364828100282466039061546325683593750
0.0669437195913143434644609897077316418290138244628906250
0.5237924616644863418102318064484279602766036987304687500
0.0397248346744562344512452511935407528653740882873535156
-0.4825002076689870467163245848496444523334503173828125000
0.1078401907110385221644222042414185125380754470825195312
0.0253469036328543839697857720238971523940563201904296875
-0.1850638549955816447578627048642374575138092041015625000
-0.2215456446040237337147260632264078594744205474853515625
0.3094353244671877445348684432246955111622810363769531250
-0.3434865537733063356462537285551661625504493713378906250
-0.4774967972620087763857554818969219923019409179687500000
-0.1026411840422736532207892423684825189411640167236328125
-0.0929134073107647506795103709009708836674690246582031250
0.4785397283400960044552618910529417917132377624511718750
-0.4832346576940892424190110432391520589590072631835937500
-0.4333621762532210430762802388926502317190170288085937500
-0.3466275709727921205960399220202816650271415710449218750
0.1901581419400881212133924691443098708987236022949218750
0.3629571888755314668095763863675529137253761291503906250
0.0931889982689464435594572933041490614414215087890625000
-0.2266196812420172013169406000088201835751533508300781250
0.4142945969439009723522815420437837019562721252441406250
-0.5303442413944436939488014104426838457584381103515625000
-0.1513890591371756522143243728351080790162086486816406250
0.2880904436962880010852927625819575041532516479492187500
0.3789296194870366840667941232823068276047706604003906250
0.2744103828717028847883341313718119636178016662597656250
-0.2488104189500685847757921465017716400325298309326171875
0.3203422666858722345217813654016936197876930236816406250
0.0712858355576951874255087204801384359598159790039062500
-0.2725805050335842749653636474249651655554771423339843750
-0.3364552284068344500944647279538912698626518249511718750
-0.3905912056358810668932335374847752973437309265136718750
-0.0738701599439204326102981212898157536983489990234375000
0.4813756464336460538788742269389331340789794921875000000
-0.1165687423649017784299530831049196422100067138671875000
0.1172552851697264281183308298750489484518766403198242188
0.2165850516737965747449123909973422996699810028076171875
-0.0324855786203411267543117446621181443333625793457031250
0.2489121623169821828636116833877167664468288421630859375
0.1823529949610713518648452691195416264235973358154296875
-0.2396258901573993516098681766379741020500659942626953125
-0.4902776467159267737017103172547649592161178588867187500
0.0528503161186723510733820319273945642635226249694824219
0.2305374651359511362080922936002025380730628967285156250
-0.3796519200059540466440921591129153966903686523437500000
0.3040108204145645642846318423835327848792076110839843750
0.1654882889173393822890290039140381850302219390869140625
-0.0321023204628359468126852505065471632406115531921386719
0.1864278892209341176311454546521417796611785888671875000
-0.1526688506202510120512982894069864414632320404052734375
-0.3269228539797943700051519044791348278522491455078125000
-0.0626029912256992893127005572750931605696678161621093750
-0.2541583231780092377860569285985548049211502075195312500
-0.0631031238085776324808762183238286525011062622070312500
-0.4095853911807223468599659099709242582321166992187500000
0.4398541373469753712477370299893664196133613586425781250
-0.0669831616433591847670214747267891652882099151611328125
-0.1273413815219821831892232921745744533836841583251953125
0.4050299525624376228982725933747133240103721618652343750
0.4375654378590015936012491692963521927595138549804687500
0.5748988880096491671523040167812723666429519653320312500
-0.0258824055950455586549985298461251659318804740905761719
-0.1164566352539149751699198986898409202694892883300781250
0.2707077449110499856033129617571830749511718750000000000
-0.2493766980967983548644895108736818656325340270996093750
-0.2043841666332011919315903014648938551545143127441406250
0.0499336320052871998620425131321098888292908668518066406
-0.4801997668200645441594076601177221164107322692871093750
0.3108692568523870325414293347421335056424140930175781250
0.3032294738672407508062178749241866171360015869140625000
0.2171736261094560360707106383415521122515201568603515625
-0.0638180465316568606981562084001780021935701370239257812
-0.3984184912931182376283345547562930732965469360351562500
0.4201960413783284442601484443002846091985702514648437500
-0.7713390991801434282137961417902261018753051757812500000
0.2824168273824640973401756127714179456233978271484375000
0.0655645519882018662505274164686852600425481796264648438
-0.2878342203977313773499702165281632915139198303222656250
0.1598567295555952116892228787037311121821403503417968750
0.0731792932307704507843837404834630433470010757446289062
-0.5946337603871192367677167567308060824871063232421875000
-0.1824692527173903955350908745458582416176795959472656250
-0.3052536775255926260186356557824183255434036254882812500
-0.5641800393516304135133054842299316078424453735351562500
-0.4623250278472912921934323549066903069615364074707031250
0.4389651587985972658323419182124780490994453430175781250
-0.4324255104638708435693672527122544124722480773925781250
0.1448942722070273025902764629790908657014369964599609375
0.3491561834283190557393083963688695803284645080566406250
-0.1869931150661387209144237431246438063681125640869140625
-0.2439823213065356044548792624482302926480770111083984375
-0.2241688653350848159373498447166639380156993865966796875
-0.3059037351913416746818086267012404277920722961425781250
-0.2031125302114294151056839154989575035870075225830078125
-0.3265082742681439942344923110795207321643829345703125000
0.2294718778010899906671937742430600337684154510498046875
-0.1974442303318146574309110974354553036391735076904296875
0.5155719143431075623951187480997759848833084106445312500
-0.0062041346749457165418717430327433248749002814292907715
0.1172477056257210936696111502897110767662525177001953125
0.2898371508214748204501631789753446355462074279785156250
0.2562086337550828485376541721052490174770355224609375000
-0.1789431456889351290673317862456315197050571441650390625
-0.4728300070086125517221375957888085395097732543945312500
0.3639383317434663478451284390757791697978973388671875000
0.2935650333518863841497648081713123247027397155761718750
-0.2198814271126905972586484949715668335556983947753906250
0.2196158101684463626046550643877708353102207183837890625
0.2455426661004827815215634245760156773030757904052734375
-0.0166778426540254466614587869344177306629717350006103516
0.6391522797572808389787724081543274223804473876953125000
0.3362359405250865407310811860952526330947875976562500000
-0.6111430031789378825024527941423002630472183227539062500
0.7199259865571703276287962580681778490543365478515625000
0.3722153612922425858222652550466591492295265197753906250
-0.0781280892055537523610553307662485167384147644042968750
0.3816066905875548642690375800157198682427406311035156250
-0.3936040900201774883626626433397177606821060180664062500
