nn
1,10,10,10,10,10,1
dIn
0
dIntern
,
dOut
,
normP
1.9999999999999984
normY
1.0
w
0.0663366754705790456769776142209593672305345535278320312
-0.2904124019300354797579188925737980753183364868164062500
-0.2629019322596664598457039119239198043942451477050781250
-0.2074369672652935370216198407433694228529930114746093750
0.5394683545942337010714595635363366454839706420898437500
-0.6372576651037422656997932790545746684074401855468750000
-0.9664261479321285541743691283045336604118347167968750000
0.5457375096427640182028540039027575403451919555664062500
-0.3977788485629848991287360604474088177084922790527343750
0.1467775590799574314537778718658955767750740051269531250
-0.2324494105637641139239235599234234541654586791992187500
0.1973827648889371066953657418707734905183315277099609375
0.1860029304328976451632371436062385328114032745361328125
0.2415564453594254423762777150841429829597473144531250000
0.2385445794506161620862627614769735373556613922119140625
-0.0680666081527535743456169825549295637756586074829101562
-0.6052267721821137369531129479582887142896652221679687500
0.2236795940197293663942446073633618652820587158203125000
0.2281585470920129699035072690094239078462123870849609375
0.5446406408931880882562381884781643748283386230468750000
0.4181794344855504497182607792638009414076805114746093750
-0.2441804888674133089399020946075324900448322296142578125
0.1978914975994882363696802940467023290693759918212890625
-0.2255176124145448768310018294869223609566688537597656250
-0.3481816760070604588328535555774578824639320373535156250
0.3179211233340236142375090366840595379471778869628906250
-0.4124047460529660091843595637328689917922019958496093750
-0.3445718887258902296544249566068174317479133605957031250
-0.3219630459782341636021385511412518098950386047363281250
0.0891152217070105001628377294764504767954349517822265625
-0.1048997914363086897404642172659805510193109512329101562
0.4014112014876716205691309369285590946674346923828125000
-0.1849787037816670309808841921039856970310211181640625000
-0.3934189912549181378231821781810140237212181091308593750
-0.1209026361891776951695831598954100627452135086059570312
0.0630568824015541595784384298895020037889480590820312500
0.2659137762310634367501904762320918962359428405761718750
0.2123194196206542316840426565249799750745296478271484375
0.2163397315713288526772828390676295384764671325683593750
0.5012962651665098245956642131204716861248016357421875000
0.4748768944102610412016929331002756953239440917968750000
-0.0008557279461591273117537781445207656361162662506103516
0.2755559514635016471473250021517742425203323364257812500
-0.0790754186519548457612316383347206283360719680786132812
-0.2306061748209791983921235214438638649880886077880859375
0.1132977146366315052139484009785519447177648544311523438
-0.2279626809589443969805699907738016918301582336425781250
-0.3980225046587512194307123536418657749891281127929687500
0.2849563739816166618723514147859532386064529418945312500
-0.0754174343903725452609165813555591739714145660400390625
0.0129661291138533363298535050489590503275394439697265625
-0.1361172299974987287551897452431148849427700042724609375
-0.2507475849735487649638798757223412394523620605468750000
0.1468718896534806639397885419384692795574665069580078125
-0.0563681222667428982742165999297867529094219207763671875
-0.2436310864784168028762678659404627978801727294921875000
0.0577870851498403156898397980967274634167551994323730469
0.1085004927576499744734661589973256923258304595947265625
0.3758147838830327436276945718418573960661888122558593750
0.1370608439433363967552281792450230568647384643554687500
-0.4371985330851942963548140141938347369432449340820312500
-0.1914560258068074838355698830127948895096778869628906250
-0.5752065948683776630545594343857374042272567749023437500
0.5093058075397155493035938889079261571168899536132812500
-0.1247309516095418957526419490022817626595497131347656250
0.1326139677608701994415696390205994248390197753906250000
0.1524857046466107368676290434450493194162845611572265625
0.1082504479111386919143455997982528060674667358398437500
-0.1579858702232390388342508913410711102187633514404296875
0.3870822186871895609350247013935586437582969665527343750
0.5741963485251554422106323727348353713750839233398437500
0.2478122985167396374883708176639629527926445007324218750
0.3716958555910195305393983744579600170254707336425781250
-0.0627268746455456743804646180251438636332750320434570312
0.2446128570621700637488515894801821559667587280273437500
-0.5382453647685876418904626916628330945968627929687500000
-0.1734793961152326091657016604585805907845497131347656250
-0.1478996349509710261926898056117352098226547241210937500
0.2122971932743401568544072688382584601640701293945312500
0.2304963693464150420453506740159355103969573974609375000
-0.2093488822660177495205147124579525552690029144287109375
0.3692513843138007789690391291514970362186431884765625000
1.0006913313662677555981872501433826982975006103515625000
-0.4265580185265148704942816948459949344396591186523437500
0.0020512765922990894296162878163158893585205078125000000
-0.2177609857797561665471164360496914014220237731933593750
-0.0445797118080762319602960985776007873937487602233886719
-0.4704548735193238573337737307156203314661979675292968750
0.3268653550893551029687955633562523871660232543945312500
0.3480115745342202693279887171229347586631774902343750000
0.3755860572821563270196065786876715719699859619140625000
0.3266509408908152556350046324951108545064926147460937500
-0.6754921192176518429661769005178939551115036010742187500
0.0430218099075071053194463388535950798541307449340820312
-0.2549979611484166075463519973709480836987495422363281250
0.4305673993794418286107372750848298892378807067871093750
-0.2548171978576126983639937861880753189325332641601562500
-0.0837149939560708766794761004348401911556720733642578125
-0.1858802524646458731449882861852529458701610565185546875
-0.2444434009183608369486506717294105328619480133056640625
-0.3710138545138345622653730515594361349940299987792968750
0.1048327266738866697659560145439172629266977310180664062
-0.0606270777831943580293838635952852200716733932495117188
-0.5596014661725452477014641772257164120674133300781250000
-0.0815095545252585845785731066825974266976118087768554688
-0.3348058091473171682395104653551243245601654052734375000
-0.2973769137375604221240621427568839862942695617675781250
-0.4498264882744847925621911599591840058565139770507812500
0.0931313310672657601596569065804942511022090911865234375
-0.0519607013759980501665936003519163932651281356811523438
-0.2368083788252213772729248830728465691208839416503906250
-0.1968174206017074823193979682400822639465332031250000000
-0.2768267832193396227324910796596668660640716552734375000
0.1425536199119609159779997753503266721963882446289062500
0.2169557190003329194549763769828132353723049163818359375
-0.2383596706914697938017866363225039094686508178710937500
0.2083399153116208268876619058573851361870765686035156250
-0.4382514678342076530626059138739947229623794555664062500
-0.4490352727096971752196452598582254722714424133300781250
-0.4123207151252101798633020734996534883975982666015625000
-0.3718296059446641321777349276089807972311973571777343750
-0.3328698033071326167764425463246880099177360534667968750
-0.1249306975720350376679590453932178206741809844970703125
0.3889724923230074016267110437183873727917671203613281250
-0.4543133126696332069194284031254937872290611267089843750
0.0403108605547435328020355882472358644008636474609375000
0.1009670419960346787746630070614628493785858154296875000
-0.0168188540378612708114935969661019043996930122375488281
-0.6153671597089119815748858854931313544511795043945312500
0.0179960330713692800985725739337794948369264602661132812
-0.1822569913636127580947032811309327371418476104736328125
-0.1941946831549786756099251761042978614568710327148437500
-0.3576301580470993557447911825875053182244300842285156250
-0.0471955681230614709775750270637217909097671508789062500
0.1036874140808657640544510059044114314019680023193359375
0.2805357738474538731310303774080239236354827880859375000
0.1768940869654592185078456623159581795334815979003906250
-0.1724908924486620309668438721928396262228488922119140625
0.3171517988640674690081766584626166149973869323730468750
-0.0246113436827521819827424565119144972413778305053710938
0.0021306392089615001569913310675019602058455348014831543
-0.0079091418843206841293724806973841623403131961822509766
0.0104754929437904237277123797866806853562593460083007812
0.3315322127590147327502734242443693801760673522949218750
-0.2260702513600425234141511054986040107905864715576171875
-0.2532293514966738601223994464817224070429801940917968750
0.1942136299489260475858998233888996765017509460449218750
0.1414758866385316393721183203524560667574405670166015625
0.3179802790703393222671024886949453502893447875976562500
-0.1645355066992673365167121346530620940029621124267578125
-0.4044201692211127907583545493253041058778762817382812500
0.3075434843386636307727144412638153880834579467773437500
-0.5883896583280560088624611125851515680551528930664062500
-0.3685620948943872376979413729713996872305870056152343750
-0.3055903595574652187316644358361372724175453186035156250
-0.2688564975319308048007371780840912833809852600097656250
0.7552976677184520815089285861176904290914535522460937500
-0.0253918040128837813051987382095830980688333511352539062
0.5123817548410077860054911980114411562681198120117187500
0.1818854852394948262706009245448512956500053405761718750
0.0847200308164081927753130685232463292777538299560546875
-0.3897858952100581308997107043978758156299591064453125000
0.4577120465240340774215610508690588176250457763671875000
0.2259378466874629731719892333785537630319595336914062500
0.3879164418802982239320442658936372026801109313964843750
0.4666065544215003968453459037846187129616737365722656250
-0.4040519541370388156842352600506274029612541198730468750
0.3392315071843783891303303335007512941956520080566406250
-0.3244961890657434566698213984636822715401649475097656250
-0.3426438914151929138185437295760493725538253784179687500
0.0882845631901553462572707076105871237814426422119140625
0.4072835486143489558408248285559238865971565246582031250
-0.2005793091484428802839801164736854843795299530029296875
-0.1548570035800001520875923688436159864068031311035156250
-0.2776816925674144842517421238881070166826248168945312500
0.4071305282715066420351490705797914415597915649414062500
-0.2324672401695481172012591741804499179124832153320312500
0.3873371785120802712754084495827555656433105468750000000
0.1696482437293814204970487935497658327221870422363281250
0.1483266727199610557352826845090021379292011260986328125
0.2643701358647437271720548324083210900425910949707031250
0.6297111102778055746753693711070809513330459594726562500
-0.2432831940035031226265971326938597485423088073730468750
-0.5147752285078976974830311519326642155647277832031250000
0.5639401338225427107175846686004661023616790771484375000
0.1756866394605990921995442022307543084025382995605468750
-0.0529455559463701611044861294885777169838547706604003906
-0.3612833581448566255822640869155293330550193786621093750
-0.0773257725527982525681736092337814625352621078491210938
-0.0656267161709598173535695764257980044931173324584960938
-0.3637506170911508629473019027500413358211517333984375000
-0.1470277739622858625967438683801447041332721710205078125
-0.2001541230950487360029654837489943020045757293701171875
0.4514172589650769507052530116197885945439338684082031250
-0.1789593419712689481571032956708222627639770507812500000
-0.0581772765547723808010616153296723496168851852416992188
-0.2437958756549003791480600966679048724472522735595703125
-0.3067660405902186138149545513442717492580413818359375000
-0.3091091099675851161521222820738330483436584472656250000
-0.1762200793653317942855096589482855051755905151367187500
0.2472871938915081890808522757652099244296550750732421875
0.1778308282882385404910507986642187461256980895996093750
0.3211468823099405955900920162093825638294219970703125000
0.2590389578472811482612314648577012121677398681640625000
-0.0247372424093764732566658182122409925796091556549072266
0.1218739677453581221611145224414940457791090011596679688
0.0797783624556059056676105001315590925514698028564453125
0.4570182429308150551250378157419618219137191772460937500
0.0654275550002565015050848273858719039708375930786132812
-0.4219418609670846920245423916639992967247962951660156250
-0.4420296718822828152539727852854412049055099487304687500
-0.0302573326614812496138107178467180347070097923278808594
-0.5776027082950949687045749669778160750865936279296875000
-0.6131624721593104121453166044375393539667129516601562500
-0.5914498459003121322297147344215773046016693115234375000
-0.0634274724604406703321046734345145523548126220703125000
-0.2794787566309504533990093477768823504447937011718750000
0.5548411615087464054951738035015296190977096557617187500
-0.1141064381861796456218982598329603206366300582885742188
0.2174306284393416333067250434396555647253990173339843750
0.3566647940586734621959408286784309893846511840820312500
0.1096742516251805604765579005288600455969572067260742188
-0.1249351372803038789927043694660824257880449295043945312
-0.4738807562902523917713892842584755271673202514648437500
0.1179323882451766419832139831669337581843137741088867188
-0.3698162333592316386443599185440689325332641601562500000
-0.1561579285685960605256639155413722619414329528808593750
0.2683046854494721689121661256649531424045562744140625000
0.2075877020037975584365597114810952916741371154785156250
0.4525287140387783679784661217126995325088500976562500000
0.3319749459940826707970984443818451836705207824707031250
0.4571602304276967121410280014970339834690093994140625000
-0.2581229165393950641949061264313058927655220031738281250
-0.2430059359756420733766901776107260957360267639160156250
0.1426686168723537151414859636133769527077674865722656250
0.1576471891578575812431495251075830310583114624023437500
-0.4141050065599866658594407908822176977992057800292968750
0.1164913991647554963870803135250753257423639297485351562
0.0675311742958250998958291688722965773195028305053710938
-0.2573293002649733041131696609227219596505165100097656250
-0.1028089013002157214859977329979301430284976959228515625
-0.2173740646348558680500673290225677192211151123046875000
-0.3015016978911134737373345160449389368295669555664062500
0.2703946306430144996824083136743865907192230224609375000
0.4791328704415285799633750229986617341637611389160156250
-0.2958094335680022668455535495013464242219924926757812500
-0.5582783808638247524669395716045983135700225830078125000
0.1258984085655460993802279290321166627109050750732421875
-0.2764395591509822835973864130210131406784057617187500000
0.3805307864052859256887018091219943016767501831054687500
0.5005691032405177320896427772822789847850799560546875000
-0.2448147599325770917833011708353296853601932525634765625
0.2478804284309970573652037728606956079602241516113281250
-0.2467433062145668876130599755924777127802371978759765625
-0.2853711254056466306572303892608033493161201477050781250
0.0013987006026057709554000219043246033834293484687805176
-0.2294373050732161911646755925175966694951057434082031250
-0.1154331701047847519303601870888087432831525802612304688
-0.1217770996469272198892142000659077893942594528198242188
0.0253749730226694551749044848065750556997954845428466797
0.3572230065103911833546135312644764780998229980468750000
0.5529057038391350653583344865182880312204360961914062500
-0.3020633566576650386181768226379062980413436889648437500
0.0991931088963498436283927617296285461634397506713867188
0.1206444414831083777883691254828590899705886840820312500
0.3652020767150353508512239386618603020906448364257812500
-0.1707659107097226069971185324902762658894062042236328125
0.4331209323959945289850281824328703805804252624511718750
-0.0109714157504382549268573399103843257762491703033447266
0.3145763600302449169987539789872244000434875488281250000
-0.2240991515526737920538380421930924057960510253906250000
0.4872351854191805942129178674804279580712318420410156250
-0.4436389674945953043305735263857059180736541748046875000
0.3387285479835767665335310994123574346303939819335937500
0.0846592979757115060568395392692764289677143096923828125
-0.4756149603352222698937623590609291568398475646972656250
-0.4801671592622237527692163894244004040956497192382812500
0.4170110113390007589018182443396653980016708374023437500
0.2625609860623100977328192584536736831068992614746093750
0.0021860702082387981938504939449785524629987776279449463
0.3559133292761473277288075678370660170912742614746093750
0.3537510783921861690082266704848734661936759948730468750
0.0023816140763872738900230885406017478089779615402221680
-0.1404722875398006776137549422855954617261886596679687500
0.3885099781940016261394532648409949615597724914550781250
-0.0272525056873552523617476595063635613769292831420898438
-0.7100033957295740494330971159797627478837966918945312500
0.4963571291051005474059820699039846658706665039062500000
-0.4335658538462379141265046200715005397796630859375000000
0.3527755337587907269458753489743685349822044372558593750
0.2156987425779831324401669689905247651040554046630859375
0.2389745491186579529063749305350938811898231506347656250
0.0223240200879508132736361858405871316790580749511718750
-0.1414647027932104395020473930344451218843460083007812500
0.0910190756697633746030717816211108583956956863403320312
0.4760043608748215082648869156400905922055244445800781250
-0.4423323671285430691568762995302677154541015625000000000
0.0119940097987517504257715117432780971284955739974975586
-0.1628299333801073445204821155130048282444477081298828125
0.1462999446448138285425955018581589683890342712402343750
0.4747028668617309654642610894370591267943382263183593750
-0.3820441655779655554248108728643273934721946716308593750
-0.0649201792140998712454802443971857428550720214843750000
-0.4009705461253559866108275855367537587881088256835937500
0.1918639267146028948296532234962796792387962341308593750
-0.3211748695209879489453896894701756536960601806640625000
0.5647831278226792539598477560502942651510238647460937500
-0.4545131272848572101530351119436090812087059020996093750
-0.4273605075736717218148896790808066725730895996093750000
-0.3098158814529071158894169002451235428452491760253906250
-0.1196239892646542846144086524873273447155952453613281250
-0.0265934332175283838495261079515330493450164794921875000
0.3629666262335796145244160015863599255681037902832031250
0.6169599347367872299585656037379521876573562622070312500
0.3442789519397417286050711027201032266020774841308593750
0.2905324332096950179504801781149581074714660644531250000
0.2824621743347442981431072439590934664011001586914062500
-0.3961865848581893057023251003556651994585990905761718750
-0.2948308957991303547174766208627261221408843994140625000
0.1061448977111239255766150790805113501846790313720703125
0.2623381447656413234525984989886637777090072631835937500
-0.1391329853967835095129856881612795405089855194091796875
0.2788430773651354721565098770952317863702774047851562500
-0.2197378846601317214926041287981206551194190979003906250
0.1974423553446993384596908072126097977161407470703125000
-0.0823183791495779304536739573450176976621150970458984375
0.5682511908147824808423820286407135426998138427734375000
0.2855569838983700314827274269191548228263854980468750000
0.2531446390923337563805262107052840292453765869140625000
-0.2911229362346728355426250800519483163952827453613281250
-0.2655463485629737108162373715458670631051063537597656250
-0.0776426161461550301545742058806354179978370666503906250
0.0483026559454778001145847099451202666386961936950683594
-0.0000874292282103108706059479970917891478165984153747559
-0.5888955476167654357055880609550513327121734619140625000
0.0266859854435143317719081323957652784883975982666015625
0.3748652519841618180329589904431486502289772033691406250
0.3246022763182138115567454406118486076593399047851562500
0.4482120047100162096853637194726616144180297851562500000
-0.5407742137394454529086829097650479525327682495117187500
0.3245182103319123601004037027450976893305778503417968750
-0.0960775374979029594957324889037408865988254547119140625
-0.2033671201285003338199430800159461796283721923828125000
-0.4364717997200753263342676291358657181262969970703125000
-0.2066559077230026575389132403870462439954280853271484375
0.1242185406964392835327259945188416168093681335449218750
0.1523618763730679448453741997582255862653255462646484375
-0.3153138737222428988893341283983318135142326354980468750
-0.3512376776815463452763310669979546219110488891601562500
-0.0569014050999586198931190494931797729805111885070800781
-0.2552395123601415294345429174427408725023269653320312500
-0.2912741346122708074872775796393398195505142211914062500
-0.2742866830565909852523986955930013209581375122070312500
0.1156538082924343235902142623672261834144592285156250000
-0.2512623838499068451568518867134116590023040771484375000
-0.1362042225653459781575804754538694396615028381347656250
-0.1912467369824427387836607294957502745091915130615234375
0.3331822869312461299351468824170297011733055114746093750
-0.2837860941981009132994984156539430841803550720214843750
0.4198001243421228267926892385730752721428871154785156250
0.0775187186012168405468969467619899660348892211914062500
-0.2784495440501693064305754887755028903484344482421875000
0.0311077931896721823767926196069311117753386497497558594
-0.0567224373047075097753477734840998891741037368774414062
-0.6619928001138740691899897683470044285058975219726562500
-0.0301732512779745581932289155702164862304925918579101562
0.5426356060547918858105731487739831209182739257812500000
0.3411927173728449558254283147107344120740890502929687500
0.1444226919020852040187463671827572397887706756591796875
0.3963779530939785522569707154616480693221092224121093750
0.0372602294406607359444905114287394098937511444091796875
-0.3242327639977258812997717996040591970086097717285156250
0.0884169055447904805866699007310671731829643249511718750
-0.2435040614396096203542185776313999667763710021972656250
0.1426019297199927482466819128603674471378326416015625000
0.2995619628337415352170580717938719317317008972167968750
0.2495797373013242947958900685989647172391414642333984375
-0.2974573269444623080381973068142542615532875061035156250
0.3775461811810321144378121971385553479194641113281250000
0.0902532095282389257295818651982699520885944366455078125
-0.2319042276635625565717191420844756066799163818359375000
0.4194028087466881715705824262840906158089637756347656250
0.0388126025842418093114716270974895451217889785766601562
0.0928042210366055997372569663639296777546405792236328125
0.0256095061001432207359318482531307381577789783477783203
-0.3883194942437088181819149212969932705163955688476562500
0.1314239642661586826566377794733853079378604888916015625
-0.4841045459517533955384749333461513742804527282714843750
0.0759784700634860699075545653613517060875892639160156250
-0.5018844861331583917518628368270583450794219970703125000
0.3545971802314683563039920954906847327947616577148437500
0.0061234396954567300169758325978364155162125825881958008
-0.2693347260132677445376714331359835341572761535644531250
-0.3892328569803054638676087506610201671719551086425781250
-0.4912838826196745389829345640464453026652336120605468750
-0.2444401465071011636531750355061376467347145080566406250
-0.1812239111730438445579949302555178292095661163330078125
-0.2763482173522672225018936842388939112424850463867187500
0.1473012619798888811484260941142565570771694183349609375
-0.3784610648840714963725417874229606240987777709960937500
0.1442457779715034527079353665612870827317237854003906250
0.4460909096755407143852778517612023279070854187011718750
0.4564374513201567840070538295549340546131134033203125000
0.4632972435859901150223549848305992782115936279296875000
-0.1475223911295582557290373415526119060814380645751953125
-0.3784151488690041809093145275255665183067321777343750000
-0.3766954987603493565373469209589529782533645629882812500
-0.1242257273628310371149652269195939879864454269409179688
0.0171746935503601996786393613092513987794518470764160156
0.0331292141575781629025954089229344390332698822021484375
-0.1530715245218503550717059624730609357357025146484375000
-0.4957782417549539411005810052301967516541481018066406250
-0.1438293068487662418331041180863394401967525482177734375
-0.3119760408909494353579816561250481754541397094726562500
0.8244242224016004039199856379127595573663711547851562500
0.3260129151696896099288380810321541503071784973144531250
-0.4054699710042628524320207361597567796707153320312500000
0.4846969892821341163724468970031011849641799926757812500
0.3395779068072728446026076198904775083065032958984375000
0.1782380489104323506577287616892135702073574066162109375
0.1751185385743827538362893392331898212432861328125000000
-0.0064942015428986043373837944159276958089321851730346680
0.2689245971264837553604820641339756548404693603515625000
-0.0638791094264763020804664961360685992985963821411132812
-0.5716291060816020008772397886787075549364089965820312500
0.4109600802836098076831206071801716461777687072753906250
0.1152470652292651998038763849763199687004089355468750000
-0.2474089201432347895348584643215872347354888916015625000
0.0244831068538561638647799156842665979638695716857910156
0.0516474820060609518534988637838978320360183715820312500
-0.3036523169044128001026194851874606683850288391113281250
-0.2999877898439958223697487937897676602005958557128906250
0.4491768437771230249033749259979231283068656921386718750
0.1765961736656606884121600842263433150947093963623046875
0.5475985609986995239495399800944142043590545654296875000
0.3998994481773187059658880571078043431043624877929687500
0.4458941948365802154796710965456441044807434082031250000
-0.3845718778141508642498536119092023000121116638183593750
-0.3583930584482382664113231385272229090332984924316406250
-0.0856391452555141097224833401924115605652332305908203125
-0.1075914595564242404179822187870740890502929687500000000
0.2384544378757582627770261751720681786537170410156250000
0.2300198897499706740532587900815997272729873657226562500
-0.2927378514598411030078750627581030130386352539062500000
-0.5152620886224035245959385065361857414245605468750000000
0.0308265028452819438153920117429152014665305614471435547
-0.2401138277456355551997546626807888969779014587402343750
-0.4574846106038794602000052691437304019927978515625000000
-0.2612896410735708330186355397017905488610267639160156250
-0.2095156030959394177770604983379598706960678100585937500
0.3348623308809287602016979690233711153268814086914062500
-0.0082948402857349317479629391414164274465292692184448242
-0.2464976844729054039628834971153992228209972381591796875
0.1991616842035165702018417732688249088823795318603515625
-0.3980125825454164933958622896170709282159805297851562500
0.0482910484822780539104769559344276785850524902343750000
0.3145984243387568990435454452381236478686332702636718750
-0.0990917534032116353870378588908351957798004150390625000
0.0079382909470032056442612145019666058942675590515136719
0.0025717557217458304232027277436145595856942236423492432
0.3133079532301903391555697453441098332405090332031250000
-0.4091740407314274907690787586034275591373443603515625000
-0.4916747218066278568571192408853676170110702514648437500
0.3602523448652269477676668429921846836805343627929687500
-0.4820954810655507238870143282838398590683937072753906250
0.1914407232670780334427007574049639515578746795654296875
-0.5436145909587950519892274314770475029945373535156250000
0.2867071622826027899044731839239830151200294494628906250
-0.0795171435046042596184179274132475256919860839843750000
0.1713271082749669438349826577905332669615745544433593750
-0.0259506966002173294905119860231934580951929092407226562
