nn
1,10,10,10,10,10,1
dIn
0
dIntern
,
dOut
,
normP
1.9500000000000075
normY
1.0
w
0.4854543930149529118445173025975236669182777404785156250
0.4237325695659502344803115647664526477456092834472656250
-0.1770718303786908420782708617480238899588584899902343750
-0.0527038649552634685946372883336152881383895874023437500
0.2887141039637759476477185671683400869369506835937500000
0.3478270626413836330570461541356053203344345092773437500
-0.0338032428055673878075637617257598321884870529174804688
0.4319021407890566988108105306309880688786506652832031250
0.4230364808675933785409029042057227343320846557617187500
0.1607059913091547220798105399808264337480068206787109375
0.1235536493364014082319002341137093026190996170043945312
0.0242825810772333144926804493479721713811159133911132812
0.5039062631626088917258243782271165400743484497070312500
-0.2125466695586964993580636473780032247304916381835937500
-0.2754248502941243348374200650141574442386627197265625000
0.4592491753128493670033094531390815973281860351562500000
-0.3107685975964068481047775094339158385992050170898437500
0.0546919827053084159351747928212716942653059959411621094
0.1708357202870686708529035513492999598383903503417968750
-0.2644606159813859269647196015284862369298934936523437500
0.3004830204331183640675817514420486986637115478515625000
-0.2012407774230665080672508793213637545704841613769531250
-0.0339828747361458766151898203133896458894014358520507812
0.3014050071226485605357936492509907111525535583496093750
-0.1817843927907650258823935018881456926465034484863281250
0.0013235028899054961364772919907295545272063463926315308
0.4492698367832293482315719757025362923741340637207031250
-0.0775712912450160774202601032811799086630344390869140625
-0.1963447912457131627750328561887727119028568267822265625
-0.1250751047245373115401889663189649581909179687500000000
0.0599208853754945661163056058740039588883519172668457031
-0.2692631924512700614116056385682895779609680175781250000
0.3506614650642148611758841525443131104111671447753906250
0.4206963850189092690712300282029900699853897094726562500
-0.1084147846178876856138018069941608700901269912719726562
-0.2189132940943543381706604122882708907127380371093750000
0.4286453225250190235406932970363413915038108825683593750
-0.2207156957260358320915827334829373285174369812011718750
-0.2868896068405975552373377013282151892781257629394531250
0.2700297836411974516934719758864957839250564575195312500
0.1966218467159536742450143265159567818045616149902343750
-0.2422766173662920796694209002453135326504707336425781250
0.0860003653679154850264509946100588422268629074096679688
0.4766105175262058124552311255683889612555503845214843750
-0.0374446399003547231165711650646699126809835433959960938
-0.1003014425031420464584641649707918986678123474121093750
-0.2986680217025179939760448633023770526051521301269531250
-0.3387249388449741216433608315128367394208908081054687500
-0.0126213811810350975961547703718679258599877357482910156
0.2645294623925726340551989324012538418173789978027343750
0.3102234836068212264770238562050508335232734680175781250
-0.4691930022286074919435350238927640020847320556640625000
0.2837987516182750580284732677682768553495407104492187500
-0.4618929848830592432840091987600317224860191345214843750
0.2877882971192755046097033755359007045626640319824218750
-0.4806418362152882761684224988130154088139533996582031250
-0.4174652242458430917437794960278552025556564331054687500
-0.3544815102458064304258300580841023474931716918945312500
0.4842235614489719952580060180480359122157096862792968750
-0.1339645202586603744965287887680460698902606964111328125
0.4339211177284309495227887509827269241213798522949218750
0.0103773272562459432932779890279562096111476421356201172
-0.1221243699812221833456149511221155989915132522583007812
-0.2792853014805715128332508356834296137094497680664062500
-0.1517466469836695752704258666199166327714920043945312500
0.3660903013164482633357010854524560272693634033203125000
0.4137370425575033205944919245666824281215667724609375000
0.4718445954588829649445358427328756079077720642089843750
-0.4780794094264162463758793819579295814037322998046875000
-0.4243516609119811211492390157218324020504951477050781250
0.4665762288916320277287752560368971899151802062988281250
0.4149100655882021482234733866789611056447029113769531250
-0.3354313444461296533916083717485889792442321777343750000
-0.2601772556223598265034979704068973660469055175781250000
-0.1534077000057680606470711381916771642863750457763671875
-0.3421142325644705994847072361153550446033477783203125000
0.3921624268749264174971358443144708871841430664062500000
-0.2188152641933269193508238004142185673117637634277343750
-0.4631869250441436047793786201509647071361541748046875000
-0.1995497794315559403344195743557065725326538085937500000
-0.4832309285319419389637118911196012049913406372070312500
0.0668311933736094321290011066594161093235015869140625000
0.3064090089858451104731784653267823159694671630859375000
0.4535935775965311278490332824731012806296348571777343750
0.2873369547057818551571983789472142234444618225097656250
-0.4377700892686897660155409539584070444107055664062500000
-0.4068121237357960606750850729440571740269660949707031250
0.3751478880721612618742710765218362212181091308593750000
0.2401176829076876184654310009136679582297801971435546875
-0.2380010120653695548931239045487018302083015441894531250
0.4905350639330004480775926367641659453511238098144531250
0.4012434740570993141339783960575005039572715759277343750
-0.2040953633517204601766081850655609741806983947753906250
0.4792174672481606667595599446940468624234199523925781250
-0.1063491790148232696289198884187499061226844787597656250
0.3622344865925793411243205355276586487889289855957031250
0.0751766250176011952000010296615073457360267639160156250
0.3802233273544940450605622572766151279211044311523437500
0.3272252122787228656441982366231968626379966735839843750
0.2392661115577917052554823840182507410645484924316406250
0.2687478544597270424532098331837914884090423583984375000
-0.2131639671495207666307436511488049291074275970458984375
-0.2757993051122920591389231503853807225823402404785156250
0.3815748088979334373682661407656269147992134094238281250
-0.0847043016313221708291081313291215337812900543212890625
0.2497604224563243213719232471703435294330120086669921875
-0.1957827762776627456009492789235082454979419708251953125
-0.4920693259824158172222041685017757117748260498046875000
0.4113100937812839141827225830638781189918518066406250000
-0.0426351837044985429447940816771733807399868965148925781
-0.4405975878959332292517103724094340577721595764160156250
-0.3608346649053106869331486450391821563243865966796875000
-0.1974569708236223741781856233501457609236240386962890625
0.4590210196802864128784449349041096866130828857421875000
0.3174006666137947907380123524490045383572578430175781250
0.1220118706284230719605332637911487836390733718872070312
-0.1731223014643657742706039925906225107610225677490234375
0.4124543032140947640407091512315673753619194030761718750
0.0292875328775147256155086950002441881224513053894042969
0.3488447820585124925507614079833729192614555358886718750
-0.0684250747633825262550288925922359339892864227294921875
-0.4346626061122503270617301041056634858250617980957031250
0.0325180016908275457132582175745483255013823509216308594
0.1754654863041317514049666215214529074728488922119140625
-0.1027576127796425708993410808034241199493408203125000000
-0.4151244544441409778379181716445600613951683044433593750
-0.1391380250769380100273053812998114153742790222167968750
-0.3637179890848083463339435184025205671787261962890625000
0.3409797319793088643535838855314068496227264404296875000
0.0469781993763866839719511858675105031579732894897460938
0.0559668995651426484649881842869945103302597999572753906
0.3917571544206779887709046761301578953862190246582031250
0.5215491089689180403965451660042162984609603881835937500
-0.2190233610192257596160914090432925149798393249511718750
-0.0448443310696781810564814918507181573659181594848632812
-0.2981400011338217193035404761758400127291679382324218750
-0.2819382093187131066436279525078134611248970031738281250
0.5634365618334219449891975273203570395708084106445312500
-0.2794326659184940830904508857202017679810523986816406250
-0.3592485005223271521401784411864355206489562988281250000
0.1533312569224345167651080146242748014628887176513671875
0.1611809394133571216034539475003839470446109771728515625
0.3213879339092939324551423396769678220152854919433593750
0.0801450306180739729944306759534811135381460189819335938
0.0542943528398293004388897031731175957247614860534667969
-0.3738977830489579323725024551094975322484970092773437500
0.1794738914191560952282600283069768920540809631347656250
-0.1446095135950029031413066604727646335959434509277343750
-0.0790012367883040217408918692854058463126420974731445312
0.2300704880813621566737481316522462293505668640136718750
0.1485090267380371753525025724229635670781135559082031250
0.2667654487966674703436353865981800481677055358886718750
0.0250534415730666211452604130727195297367870807647705078
0.4356969554768249652809686267573852092027664184570312500
-0.0531097354027189050285073790291789919137954711914062500
-0.3949350704434369530027026939933421090245246887207031250
0.4422536496145335616070326523185940459370613098144531250
0.1888444209271840368291606182538089342415332794189453125
-0.0431271550728054703371938671807583887130022048950195312
-0.4357383022403298333813381759682670235633850097656250000
0.1240035188196373372448988448013551533222198486328125000
-0.4352148365012074582303114311798708513379096984863281250
0.0649939828782660766748335845477413386106491088867187500
-0.3155696376342311260110307102877413854002952575683593750
0.2846142216837974636689523322274908423423767089843750000
0.4543650633147821582547010166308609768748283386230468750
0.5096460515986318551284739442053250968456268310546875000
0.2974543798194592136852065777929965406656265258789062500
-0.2697611690752657054304108896758407354354858398437500000
0.4337199729691836314060537915793247520923614501953125000
-0.3015979024439939815138700396346393972635269165039062500
0.1642780607477771492863638513881596736609935760498046875
-0.1668696030911409611263707120087929069995880126953125000
-0.0379485662034005008513837253758538281545042991638183594
0.3591014066776630486721444412978598847985267639160156250
0.1433971709829774676681068967809551395475864410400390625
-0.3507605190599619726654623264039400964975357055664062500
-0.4938690377374373996488543525629211217164993286132812500
-0.4597125345101122917412794777192175388336181640625000000
-0.2543640044969874280944566180551191791892051696777343750
-0.4720043150073607862715618921356508508324623107910156250
0.2386280628111206447705683331150794401764869689941406250
-0.2266460950320794698331638983290758915245532989501953125
-0.1353560495270093033681746419460978358983993530273437500
0.3037365855127599489904355323233176022768020629882812500
-0.0237854705008854333536660874415247235447168350219726562
0.2792511354094840414497014080552617087960243225097656250
-0.3875358207960092893351600196183426305651664733886718750
0.1030602096920158194937044981998042203485965728759765625
-0.1597136066029320733417051769720274023711681365966796875
-0.1457344727950158902451960329926805570721626281738281250
-0.5028640411131799492494565129163675010204315185546875000
-0.3513739500214892452767401209712261334061622619628906250
-0.0201600974839787755454878492855641525238752365112304688
-0.0088372868372242341372668761323438957333564758300781250
0.0319994280393515878602173074796155560761690139770507812
0.0788697806732069350843516986060421913862228393554687500
0.2300728262445295990712423872537328861653804779052734375
-0.0639856256620965901937836406432325020432472229003906250
0.0657037588888977203138708205187867861241102218627929688
0.0111914570817511493938667399561381898820400238037109375
0.0209407671578033319215172980420902604237198829650878906
-0.4799559362169854015434111715876497328281402587890625000
0.0982065435426889843384401501680258661508560180664062500
0.2395625853528982052154105986119247972965240478515625000
-0.0686146232255539778588371291334624402225017547607421875
-0.0769718255060189149308058631504536606371402740478515625
-0.0209728886189113408744510991255083354189991950988769531
0.4352141283460166931718049454502761363983154296875000000
-0.0608316747780705407988577348987746518105268478393554688
0.0097943373270867623708868521248405158985406160354614258
-0.2044075996306503051336278531380230560898780822753906250
-0.0770164829623335989161603265529265627264976501464843750
0.1283329734451824633012506637896876782178878784179687500
-0.3266135094425365870129951417766278609633445739746093750
0.0299270674376503099944901720164125435985624790191650391
-0.2605793453765767875296432976028881967067718505859375000
-0.4661713345280147913207713372685248032212257385253906250
-0.0146935141361338502535849315222549194004386663436889648
-0.1546633961130578216458530960153439082205295562744140625
-0.0407703237159287093516191191611142130568623542785644531
-0.1631379174131523113189246032561641186475753784179687500
0.0863401637891241108269113624373858328908681869506835938
0.1498995893953191105296696150617208331823348999023437500
0.4280302391132619344027432362054241821169853210449218750
0.4839621604562739931587600494822254404425621032714843750
0.3984012686632798505570463021285831928253173828125000000
-0.1577623460449379955150561727350577712059020996093750000
-0.4610544605450647703825950429745716974139213562011718750
0.1554345930749342907795096380141330882906913757324218750
-0.4327885121296731751883157812699209898710250854492187500
0.3095649369620400159774931125866714864969253540039062500
-0.0884703603956610434844165524737036321312189102172851562
0.2267518204351144650576799222108093090355396270751953125
0.4715829489961310683199258164677303284406661987304687500
0.2952800603615644559063468932436080649495124816894531250
-0.3981185613156102420795434682077029719948768615722656250
-0.0360456847385691725449419209326151758432388305664062500
-0.0989308824854017720973331506684189662337303161621093750
-0.3687766879867411251581188480486162006855010986328125000
-0.1577956362851621607834573524087318219244480133056640625
0.0886600507536028370481062665930949151515960693359375000
0.1797925660870329789275956500205211341381072998046875000
0.1038497747823762251684343027591239660978317260742187500
-0.0483650816117541237915133933711331337690353393554687500
0.2159291597767309112132494419711292721331119537353515625
-0.0506842860914210255329770404841838171705603599548339844
0.0028032576285892357552398390652115267585031688213348389
0.3490863266864381864174049496796214953064918518066406250
0.0941505523514052644618033127699163742363452911376953125
-0.1419652835837240112404344927199417725205421447753906250
0.2837296651457940077634134468098636716604232788085937500
0.2116745543169364918156816202099435031414031982421875000
0.0706910272554428231739365173780242912471294403076171875
0.0352764808598895127089711820644879480823874473571777344
0.0717642988727902747525533300176903139799833297729492188
0.4076059265107891960155939159449189901351928710937500000
0.3259163218717132659563162633276078850030899047851562500
0.2598688560634889177514139646518742665648460388183593750
0.1178255897500186666349009101395495235919952392578125000
0.2399833956699002346368843063828535377979278564453125000
0.0039614340394659459249071531417030200827866792678833008
0.3841690683719112264782324928091838955879211425781250000
0.4035826283758488508546236062102252617478370666503906250
-0.4686507842526472233934953237621812149882316589355468750
-0.2038245159026980668492967652127845212817192077636718750
0.4607596234870530715888037320837611332535743713378906250
-0.3760517963423962162217151217191712930798530578613281250
-0.2474239324235861237077926944039063528180122375488281250
0.1138622796988529167760972882206260692328214645385742188
0.0819008257348703833100600490979559253901243209838867188
0.4090870665618449031342152011347934603691101074218750000
-0.4785503773873893695878223297768272459506988525390625000
0.3363468315486018989091121511592064052820205688476562500
-0.2785001336720378528610808643861673772335052490234375000
-0.0086535670387414744680887324079776590224355459213256836
0.2340487627437374262839853145123925060033798217773437500
-0.4669561184867124237207747228239895775914192199707031250
0.4794517353898426481606520610512234270572662353515625000
0.0901517991089680059690891766877030022442340850830078125
0.0774714626496725844440049968397943302989006042480468750
0.1173377128261121893348928324485314078629016876220703125
0.3112384811322445044012852122250478714704513549804687500
-0.3322691034199357629219662157993298023939132690429687500
-0.0627104158023333857485681619436945766210556030273437500
0.2865958576986327721591862882632995024323463439941406250
0.2854223921270321873144837354629999026656150817871093750
-0.2897478195295921654661697175470180809497833251953125000
-0.1625534121872965198640770267957122996449470520019531250
-0.3118867707684579437810157287458423525094985961914062500
0.4429941225887767952684725969447754323482513427734375000
0.1414832758075310614742647885577753186225891113281250000
-0.4856912981783771399157956238923361524939537048339843750
0.3398055410345090510126908611709950491786003112792968750
0.4302039233664242123822418761847075074911117553710937500
-0.4532006457021416356845122663798974826931953430175781250
-0.1979090035090342036827593119596713222563266754150390625
-0.0688741863712003382635984394255501683801412582397460938
-0.2744446541425555885496123664779588580131530761718750000
0.2635919281531135527352205372153548523783683776855468750
0.3599375822037140237874552894936641678214073181152343750
-0.3017222743334251333635620540007948875427246093750000000
0.4140073601802329306131866815121611580252647399902343750
0.2709325917780822656766304135089740157127380371093750000
-0.1282743967031131915312869296030839905142784118652343750
0.1291234385490628577830563017414533533155918121337890625
0.3689914322305138938418167526833713054656982421875000000
-0.4273304736886803234519049965456360951066017150878906250
-0.4426855903749307707961690994125092402100563049316406250
0.1980754590322925112744201214809436351060867309570312500
0.1956850484319114236164693920727586373686790466308593750
-0.3615701881540235862466659000347135588526725769042968750
0.4143582427340471441290503662457922473549842834472656250
-0.4199814756674339899511494422768009826540946960449218750
-0.2882143356430776348631184191617649048566818237304687500
0.1445232573140611265216648462228477001190185546875000000
0.3775711954711100659665135026443749666213989257812500000
-0.3562954235727161522717665320669766515493392944335937500
-0.1777452513855560523037269149426720105111598968505859375
0.1435008163873902342633215312162064947187900543212890625
0.3391951481968925596888198015221860259771347045898437500
-0.0498841730257376589352524831610935507342219352722167969
-0.2802348539575694741365907702856929972767829895019531250
0.1894003566326487031368230873340507969260215759277343750
0.3808698352481804105806872939865570515394210815429687500
0.1399513267308274966360670532594667747616767883300781250
0.3447068794603043162538824617513455450534820556640625000
-0.0577433878748400686298225537029793485999107360839843750
-0.4309526696008963986272988222481217235326766967773437500
0.0742329358097889441259198406442010309547185897827148438
-0.4068436000346090652968200629402417689561843872070312500
0.1287304475722713670293728682736400514841079711914062500
0.1922309230051618411660996343925944529473781585693359375
-0.1114202654758395111267432753265893552452325820922851562
-0.5181949508065741838436224497854709625244140625000000000
0.2288973456252711702330060461463290266692638397216796875
0.3480873581456492282804049409605795517563819885253906250
-0.2783621738936683520648784906370565295219421386718750000
0.0157526151502517322566809809814003529027104377746582031
-0.3914312098828308106313045300339581444859504699707031250
0.2178361754256049331868183571714325807988643646240234375
-0.3255515217573362596326091988885309547185897827148437500
0.2873053329498465036095922187087126076221466064453125000
-0.4746102601411973931355703371082199737429618835449218750
0.3380293180119862683774556444404879584908485412597656250
-0.0854406056534303681715414313657674938440322875976562500
-0.0297454879956856495237804693942962330766022205352783203
0.0821842815298514245414551737667352426797151565551757812
-0.2128444846651763588951666861248668283224105834960937500
0.4736324339975247488254694872011896222829818725585937500
0.0146609572390781015688299149246631714049726724624633789
-0.1124560963583527833931086092889017891138792037963867188
0.0577323391212611197742532453958119731396436691284179688
0.4281741349037660460119525396294193342328071594238281250
0.0555432012509537373357026979192596627399325370788574219
-0.2602631593512484964314523949724389240145683288574218750
0.3487637167676818084061096669756807386875152587890625000
0.4083705519931354332996420453127939254045486450195312500
0.1008223400922820811587143907672725617885589599609375000
0.4303797711716672025339391893794527277350425720214843750
-0.1949479779618942532071201867438503541052341461181640625
0.1731620687236591349389414062898140400648117065429687500
-0.0795031446490234022794751922447176184505224227905273438
-0.1269294851295438564253714730512001551687717437744140625
0.2716778432875368576304708767565898597240447998046875000
-0.1096297989239676667905243334644183050841093063354492188
-0.4435620647777082092844125327246729284524917602539062500
0.1048470753103265817873790410885703749954700469970703125
-0.3538128556968232474311264468269655480980873107910156250
-0.4848702907277996909662931557249976322054862976074218750
0.0052016607971308356089812363620694668497890233993530273
-0.5123735950249733717143385547387879341840744018554687500
0.0232102616111789228359185699446243233978748321533203125
0.1379569254563729197027299733235849998891353607177734375
0.2284245297079857406341574233010760508477687835693359375
0.0839926574414745358287959220433549489825963973999023438
0.4771017444084157399508683283784193918108940124511718750
-0.2748992875018779202811458617361495271325111389160156250
-0.3692375140343662209829744824673980474472045898437500000
-0.0347694926667620335392072661306883674114942550659179688
-0.1014998447647349893996349123881373088806867599487304688
0.1593496693579778133997848499348037876188755035400390625
0.3324995398810116631338473780488129705190658569335937500
0.1817370849857220249656819532901863567531108856201171875
0.0837666605157345867116447379885357804596424102783203125
-0.2319740707930598444530545521047315560281276702880859375
0.2691916957607996541135264578770147636532783508300781250
0.2299285553540335313993381305408547632396221160888671875
0.0723287839777408819719184407404100056737661361694335938
-0.2421021035780089314393137556180590763688087463378906250
0.2090721246119554010967078738758573308587074279785156250
0.2772152037411191871640880890481639653444290161132812500
0.4387383017042494892656634419836336746811866760253906250
0.3141935500612700327138782085967250168323516845703125000
-0.3612117975400040426059433684713440015912055969238281250
-0.0504281683726488030861112576985760824754834175109863281
-0.2346315239643259609181313862791284918785095214843750000
-0.2380760175346960938469464963418431580066680908203125000
0.3168918577024167904099272163875866681337356567382812500
-0.2906232363256404660489806701662018895149230957031250000
0.1525956990486066477963333909428911283612251281738281250
-0.2572159905365565824020279706019209697842597961425781250
0.2840252809854059146132954083441291004419326782226562500
0.2102661941849546245464352978160604834556579589843750000
-0.2678864102724957674261929696513107046484947204589843750
-0.2468503574096939101600867161323549225926399230957031250
-0.0904636862335623653796901066925784107297658920288085938
-0.4026399711742943421377560753171565011143684387207031250
-0.4024010250526044996099983563908608630299568176269531250
-0.3765749956585573987588588806829648092389106750488281250
0.0720318583850104027233030024035542737692594528198242188
0.3619721247355615068030942893528845161199569702148437500
0.1172980117852318177051884617867472115904092788696289062
-0.2070430961582482853877706929779378697276115417480468750
-0.3376825391357535788294796930131269618868827819824218750
-0.3746128698023807879202706772048259153962135314941406250
0.2563833653481668028994988617341732606291770935058593750
0.0287248725648021445422397590618857066147029399871826172
0.1577760446222340184885268854486639611423015594482421875
-0.2486644748621066325355855042289476841688156127929687500
-0.0958427151766123724963009067323582712560892105102539062
-0.1058627768033554017446107309297076426446437835693359375
-0.1651552777203375843573240899786469526588916778564453125
0.2228340357948854211223022048216080293059349060058593750
-0.3043552341539378924828440631245030090212821960449218750
0.3179700674827368733765808883617864921689033508300781250
0.2902433329311793208660219534067437052726745605468750000
0.4898451396204077101792506709898589178919792175292968750
0.4193085598807458347359045092161977663636207580566406250
-0.1631987025878392227884461362918955273926258087158203125
0.3513818960604181973472748268250143155455589294433593750
0.3653506683443022429180757626454578712582588195800781250
-0.3200361268297371442059784385492093861103057861328125000
-0.0766286586186237655970998616794531699270009994506835938
-0.4925701588801190689004272371676051989197731018066406250
0.1633163920461973006581501977052539587020874023437500000
0.0816969580140151363512046600590110756456851959228515625
-0.2069225024536419099696615830907830968499183654785156250
-0.3326109204577307187911117125622695311903953552246093750
-0.4420523106721329087420713221945334225893020629882812500
0.1147802509135316811894611532807175535708665847778320312
-0.2532052970393270374671601530280895531177520751953125000
-0.4629155448036080811036185878037940710783004760742187500
-0.4287466491482461172779494518181309103965759277343750000
-0.0580821233649718229874459041184309171512722969055175781
-0.4915800374428984653718543995637446641921997070312500000
-0.4880725600230606531226840161252766847610473632812500000
0.1024510074475981635799826108268462121486663818359375000
-0.3990723033002969155624839459051145240664482116699218750
-0.0708267583832399294507808917842339724302291870117187500
0.1559673749042921331309230481565464287996292114257812500
-0.2797758284216442237202215892466483637690544128417968750
0.2107912767369214124268950172336190007627010345458984375
0.2899869095462624390968642273946898058056831359863281250
-0.1373599780607979159441356387105770409107208251953125000
-0.1522717982336279085586738801794126629829406738281250000
0.0424106503767165479712453191041277023032307624816894531
-0.1183781743088168914024294053888297639787197113037109375
0.3369191278265269429148531799000920727849006652832031250
-0.2738467676721334509437610904569737613201141357421875000
0.2204553322001141790753564464466762728989124298095703125
-0.5345662276567414439298886463802773505449295043945312500
-0.0629803119373603531583327708176511805504560470581054688
-0.3335708132048545992986987585027236491441726684570312500
0.2979667100857278372316727654833812266588211059570312500
-0.0559711542865046207673174194496823474764823913574218750
0.3309496287703858063977691017498727887868881225585937500
-0.3593839291954115666705149578774580731987953186035156250
0.2766794171468551777337552266544662415981292724609375000
0.3687651292230830768481553150195395573973655700683593750
0.1660191618443859207232549124455545097589492797851562500
