nn
1,10,10,10,10,10,1
dIn
0
dIntern
,
dOut
,
normP
1.9999999999999984
normY
1.0
w
-1.1893020531477755952209918177686631679534912109375000000
0.1942911492707253551248669509732280857861042022705078125
-0.0639339369584621813880076501845906022936105728149414062
0.1911265067401349271314359157258877530694007873535156250
-0.3326975553045768974058660205628257244825363159179687500
0.0602718377908435867795766682775138178840279579162597656
-0.1639805421718538713804491635528393089771270751953125000
0.8863093055943627174286802983260713517665863037109375000
-0.2866297612518975412854160822462290525436401367187500000
-1.2955059184560306917433081252966076135635375976562500000
-0.4647544060815625432958597684773849323391914367675781250
-0.1666863016234363947809526962373638525605201721191406250
0.0422389448186735183554674222250469028949737548828125000
0.1013409091179111737313078833722101990133523941040039062
0.3596342200579938919169364908157149329781532287597656250
0.2445535086252350054358828401745995506644248962402343750
-0.0290721829529945324788187122067029122263193130493164062
0.5526560101401709612645163360866717994213104248046875000
-0.2647301866370155853935841605562018230557441711425781250
-0.4553334126068731557701596557308221235871315002441406250
-0.4576485080178420705721009653643704950809478759765625000
-0.3245197327259796704623795449151657521724700927734375000
-0.0329082772799798514706814955843583447858691215515136719
-0.5640601616444751442713823053054511547088623046875000000
0.2676533737032101845088050140475388616323471069335937500
0.2799823538955952262341497771558351814746856689453125000
0.9706527754135647612088177993427962064743041992187500000
-0.2460052735320098493687623886216897517442703247070312500
0.6848358465762912627994296599354129284620285034179687500
0.0952491414193477742289317689028393942862749099731445312
0.2672218181983410101310028039733879268169403076171875000
0.3570631614361785555189499063999392092227935791015625000
-0.3316555343017463242105691278993617743253707885742187500
-0.4708811280493609419117717607150552794337272644042968750
-0.4429585114084099717324249922967283055186271667480468750
-0.5000623889919447728757972981838975101709365844726562500
-0.3067479635381377134351055246952455490827560424804687500
-0.0328201599295197751771091532191348960623145103454589844
-0.4605116772349401310648886465060058981180191040039062500
0.1422338774406506356484669595374725759029388427734375000
0.2498126804506795306526356625909102149307727813720703125
0.1824239522717792938433234439798980019986629486083984375
-0.4750089803906343832728964571288088336586952209472656250
-0.1914586072764633828402480730801471509039402008056640625
-0.3812118087250607190163975701580056920647621154785156250
-0.1322192273762783643054063986710389144718647003173828125
0.1519336436446408478140313036419684067368507385253906250
0.4484808174457186602523961482802405953407287597656250000
0.2490799363370912178350380372648942284286022186279296875
-0.2468434114264984602371555411082226783037185668945312500
0.3795879049210541533732055086147738620638847351074218750
-0.1446627907297600434954887305138981901109218597412109375
0.2374950393509019930249337448913138359785079956054687500
-0.1892481463977416233923634081293130293488502502441406250
-0.1878044863413127485429754415235947817564010620117187500
0.3639240273918055157409412458946462720632553100585937500
0.3046000022523551176156786368665052577853202819824218750
0.1626460887084655859702309044223511591553688049316406250
-0.3548345099190904905483989750791806727647781372070312500
0.1387904278848339501006847740427474491298198699951171875
-0.0541055731175137527566576522985997144132852554321289062
-0.0353666160029517256946363090719387400895357131958007812
-0.4813569643760272076526973705767886713147163391113281250
-0.2363516792097383745208105665369657799601554870605468750
0.3066463751038210894250823912443593144416809082031250000
0.0396768311846224311367770098968321690335869789123535156
0.2055512282266871715297185119197820313274860382080078125
-0.2519942922710669552799345183302648365497589111328125000
-0.2964209409380828552649234097771113738417625427246093750
0.2305985868913865421969688895842409692704677581787109375
-0.2725268647567045121604678570292890071868896484375000000
-0.2464093485444018571950408613702165894210338592529296875
-0.3708687335734996426417353632132289931178092956542968750
0.2457480020567844036794014073166181333363056182861328125
0.4631014178854803153839725382567849010229110717773437500
0.4956698932138796087620846719801193103194236755371093750
0.3007651212954829400558764973538927733898162841796875000
-0.3568509956687752060489060568215791136026382446289062500
-0.4330401909401629945151057654584292322397232055664062500
0.2743017878989792990296336938627064228057861328125000000
0.1675286664318291207642630524787819012999534606933593750
0.0421661151307809595190079221538326237350702285766601562
-0.3105657204033103191420650546206161379814147949218750000
0.1189413342588899052953976820390380453318357467651367188
0.4337964899378407013230685151938814669847488403320312500
-0.3765683299558830188225044821592746302485466003417968750
0.2706449497852285168697505923773860558867454528808593750
-0.1727486443501764501462503176298923790454864501953125000
0.0043006927624533635226566907761025504441931843757629395
-0.1571571829939192033176453833220875822007656097412109375
-0.2386343709373836274867386464393348433077335357666015625
0.4039829998730466442680153704714030027389526367187500000
0.1216732824706957122318229380653065163642168045043945312
0.6426581003693163651746544928755611181259155273437500000
0.1620385180862023155601292501160060055553913116455078125
-0.4044120002917727663138691696076421067118644714355468750
-0.4597285958519057857962764046533266082406044006347656250
0.4882255112625679127624778175231767818331718444824218750
-0.7557964944244262017747360005159862339496612548828125000
-0.1591823280606151913563195421374985016882419586181640625
-0.2208747260196591566394630490322015248239040374755859375
-0.2381437753231954723709407062415266409516334533691406250
0.3294135314952361670570724072604207322001457214355468750
0.3648615291625023071553357567609054967761039733886718750
-0.0047599557642782775596090871772503305692225694656372070
-0.0364857904764444365697251271285495022311806678771972656
-0.2549097509133720351748308985406765714287757873535156250
-0.5186763635527145144266114584752358496189117431640625000
0.6538099693639042309101228056533727794885635375976562500
0.1255692077227006375750306688132695853710174560546875000
0.0534447827582430756709896968459361232817173004150390625
-0.1420504426720423929442205235318397171795368194580078125
0.2279886887954496454966601959313265979290008544921875000
-0.3941190010759978989973717489192495122551918029785156250
-0.3946554169953457869013391245971433818340301513671875000
0.2136881656713452148910192818220821209251880645751953125
0.9700649938456389342888996907277032732963562011718750000
0.2481740647844162817037272361631039530038833618164062500
0.9299655769609953548382463850430212914943695068359375000
0.2826312213602285572378036704321857541799545288085937500
0.0471083541488174217803930332593154162168502807617187500
-0.3152754903106668171730575522815342992544174194335937500
-0.1792939126324592236105814890834153629839420318603515625
-0.1481563520314257420551484756288118660449981689453125000
0.2791986415108122510098098700836999341845512390136718750
0.4200208915993700053981285691406810656189918518066406250
0.0159405146484405887963298198428674368187785148620605469
0.2462858973234949289121686888393014669418334960937500000
-0.1046150026812575489776335757596825715154409408569335938
0.3536574628356300431519798621593508869409561157226562500
0.0477254791685377197096862289527052780613303184509277344
0.3053081571793497817068896438286174088716506958007812500
-0.4348055535200662791162073972373036667704582214355468750
-0.0943723405672611259653592696849955245852470397949218750
0.0052342233313752151158126935115433298051357269287109375
-0.4717362383290862881679572637949604541063308715820312500
0.1356271326608568528193643487611552700400352478027343750
0.1434109494253106298344846436521038413047790527343750000
-0.3508347664994280190597919499850831925868988037109375000
0.1825897120792870920169548298872541636228561401367187500
-0.1415478512380987929919484713536803610622882843017578125
-0.0455870252390518163054800027111923554912209510803222656
-0.2986207033938841903797367649531224742531776428222656250
0.1335202055105677021451526798045961186289787292480468750
0.1557931019200350652997855149806127883493900299072265625
-0.5213278035258591680545237068145070225000381469726562500
-0.3259489628279904627206065015343483537435531616210937500
0.1377358356150793772254559144130325876176357269287109375
-0.5492915245603401386276232187810819596052169799804687500
-0.4707808580658820463149538682046113535761833190917968750
-0.3031028004039514334166938169801142066717147827148437500
0.3923089984499034121867566682340111583471298217773437500
-0.3605462533617282971931672364007681608200073242187500000
0.2797144396059073612192946711729746311902999877929687500
0.0802017194969016217198642948460474144667387008666992188
-0.3107528207738140535454363089229445904493331909179687500
-0.1235194515837656631385144123669306281954050064086914062
-0.2743450204471408193640513673017267137765884399414062500
0.0858594366312291773501996772210986819118261337280273438
0.0455501078873972176097595365718007087707519531250000000
-0.2267606459512837013825503618136281147599220275878906250
-0.2852995469753269452972688213776564225554466247558593750
-0.3557549410768636177770929407415678724646568298339843750
-0.2340524295182746516985616835881955921649932861328125000
-0.5965145479688312990518284095742274075746536254882812500
0.1833085078840824555523880690088844858109951019287109375
-0.0752732834998585398356141240583383478224277496337890625
0.2552598648420332239084018510766327381134033203125000000
-0.7058773680806877948157307400833815336227416992187500000
-0.2481899027346976815966428375759278424084186553955078125
0.3097350682781684350075579459371510893106460571289062500
0.2644523842484343689740455829451093450188636779785156250
-0.4537119299588593390737401023216079920530319213867187500
0.2060631943095705687074570278127794153988361358642578125
0.2789842082481398533033711828466039150953292846679687500
-0.3771118500461284606117828843707684427499771118164062500
0.4165274912658399331100156359752872958779335021972656250
-0.2460076809103336203943257487480877898633480072021484375
-0.3782786270369628001120076987717766314744949340820312500
-0.1879085213044576208041291920380899682641029357910156250
0.1240198736133619333843469689782068599015474319458007812
-0.0153948572563861740825075230532092973589897155761718750
-0.3728652011823446743576937478792387992143630981445312500
0.3349896615666640986574975613621063530445098876953125000
-0.0050818190073753950058987882698602334130555391311645508
-0.3200341990093503174996669713436858728528022766113281250
-0.2531887144251216414936322962603298947215080261230468750
-0.1431720378329000842310136931700981222093105316162109375
0.0253350258639666453541750001932086888700723648071289062
-0.2477887112756691490034199887304566800594329833984375000
0.0788244585765336680527326507217367179691791534423828125
0.0772590949952091377017637796598137356340885162353515625
-0.0804626472199994752232399264357809443026781082153320312
-0.2742259703819587279838287940947338938713073730468750000
0.6400363288168098296893049337086267769336700439453125000
0.2847250360037944516555796781176468357443809509277343750
-0.2078808835477841954197941731763421557843685150146484375
-0.2660956290386051747987039561849087476730346679687500000
0.8956128151074446153145913740445394068956375122070312500
-0.2814534031146095349740221536194439977407455444335937500
0.2639857756148567546894412316760281100869178771972656250
-0.3931938182958638061670342267461819574236869812011718750
-0.1720449999893011172602541591913904994726181030273437500
-0.3921825411157205953927018526883330196142196655273437500
-0.5486481842974022526959743117913603782653808593750000000
0.3776339589499151938589704968762816861271858215332031250
0.5576508153835061376568660307384561747312545776367187500
-0.4329649176976119173687607144529465585947036743164062500
0.0455452488870723565250742126409022603183984756469726562
0.2934153213809129190359215044736629351973533630371093750
0.0600234595636855022826594563412072602659463882446289062
0.3912489397964072357360976184281753376126289367675781250
-0.3491043139253712790370798302319599315524101257324218750
-0.7865604216159538530916961462935432791709899902343750000
0.4181211842352795526878139753534924238920211791992187500
-0.6809120480797797858585340691206511110067367553710937500
-0.7771886415491588984139070817036554217338562011718750000
0.3389650582133308942545113495725672692060470581054687500
0.1227838139898997094068278101985924877226352691650390625
-0.4416724511162931632313188856642227619886398315429687500
0.2949560859321117556319791219721082597970962524414062500
-0.4240636886464188015644083407096331939101219177246093750
-0.1847307564328775630890788761462317779660224914550781250
-0.5218895272447462430065456828742753714323043823242187500
-0.3586479838850905599301199799811001867055892944335937500
-0.4128173563907272525241864968847949057817459106445312500
0.3562014004770938102595323471177835017442703247070312500
-0.3541441871892452852854660250159213319420814514160156250
0.4163402154756074557973022365331416949629783630371093750
-0.1020562140781435256364773067616624757647514343261718750
-0.1980717165879567753794532336542033590376377105712890625
0.2257454113632136882827694535080809146165847778320312500
-0.3808934281379215414098382552765542641282081604003906250
0.4507538335501030113405818156024906784296035766601562500
0.3914538358621840741236042049422394484281539916992187500
-0.0678498875064323242467523300547327380627393722534179688
-0.0264489202927926936315117245612782426178455352783203125
0.0777132911983315771697888862945546861737966537475585938
-0.1427814729938744753301449463833705522119998931884765625
0.0899500138149817024535437326449027750641107559204101562
0.5151251532530879417848268531088251620531082153320312500
-0.2905019438397794528938788971572648733854293823242187500
0.0002143861756947311740691131110025935413432307541370392
0.1502616304579920125661374186165630817413330078125000000
-0.2691644076233838944745002663694322109222412109375000000
0.1206849511256774254430723658515489660203456878662109375
0.1252845057629705938229136563677457161247730255126953125
-0.1819133194711727574688353570309118367731571197509765625
-0.4048506370154537070682465582649456337094306945800781250
-0.3849850277881198268303819531865883618593215942382812500
-0.2259008840466356637932676676427945494651794433593750000
-0.2009738217566925666535126993039739318192005157470703125
0.3525216838377950856475706586934393271803855895996093750
-0.1739710944551454974149606869104900397360324859619140625
-0.3104777315055951003586187653127126395702362060546875000
0.1822968650342677576770000769101898185908794403076171875
-0.4161426181234731402902582431124756112694740295410156250
0.1948160246093998126948321214513271115720272064208984375
0.0339621455965090565665143174101103795692324638366699219
0.4692347162979945141003668140911031514406204223632812500
0.1118415773988486600076797117253590840846300125122070312
0.2813548347308560404478328109689755365252494812011718750
-0.4230782721169046856068973738729255273938179016113281250
0.0821868486070918002894813980674371123313903808593750000
0.4737358524297743955777661994943628087639808654785156250
0.4042783002645073953118526333128102123737335205078125000
0.2617806563025368293828876176121411845088005065917968750
0.2667628372021653149204212240874767303466796875000000000
0.4882078690240269636113623619166901335120201110839843750
-0.2738784056588815518651358615898061543703079223632812500
0.1647143400950870917309742935685790143907070159912109375
-0.2579353014050913550647692318307235836982727050781250000
0.5215835119184214496712570507952477782964706420898437500
0.5787024327117493704975004220614209771156311035156250000
-0.2865843450607273301677935251063900068402290344238281250
-0.0789278183422599532992336435199831612408161163330078125
-0.0166247487488560309609741949543604278005659580230712891
-0.4424557397099016520236602900695288553833961486816406250
0.3554659284477584280104167646641144528985023498535156250
-0.5583388603960559581906863968470133841037750244140625000
0.6848791773362884471865186242212075740098953247070312500
0.4004904122029055435483257952000712975859642028808593750
-0.1245418709003650453714939771998615469783544540405273438
-0.4314419218677213452295404749747831374406814575195312500
-0.2558893786324796804088066437543602660298347473144531250
-0.3109177944055960818303674386697821319103240966796875000
0.2626576249221013736878660438378574326634407043457031250
0.0654951614108023050242479712323984131217002868652343750
-0.2567900170580662000396898747567320242524147033691406250
-0.0673653497595394223917963927306118421256542205810546875
0.2840647019749805712862666950968559831380844116210937500
0.3907834125345829301423350443656090646982192993164062500
0.1791600968414233940873003803062601946294307708740234375
0.4446118252102991275087617850658716633915901184082031250
0.5184295889118230027392542069719638675451278686523437500
-0.5883834840536000809763095276139210909605026245117187500
0.1130214590892335696503678832414152566343545913696289062
-0.1423890328607691768691978495553485117852687835693359375
0.4645311285053878580519892693700967356562614440917968750
-0.0152582739781399277095852440311318787280470132827758789
-0.3615047641476146211836351085366914048790931701660156250
-0.2502225661972810599742444992443779483437538146972656250
0.4270944867905366315596893400652334094047546386718750000
0.6948589936814909551188179648306686431169509887695312500
-0.3202800988845603824550778426782926544547080993652343750
-0.1250460906314834197416985261952504515647888183593750000
0.2220279489583493470750141796088428236544132232666015625
-0.3284425177875355261747358781576622277498245239257812500
-0.1306799688102451006965765145650948397815227508544921875
-0.6374062336281701712792369107773993164300918579101562500
0.2303164475399984423287236268151900731027126312255859375
-0.1620560927050513355673899695830186828970909118652343750
-0.2585182305945007419367698275891598314046859741210937500
-0.1144956516923450323686139995515986811369657516479492188
-0.2523003601166203258010511945030884817242622375488281250
0.0201209427746991478813676224035589257255196571350097656
-0.1891520694864617102570747420031693764030933380126953125
0.3744945689963694590574050380382686853408813476562500000
-0.3220161747322772272106305990746477618813514709472656250
-0.2502257175395351529445520100125577300786972045898437500
0.7623320920805350953131096503057051450014114379882812500
-0.0447750834481745393911289454536017728969454765319824219
0.4425314704311341662545942199358250945806503295898437500
-0.5012878087702586915597180450276937335729598999023437500
-0.3931146216338428645009628326079109683632850646972656250
-0.5305277691562595432372972936718724668025970458984375000
-0.1488921495678359740999496807489776983857154846191406250
-0.0839074756297840673724408588896039873361587524414062500
-0.4830373522140169462169012604135787114500999450683593750
0.5249619201266094714597443271486554294824600219726562500
-0.3951091219662302145287924304284388199448585510253906250
0.2961475512575429958062045443512033671140670776367187500
0.5111028129038351908164372616738546639680862426757812500
-0.0135262746359134967966131313232835964299738407135009766
0.2434763129086209287876840789976995438337326049804687500
0.2938051114453421042149727782089030370116233825683593750
-0.0272065093741681168770796261924260761588811874389648438
0.0258139896180860327346007210280731669627130031585693359
-0.2413795964985874231700790915056131780147552490234375000
-0.1880451569147598422926392913723248057067394256591796875
-0.1763448960154247180387443449944839812815189361572265625
0.0307336532871633240360242922406541765667498111724853516
0.1707203325132775062478174277202924713492393493652343750
0.0122278311621790026358924663441030133981257677078247070
-0.0020057862579161271111838349412437310093082487583160400
0.3883974149533631625708096635207766667008399963378906250
-0.2894585520864558225717644290853058919310569763183593750
-0.1408566856156013014089722901189816184341907501220703125
0.0146963355172007783394638735785520111676305532455444336
-0.2976370120089481541292286692623747512698173522949218750
0.2631758557640730966653563882573507726192474365234375000
0.6138797123515087328371464536758139729499816894531250000
-0.2632954712255161089373700633586850017309188842773437500
-0.3252344076757126556387333948805462568998336791992187500
0.2829301029041981774270198002341203391551971435546875000
0.2108511582278775886578614517929963767528533935546875000
-0.4897343924077829369068126652564387768507003784179687500
-0.4808767338313116312953354736237088218331336975097656250
0.2275077101343379315512294169820961542427539825439453125
0.1502896266209295950133650876523461192846298217773437500
0.1321237737942165257898352592746959999203681945800781250
0.3784396673890594864353431603376520797610282897949218750
-0.0781548721124424305983779959206003695726394653320312500
-0.3312453049559626605535811449954053387045860290527343750
0.3815902858161037691786532377591356635093688964843750000
0.4006038440225734853505912269611144438385963439941406250
-0.3602508569727076448430125310551375150680541992187500000
-0.2010874317825914747714932673261500895023345947265625000
0.4797663191027305429336990982847055420279502868652343750
-0.2975510432608597932713223599421326071023941040039062500
0.0549107664668076547731523362472216831520199775695800781
0.2332634103587355733910868593738996423780918121337890625
0.1945496640444214220266871961939614266157150268554687500
-0.5634186774010863096862067322945222258567810058593750000
0.2674754251387926329286415239039342850446701049804687500
-0.1700591462677982779183594175265170633792877197265625000
0.3351805442493851483476419161888770759105682373046875000
0.0019979517383187667817212584964181587565690279006958008
-0.1702611163768172897192698655999265611171722412109375000
-0.4004134969750005601518694220430916175246238708496093750
0.3043023777946474717204239368584239855408668518066406250
0.2869592276822212628673014478408731520175933837890625000
-0.1357270468095008730813333386322483420372009277343750000
0.0864089699678271400129503376774664502590894699096679688
-0.0141751667948096463783835829985946475062519311904907227
-0.2600492863261164022681271035253303125500679016113281250
0.7317486792593936861806014348985627293586730957031250000
-0.2016578226522209582594058474569465033710002899169921875
0.5745375984330797214383323989750351756811141967773437500
-0.3333003132535025669902495337737491354346275329589843750
-0.1387124666825841623474246944169863127171993255615234375
0.4759116408027425637605745123437372967600822448730468750
0.0963007144255623309669900322660396341234445571899414062
-0.4531954302047768168293373491906095296144485473632812500
0.3162409790767125028487782856245758011937141418457031250
0.0765783950420135112180375358548189979046583175659179688
-0.1800826608397935457706040551784099079668521881103515625
0.1232167475200855871753091719256190117448568344116210938
0.1784248196584113099749657749271136708557605743408203125
0.0105328803177007247759977559553590253926813602447509766
-0.3929199863603294318181724520400166511535644531250000000
-0.0809144264671176061121116163121769204735755920410156250
-0.3142342972930126099306846754188882187008857727050781250
0.4829383126897571210101034466788405552506446838378906250
-0.0055091249797448371347541318243656860431656241416931152
0.0920291493796365905888379188581893686205148696899414062
-0.3924523512179773909736013592919334769248962402343750000
0.3387318047848726920712181254202732816338539123535156250
-0.1665738961961016340040941940969787538051605224609375000
0.0697240597379886611895116743653488811105489730834960938
-0.3109395858125879597011476107581984251737594604492187500
0.2210187619058245067638068803717033006250858306884765625
0.0337949186870275947169872665654111187905073165893554688
-0.2605410305094045808615987880330067127943038940429687500
-0.3906893033683433436031862129311775788664817810058593750
-0.4908146484093446337837463033793028444051742553710937500
0.1853066418603158960198840077282511629164218902587890625
-0.1945941931045734318850293220748426392674446105957031250
-0.1704548795837134700370540940639330074191093444824218750
-0.2233372837395918297787034134671557694673538208007812500
0.1530108828530714060178752333740703761577606201171875000
-0.2706110351645238942808191495714709162712097167968750000
-0.3527354901618773297400366573128849267959594726562500000
0.5940339239792388204008943830558564513921737670898437500
-0.3456193824169320749639666701114038005471229553222656250
0.0132451600846225873292505426093157439026981592178344727
-0.1969394264411586659146990996305248700082302093505859375
0.0612363459907308213536758501049916958436369895935058594
-0.1033521823813395718039132020749093499034643173217773438
0.0592239640166001835019926602399209514260292053222656250
-0.5020196448743575734496857876365538686513900756835937500
0.5702013164464246885998477409884799271821975708007812500
-0.1881072600158646968004916288919048383831977844238281250
0.0625896073009269693354639230165048502385616302490234375
-0.0609669120713655851573342658866749843582510948181152344
-0.1615227330678901673799430227518314495682716369628906250
0.2246284550681200420374494797215447761118412017822265625
0.4904089654093646832855313277832465246319770812988281250
-0.2317446877342966837787230360845569521188735961914062500
0.1087962525419372133983486605757207144051790237426757812
0.5097617206869229367072193781496025621891021728515625000
-0.2331124023965184532958261343082995153963565826416015625
0.1841641287794189008053535872022621333599090576171875000
0.0030746293225215911952552527708348861779086291790008545
0.4016976949195562585082086570764658972620964050292968750
-0.1807442281867927269534135348294512368738651275634765625
-0.6981811157729949091077514822245575487613677978515625000
0.1866135211726938636367378876457223668694496154785156250
0.1848230080823499155151523609674768522381782531738281250
0.3385861267917136818716983270860509946942329406738281250
0.2026944643136623924739581070753047242760658264160156250
-0.1625127365829978354216933666975819505751132965087890625
-0.4158913102338968048599099347484298050403594970703125000
-0.1026628984838923452915793177453451789915561676025390625
0.4591207661253746130647357404086505994200706481933593750
0.1384677690176271402933139142987783998250961303710937500
0.2684679903722911875618706289969850331544876098632812500
-0.4862629427310130592054804310464533045887947082519531250
-0.2413608702242009684812984460222651250660419464111328125
-0.1885943288876068546500164302415214478969573974609375000
-0.3517503295447585442978777336975326761603355407714843750
-1.1297413993406064669500210584374144673347473144531250000
-0.2653141530998815444952754205587552860379219055175781250
0.7277231908483560163247716445766855031251907348632812500
0.1932869041229567652617760131761315278708934783935546875
0.2814638926457682099879775705630891025066375732421875000
0.4919261571074303729389498585078399628400802612304687500
-0.2382282296587487080419265339514822699129581451416015625
-0.2792551950610913658046285945601994171738624572753906250
-0.0583590516046364193858408953019534237682819366455078125
-0.1555645173176806450587861263556987978518009185791015625
