nn
1,10,10,10,10,10,1
dIn
0
dIntern
,
dOut
,
normP
1.9999999999999984
normY
1.055114691492247
w
-0.0522639177312787875373523149846732849255204200744628906
-0.6791860493958918887358322535874322056770324707031250000
0.1781056052294991975948335038992809131741523742675781250
-0.3541106226220647190672252691001631319522857666015625000
-0.0401775347830340828769735139758267905563116073608398438
-0.6252383054319304855894756656198296695947647094726562500
0.2135725393103060087973688041529385372996330261230468750
-0.3101053758952058703179943677241681143641471862792968750
0.2412243752308511346438280043003032915294170379638671875
-0.0620001598523936270357381772555527277290821075439453125
0.5170819669015342956441827482194639742374420166015625000
-0.2715983892350810613436351559357717633247375488281250000
-0.2968749652495057400614086873247288167476654052734375000
0.1940378325365809120128801623650360852479934692382812500
-0.0468807133803633077628880698739521903917193412780761719
-0.4000739077074857430460497198509983718395233154296875000
0.0868824571974159687304251065143034793436527252197265625
-0.4965176069779504430812266946304589509963989257812500000
-0.4326836530734013974708318528428208082914352416992187500
0.1843220459766738150708675902933464385569095611572265625
0.1510242095354746572066773069309419952332973480224609375
-0.4427074772150955683791551109607098624110221862792968750
-0.0098516533332390875121742368492050445638597011566162109
0.2529799099039249932197037651349091902375221252441406250
0.2214305818417501847683581672754371538758277893066406250
0.3071946325879518768786624605127144604921340942382812500
0.2565494505800436364495453744893893599510192871093750000
-0.5069115314128798122084162969258613884449005126953125000
0.2399808593132743417264407526090508326888084411621093750
0.2876721995693976019481397088384255766868591308593750000
0.4868252403214601842229569683695444837212562561035156250
-0.3924973539204860695228660460998071357607841491699218750
0.6313374039461396858285979760694317519664764404296875000
-0.0088754393656505763815500742452968552242964506149291992
0.3065820711500648609870722793857567012310028076171875000
-0.3323711337972030110954335668793646618723869323730468750
0.2938428987133751557614402827312005683779716491699218750
0.3523410594619297842022831446229247376322746276855468750
0.3093421495118929831491527693287935107946395874023437500
0.0519690645671095283186780022788298083469271659851074219
0.3323762048713114758413667004788294434547424316406250000
0.1736099705973853102314308216591598466038703918457031250
0.3424079026620177601536454403685638681054115295410156250
-0.4622278493336243743172531139862257987260818481445312500
0.3698867688545099952079908689484000205993652343750000000
-0.0068427147422846475513513730959402892040088772773742676
-0.4880688113331929089966365609143394976854324340820312500
-0.2599350968810436035560940126742934808135032653808593750
-0.4341529421781126774071424279100028797984123229980468750
0.3936830505888291864557970711757661774754524230957031250
0.0906024265135844941720932865791837684810161590576171875
-0.2701500743486373590229732144507579505443572998046875000
0.3397937394137634514734713775396812707185745239257812500
0.2453096975275956825868206578888930380344390869140625000
-0.0703724862926427552345387539389776065945625305175781250
-0.3200557787824049316149910282547352835536003112792968750
0.3398700914117291360660999544052174314856529235839843750
-0.1163456408917588058571368492266628891229629516601562500
0.0068129463645973343741135686002508009551092982292175293
0.1847157459837084070297663629389717243611812591552734375
0.4572565536072160652381057843740563839673995971679687500
0.3764468148142889325491466934181516990065574645996093750
-0.1929121120519494414491390443799900822341442108154296875
-0.2241305338407054148497365986258955672383308410644531250
-0.0334644368638570000040743934732745401561260223388671875
0.0232033257082762886525095780143601587042212486267089844
0.4458225359851714086900642541877459734678268432617187500
-0.4577725411359143681266914427396841347217559814453125000
-0.1805059625323913452543678204165189526975154876708984375
-0.4962554931679880043660091359924990683794021606445312500
-0.3530288617774915427283133340097265318036079406738281250
0.4449000109122373536330030674434965476393699645996093750
0.6080156264502223351087195624131709337234497070312500000
-0.0998685031858908139890118604853341821581125259399414062
0.2045103586479561086353129439885378815233707427978515625
0.0094474200378315796589046016151769435964524745941162109
-0.0488455919690583759140700692569225793704390525817871094
0.0297192067075706285728120548128572409041225910186767578
0.4873469288283592271149302632693434134125709533691406250
0.3027567311503134850347862538910703733563423156738281250
0.3335670024424795543360744431993225589394569396972656250
-0.2551924424613801756223097072506789118051528930664062500
-0.0443449545899612870836214995051705045625567436218261719
-0.2238662212777129956187138759560184553265571594238281250
-0.5493394850422452790894567442592233419418334960937500000
-0.1668816267581901546801503855022019706666469573974609375
0.3212380559182790862315926005976507440209388732910156250
-0.1801132347605685635194561200478347018361091613769531250
0.3419734765942773480063010538287926465272903442382812500
0.0639559454346168149152518367372977081686258316040039062
0.0671844254513530442229907180262671317905187606811523438
-0.1603734843456519898463596973670064471662044525146484375
-0.2209269163161609039747190763591788709163665771484375000
-0.3864309442966608054703669949958566576242446899414062500
0.0946237411375075165853587577657890506088733673095703125
0.1722090303206070538433181127402349375188350677490234375
-0.0126945915727417341090088598321017343550920486450195312
0.0962047056510760695280382037708477582782506942749023438
-0.1144919172304536131301588852693384978920221328735351562
0.1625053621616876220468128622087533585727214813232421875
-0.4263593811546400602630058074282715097069740295410156250
0.2449520972276655328414562973193824291229248046875000000
0.1493814648009464118860734060945105738937854766845703125
-0.3915758933244433692699715265916893258690834045410156250
-0.2160723204614714565430233506049262359738349914550781250
-0.2862952458553327805823585094913141801953315734863281250
0.3966802629730870055624336600885726511478424072265625000
-0.3335519520677257543361804437154205515980720520019531250
0.4521824869873178887047515672747977077960968017578125000
0.0570793404841428431151229005990899167954921722412109375
0.1864715421725265109831326526546035893261432647705078125
0.1097790108398396941025154660565021913498640060424804688
0.1058811924334342041698064917909505311399698257446289062
0.0730934886052373028464401727433141786605119705200195312
-0.2897424148634683560565861171198775991797447204589843750
-0.1367410502803509675384674437736975960433483123779296875
0.5006283959510277048465809457411523908376693725585937500
-0.3306402581784702587874846813065232709050178527832031250
-0.2543251741203877980268543979036621749401092529296875000
-0.3595919014858047213500924499385291710495948791503906250
-0.3575713303776800744415709232271183282136917114257812500
-0.2094345525676305219686668124268180690705776214599609375
-0.0748038715607697302090173252508975565433502197265625000
0.1984111610357017496664155942198703996837139129638671875
-0.3566272093014031807634012238850118592381477355957031250
0.0667926407393411580848407993471482768654823303222656250
-0.3255125742956289092155941489181714132428169250488281250
0.3112573564382382640403079676616471260786056518554687500
-0.0943302242719378930546625383612990844994783401489257812
-0.3851084036384109787753970977064454928040504455566406250
0.1939181998695191921910918608773499727249145507812500000
-0.2008408466459096208822643347957637161016464233398437500
0.1559630601938838401210318806988652795553207397460937500
0.4974724012885792245874938544147880747914314270019531250
-0.0985723603937009862363538559293374419212341308593750000
-0.2158636465713190122350795263628242537379264831542968750
-0.0256103958808846995931496337561839027330279350280761719
-0.0203701008743215755680822098838689271360635757446289062
0.4813284352270634780524005691404454410076141357421875000
0.4908625597750877478375741702620871365070343017578125000
0.3250041293926335672637151219532825052738189697265625000
-0.4429976128036730020909317318000830709934234619140625000
0.0591976831166440911613513264910579891875386238098144531
-0.2779735716407090717616767960862489417195320129394531250
-0.3264631842458344257451585690432693809270858764648437500
-0.2921787709626847417965223030478227883577346801757812500
-0.5057831336414482237273659848142415285110473632812500000
-0.4532429962791803546018343240575632080435752868652343750
-0.0980491093426393983678579502338834572583436965942382812
0.1806689984520953862201508854923304170370101928710937500
-0.1466592875230166292954692153216456063091754913330078125
-0.2973123522824192566105239166063256561756134033203125000
-0.4286813293005041769490048864099662750959396362304687500
-0.2746315782510140857120006785407895222306251525878906250
-0.5265251219260834725233166864200029522180557250976562500
-0.0453495931944820976355892128140112617984414100646972656
0.1978640531506676292217150603391928598284721374511718750
-0.5851669872054412468997952601057477295398712158203125000
0.5158475147807203287086963428009767085313796997070312500
-0.0140859846819564264036594991580386704299598932266235352
0.4854549808890153972384950975538231432437896728515625000
0.4224077545964754487606285238143755123019218444824218750
-0.0533908929715844540742075707839831011369824409484863281
-0.3077731265938643545609920693095773458480834960937500000
0.0974488928848899343959644170354295056313276290893554688
0.2021996176363515806961856924317544326186180114746093750
0.3380261305245796377150213629647623747587203979492187500
0.0408655397810599244068363589121872792020440101623535156
-0.2006857648317117992498026524117449298501014709472656250
0.1607529177193602332174293678690446540713310241699218750
-0.0171656126380022207300601877477674861438572406768798828
-0.3271092064348859462796781372162513434886932373046875000
0.2038306527929728551029597838351037353277206420898437500
-0.3758011666301540043555462489166529849171638488769531250
0.0254934429200757844968805443386372644454240798950195312
-0.4106600277138589549785763210820732638239860534667968750
0.0933090826457547012351412263342353980988264083862304688
-0.4775757948572278421828229966195067390799522399902343750
0.3986419944365509615558096356835449114441871643066406250
-0.1569943562876994769261784767877543345093727111816406250
-0.1186619264481596769389426526686293072998523712158203125
-0.1839018781791611767406635635779821313917636871337890625
0.4679264485016274566220317865372635424137115478515625000
0.1373065647215613860332439344347221776843070983886718750
0.1392280394766728657263143986710929311811923980712890625
0.0914540776472338029501329970116785261780023574829101562
-0.3590484751138409147408481203456176444888114929199218750
-0.1211203349097727255401224510933388955891132354736328125
0.1991759988687531457429713555029593408107757568359375000
0.1083790364672605754936540733979200012981891632080078125
-0.2968669191662877682169607851392356678843498229980468750
-0.4662687762772523281107339698792202398180961608886718750
-0.4687610718485481497985745136247714981436729431152343750
0.2188551694400240055227158109119045548141002655029296875
-0.4244147136124026831183186914131511002779006958007812500
0.0116134551749882738297392492654580564703792333602905273
0.3499059567387340363708858603786211460828781127929687500
-0.3820605296036121978353605754819000139832496643066406250
-0.0457414602756668758898328519535425584763288497924804688
0.4353068773453204198808919045404763892292976379394531250
-0.0422647479799283173895751986037794267758727073669433594
-0.4654428643757638761613293354457709938287734985351562500
-0.5314833203746217593632650277868378907442092895507812500
-0.0446266656740290645899449373246170580387115478515625000
0.4669747901672483547663716763054253533482551574707031250
-0.2530997485717045303310612780478550121188163757324218750
-0.4437876852229248325620858395268442109227180480957031250
-0.4812303855875783575868354091653600335121154785156250000
0.5187748078895900727403045493701938539743423461914062500
-0.1347054925175242834356481580471154302358627319335937500
-0.2933889011573306837554753201402490958571434020996093750
-0.2185253527853240063105744184213108383119106292724609375
-0.0810946612466333510704785680900386068969964981079101562
0.4494206465827125795975405253557255491614341735839843750
-0.3105543239008756173369363295932998880743980407714843750
0.3559880264915236125489172991365194320678710937500000000
-0.2032154992124198811254132124304305762052536010742187500
-0.4466319112143438130324568646756233647465705871582031250
-0.1993922425529025266310867436914122663438320159912109375
0.3740141102080553059394674164650496095418930053710937500
0.0237985783159161655431201864985268912278115749359130859
0.1024181212987906042233277048580930568277835845947265625
0.2291415276477405671418097199421026743948459625244140625
0.0764755035969965218933808159817999694496393203735351562
-0.0175047442971122783894610819288573111407458782196044922
-0.3981137731189014483668131560989422723650932312011718750
-0.2439851353728683669430665759136900305747985839843750000
-0.2969135092418048182949519286921713501214981079101562500
0.3195299492519681483493343421287136152386665344238281250
0.2679684409756294960480715872108703479170799255371093750
0.3126150826425674322806003146979492157697677612304687500
-0.0303687955018863871281542543556497548706829547882080078
-0.0824283252361387303031037276923598255962133407592773438
-0.1196082750928198074058528277419100049883127212524414062
0.3625578798913958178395944287331076338887214660644531250
-0.1145282828521477502814462923197424970567226409912109375
0.1496954762605941791075991886827978305518627166748046875
-0.3664734864949880099871393213106784969568252563476562500
0.1026328289637543494938753951828402932733297348022460938
0.1078584301853059007614277220454823691397905349731445312
-0.3703709152945382498955950723029673099517822265625000000
0.0473337302393675579681442400215019006282091140747070312
-0.2828385714375483139804146048845723271369934082031250000
-0.2682375006611091294850268695881823077797889709472656250
0.0790934245990992518260398469465144444257020950317382812
-0.2845711100033221918614856349449837580323219299316406250
0.2562394923677303593123610880866181105375289916992187500
-0.0523056290307475496570432937915029469877481460571289062
0.1600548378075631328343320092244539409875869750976562500
-0.1356550954897744187821473360600066371262073516845703125
-0.3437939827898259248506462881778134033083915710449218750
0.3234028883653727870495231400127522647380828857421875000
0.0158506222221157268281732655168525525368750095367431641
0.1208044461899355076495155003613035660237073898315429688
0.1892771432003859666259870664362097159028053283691406250
-0.3758680754169517190810267948108958080410957336425781250
0.3883215373227592026594834351271856576204299926757812500
-0.1408417051865794578091595212754327803850173950195312500
0.3639647736372748076938421490922337397933006286621093750
0.2048484840818872443346521095008938573300838470458984375
0.1101344339283190920664168288567452691495418548583984375
-0.0426844754960999175907865321732970187440514564514160156
-0.0109599261698299713096993457384087378159165382385253906
-0.3080745885906661096775849273399217054247856140136718750
-0.0831180390442789185367900017809006385505199432373046875
0.5325586844473377823305781930685043334960937500000000000
0.1125438124431080433307528210207237862050533294677734375
0.3955618709717130809799812141136499121785163879394531250
0.0622618080523705610951346045567333931103348731994628906
0.1721503190492944257439233979312120936810970306396484375
0.2111650319228583205788396526259020902216434478759765625
0.0915064163716259176828415888849121984094381332397460938
-0.4443396393302919689105578981980215758085250854492187500
-0.2177704202150201884258251538994954898953437805175781250
0.1441767621544441380088130699732573702931404113769531250
0.0488317951806107389267630480844673002138733863830566406
0.0534994283456557348510607141633954597637057304382324219
0.4636553531746082645881301687040831893682479858398437500
-0.1059870560533729966223859264573547989130020141601562500
0.1444992566794107702321525721345096826553344726562500000
-0.3164764277595014108079851666843751445412635803222656250
-0.2733457293898865492209893091057892888784408569335937500
-0.4761057556776030486034301247855182737112045288085937500
-0.3284839702458315358057916455436497926712036132812500000
-0.5339977387800719510480007556907366961240768432617187500
-0.4396136112973945131443542777560651302337646484375000000
0.2808509585915616724172139129223069176077842712402343750
0.1337918091577969537109282782694208435714244842529296875
0.1428448023655979337576127363718114793300628662109375000
0.3727409427948529252461185024003498256206512451171875000
0.1218117792035666446803787721364642493426799774169921875
-0.2676932547640012427514477622025879099965095520019531250
-0.1574229236908884776990902309989905916154384613037109375
0.1376496938530391844768274722810019738972187042236328125
-0.1142972066673889480759029879664012696593999862670898438
0.3942913839884172322314270786591805517673492431640625000
0.0260447228331383943966681471238189260475337505340576172
-0.2291042345914671984896671119713573716580867767333984375
-0.3255860694708492264481947131571359932422637939453125000
0.3699051922255320312693527284864103421568870544433593750
0.2556572664072960243686338799307122826576232910156250000
0.3490266993097032588444506018277024850249290466308593750
0.1862914422914198342429159538369276560842990875244140625
0.0428225451701136489157661912940966431051492691040039062
-0.1846484444494849164186689449707046151161193847656250000
-0.3606325964073862633263445331976981833577156066894531250
0.4073754579048480817249355823150835931301116943359375000
0.0250822135089258414775148509079372161068022251129150391
0.1469693103065692618702797744845156557857990264892578125
-0.0583105206059567129917020622542622731998562812805175781
0.1568831281984378323013373801586567424237728118896484375
0.3606287469328037786908680573105812072753906250000000000
0.0792867724883404706437417530651146080344915390014648438
-0.4832894481869225988823757234058575704693794250488281250
-0.2281157427300425644123293977827415801584720611572265625
0.3277647787651011834775260922469897195696830749511718750
-0.2155566098104008398994579920326941646635532379150390625
0.1814380478838589216827870131965028122067451477050781250
0.1785916029814500205485927608606289140880107879638671875
0.6334584371703181338020272050925996154546737670898437500
0.3313767907033232651414778047183062881231307983398437500
0.1754854513207959598730667494237422943115234375000000000
0.4487342813791602713635597865504678338766098022460937500
0.2784443407491961619548703765758546069264411926269531250
-0.4123663240572785770865493759629316627979278564453125000
-0.4040585880886575775861047077341936528682708740234375000
0.3580175895946799413671612910547992214560508728027343750
-0.2498832336588688030065696921155904419720172882080078125
0.2323606576169777448992448398712440393865108489990234375
-0.3638702367605884391288384449580917134881019592285156250
-0.2105997083596864161147976801657932810485363006591796875
0.3778642427708594486723825411900179460644721984863281250
-0.3592222599496338597546696291828993707895278930664062500
-0.2154658533791177221772272787347901612520217895507812500
-0.2703983891499512903777713290764950215816497802734375000
-0.3520810264196932437563702933402964845299720764160156250
-0.4276763585435339742879534696839982643723487854003906250
-0.4055273333752665299023476563888834789395332336425781250
-0.1785221568240309975017510168981971219182014465332031250
-0.0899167321196663593685372006802936084568500518798828125
0.0806599158529622134450320913856558036059141159057617188
0.1556379390268801676810994649713393300771713256835937500
-0.3153206489708132442828514285793062299489974975585937500
-0.3837638086404626669434492214350029826164245605468750000
0.2561642882971965629046451340400381013751029968261718750
-0.4173065960222916981336993558215908706188201904296875000
-0.2326421094444864334782607784291030839085578918457031250
0.1226041515866006237356344854561029933393001556396484375
-0.1018725028379387220756058241022401489317417144775390625
-0.0726850222432963294361130124343617353588342666625976562
0.1014084748553496923006989050008996855467557907104492188
-0.2252059592001018073492701887516886927187442779541015625
0.4537739912382659501766113407938973978161811828613281250
0.3888300641856554107356203076051315292716026306152343750
-0.3102771632819248948109702723741065710783004760742187500
0.4223719242420577169028206299117300659418106079101562500
-0.3627430713869718714725820518651744350790977478027343750
-0.3389655893424733390517644693318288773298263549804687500
0.3828653894044924954620512380643049255013465881347656250
-0.1107690956997597619970719051707419566810131072998046875
0.0202822385329009917398490614459660719148814678192138672
-0.0498295502282105548519375304294953821226954460144042969
0.4626379036129110722264101696055149659514427185058593750
0.2112301843768779330279272699044668115675449371337890625
0.4374086293551648352284644261089852079749107360839843750
-0.4807245229005178699388523000379791483283042907714843750
-0.1384004763235929247322530954988906159996986389160156250
0.0875950876775571096732875275847618468105792999267578125
-0.5025176500417281033605831908062100410461425781250000000
-0.1752122494135588126606961623110692016780376434326171875
-0.3011418197690672315935955793975153937935829162597656250
-0.3787019061968878164137208841566462069749832153320312500
-0.1972815724236652856760088070586789399385452270507812500
-0.4728076779331229495539901108713820576667785644531250000
0.1165788354712180147076949765505560208112001419067382812
-0.0435401426978358277453118319044733652845025062561035156
0.4214322624271006345608725496276747435331344604492187500
0.2231061906664090488394691647044965066015720367431640625
-0.3148293579861624613691617469157790765166282653808593750
0.2477556364408323441583803514731698669493198394775390625
0.1055684624668597609842279894110106397420167922973632812
-0.0845144844560441615977097740142198745161294937133789062
-0.3847588733765732738056897233036579564213752746582031250
0.0233203385713289836067563243204858736135065555572509766
-0.1301619136367038465085244069996406324207782745361328125
-0.1685230559429519436864808312748209573328495025634765625
-0.0478606630899698903824912576965289190411567687988281250
-0.1758219853301180024551797487220028415322303771972656250
-0.0394172918590140336503324647310364525765180587768554688
-0.4790173268928966110458134153304854407906532287597656250
-0.4120088132765847843685946827463340014219284057617187500
0.1353678005487201629897242582956096157431602478027343750
0.4675161009550992119443435512948781251907348632812500000
-0.4788055012847247104978976040001725777983665466308593750
0.3840780737429873581412209659902146086096763610839843750
-0.3425625868795447170889190147136105224490165710449218750
-0.0391630665138139461012301012488023843616247177124023438
0.2231166973908582651375809291494078934192657470703125000
-0.4180096372785787606218832479498814791440963745117187500
0.0664343787492505249980823123223672155290842056274414062
-0.2381110567254412502258276163047412410378456115722656250
0.4999040727054516186633748020540224388241767883300781250
0.5419022719037714930223614828719291836023330688476562500
0.0648585386087442428149074657994788140058517456054687500
-0.0554196922132623795431705104874708922579884529113769531
0.2807446483981800300355757826764602214097976684570312500
-0.3670703411427103102226965347654186189174652099609375000
0.5446289363892327095584278140449896454811096191406250000
0.5152940785939030821083406408433802425861358642578125000
-0.3673403008765424582193759306392166763544082641601562500
0.0342755563829544168674701154486683662980794906616210938
0.4071387080233046518173978256527334451675415039062500000
-0.3423832155780524022503641390358097851276397705078125000
-0.3494109807950785406838178914767922833561897277832031250
0.1265857866349331117827858861346612684428691864013671875
0.2072495659715956062285613370477221906185150146484375000
-0.4127082743481746418545696997171035036444664001464843750
0.4777844979705423988924906097963685169816017150878906250
-0.3963801897019280651157657757721608504652976989746093750
-0.3974164947971131067738781439402373507618904113769531250
-0.4910904171205862644988826559711014851927757263183593750
-0.2235459282107546963302979747822973877191543579101562500
0.0865865232413119134680101751655456610023975372314453125
0.2013905308070798594322070584894390776753425598144531250
-0.2610539385262541367538347003574017435312271118164062500
0.3383885237022338787760133982374100014567375183105468750
0.2676816565305696893339870712225092574954032897949218750
-0.3779396541730500880262866303382907062768936157226562500
0.1537351717503249171059565014729741960763931274414062500
0.3156431539260496355048246641672449186444282531738281250
-0.0289742650952706619349452665801436523906886577606201172
0.4572382550550102564557164441794157028198242187500000000
0.2106750263444311932481411986373132094740867614746093750
-0.1556084551155274553480012400541454553604125976562500000
-0.3542697650422961808125421612203354015946388244628906250
-0.3320828923895606243910094690363621339201927185058593750
-0.3446749842968340193927190284739481285214424133300781250
-0.3809265159940760092638356582028791308403015136718750000
0.2917109911406955968793397460103733465075492858886718750
0.2192471052325417613104718839167617261409759521484375000
-0.4876273705934775493098243259737500920891761779785156250
0.2450903713006824247155890361682395450770854949951171875
0.2947751968921075160778855206444859504699707031250000000
-0.1118447448300755875383316606530570425093173980712890625
0.4353455446966566499966688752465415745973587036132812500
-0.1423690489581720397538333600095938891172409057617187500
-0.2956570464902908978999107603158336132764816284179687500
0.3844542936022118384542523017444182187318801879882812500
0.3799310300508955684506418037926778197288513183593750000
-0.2039758659174282229287200607359409332275390625000000000
-0.3955970752000327328445905550324823707342147827148437500
-0.0277255635891495398615003153963698423467576503753662109
0.3112720451862860948644140535179758444428443908691406250
-0.4486056642492984858350268950744066387414932250976562500
-0.2607685920272138080377999358461238443851470947265625000
-0.4382571242943734679542444609978701919317245483398437500
-0.1865053573049975654818410930602112784981727600097656250
-0.3876367565450701269114119895675685256719589233398437500
0.2374116041937991972154975428566103801131248474121093750
0.0934556353451950483357535404138616286218166351318359375
-0.0786724837822185552038689593246090225875377655029296875
0.0049534929090285133648774440473516733618453145027160645
0.4800317825772826285657401967910118401050567626953125000
-0.3182878468223159784677989136980613693594932556152343750
0.0324415101047640860865151068992418004199862480163574219
-0.0843351647300250584216030347306514158844947814941406250
-0.2350874562440362358639589501763111911714076995849609375
0.3702013677731404994730723956308793276548385620117187500
0.3720762467143564067306726883543888106942176818847656250
0.2989751205094663966121970588574185967445373535156250000
0.1916471670833970186720307538053020834922790527343750000
