nn
1,10,10,10,10,10,1
dIn
0
dIntern
,
dOut
,
normP
1.9999999999999984
normY
1.0
w
0.8558383600118281142599130362214054912328720092773437500
0.9961504244202512570183216666919179260730743408203125000
0.7636385309046361813400949358765501528978347778320312500
0.3160138706049523960039948633493622764945030212402343750
-1.1729492302108286416739701962796971201896667480468750000
0.1021649246049870091157529827796679455786943435668945312
-0.6165079401284095927948669668694492429494857788085937500
1.3070253283982862235745869838865473866462707519531250000
-0.8661471218662536442067789721477311104536056518554687500
1.8160284757775109198973950697109103202819824218750000000
0.5523573033360200668084871722385287284851074218750000000
-0.0420163935689472911594322113160160370171070098876953125
0.8856703855550321913270295226539019495248794555664062500
0.3804271400540858993899462348053930327296257019042968750
-0.8055646599054161471897828050714451819658279418945312500
0.8778661889822553243689640112279448658227920532226562500
0.0651853585354530695727959255236783064901828765869140625
0.6823978265196436465700458029459696263074874877929687500
-0.0687284311068157710566950413522135931998491287231445312
-0.7864072373080257527533376560313627123832702636718750000
0.5185690153255643197738322669465560466051101684570312500
0.0064080768617279047077994746928197855595499277114868164
-0.8200454831049630577410880505340173840522766113281250000
0.0707434972380780457967830443521961569786071777343750000
-0.3162839018597654039410826953826472163200378417968750000
-0.4179895388014329138393065932177705690264701843261718750
0.4637928887736328942281716081197373569011688232421875000
0.1103585664675102162579634068606537766754627227783203125
0.0576125834265793085320339628196961712092161178588867188
0.2982536773173339317288821348483907058835029602050781250
0.3663284014011842226743453920789761468768119812011718750
0.4196897691720475331855766398803098127245903015136718750
-0.6882158772241275812575622694566845893859863281250000000
-0.5889440747227191463863960052549373358488082885742187500
-0.0824431880852213860855215443734778091311454772949218750
-0.6863279824785532001740762098052073270082473754882812500
-0.4846772854051577539280515338759869337081909179687500000
-0.0917622098858820317568429913990257773548364639282226562
0.4236022491778437260023792987340129911899566650390625000
0.3914694046289365347846000986464787274599075317382812500
-0.0480852261473439790417927497401251457631587982177734375
0.0636672632069204130766948424025031272321939468383789062
-1.1060957848527890323708788855583406984806060791015625000
0.1881741424537131945893264628466567955911159515380859375
-0.5002354584427535222346250520786270499229431152343750000
-0.1842947767964841221388638814460136927664279937744140625
0.3573758531417423611742378852795809507369995117187500000
0.1201061509810242844409344797895755618810653686523437500
0.4844390775050204656082541987416334450244903564453125000
0.1787260860425714525945295463316142559051513671875000000
-0.4442233884774817176399608342762803658843040466308593750
0.3078825611077893875666688927594805136322975158691406250
-0.3585018620952412637947759321832563728094100952148437500
0.2331055471196168960013039850309723988175392150878906250
-0.2668940914425855792657671372580807656049728393554687500
-0.0723872470359144398743822534925129730254411697387695312
0.4405656432319682846987518587411614134907722473144531250
-0.0119727643626226683271074335834782687015831470489501953
-0.0496826050415675873894727487822819966822862625122070312
0.5310375274395310318809038108156528323888778686523437500
-0.2453014709365989587386280845748842693865299224853515625
-0.5070961804487225110804615724191535264253616333007812500
1.4256083043106297925106673574191518127918243408203125000
0.1405132528002817071666186166112311184406280517578125000
0.2461189921028159588445305416826158761978149414062500000
-0.0196093423903980386413525849320649285800755023956298828
0.0531533088127096944863758665178465889766812324523925781
0.3970258010392291314616386443958617746829986572265625000
-0.1107497614529583951359370530553860589861869812011718750
0.0218308287362052808044943219556444091722369194030761719
-0.3848808635161893865195281705382512882351875305175781250
-0.2113154691114136063401218734725262038409709930419921875
-0.6074550378865191113675336964661255478858947753906250000
0.0114958893557394279533179215491145441774278879165649414
-0.3677240559767329663998225441901013255119323730468750000
0.4693790534966257865789884817786514759063720703125000000
-0.2197567066680716774129678015015088021755218505859375000
0.2743181293189729808013055389892542734742164611816406250
0.5010917601901797580055131220433395355939865112304687500
-0.3840730475243173680510722078906837850809097290039062500
0.2776421409627322645086167085537454113364219665527343750
0.2799882891359904979466932672949042171239852905273437500
0.4667539179198342824683720664324937388300895690917968750
0.0975837155623600627230018744739936664700508117675781250
-0.0384967394035784157835244911893823882564902305603027344
0.0543275081488009264907290685187035705894231796264648438
-0.3077218131539276035901764316804474219679832458496093750
-0.3041926914093303069286378104152390733361244201660156250
0.0618119413004664802757659458620764780789613723754882812
-0.6118263255143862044960201274079736322164535522460937500
0.7234531717543053463970181837794370949268341064453125000
0.0259838451502075254428980599641363369300961494445800781
-1.2323483721790522427141922889859415590763092041015625000
-0.4081910548128429572223296872834907844662666320800781250
-0.2715711528955855325051516047096811234951019287109375000
-0.4134453324173795185636492988123791292309761047363281250
0.3030071692135126171230297131842235103249549865722656250
0.2367140735503659998428815924853552132844924926757812500
-0.4222433710468013745575888151506660506129264831542968750
-0.2922786156126712664438116462406469509005546569824218750
0.0384418470457355762603945947830652585253119468688964844
0.3181585036287669088217455737321870401501655578613281250
0.8336006561879534260128821188118308782577514648437500000
0.5240443263983357580215738380502443760633468627929687500
0.1575290309208622618886153077255585230886936187744140625
0.5285382724910838714293959128553979098796844482421875000
-0.1413845568040520972452611658809473738074302673339843750
-0.4716265496449653094046539081318769603967666625976562500
0.5301761092866601465800613368628546595573425292968750000
-0.4290467629298741480958767624542815610766410827636718750
-0.6415075341918226037307704245904460549354553222656250000
0.0942406205605306745987093108851695433259010314941406250
0.0331648783667896976390387919764179969206452369689941406
-0.6448733241339678068371199515240732580423355102539062500
0.1889401990544260223625627759247436188161373138427734375
-0.3794989084738233930949036221136339008808135986328125000
-0.7873676547154608851286639037425629794597625732421875000
0.3059968451666495448115767885610694065690040588378906250
0.7123921946628088974762249563354998826980590820312500000
1.0596873173100584963890469225589185953140258789062500000
-0.0476295727984555813949718583444337127730250358581542969
-0.4173988415987926470229751885199220851063728332519531250
-0.1256619357984304630182492701351293362677097320556640625
0.0604938599506250895831982461459119804203510284423828125
-0.5660266383452601246517588151618838310241699218750000000
0.7957425247710170346238101046765223145484924316406250000
-0.3886328747575794606561316868464928120374679565429687500
0.1946313807120082506330049909593071788549423217773437500
0.0651982363211647958367578326033253688365221023559570312
-0.4710217790281767680227176242624409496784210205078125000
0.5788534271253344964947018524981103837490081787109375000
0.4309880242510367165387208387983264401555061340332031250
0.0664043763273955145454152670936309732496738433837890625
0.2433882231548883112726144872794975526630878448486328125
0.4884542385477818049466236516309436410665512084960937500
0.7152933618189820652588650773395784199237823486328125000
-0.2542264284466810853047036289353854954242706298828125000
0.3915456505836246159368840835668379440903663635253906250
-0.2542590808656651768515644107537809759378433227539062500
-0.3274080981811504087453101874416461214423179626464843750
-0.2281063311517025904429090132907731458544731140136718750
-0.3635093967678537096865909461484989151358604431152343750
-0.0552066706961560488275964075910451356321573257446289062
-0.3884786960028612790019053591095143929123878479003906250
-0.2301525353940959972565138969002873636782169342041015625
0.0416765293898177097142720981537422630935907363891601562
-0.4706548524344145723041776818718062713742256164550781250
0.3980981344987132852786260173161281272768974304199218750
-0.4303259267673772980877799909649183973670005798339843750
-0.2206129528405365025633955156081356108188629150390625000
-1.3556330048493452355984345558681525290012359619140625000
-0.2875549500071184483296349299052963033318519592285156250
0.7747467882004011041630064937635324895381927490234375000
-0.3625684127558581604233722828212194144725799560546875000
-1.2978062523190709853793123329523950815200805664062500000
-0.5838289230292056375404285972763318568468093872070312500
0.5481719960895633514397218277736101299524307250976562500
-1.6560600346473228761112750362372025847434997558593750000
0.9612573651499222160410340620728675276041030883789062500
-0.7317764715590069357631364255212247371673583984375000000
0.0776992859542852409848734396291547454893589019775390625
0.2216838866202071323119326962114428170025348663330078125
-0.3931961898508846142696881997835589572787284851074218750
0.6694580020850068313720271362399216741323471069335937500
0.0180567050934039331766545188884265371598303318023681641
0.3495302331523781891320368231390602886676788330078125000
-0.0396644421349362855111486680925736436620354652404785156
-0.2042077833773853490217931039296672679483890533447265625
0.3284066468374080005609982890746323391795158386230468750
-0.5459179149833709443484508483379613608121871948242187500
-0.4727908091349909969203224591183243319392204284667968750
-0.3149592255656224470961035422078566625714302062988281250
0.0469748142898111301080099622140551218762993812561035156
-0.1707811721085558398502968202592455781996250152587890625
-0.3982488854040476256024305712344357743859291076660156250
0.3690976714306146710953271394828334450721740722656250000
-0.2485499414923739158744808719347929581999778747558593750
-0.6529323488862517343989111395785585045814514160156250000
0.4484228655241065952807844041672069579362869262695312500
-0.1743470764426795216461840709598618559539318084716796875
-0.2552472112964884742858373556373408064246177673339843750
0.1366507290910350946866458343720296397805213928222656250
-0.0026917622030319795708996899463727459078654646873474121
0.8019704001541450022472190539701841771602630615234375000
-0.2544229666703949344075397220876766368746757507324218750
0.1996926765426449978946266128332354128360748291015625000
0.6649182652698991669026895579008851200342178344726562500
-0.4751619476087951543519238839508034288883209228515625000
-0.3937996098615434981127236824249848723411560058593750000
-0.5300127428420836617206646224076393991708755493164062500
0.1433873235771319365472464824051712639629840850830078125
0.4410108154392296531121075986447976902127265930175781250
0.3200537631939782134971039795345859602093696594238281250
-0.0061911144743506075702188518050661514280363917350769043
-0.1021514404664480429874018341251940000802278518676757812
0.7336780708608778844848075095796957612037658691406250000
0.0823012354553827873981930451918742619454860687255859375
0.4879181629347428827969679332454688847064971923828125000
0.3347909961577802961940619752567727118730545043945312500
-0.0451163088218824726016720205734600313007831573486328125
-0.3433110091032038901914802409010007977485656738281250000
0.4172659785316628067164401727495715022087097167968750000
0.2064724667509126310172007379151182249188423156738281250
-0.1677948892907296651877402382524451240897178649902343750
0.2018988948563908147892931310707353986799716949462890625
-0.5809647372006035981328864181705284863710403442382812500
-0.1767075950369776382586906038341112434864044189453125000
0.5402341437985920258313399244798347353935241699218750000
-0.4490055575704383072910275132016977295279502868652343750
-0.4285350164786502769054266082093818113207817077636718750
-0.0559916439247207381457727137785695958882570266723632812
-0.1347726439871926862323903151263948529958724975585937500
0.4271107042493064720467543793347431346774101257324218750
-0.6516086222311021636244277033256366848945617675781250000
0.5454566332418667728987315967970062047243118286132812500
-0.6611240791787834636394904919143300503492355346679687500
0.4600383403641619683988039923860924318432807922363281250
0.6297355290487550716349574031482916325330734252929687500
0.0563962397286341954316668534374912269413471221923828125
-0.1659604475813159507602279063576133921742439270019531250
0.3314469793571904188134169544355245307087898254394531250
-0.0042749884859036909462437492379649484064429998397827148
0.5971238670869510878347341531480196863412857055664062500
-0.6924154620982360119896270589379128068685531616210937500
-0.2630572774594154839000736956222681328654289245605468750
-1.0363470409802706395652194260037504136562347412109375000
-0.6802603969086055135662149950803723186254501342773437500
0.4671657538920675478699706673069158568978309631347656250
-0.2036057315538730705384296015836298465728759765625000000
-0.0634744292953064448425948285148479044437408447265625000
0.0919223296917131144079249338574300054460763931274414062
0.5300331137062643804824801918584853410720825195312500000
0.2422143605694243306825086392564116977155208587646484375
0.0635889283125748161484835918599856086075305938720703125
-0.0087280368841437042104480781290476443246006965637207031
0.1915961365925872017523801105198799632489681243896484375
0.9212141014992212273426730462233535945415496826171875000
0.4643615394284044128880850621499121189117431640625000000
0.2042842211485841330542712057649623602628707885742187500
-0.0198296410248797322362079853519389871507883071899414062
0.2687683696938987232272211258532479405403137207031250000
-0.4778709946887517157065872197563294321298599243164062500
0.4396896949661013853649649263388710096478462219238281250
-0.6217729339747004591032464304589666426181793212890625000
-0.3349725465438660454431385460338788107037544250488281250
0.1752293477562769652422502986155450344085693359375000000
0.2355939554722272788467307691462337970733642578125000000
0.4939221145154995551429522038233699277043342590332031250
-0.9323135040381689275790222382056526839733123779296875000
-0.2911065971666870755285572158754803240299224853515625000
0.0929078031346333987894325900924741290509700775146484375
-0.0407585460301011434647300291089777601882815361022949219
0.4397359531716426017666776715486776083707809448242187500
-0.1331880141117491866964428481878712773323059082031250000
0.0252575808688394673473531781837664311751723289489746094
0.3180454460662037741158769676985684782266616821289062500
-0.4991366602848046896134803773747989907860755920410156250
-0.0144114423620800447684020539895755064208060503005981445
-0.1840200841791711228179195813936530612409114837646484375
0.6135877211862127422747903437993954867124557495117187500
0.1975405488847521984219213209144072607159614562988281250
-0.4498765359553462683805946653592400252819061279296875000
-0.3938772962354675222229616338154301047325134277343750000
-0.1551450054346303342178714501642389222979545593261718750
0.4305674909040562159390219676424749195575714111328125000
0.4612302789509790112987275279010646045207977294921875000
-0.4380948413509501149221136984124314039945602416992187500
0.0387539465583989842234480249771877424791455268859863281
0.7038753615183073186756246286677196621894836425781250000
-0.3913743922485017345813673728116555139422416687011718750
-0.1145792615305249173562884834609576500952243804931640625
0.4178015521519441444198150747979525476694107055664062500
1.1087818716428314846922376091242767870426177978515625000
0.4685574112720364281514662252448033541440963745117187500
0.0805938924021027958133345237001776695251464843750000000
-0.8248489480989984468095599368098191916942596435546875000
-0.3426178312259786085114399156736908480525016784667968750
0.6085534864009368716253334241628181189298629760742187500
0.5003775496723047444547205486742313951253890991210937500
-0.1853016295470532592837287211295915767550468444824218750
0.4834614549614852929693142868927679955959320068359375000
-0.0229856873405367319318504115699397516436874866485595703
-0.1942022341877202018523007609474007040262222290039062500
0.0011103596722897429716070405447680968791246414184570312
0.1911847481944671245379652191331842914223670959472656250
0.0739540881295033952769202301169571001082658767700195312
0.2552537354808170344533380102802766487002372741699218750
0.8629673233491219619395451445598155260086059570312500000
-1.0070142013150469306737022634479217231273651123046875000
-0.3957411129446914421770031822234159335494041442871093750
-0.9388890195076079470126728665491100400686264038085937500
0.3153912906501182833451935039192903786897659301757812500
1.1572302038656270273264681236469186842441558837890625000
-0.5072816698164440696317001311399508267641067504882812500
0.2342829040671924878402876402105903252959251403808593750
-1.1130687650319810444443646701984107494354248046875000000
0.2481364816334974410239055941929109394550323486328125000
0.1913556689785567976880287233143462799489498138427734375
-0.1966766458850181531481382535275770351290702819824218750
0.1446679572112234135605746132569038309156894683837890625
0.6254806539204449400415342097403481602668762207031250000
-0.0583929408207980657485869357969932025298476219177246094
0.3072500201007039577483226366894086822867393493652343750
0.6924767083515336318910726731701288372278213500976562500
0.4852310187530877727546396727120736613869667053222656250
-0.0852384056224144981417367716858279891312122344970703125
0.2305554865087660054712159762857481837272644042968750000
-0.1959120404058683484471714564278954640030860900878906250
0.5494461451829036890970314743753988295793533325195312500
-0.1257281409049678944089833976249792613089084625244140625
0.6137248262786419994441189373901579529047012329101562500
-0.3378256819675211630737976520322263240814208984375000000
0.1934975199984634297578622863511554896831512451171875000
0.3761924040289074677723135664564324542880058288574218750
-0.6939866150520672682944223197409883141517639160156250000
0.2383927786506086499151990665268385782837867736816406250
0.2213627874576953313834337677690200507640838623046875000
0.9943650435142065147076095854572486132383346557617187500
-1.3039976453105741605043021991150453686714172363281250000
-0.3972343130504794039836724550696089863777160644531250000
-0.0401731057411327946438106550886004697531461715698242188
0.4127718128973039690698954018444055691361427307128906250
0.3666803635003855754703749880718532949686050415039062500
-0.0043950335892961088848918116411823575617745518684387207
0.3016469664945926054677727279340615496039390563964843750
-0.2912664394425193981064126091951038688421249389648437500
-0.3259285712466803430764628046745201572775840759277343750
-0.6316630967091529935686367025482468307018280029296875000
0.8332030421460193680971428875636775046586990356445312500
-0.1282425595023903019953337434344575740396976470947265625
-0.6304570937012936582277689012698829174041748046875000000
0.2678726417492167666267732784035615622997283935546875000
-0.3357092708841312722611860408505890518426895141601562500
0.0444983843006764925864793269738584058359265327453613281
-0.2432165436749833820062605127532151527702808380126953125
0.4467950457224140747847229704348137602210044860839843750
0.6934921976097828677509937733702827244997024536132812500
0.6507545371521993304853026529599446803331375122070312500
-0.5971959610567608711662046516721602529287338256835937500
0.5772985639664889312427931145066395401954650878906250000
-0.0642966311037581617071623441006522625684738159179687500
-0.2603541251932450228956383853073930367827415466308593750
0.4429773246937723230054473333439091220498085021972656250
0.1101539780994611611442124399218300823122262954711914062
-0.1440273266525643747204554756535799242556095123291015625
-0.3237560552965035309824770592967979609966278076171875000
0.1820031388116637727225821663523674942553043365478515625
-0.1853086453855371795729212180958711542189121246337890625
-0.0686057105265105993119334470975445583462715148925781250
0.0706392853237492457374457899277331307530403137207031250
-0.3327626148446490850218992818554397672414779663085937500
-0.2057851238690703021827488328199251554906368255615234375
0.2479929329382364877609745690278941765427589416503906250
0.8587679558332786955432425202161539345979690551757812500
-0.2693634477253060155454988944256911054253578186035156250
-1.0571299159461962080541752584394998848438262939453125000
0.4744658107801006385884079463721718639135360717773437500
-0.0858112472354003313901316118972317781299352645874023438
-0.6312786678222663816484327981015667319297790527343750000
0.3325952548005501330230515577568439766764640808105468750
-0.0806662262200455865146508926954993512481451034545898438
0.2623711663826258644327538149809697642922401428222656250
0.0273540665110390129877160347859899047762155532836914062
-0.1008158276303743328128348366590216755867004394531250000
0.5361476235952157276543061925622168928384780883789062500
0.5256032631490238360427724728651810437440872192382812500
-0.4458067598202210546354251619050046429038047790527343750
0.4272521017074319971129625628236681222915649414062500000
-0.0866968806962783444802767007786314934492111206054687500
0.4484053023681872640615608816005988046526908874511718750
0.1227662711898749731131985640786297153681516647338867188
-0.7359074338302087348040458891773596405982971191406250000
-0.2826793915121276756785562156437663361430168151855468750
-0.9977348269232996225142073853930924087762832641601562500
0.3327016353491708544609650743950624018907546997070312500
0.8010910387439560409461591916624456644058227539062500000
0.3359926939462386519252845573646482080221176147460937500
-0.5149260087482118164459166109736543148756027221679687500
-0.2911625300526414772406269548810087144374847412109375000
-0.3265215274839798342831898025906411930918693542480468750
-0.2587893215269679858536733263463247567415237426757812500
-0.0445730322712812598862086588269448839128017425537109375
-0.1753557933064915086429635948661598376929759979248046875
-0.3537190895473196761145118216518312692642211914062500000
0.1494737017997022354709457658827886916697025299072265625
-0.7652711197290500422241166234016418457031250000000000000
-0.3945281122948407492856404132908210158348083496093750000
-0.4309661702230012103598255635006353259086608886718750000
0.2815065286017416346098229951167013496160507202148437500
0.4898279933515686246359166489128256216645240783691406250
-0.2430231532900248569983858715204405598342418670654296875
-0.1302599386133281855748577982012648135423660278320312500
-0.6014694349449730692569460188678931444883346557617187500
-0.7758593269290687821637675369856879115104675292968750000
0.5055984336820937841139311785809695720672607421875000000
-0.1827243953188921743446826440049335360527038574218750000
0.3067363322583749885019699377153301611542701721191406250
0.2726502481284863721455735685594845563173294067382812500
-0.4207424646632526021861053777683991938829421997070312500
-0.3468950837056454239437641717813676223158836364746093750
0.2187867186396794949576616318154265172779560089111328125
-0.6356829205867147170039288539555855095386505126953125000
-0.5646887414172168107029392558615654706954956054687500000
1.3121743971173216447567710929433815181255340576171875000
-0.2922111145917614116740423924056813120841979980468750000
-0.1194758055057908996410276358801638707518577575683593750
-0.4019465097554249521927260957454564049839973449707031250
-0.3009958492362740378744945246580755338072776794433593750
-0.3111175561553931045999377147381892427802085876464843750
-0.2545494284831421594184064360888442024588584899902343750
0.4366737998350223026733374354080297052860260009765625000
0.5725871859760084392476642278779763728380203247070312500
-0.2633389172091705199285627259087050333619117736816406250
-0.0984253194278580795240074508001271169632673263549804688
0.3132469379284417709818910680041881278157234191894531250
-0.1015371898161932934234741310319805052131414413452148438
-0.4143737509184730050115774702135240659117698669433593750
0.2230707437025278017106444394812569953501224517822265625
0.0602319100442242003068393785270018270239233970642089844
-0.4488576347132943178408481799124274402856826782226562500
-0.4702171313672144359330218321701977401971817016601562500
0.5845936304215663126271351757168304175138473510742187500
0.2085194586503021918488798291946295648813247680664062500
0.3904660754042531545238148282805923372507095336914062500
0.1316231624419500201295107899568392895162105560302734375
0.4922351839086437363945947254251223057508468627929687500
-0.6981448540872682295699291898927185684442520141601562500
0.2343000412586910552459329437624546699225902557373046875
0.0130511240112643409072568090323329670354723930358886719
-0.0566961553768569118116893434944358887150883674621582031
0.5193629665271947137838992603064980357885360717773437500
-0.1963878946325451346766044480318669229745864868164062500
-0.1860948936045464519040137929550837725400924682617187500
-0.0449133207077795706951839349585497984662652015686035156
0.3616211342775933479387617808242794126272201538085937500
1.3472168945337814616181049132137559354305267333984375000
-0.1674829683779653632935691121019772253930568695068359375
-0.3410111134276553324085057283809874206781387329101562500
-0.1650987873982467102340621067924075759947299957275390625
0.2821384109284431063180420551361748948693275451660156250
0.1895692181020245392630840797210112214088439941406250000
0.5407840063567768140728730941191315650939941406250000000
-0.1307739270995153524346221729501849040389060974121093750
-0.2290876179549084235009814847217057831585407257080078125
0.2278632224471857092851223569596186280250549316406250000
-0.0799502130206362626729799103486584499478340148925781250
-0.7144070034017854231578326107410248368978500366210937500
0.0507958371221383722660114301561407046392560005187988281
0.5971027657206380290233482810435816645622253417968750000
-0.3270197004983225741447938617056934162974357604980468750
0.4223511895797994464274438541906420141458511352539062500
0.0238988242147871593479280249994189944118261337280273438
0.5279089830802055072211942388094030320644378662109375000
0.1921467269229638341609955887179239653050899505615234375
-0.3235843656387508704419531113671837374567985534667968750
-0.3785578048599265166274108196375891566276550292968750000
0.3277991552815245346330641496024327352643013000488281250
0.2488917437006085697781543331075226888060569763183593750
0.4663571304889437829643838995252735912799835205078125000
-0.0045018311949575904110099067167993780458346009254455566
0.2257848352985818707328036225590039975941181182861328125
-1.2029189657746477415400931931799277663230895996093750000
-0.3836718945969256888695042562176240608096122741699218750
-1.0214586664927114423306875323760323226451873779296875000
-0.4089152417297878261415178258175728842616081237792968750
-1.5067827948996244113999409819371066987514495849609375000
0.9996217445438976278992981860938016325235366821289062500
-0.7727889093313099477811078941158484667539596557617187500
-0.7452364702442981769792140767094679176807403564453125000
0.0401028518509382314594091667458997108042240142822265625
0.2703307327871099507987651122675742954015731811523437500
