nn
1,10,10,10,10,10,1
dIn
0
dIntern
,
dOut
,
normP
1.9999999999999984
normY
1.0
w
-0.0154778584466390700669080615625716745853424072265625000
1.4068345215984463525416003903956152498722076416015625000
-1.2301775692473366774493115372024476528167724609375000000
-0.3822932457222904534255292219313560053706169128417968750
1.5004219761795822840610981074860319495201110839843750000
1.3496982932070460403650713487877510488033294677734375000
-1.3756321683721792759058644151082262396812438964843750000
0.3104630517070801065671048490912653505802154541015625000
1.3416507882572468179915858854656107723712921142578125000
-1.2456688810035760894834311329759657382965087890625000000
0.8665771366294617861214533149905037134885787963867187500
0.1613309251826218482239738705175113864243030548095703125
-0.3590559197336686825252627386362291872501373291015625000
-0.4713144727150250234970485507801640778779983520507812500
-0.0748094757858591558052907544151821639388799667358398438
0.3278781116483382440662808221532031893730163574218750000
-0.3659660396217879196889555259986082091927528381347656250
0.6037727967357567893103009737387765198945999145507812500
0.7397772764686630919683807405817788094282150268554687500
0.1791926787309108815016145399567903950810432434082031250
-0.0791515843712466693471441203655558638274669647216796875
0.2736948789765212275426620180951431393623352050781250000
-0.2883235023666398388897391669161152094602584838867187500
-0.1240571743772486690282619292702293023467063903808593750
-0.0361184184323964166396514485768420854583382606506347656
-0.1840194892010121041625581028711167164146900177001953125
0.3325572171235239848918752159079303964972496032714843750
0.1891833402300174826748957457311917096376419067382812500
-0.5856670461805598693061369885981548577547073364257812500
-0.8843930152963103141772194248915184289216995239257812500
-0.6131443376212671880765014975622761994600296020507812500
0.9285325303574771815817712194984778761863708496093750000
-0.2407389540558934337699525940479361452162265777587890625
-0.6530225810804480834903529284929390996694564819335937500
-0.0805382644233999106520016653121274430304765701293945312
-0.4359254038524477681271207529789535328745841979980468750
-0.5590464334927106593298162806604523211717605590820312500
0.8802268953951677410429965675575658679008483886718750000
0.7201192684505695051910834081354551017284393310546875000
0.7551101649291226403093446606362704187631607055664062500
-0.0435943126961627000492960348765336675569415092468261719
-0.6362759765016434698736702557653188705444335937500000000
0.6476823105756633891516571566171478480100631713867187500
0.0724652570488976272011782953086367342621088027954101562
0.6986835325050040346184232475934550166130065917968750000
0.6105354074673893238767163893498945981264114379882812500
0.4044753718266546616000312042160658165812492370605468750
-0.8795177102919204958908494518254883587360382080078125000
0.2405021684510945667589965069055324420332908630371093750
0.0452765652103321175614425442290666978806257247924804688
0.3375887675458073000633874016784830018877983093261718750
-0.4926094214784908498216964289895258843898773193359375000
-0.0510474316237880532121096166520146653056144714355468750
0.5757863612254714436033964375383220613002777099609375000
0.0651335431764474698246303319137950893491506576538085938
-0.4608189800373612698969338907772907987236976623535156250
0.0059678215571857705021296958136645116610452532768249512
-0.1988576630654939614295528826914960518479347229003906250
-0.2064819213967121203090471226460067555308341979980468750
0.4451235075427976695117138206114759668707847595214843750
-0.4650097499804245471111130427743773907423019409179687500
0.1195615077718301944020851124150794930756092071533203125
-0.3251893451378000676754709274973720312118530273437500000
-0.4606671474888771600220138680015224963426589965820312500
-0.1049102288692168039041519023157889023423194885253906250
-0.5999009196103023411339449921797495335340499877929687500
-0.6761986927638625743952616176102310419082641601562500000
1.3130126802676098662914228043518960475921630859375000000
0.5261524502181511575571448702248744666576385498046875000
0.7178772815151895914098645334888715296983718872070312500
-0.1822446193822076510038243668532231822609901428222656250
0.9274396081913377498651129826612304896116256713867187500
-0.7457433278195547687872135611542034894227981567382812500
0.1153689852039370689062991459650220349431037902832031250
-0.5610130671613904329575461815693415701389312744140625000
0.0293377655011475627078176842132961610332131385803222656
0.3663975938911318008806006218947004526853561401367187500
0.8028715760064982776000874764577019959688186645507812500
0.6108420487692859390804756003490183502435684204101562500
0.4346387541370810292384874173876596614718437194824218750
0.7851288603665810272858038842969108372926712036132812500
-0.9680396894523437545387878344627097249031066894531250000
-0.1049141153327588643628942577379348222166299819946289062
-0.0073277105081967766272987852005371678387746214866638184
0.9101442529101300138449914811644703149795532226562500000
0.4995317141475746347545339176576817408204078674316406250
0.0393528380434734273429775441854872042313218116760253906
-0.7349441256070774475261941915960051119327545166015625000
0.1292560337601977860089164096280001103878021240234375000
-0.3464036976868424266839951997098978608846664428710937500
0.3078363092966063807587318024161504581570625305175781250
0.5709579004785241274078089190879836678504943847656250000
0.2832955813757193630486597157869255170226097106933593750
-0.1985920309869400046665077752550132572650909423828125000
-0.3936117295388803505318264797097072005271911621093750000
0.2693729392070013939353145815402967855334281921386718750
0.1142062255551821309262905401737953070551156997680664062
0.4854561292533427496742604034807300195097923278808593750
-0.3538664307938554354215909825143171474337577819824218750
-0.6252217545549431099161097336036618798971176147460937500
-0.5352383465670820239523663985892198979854583740234375000
0.3979279131138109826260063073277706280350685119628906250
-0.8239658481655999233694842587283346801996231079101562500
-0.5039927681137822412793525472807232290506362915039062500
-0.9643723598701922083975546229339670389890670776367187500
-0.5777360635583682624272228167683351784944534301757812500
0.2546992750192933474551182371214963495731353759765625000
0.7089738344782345880190632669837214052677154541015625000
0.3882096603766563291948443747969577088952064514160156250
-0.5726727599508184551879708124033641070127487182617187500
-0.0462474596899264331351098178402025951072573661804199219
-0.0766705760305245176411403917882125824689865112304687500
0.0739276967660973255425105321592127438634634017944335938
0.6748674291046949935690690836054272949695587158203125000
0.2398721071602145371581826793772052042186260223388671875
-0.0167842074686987037523966392882357467897236347198486328
0.5959201787764445423789538835990242660045623779296875000
-1.1939723462997122727102805583854205906391143798828125000
0.0113911944122995576617052293499909865204244852066040039
-0.6613207606751496658858968658023513853549957275390625000
-0.6146660867643323200582017307169735431671142578125000000
0.0760104813673374568594454103731550276279449462890625000
-0.4268937272725761844505143471906194463372230529785156250
-0.3368639570839085939368828803708311170339584350585937500
-0.9239927307474290474331723999057430773973464965820312500
0.1540734570305766770736966009280877187848091125488281250
0.6464292649852592109738225190085358917713165283203125000
-0.2984419513314647276480684467969695106148719787597656250
-0.4640443148787365967855578219314338639378547668457031250
-0.4122043494547607545008816032350296154618263244628906250
-0.7379326015129500371259041457960847765207290649414062500
0.7913111232837484187996324180858209729194641113281250000
0.0083764195523818221061906896807158773299306631088256836
-0.3642494322429125630513624400919070467352867126464843750
0.4038123101370889589389889806625433266162872314453125000
0.2229471605968538217013019675505347549915313720703125000
0.0882851569562537186186546023236587643623352050781250000
-0.0521409112176915712222324827962438575923442840576171875
0.0186743892984566652037958789378535584546625614166259766
-0.8264264237684894043312056055583525449037551879882812500
0.6431967373615634642192162573337554931640625000000000000
-0.5102561181785397748100763237744104117155075073242187500
-0.2454153919068246259005405818243161775171756744384765625
0.3922817591782929436128313227527542039752006530761718750
-1.0024540288626251349768381260219030082225799560546875000
0.1104779097714179286748858999089861754328012466430664062
0.4185675938908033910657024989632191136479377746582031250
0.3502239027617591315966194542852463200688362121582031250
-0.1907051261669456543312861640515620820224285125732421875
1.4872683408379083758177330309990793466567993164062500000
-0.3433365106126403110131661833293037489056587219238281250
0.4300560417744213603796765710285399109125137329101562500
0.2701225677254234236457364204397890716791152954101562500
-0.5046256714450938485327924354351125657558441162109375000
0.7937557235357121099283972398552577942609786987304687500
0.0805673462401919754372059401248407084494829177856445312
-0.2596208988040730192281557719979900866746902465820312500
0.2977155737327060736063799595285672694444656372070312500
0.3242494258731514755744740341469878330826759338378906250
-0.8792835197446983164226708140631671994924545288085937500
-0.3455308135912479872153824089764384552836418151855468750
-0.0454118120753957757451679810856148833408951759338378906
-0.2725508719075795394104488877928815782070159912109375000
-0.7200447171701426229972753390029538422822952270507812500
0.3376904325692813846337969607702689245343208312988281250
-0.3284323617332411959779392418568022549152374267578125000
-0.4577771743058808295856465520046185702085494995117187500
0.1721754296454519050918463562993565574288368225097656250
0.2697109883315785827662125484494026750326156616210937500
-0.5219040435687427592625908800982870161533355712890625000
-0.4892681534703999801649842993356287479400634765625000000
0.8052652955042777227490091718209441751241683959960937500
0.0608088142694590827463940740926773287355899810791015625
0.1804280787711705080766932951519265770912170410156250000
0.7975893949541918992451883241301402449607849121093750000
0.4964467920076776619175973337405594065785408020019531250
-0.0466723709985755602636103844815806951373815536499023438
-0.3944273441704827520837284282606560736894607543945312500
0.2499332162366796061814255835997755639255046844482421875
-1.4991674498558418271443315461510792374610900878906250000
-0.7685486859227027567342815927986521273851394653320312500
-0.6506467459576487089023544285737443715333938598632812500
-0.1302061797544647181457122542269644327461719512939453125
-0.1267164565976418855175467115259380079805850982666015625
0.0792958986445615743310355583162163384258747100830078125
-0.1116940597673134749623358175085741095244884490966796875
-0.3434950181380717615375885998219018802046775817871093750
-0.7894674161436706638639293487358372658491134643554687500
0.4423552880231360617813152202870696783065795898437500000
-0.2179913417356419136350353937814361415803432464599609375
-0.5460889236083535935861732468765694648027420043945312500
-0.3684581526174349752622561027237679809331893920898437500
0.1328924846103884116477189536453806795179843902587890625
0.1429280675498382502386363057667040266096591949462890625
0.0012940475190775578388791000605806402745656669139862061
-0.6785017681224662089434218614769633859395980834960937500
-0.1206593757790008769603673499659635126590728759765625000
-0.9072769895023580222215286994469352066516876220703125000
0.5899921339962003186130345966375898569822311401367187500
0.2492553163132195659379419794277055189013481140136718750
1.5971173968974707868540008348645642399787902832031250000
0.6313334540369942571302885880868416279554367065429687500
-0.4900016056451709234309532803308684378862380981445312500
0.3403455424060320422263714590371819213032722473144531250
0.2001829313763704154549571967436349950730800628662109375
0.4499811458560568078191010954469675198197364807128906250
0.9790736073233060610121469835576135665178298950195312500
1.7758305100098796813767876301426440477371215820312500000
-0.3509405588138632681172168759076157584786415100097656250
-0.1637817350727756027239934155659284442663192749023437500
0.2810922204756070019726621467270888388156890869140625000
0.6011112070396611439804246401763521134853363037109375000
0.2967309032962880954720219506270950660109519958496093750
0.3540934563402200474513392691733315587043762207031250000
0.3234285145508991043961088962532812729477882385253906250
0.1496406191529707774279245313664432615041732788085937500
-0.4196224249648893844799601993145188316702842712402343750
0.3299591895179567191398462000506697222590446472167968750
-0.3938487310533361207554037264344515278935432434082031250
0.3147279296942948612070267699891701340675354003906250000
0.8206353578295705331058229603513609617948532104492187500
0.5895176378767744695963415324513334780931472778320312500
0.0215243761385768249405625596182289882563054561614990234
-0.0894925340668878410710362913960125297307968139648437500
-0.1414915121783135443234158401537570171058177947998046875
0.6514379160030763227240413471008650958538055419921875000
0.5493090033643591718615084573684725910425186157226562500
1.1997311265531853674559670253074727952480316162109375000
-0.2216454121174261659987791972525883466005325317382812500
0.2066601017665430084502276031344081275165081024169921875
-0.1976497602377176865395824734150664880871772766113281250
-0.1991953485882845265031448889203602448105812072753906250
-0.3957266247304214723534698805451625958085060119628906250
0.5306909964544013202925043515278957784175872802734375000
0.6271970336041875482280261167034041136503219604492187500
0.1915152545376507531305065867854864336550235748291015625
0.3009289640050659131453869576944271102547645568847656250
0.2690606800070287074611030675441725179553031921386718750
0.7098807399110096394423408128204755485057830810546875000
0.4136214832504565008797214886726578697562217712402343750
-0.0915023155050216224770665007781644817441701889038085938
-0.8324329662203842072898396509117446839809417724609375000
0.0745083269773535311619738763511122670024633407592773438
0.5377596729583189461010306331445463001728057861328125000
0.0330729897089527269393727237911662086844444274902343750
1.1378168516774429530613588212872855365276336669921875000
-0.0082010222086768315430393982978785061277449131011962891
0.0766845897428611311674728767684428021311759948730468750
-1.3003700374709155074270938712288625538349151611328125000
0.3042530751618903184230191527603892609477043151855468750
0.8914222507468990697176991488959174603223800659179687500
-0.1330430279730087927969606198530527763068675994873046875
0.0015304864719816050136480534149541199440136551856994629
0.5119342177187486964129448097082786262035369873046875000
-0.2295789515708350769784829026320949196815490722656250000
0.7770192017710192411428238301596138626337051391601562500
0.1958290589716616958426698147377464920282363891601562500
0.4607710704245515098698149358824593946337699890136718750
-0.2732863436029162595986008454929105937480926513671875000
0.0361200070600225936479077404328563716262578964233398438
-0.0813955501254550461975867392538930289447307586669921875
0.3147282359008360952401517351972870528697967529296875000
0.0085651598579288262119701968799745372962206602096557617
0.2001111500094379380687570346708525903522968292236328125
-0.6161138604158600262650224976823665201663970947265625000
0.0321993410727939716187151475423888769000768661499023438
-0.6099686228321860026468925752851646393537521362304687500
0.1786182651594226122870878725734655745327472686767578125
-0.1402142295397646731824892185613862238824367523193359375
0.0623017274953189814645782007573870941996574401855468750
0.0879058399547132524043391299528593663126230239868164062
0.5187775664285186882906941718829330056905746459960937500
-0.4777393492566965882417662214720621705055236816406250000
0.3975590803624873270649686674005351960659027099609375000
0.7593343656075647318814958453003782778978347778320312500
-0.5103621082908104122921599810069892555475234985351562500
0.3877783109556968699216383811290143057703971862792968750
0.2054263667800775849947569895448395982384681701660156250
-0.6441875011240068005236025783233344554901123046875000000
-0.5073897310059313214836151928466279059648513793945312500
0.5369890299622992468897564322105608880519866943359375000
0.1499388784192333123890250590193318203091621398925781250
0.2090941417598791429721671875086030922830104827880859375
0.5531517798940742691726768498483579605817794799804687500
0.7753189198336365439701012292061932384967803955078125000
0.0456862602268173073616353008219448383897542953491210938
0.3249548759324254465497006094665266573429107666015625000
0.2609178236294993347144099971046671271324157714843750000
-0.5883049139239945324320046893262770026922225952148437500
0.0773194414882535235866711786911764647811651229858398438
-0.4531000627772093780620821235061157494783401489257812500
-0.6808886017161194237345966939756181091070175170898437500
-0.2199716524037631792953817466695909388363361358642578125
0.5722550469944847062464532427839003503322601318359375000
0.1504441510984951824170252621115650981664657592773437500
0.7218121941139915564988882579200435429811477661132812500
-0.5000285244935478434769038358354009687900543212890625000
0.3579158513268040908705813762935576960444450378417968750
-0.0768191637246919828418967313155008014291524887084960938
0.2310851305443626657609712538032908923923969268798828125
-0.1225326298405964436932791272738541010767221450805664062
-0.4681824075731944589939814704848686233162879943847656250
0.4944902474305236106388861117011401802301406860351562500
-0.2425596099022424290136967783837462775409221649169921875
-0.6791755584337009210571522999089211225509643554687500000
0.8541178869713859089785046307952143251895904541015625000
-0.3773746202818863415551220441557234153151512145996093750
-0.0067834598704225295556780039873956411611288785934448242
0.1930968295698285985828590582968899980187416076660156250
0.0445654544800674831672715470176626695320010185241699219
0.5308170543383931017089594206481706351041793823242187500
0.6618246638166419559823339113791007548570632934570312500
0.4055368375692626203843360599421430379152297973632812500
0.2913800890693675205156409901974257081747055053710937500
0.9587708595457148375018618935428094118833541870117187500
1.6956093423744520443108285689959302544593811035156250000
0.5946952841056680760800645657582208514213562011718750000
0.0455615441442702925889385312530066585168242454528808594
0.0040498866862179530579091135678027058020234107971191406
0.7169577353228736571466583882283885031938552856445312500
-0.4998038309425751335446364009840181097388267517089843750
0.2870105196944030545580517355119809508323669433593750000
-0.1863902917412854354228812781002488918602466583251953125
-0.0675414979266622111930828964432294014841318130493164062
0.3678324087744324066839851639088010415434837341308593750
-0.3901741602371765482715204598207492381334304809570312500
0.4187154776731926708599473840877180919051170349121093750
0.1629638569800257175135271836552419699728488922119140625
-0.2916025721835037720630623425677185878157615661621093750
0.0921366182644743764162953425511659588664770126342773438
-0.1377559160443594943323830648296279832720756530761718750
0.1164969243839500401271891405485803261399269104003906250
0.3048491317379261045239502436743350699543952941894531250
-0.8126622519251645027082986416644416749477386474609375000
0.1801373258037998192904183270002249628305435180664062500
-0.3543450822074345474277379253180697560310363769531250000
-0.0287398333816065269796791170620053890161216259002685547
-0.4824910217126752165484049328370019793510437011718750000
-0.9841540431125007648560654160974081605672836303710937500
-0.5759710914034151807427974745223764330148696899414062500
-0.1837899670923643646869294343559886328876018524169921875
0.3662172079894129295141169677663128823041915893554687500
0.2220327924194833157933715028775623068213462829589843750
-0.0660068298174152079393905978577095083892345428466796875
0.0576740203639535195523357913316431222483515739440917969
0.6202255854268869939005526248365640640258789062500000000
-0.3167640685456978855150111940019996836781501770019531250
-0.0698993872250322501038510836224304512143135070800781250
-0.2247205344782214064824898969163768924772739410400390625
-0.2813684364923964009719270507048349827527999877929687500
-0.1676939408121222163661201420836732722818851470947265625
-0.8510983711667796658417728394852019846439361572265625000
0.3003289261530903697661187834455631673336029052734375000
-0.2036212879754359106332373130499036051332950592041015625
-0.5183431444442686553131238724745344370603561401367187500
0.6058836938391619630905893245653714984655380249023437500
-0.1330487391998437518569886606201180256903171539306640625
0.0864183034030876762177086902738665230572223663330078125
-0.0602543131614517030181232826180348638445138931274414062
0.3925305852919835913894530676770955324172973632812500000
0.6218126500845528870087264294852502644062042236328125000
-0.8252882820787833528797250437492039054632186889648437500
0.2480079580919613280176605485394247807562351226806640625
0.1400472421067816553019724779005628079175949096679687500
-0.5785522313128089733069714384328108280897140502929687500
0.4881672998164082177829925512924091890454292297363281250
0.1039237685853119375067876717366743832826614379882812500
-0.4361823446460569297933318466675700619816780090332031250
-0.0336521349646219311568806631385086802765727043151855469
-0.2849954767901480834346727988304337486624717712402343750
0.5248561177095824037408533513371367007493972778320312500
-0.2333267606824595552517109808832174167037010192871093750
-0.2199707092502720673365956827183254063129425048828125000
0.5158034838002389932398727978579699993133544921875000000
-0.1390489923079134826355840459655155427753925323486328125
-0.3620596767868062837436582412919960916042327880859375000
0.2105977252930209819847817698246217332780361175537109375
0.1722207653976815799889976688064052723348140716552734375
0.3289671315199504952886400133138522505760192871093750000
0.3877205061561134202818834637582767754793167114257812500
0.4969748434627944133623600464488845318555831909179687500
-0.1937242542345163909267569124494912102818489074707031250
-0.3075948530013524195858565235539572313427925109863281250
-0.2407965819724504075161064520216314122080802917480468750
-0.5182561854936750256328537034278269857168197631835937500
0.4341376005694105866261622850288404151797294616699218750
-0.1441890490495372767476567332778358832001686096191406250
0.0854821629867440341277173843081982340663671493530273438
0.0272705138585860769329105579572569695301353931427001953
-0.1346212399056257169593919797989656217396259307861328125
0.8138735504427190292631166812498122453689575195312500000
-0.8096330279685566289060716371750459074974060058593750000
-0.5893015065587630108012717755627818405628204345703125000
-0.6615098917409584222681928622478153556585311889648437500
-0.6890339764949187095766092170379124581813812255859375000
0.8060759975592284298784306884044781327247619628906250000
0.2606183115135912720106148299237247556447982788085937500
-0.0574258486463346817796349341733730398118495941162109375
0.3378277130415433537891090054472442716360092163085937500
-0.0312758671679749800098591094865696504712104797363281250
-0.0559559079550036655992251155566918896511197090148925781
0.7244162258533926035397598752751946449279785156250000000
-0.2087585836605924949349599728520843200385570526123046875
0.5467160962270951607422375673195347189903259277343750000
0.5585027883304979345879814900399651378393173217773437500
-0.5417775011195408163544584567716810852289199829101562500
-0.4137396350251274501630405211471952497959136962890625000
0.7401775454354758698727323462662752717733383178710937500
0.4932860374920802204457004336290992796421051025390625000
0.8993362172150068944986855967727024108171463012695312500
0.6253513370450695108004879330110270529985427856445312500
-0.0704659470721057251685337519120366778224706649780273438
-0.0741439016594053756925575271452544257044792175292968750
-0.2963512087857359533771273163438308984041213989257812500
-0.5784313812347695593629737231822218745946884155273437500
0.2010915852388597824251803558581741526722908020019531250
-0.5096347552260720448202846455387771129608154296875000000
-0.1684973701960165159974280868482310324907302856445312500
0.3140942554725587587682866796967573463916778564453125000
0.4338383278435030132591521123686106875538825988769531250
0.2739749264241528314833828972041374072432518005371093750
-0.1427909181286541318023353142052656039595603942871093750
0.1713383549990212528779665035472135059535503387451171875
-0.1727609179102974901187650402789586223661899566650390625
0.1136255405745212054835491244375589303672313690185546875
0.0410710025913894397064929364660201827064156532287597656
0.0985351823849900110285915388885769061744213104248046875
-0.0825446636117218995876143594614404719322919845581054688
0.4314849022104835229995956069615203887224197387695312500
0.4196645077782606980676405328267719596624374389648437500
-0.4051277324380488376043274456606013700366020202636718750
0.6900862310975131030943430232582613825798034667968750000
-0.2575312865190548805571779666934162378311157226562500000
0.4949584318890903888998877846461255103349685668945312500
0.7906333630314623661661244113929569721221923828125000000
-0.4221901461323361304245338487817207351326942443847656250
0.3526633218701588079468933756288606673479080200195312500
0.3780374724175987743990390299586579203605651855468750000
0.1120225905440045827132777844781230669468641281127929688
0.1029765636362715841567450070215272717177867889404296875
-0.2618944299064872582860630245704669505357742309570312500
-0.0040342165926564726996517151746957097202539443969726562
-0.0002110714565958434494122308855423852946842089295387268
-0.5334334825879433195083834107208531349897384643554687500
0.0680088076250019851753947364159103017300367355346679688
0.3676652396464865635294927415088750422000885009765625000
-0.1189752218050800641746533869991253595799207687377929688
-0.4877965944126684272319494084513280540704727172851562500
-0.1655690697115446696763285672204801812767982482910156250
0.8586381172168850994808053656015545129776000976562500000
0.0178250964277639201149838754645315930247306823730468750
0.1792381427708902297268878101021982729434967041015625000
-0.0437717662291925505013701069856324465945363044738769531
-0.4907111124753497088946119220054242759943008422851562500
0.2022572447904893988557262218819232657551765441894531250
0.2632375776158530911175148503389209508895874023437500000
-0.3867455398106051100981517265608999878168106079101562500
-0.0167988601012108058896377116298026521690189838409423828
-0.5361296644828564827989225705096032470464706420898437500
-0.5455583748014245504265318231773562729358673095703125000
1.2869218313576171741630105316289700567722320556640625000
-1.4587201996123060343535371430334635078907012939453125000
-0.1978566996513267117752121748708304949104785919189453125
-1.0488445518378171072981785982847213745117187500000000000
-1.5093224983110289372234547045081853866577148437500000000
1.4107198549836299505955139466095715761184692382812500000
-0.2756637558805559162777853998704813420772552490234375000
-0.9496534921068284784695379130425862967967987060546875000
-0.2892987585449945941995508746913401409983634948730468750
0.6374394363863633561351207390544004738330841064453125000
0.0781954019795249172242179724889865610748529434204101562
