nn
1,10,10,10,10,10,1
dIn
0
dIntern
,
dOut
,
normP
1.9999999999999984
normY
1.0
w
0.8064672654359230641318845300702378153800964355468750000
1.1698139459644847359953701015911065042018890380859375000
0.0869221836059063390766965540024102665483951568603515625
-0.5049232571798663027351494747563265264034271240234375000
0.6763416033974584129495610795856919139623641967773437500
-0.1314677769412834207329865421343129128217697143554687500
0.1515675610912740334246251450167619623243808746337890625
0.0632402278215966479057996707524580415338277816772460938
0.6872153587017183484775273427658248692750930786132812500
0.0735260955496161161537571615554043091833591461181640625
-0.4351161294698250858736798818426905199885368347167968750
0.3041774413176904223732321952411439269781112670898437500
0.4883944321076219563515508070850046351552009582519531250
0.5824952845209900864631435979390516877174377441406250000
0.2999474864452517097745953833509702235460281372070312500
-0.1429683253837266965202701385351247154176235198974609375
0.4958934425026600423258571481710532680153846740722656250
0.0754344839812919332189267151989042758941650390625000000
-0.1136921904447959624784303400701901409775018692016601562
0.0462969863212701060461995439254678785800933837890625000
0.4279220629329681391261885892163263633847236633300781250
0.7078894090570584385346819544793106615543365478515625000
0.3276363691265480326819670153781771659851074218750000000
-0.1811232428712533093495551383966812863945960998535156250
0.2462472614336964349401881690937443636357784271240234375
-0.4575601061476677333672569147893227636814117431640625000
0.4214684689574240694653894934162963181734085083007812500
-0.0057086714420507313205721544591142446734011173248291016
-0.4094402595386410492750428602448664605617523193359375000
0.0457250564087786706690685889498126925900578498840332031
-0.5599172927775976082997999583312775939702987670898437500
0.8923296954537373038007785908121149986982345581054687500
-0.1319219407417741296573154841098585166037082672119140625
-0.8738319972878988428632851537258829921483993530273437500
0.2557867328825607078357506907195784151554107666015625000
0.4355338626810552060675263419398106634616851806640625000
-0.4708093661549842545710475860687438398599624633789062500
0.1778650343573076331171733954761293716728687286376953125
-0.0357565632791649393174004956108547048643231391906738281
0.6463611250530656437973675565444864332675933837890625000
-0.1639243260352935271928487281911657191812992095947265625
-0.0272578048095487059099273352558157057501375675201416016
-0.5241155785964257685094480621046386659145355224609375000
-0.4524258264957759512192581041745143011212348937988281250
-0.4014201039612292909453117317752912640571594238281250000
0.4270383411983187937899231201299699023365974426269531250
-0.3648876043892135823121236626320751383900642395019531250
0.0554183334799695850869660773696523392572999000549316406
-0.1323914550779046184203480152064003050327301025390625000
-0.1857496131275128414817032762584858573973178863525390625
-0.3675331427052465071980691391217987984418869018554687500
-0.1785683252337785242858103629259858280420303344726562500
0.0549927861485347557746194979699794203042984008789062500
0.2443446739483606244824898112710798159241676330566406250
0.1483386657252084295244287659443216398358345031738281250
0.4406353772932637968828828434197930619120597839355468750
-0.4628299565531344139657221603556536138057708740234375000
0.4428347065581472730144696470233611762523651123046875000
-0.2387225552421013141657368805681471712887287139892578125
0.2123612707065000715367375505593372508883476257324218750
0.0358973119283762936992943082259444054216146469116210938
0.4394097140616138874591456442431081086397171020507812500
-0.5619604454587013853128496521094348281621932983398437500
-0.2743317393406602411332073643279727548360824584960937500
0.0819053559219895255250065702057327143847942352294921875
0.3677300186234931933526581815385725349187850952148437500
-0.1649752232784700012313550132603268139064311981201171875
-0.5257745719496913494594991789199411869049072265625000000
0.2938138211179965875174957545823417603969573974609375000
0.1050992142846219334906265885365428403019905090332031250
-0.2134913553766759897190041783687775023281574249267578125
-0.1989876626772772716389425795568968169391155242919921875
0.1675684293045676953592959534944384358823299407958984375
-0.2471961031819236986883936424419516697525978088378906250
0.0071465668996812791585737656419041741173714399337768555
-0.0469411826963798128886651284119579941034317016601562500
0.0390990799662260662961088542033394332975149154663085938
-0.4376839722712163038842447804199764505028724670410156250
-0.2535810439483257017201367489178664982318878173828125000
-0.2350097673255460706265296266792574897408485412597656250
-0.3578889650813746881041765846021007746458053588867187500
-0.4169204784824417919786299080442404374480247497558593750
0.0006840936909501617617032631635254347202135249972343445
-0.3102812281369465852165490105107892304658889770507812500
0.4016977769712865575790772254549665376543998718261718750
0.1794716301935485591734220633952645584940910339355468750
0.0927856504164487200236877129100321326404809951782226562
-0.0840399624519660298771484008284460287541151046752929688
0.1444619297374445943127341251965845003724098205566406250
-0.0238084868785901279664152241366537055000662803649902344
-0.1875996782491992920238743636218714527785778045654296875
0.1503067182524177036739843060786370187997817993164062500
-0.0512548969644767080100500322714651701971888542175292969
0.3131340563149944689058656877023167908191680908203125000
-0.1275980236128721745370029339028405956923961639404296875
0.0774105232421963412869914122893533203750848770141601562
-0.3692104603555967923256275753374211490154266357421875000
0.0504344819423782411704770822780119488015770912170410156
0.1301015516640350033750195279935724101960659027099609375
0.1134032602660514227332910763834661338478326797485351562
0.0808759890320308733047127702775469515472650527954101562
0.2733792285931874732618496182112721726298332214355468750
0.1642166903969300428833832938835257664322853088378906250
-0.4736889242636871943936682782805291935801506042480468750
0.3757623452538908503939296679163817316293716430664062500
-0.0103761099254995967783310462095869297627359628677368164
0.3033624626861556317081181077810470014810562133789062500
-0.4253732778936148428705621427070582285523414611816406250
0.2489440890003058737267593869546544738113880157470703125
0.0381396759637147517163491272640385432168841361999511719
-0.4502961650551121630670081685821060091257095336914062500
0.0326378122549137450469913801498478278517723083496093750
-0.1509660178416803166800974622674402780830860137939453125
-0.0887139461873658330404168737004511058330535888671875000
0.2232625038672132189443431116160354577004909515380859375
-0.1478029146809453908684162115605431608855724334716796875
-0.2239209483494400687586534104411839507520198822021484375
0.0497297960023822607777965743025561096146702766418457031
-0.4540446786092487974073605982994195073843002319335937500
-0.3822858476007595096568536519043846055865287780761718750
0.3216552127853586906525151789537630975246429443359375000
-0.2019561661018096643260832934174686670303344726562500000
0.1883309847978301698745440262428019195795059204101562500
0.1426312159869681239765526470364420674741268157958984375
-0.2858815114317301842028484770708018913865089416503906250
-0.4485689319537999875109335334855131804943084716796875000
0.1729330936601689572285067697521299123764038085937500000
-0.3801189894249070722054284487967379391193389892578125000
0.3829298708580441412685502200474729761481285095214843750
-0.1499208140247485498974810980143956840038299560546875000
0.0343740196939143968779539761726482538506388664245605469
-0.3293471586564452602274855053110513836145401000976562500
0.5416763832885341800604805939656216651201248168945312500
-0.2211986415712883513595699014331330545246601104736328125
0.2118621175981172111146833003658684901893138885498046875
-0.1628425131683325921549965187296038493514060974121093750
-0.1108663443628001010754502431154833175241947174072265625
-0.1036110884637039403211034027663117740303277969360351562
0.3223237260072598919791175831051077693700790405273437500
-0.4405239156685617496478357679734472185373306274414062500
0.0276480507200682172619377041655752691440284252166748047
-0.1094726696567919627112175362526613753288984298706054688
-0.9038317435815362843598563813429791480302810668945312500
0.6065330345467132566739110188791528344154357910156250000
0.6627104403158039502841347712092101573944091796875000000
-0.5454693949046883760800596974149812012910842895507812500
0.1291880180134653555157342452730517834424972534179687500
-0.1931701536126689267014455708704190328717231750488281250
-0.3950635480745602889918188793672015890479087829589843750
-0.6927086863430899077442859379516448825597763061523437500
0.3957707129674081780734695712453685700893402099609375000
0.2534947220289239799839720035379286855459213256835937500
0.4857233289116790753148222847812576219439506530761718750
0.1162363885060443968733068231813376769423484802246093750
-0.2635570514276633358186074929108144715428352355957031250
-0.4344438841372825210740415968757588416337966918945312500
0.0486290457818972926551381874560320284217596054077148438
-0.2504388267337663842582173856499139219522476196289062500
-0.2702395002215772779052826990664470940828323364257812500
-0.4503515482047341644822324724373174831271171569824218750
0.0244092639637073505198827660933602601289749145507812500
-0.1547941595898116307061798124777851626276969909667968750
0.8178507949922763087258203995588701218366622924804687500
-0.3800753139565491989237955294811399653553962707519531250
-0.2310495136814242900236138211766956374049186706542968750
0.0960957767801663420570434936962556093931198120117187500
0.2858202241629791418020545279432553797960281372070312500
-0.2694882484223549701241040565946605056524276733398437500
0.3226722296313814797308339166193036362528800964355468750
0.3164687738996750931974588638695422559976577758789062500
0.1922398057159444839658846149177406914532184600830078125
-0.3571603521155137239695420703355921432375907897949218750
0.1012092856924034500742948239349061623215675354003906250
0.3150766581911930708237434828333789482712745666503906250
0.4240225814361813228003939002519473433494567871093750000
-0.3926637223236250640034938896860694512724876403808593750
-0.3977407143157463131899476138642057776451110839843750000
0.5144060693734778810792818148911464959383010864257812500
-0.0221697061724993593756494192348327487707138061523437500
-0.0579662729621808064939258997583237942308187484741210938
-0.2299985295031386767217185251865885220468044281005859375
-0.1868198503617773398310930588195333257317543029785156250
-0.3875657072473035480442149491864256560802459716796875000
-0.4626818457371346116069332765619037672877311706542968750
0.2035283091550628697952163292939076200127601623535156250
0.1389490522098381086735230383055750280618667602539062500
0.2141724403082887195903794008700060658156871795654296875
0.3796417786996711396518833225854905322194099426269531250
0.0173138026486782531376817928503442090004682540893554688
0.5453431087782310004996588759240694344043731689453125000
0.1081787511590916600612288789307058323174715042114257812
0.1326830823445604434773770208266796544194221496582031250
0.5687670846445807004698735909187234938144683837890625000
0.1095733497591977190221967930483515374362468719482421875
0.0595635455613489142590033509350178064778447151184082031
-0.2054231833861955847098101912706624716520309448242187500
0.0907292856204426206856439307557593565434217453002929688
0.3416923278763616678155301542574306949973106384277343750
0.4010168690695529170042732403089758008718490600585937500
-0.5134930507676847000197994930204004049301147460937500000
0.2317098341406645112261486474380944855511188507080078125
0.5403150734738895177855511064990423619747161865234375000
0.0585715924124274520123911713653797050938010215759277344
0.1101741071761333928824555528080963995307683944702148438
-0.3211060974793961131368291717080865055322647094726562500
0.2450683784407136356353618111825198866426944732666015625
-0.2676678843600963642046508539351634681224822998046875000
-0.2344866927379713195112032053657458163797855377197265625
0.3026094419082178688107376274274429306387901306152343750
-0.1549191865056507577680378062723320908844470977783203125
-0.2452727799522187446257248666370287537574768066406250000
0.4178973846598699748433602962904842570424079895019531250
-0.1306034494205480234185756671649869531393051147460937500
-0.3820317826948882444781929734745062887668609619140625000
-0.2867159308995222422034032661031233146786689758300781250
0.3509728580160864641612761261058039963245391845703125000
-0.0951421691822027237872561045151087455451488494873046875
0.1884595716721969294038530051693669520318508148193359375
0.1189215720487751953848842845218314323574304580688476562
-0.0821450895623257043576259661676886025816202163696289062
-0.0568909000299313294402026031093555502593517303466796875
0.1712320234566213905669229689010535366833209991455078125
-0.5666069667456999914278981123061385005712509155273437500
0.1639096572851994615405146760167554020881652832031250000
0.3675059888547131947689194930717349052429199218750000000
0.3676339311533726172953606692317407578229904174804687500
0.1183235682480783673709012759900360833853483200073242188
0.5393182233099180766799918274045921862125396728515625000
-0.1115765084652971111944808058069611433893442153930664062
0.3630074904863252460707201407785760238766670227050781250
-0.0339217847276635578457337771851598517969250679016113281
0.2492804079156016872076406798441894352436065673828125000
0.2968747202039153654240521973406430333852767944335937500
0.2538636816651378969034169585938798263669013977050781250
0.0162419046858921847786838554839050630107522010803222656
-0.4597830392025550327872451816801913082599639892578125000
-0.2961495674004116507305184313736390322446823120117187500
0.0666640484896809243364756980554375331848859786987304688
-0.0893990085447289167808193610653688665479421615600585938
0.3100732315915254999616479381074896082282066345214843750
0.1381678433773986247601328614109661430120468139648437500
0.2455916136504408264773502423850004561245441436767578125
-0.1935395871052335292628043816876015625894069671630859375
-0.0837979104322586765274394338121055625379085540771484375
-0.1885748273309732492286627802968723699450492858886718750
0.1772374836351974236592354827735107392072677612304687500
0.0035757431376328549163523540244113974040374159812927246
-0.2550653251259992759791828120796708390116691589355468750
-0.4200591340576403376338987527560675516724586486816406250
-0.1771087831385472211032094946858705952763557434082031250
-0.0293405150961531420439332151772759971208870410919189453
0.1833069061735670968182887463626684620976448059082031250
-0.2989764774621813114841017977596493437886238098144531250
0.5066745373389698325894414665526710450649261474609375000
0.0280322012793641911487796392066229600459337234497070312
0.0071160468357916563733600590069272584514692425727844238
-0.4183197766991618160581367646955186501145362854003906250
-0.5674063387180111606156174275383818894624710083007812500
-0.2068436149016750769114025843009585514664649963378906250
0.4306036662731806963222425110870972275733947753906250000
-0.4687308917189561552341103833896340802311897277832031250
-0.0611035132624151364200137948046176461502909660339355469
0.2595418063990597712376029448932968080043792724609375000
-0.1735587268807901317746456015811418183147907257080078125
-0.0486892417959262566173883612918871222063899040222167969
0.1242848544796034543358231871934549417346715927124023438
0.5230950477640121665245942494948394596576690673828125000
-0.1676521916914621712635380390565842390060424804687500000
0.5939170764892811593682608872768469154834747314453125000
-0.4522191560234305462984139012405648827552795410156250000
0.5879772260058514499192483526712749153375625610351562500
0.1033714354629422932374538390831730794161558151245117188
-0.5372153794192180420452586986357346177101135253906250000
0.2552755001005382329282156206318177282810211181640625000
0.1416109615721130032817143273859983310103416442871093750
0.1393929717414446600720623337110737338662147521972656250
-0.0842785858559581962934359466999012511223554611206054688
-0.1800951339061655220863400472808280028402805328369140625
0.2474773784271166177095579996603191830217838287353515625
0.1974967602535436794752854439138900488615036010742187500
-0.1904304911514060338895149016025243327021598815917968750
-0.3594826843537208826973028408247046172618865966796875000
-0.3778762330231762445187371213251026347279548645019531250
-0.2467371878898497739029949116229545325040817260742187500
0.3657645683103641909283965105714742094278335571289062500
-0.5350665653115568298758830678707454353570938110351562500
-0.1018900803314801428722802256743307225406169891357421875
-0.2294270555821392165718464184465119615197181701660156250
0.5281036208546014965037329602637328207492828369140625000
0.4364634694358437982941723021212965250015258789062500000
0.1328099872370677725363918852963251993060111999511718750
0.3661963974825666601198292937624501064419746398925781250
-0.0478981446755380804725099608276650542393326759338378906
-0.4584156339750593556203739353804849088191986083984375000
-0.0793193595021365049912986933122738264501094818115234375
0.4769094849970272886885425123182358220219612121582031250
-0.2759566914079701893669493983907159417867660522460937500
-0.4055668258388527847024818129284540191292762756347656250
-0.1759578365052885673414095890620956197381019592285156250
-0.4449577393685431037084754279931075870990753173828125000
0.2507269269222727747781220841716276481747627258300781250
-0.1616672249725018273291965442695072852075099945068359375
0.2766154317343330615308616415859432891011238098144531250
0.3073277279281197982285789294110145419836044311523437500
0.0686808226274673166988904426943918224424123764038085938
0.1608036850628549729869121165393153205513954162597656250
0.0647657230118445781386071757879108190536499023437500000
-0.0101802963983558848737320801092209876514971256256103516
0.3309806514860361148500089711887994781136512756347656250
-0.2634877048939886501344176394923124462366104125976562500
0.4659221853666649093561602512636454775929450988769531250
-0.3974770586591810372922850547183770686388015747070312500
-0.0719059875791929897781429303904587868601083755493164062
-0.4115807740968260852731930299341911450028419494628906250
0.0863172589163981596183106148600927554070949554443359375
0.1708205561241493697366422566119581460952758789062500000
-0.0799557977775935541098206726928765419870615005493164062
-0.5671445025927593919234936947759706526994705200195312500
0.2791915877148769542515083230682648718357086181640625000
0.1815145694471387849411314618919277563691139221191406250
-0.1806628468715935353916535177631885744631290435791015625
0.3919658258361697900085118817514739930629730224609375000
0.3185167989812363598112199269962729886174201965332031250
-0.0109289667952060989136731095072718744631856679916381836
-0.4701161276883592532449540613015415146946907043457031250
0.3632867892888258509742627211380749940872192382812500000
0.0268440650655824911141600352948444196954369544982910156
0.2840406182031522952513569180155172944068908691406250000
-0.0301330503608836994255959496058494551107287406921386719
-0.2088344823071761890975750475263339467346668243408203125
-0.6069517389510771243621434223314281553030014038085937500
0.4206825423359472071460629649664042517542839050292968750
0.1677140164256503140904897009022533893585205078125000000
0.3545004878369489853540130752662662416696548461914062500
-0.2574922577986557548079815660457825288176536560058593750
0.2172590271185098342865416043423465453088283538818359375
0.0018191562439499344133037039838995951868128031492233276
-0.4972531073691986991391900119197089225053787231445312500
-0.1450425299769064202415336239937460049986839294433593750
0.4058909672324168549373268888302845880389213562011718750
0.4550144904639378262700688537734095007181167602539062500
0.0404011310000113171847502258060558233410120010375976562
-0.0167272560418015268923763727570985793136060237884521484
0.4270376307495872270081349597603548318147659301757812500
-0.2030596873718522044072187782148830592632293701171875000
0.0085855323844981675657228592513092735316604375839233398
-0.4818161554536543045301755228138063102960586547851562500
0.2570457707410482295351528136961860582232475280761718750
0.5137485896894646852928190128295682370662689208984375000
-0.4476505375509767792330251268140273168683052062988281250
-0.3013281214009415620580512040760368108749389648437500000
-0.5075944185816516629472516797250136733055114746093750000
0.1040742433447662262935295984789263457059860229492187500
-0.2519350553783532564722236202214844524860382080078125000
-0.3850240183345969291472954409982776269316673278808593750
-0.3208340582121809725357763909414643421769142150878906250
0.3378273674930232228774684699601493775844573974609375000
-0.0914761182089744440126821700687287375330924987792968750
-0.5833002113353182860322476699366234242916107177734375000
0.0387185341716172193304856818940606899559497833251953125
-0.3639754667953992162132692556042456999421119689941406250
0.3619578958634989129805603624845389276742935180664062500
0.4775514585337825024247138117061695083975791931152343750
0.1539509186154357778253398691958864219486713409423828125
-0.4661803728295995097319348587916465476155281066894531250
0.2869107476607162254822469549253582954406738281250000000
0.2492029745141675911579426383468671701848506927490234375
-0.1904755913625409413647560086246812716126441955566406250
0.0089890958869654671165028148038800281938165426254272461
-0.1104548120550047363153112200961913913488388061523437500
0.1611829204917747115910486854772898368537425994873046875
-0.3450935019453109098286347489192849025130271911621093750
-0.4176708689535412744042730537330498918890953063964843750
-0.0671158857651475981853650409902911633253097534179687500
0.0032861091950453454914315987167583443806506693363189697
0.1773625790798483981003386134034371934831142425537109375
-0.3106033233025574102903476614301325753331184387207031250
-0.0790744342944430939068567454341973643749952316284179688
0.4810285591989319486927456637204159051179885864257812500
0.0149011566788583224574260555073124123737215995788574219
0.2731273685420378405375174679647898301482200622558593750
-0.1287116219024550534122397493774769827723503112792968750
-0.3122455844440397698669187320774653926491737365722656250
-0.6167327403967735044432174618123099207878112792968750000
0.3575629393223033747339911769813625141978263854980468750
-0.2714695687959211567452655344823142513632774353027343750
-0.0597803400016083327783711354186380049213767051696777344
-0.2638952267970438581023984170315088704228401184082031250
0.2734573997137171863514026881603058427572250366210937500
-0.3550873442294544268804656894644722342491149902343750000
-0.4422162695078133420878430115408264100551605224609375000
0.0264117998266508828553167376185228931717574596405029297
0.2595618274012108650516950092423940077424049377441406250
-0.4119304664454798148298664273170288652181625366210937500
0.4185908006741277942452938987116795033216476440429687500
0.4373686100585205682733658250072039663791656494140625000
-0.2898962950356370749105394679645542055368423461914062500
-0.1983767018826063932568359859942574985325336456298828125
0.1597282378496811816592781951840152032673358917236328125
-0.2618627197051535127059196383925154805183410644531250000
-0.0748510236248635801858952731890894938260316848754882812
0.0353440994595931312627357101519010029733180999755859375
0.3811519671456427005296063725836575031280517578125000000
0.4936420270984302471894977770716650411486625671386718750
-0.5279505142336350376197628975205589085817337036132812500
-0.3363058646830085485213146512251114472746849060058593750
0.2884826448025765710525547547149471938610076904296875000
-0.4444624950012213138172967319405870512127876281738281250
0.4501423514152781968356009656417882069945335388183593750
0.4659669409853758881290275439823744818568229675292968750
0.3299708412160715642613695308682508766651153564453125000
0.0758302968419361095309128018016053829342126846313476562
0.3310485758493839636429356687585823237895965576171875000
-0.0188659228549550098130715980460081482306122779846191406
-0.0410838620496014328420386618745396845042705535888671875
0.4482946220757450528360266162053449079394340515136718750
-0.4284356830435528395994992933992762118577957153320312500
-0.1153786294846757820575788855421706102788448333740234375
0.0558578229102810880357665723749960307031869888305664062
0.0276516484556520482362973467616029665805399417877197266
-0.3530356130388019875177008088940056040883064270019531250
-0.2217052093538014467810626229038462042808532714843750000
-0.4040785765462198142472516337875276803970336914062500000
-0.1794575212601934033340711494020069949328899383544921875
-0.4385984273522554044433263698010705411434173583984375000
0.3230946032533973388822801098285708576440811157226562500
0.0969990046964705754373170520921121351420879364013671875
-0.3766306073690147693255880767537746578454971313476562500
-0.5272428983126632440203707119508180767297744750976562500
0.0632040665314720917500324048887705430388450622558593750
-0.1871180335448496823147479517501778900623321533203125000
-0.1268635777924930208016007782134693115949630737304687500
0.3412516498937119280299157253466546535491943359375000000
-0.6978454869967057883073380253335926681756973266601562500
-0.3791285118340673165882037665141979232430458068847656250
0.2274230775279033889280100311225396580994129180908203125
0.0379637900417716597778472475965827470645308494567871094
0.5643214012360117104449841463065240532159805297851562500
0.2656913924933933524030749140365514904260635375976562500
0.4772407874554497331232028045633342117071151733398437500
-0.1064907443519356455841062825129483826458454132080078125
-0.0696985053047526059710747858844115398824214935302734375
-0.2104612833756317469280361365235876291990280151367187500
0.3075961669725437719336014197324402630329132080078125000
0.3355854469456889810352606673404807224869728088378906250
0.3957914608328093053479790341953048482537269592285156250
0.0722343685681379327201412365866417530924081802368164062
-0.2245659740842368412572227498458232730627059936523437500
0.2122310349449741673222291638012393377721309661865234375
-0.2368300458429958288419925338530447334051132202148437500
-0.3138780984206836488503711279918206855654716491699218750
0.2059972088523130406834127370530040934681892395019531250
0.0958518418299866004073095382409519515931606292724609375
0.1804236495418946595314935166243230924010276794433593750
-0.1756141491149363076385014892366598360240459442138671875
0.3608330704298122748596711062418762594461441040039062500
0.0250342857812356663071984286261795205064117908477783203
-0.3442715245778312782576335848716553300619125366210937500
0.3141232769377736988580807064863620325922966003417968750
0.3373680304212281488851488120417343452572822570800781250
-0.3402105348236015847085411678563104942440986633300781250
-0.4841905647019235647832147151348181068897247314453125000
-0.0581487837416536854084903040984499966725707054138183594
-0.5766606279971494553038269259559456259012222290039062500
-0.3704044240841081192527894927479792386293411254882812500
0.1308604675846778420122973329853266477584838867187500000
0.0938114369200528513959014276224479544907808303833007812
0.2225649369263409671493292307786759920418262481689453125
-0.1728114670713575828919772447989089414477348327636718750
0.4918027132656022648582450074172811582684516906738281250
0.3841333703358168483177337293454911559820175170898437500
