nn
1,10,10,10,10,10,1
dIn
0
dIntern
,
dOut
,
normP
1.9999999999999984
normY
1.0
w
0.6466260233707620264098636653216090053319931030273437500
0.5048038766680220668092715641250833868980407714843750000
1.3153194081527641579043574893148615956306457519531250000
-0.8469502464063051183629227125493343919515609741210937500
-0.3026501358992674250991683493339223787188529968261718750
0.0833123315021983695816132353684224653989076614379882812
-0.2211577899130625357582147216817247681319713592529296875
-0.3868156762437084950079224654473364353179931640625000000
0.8084277926146982151678344052925240248441696166992187500
0.5242608361199830868670801464759279042482376098632812500
0.2601047552858655187435488187475129961967468261718750000
-0.2283156075883456814779037813423201441764831542968750000
0.1034761959705396694442214311493444256484508514404296875
0.0060848435229615867314567623225229908712208271026611328
0.5109041019591757937234888231614604592323303222656250000
-0.4328554439452566571233660397410858422517776489257812500
0.0105162913234105887677616308906181075144559144973754883
0.3133294308845783193717693393409717828035354614257812500
0.1333949211276384549940132728806929662823677062988281250
-0.0169548108443894722519029727436645771376788616180419922
0.2266675889395229626099848019293858669698238372802734375
0.4360903228160107891753227704612072557210922241210937500
-0.1833802659895714948223854889874928630888462066650390625
-0.6881458577338209758877951571776065975427627563476562500
-0.0534852545983494909176414466855931095778942108154296875
-0.4100554561478899073811987818771740421652793884277343750
0.1332003862353350609470936660727602429687976837158203125
-0.3794693269579041960959386869944864884018898010253906250
-0.1224142926668376485377365270323934964835643768310546875
-0.0534824266601242812035899021338991587981581687927246094
-0.0264592412447465716307526406581018818542361259460449219
-0.2898221164521527226654029618657659739255905151367187500
0.2201793357251851379619012050170567817986011505126953125
0.0492286142232893145220806729867035755887627601623535156
-0.4632003678213055808399190027557779103517532348632812500
0.0145426491275262286667624422875633172225207090377807617
-0.3371884968638172441757205888279713690280914306640625000
-0.3220323157475388775594637991162016987800598144531250000
-0.4016075822816291274186539794754935428500175476074218750
0.4574265049702351815241740951023530215024948120117187500
-0.4993594197836755954611476227000821381807327270507812500
0.3062570174940498213267403571080649271607398986816406250
-0.6854713808426766696868526196340098977088928222656250000
-0.7927599001639019649090300845273304730653762817382812500
-0.8184958023111748026678924361476674675941467285156250000
-0.6656956148571185893914048392616678029298782348632812500
0.0311440700187371119489476711805764352902770042419433594
-0.2763841573076375457418407677323557436466217041015625000
0.1625186557171056367376849038919317536056041717529296875
-0.4490153691253905843261406971578253433108329772949218750
-0.3453153901823201588072720369382295757532119750976562500
0.2116055114800262093588401057786541059613227844238281250
0.3813849199956024227375905866210814565420150756835937500
0.5408604292872358776378405309515073895454406738281250000
0.5643278833944014305501468697912059724330902099609375000
-0.0820978608043853724796079518455371726304292678833007812
0.5402132715445469024473368335748091340065002441406250000
0.5147780246139408433236894779838621616363525390625000000
0.4197509924939916148289853481401223689317703247070312500
-0.4393380251947294201642080224701203405857086181640625000
-0.2207172518267970784400233696942450478672981262207031250
0.0229665507120237720461997099619111395440995693206787109
0.2191840794599880237747413502802373841404914855957031250
-0.0830607807586330598725865570486348588019609451293945312
-0.0586411662339947695188335785587696591392159461975097656
-0.1031941506687990284252265382747282274067401885986328125
0.1337122884359883134841595619946019724011421203613281250
-0.3791547024545847688337119052448542788624763488769531250
-0.5364385227767207720006581439520232379436492919921875000
-0.1702673911065785417040530091981054283678531646728515625
0.3456738196614800306960546549817081540822982788085937500
0.0060079147422198138708826498088910739170387387275695801
0.2828610414201015998969523934647440910339355468750000000
-0.0623676335894770283996280113569810055196285247802734375
-0.2323349532477152201703773926055873744189739227294921875
0.0581861937332188022820034234428021591156721115112304688
0.2182272560434766472958756367006571963429450988769531250
-0.0175196546581349900384427797916941926814615726470947266
0.4277093458790275359859833770315162837505340576171875000
-0.0972184076165644728284576103760628029704093933105468750
0.4670898289101093614483772853418486192822456359863281250
0.2321178681257237697010964438959490507841110229492187500
0.4672105749337166491486073027772363275289535522460937500
-0.2172238775186582093734699583364999853074550628662109375
-0.1516598893156285710048791770532261580228805541992187500
0.5062984943723396469295039423741400241851806640625000000
0.3478445918245297030502172219712520018219947814941406250
0.2407262332295312945440457497170427814126014709472656250
0.1807000575731710356741643863642821088433265686035156250
-0.0000843321205830110427617909985009703177638584747910500
0.1066561319974814875388702262171136680990457534790039062
-0.3413084942822591782984886776830535382032394409179687500
-0.0497789131957961580865479334079282125458121299743652344
0.0931601441432610144488535297568887472152709960937500000
-0.0734455174947811761931859564356273040175437927246093750
0.0742666505293299722412214691757981199771165847778320312
0.1039757278825866465554739193066779989749193191528320312
0.5438843866647629088362236871034838259220123291015625000
0.0250674057337753573848626587050603120587766170501708984
-0.3754998354917023495325167914415942505002021789550781250
-0.3460329085995339504222556570312008261680603027343750000
-0.0373347525636553295713682132372923661023378372192382812
-0.2752268896730050706800341231428319588303565979003906250
-0.6385510525614842558539407946227584034204483032226562500
-0.7748749112302645292160718781815376132726669311523437500
-0.1960853744362689998759208265255438163876533508300781250
0.3487629150842374015084601523994933813810348510742187500
0.3021041018615943651859367946599377319216728210449218750
-0.5153757960902131118885449723165947943925857543945312500
0.2859049702561016759183587510051438584923744201660156250
-0.4002026381050347580980997008737176656723022460937500000
0.4693281111609656774952270552603295072913169860839843750
-0.2097474468724151996923410479212179780006408691406250000
-0.2735860588924959868606379131961148232221603393554687500
-0.4674803303309371105278557934070704504847526550292968750
-0.0306986427018024268797979914324969286099076271057128906
-0.3147464644797357546934790661907754838466644287109375000
0.3753655480408776279332982994674239307641983032226562500
0.1558004842340798834499082659021951258182525634765625000
0.1109291443084505224270230883121257647871971130371093750
-0.2385684433368628898364249835140071809291839599609375000
0.2262231750106191152660528587148291990160942077636718750
0.2854589972303159250976989369519287720322608947753906250
0.1096845282742582999846447933123272377997636795043945312
0.1129284669160894039041664882461191155016422271728515625
0.0760351539914972396339010174415307119488716125488281250
0.1617040580049839137988243464860715903341770172119140625
-0.2857445709365846187033355363382725045084953308105468750
-0.4180908383953998996851453284762101247906684875488281250
-0.3540772496002465574704842765640933066606521606445312500
-0.2281335090688769995370677179380436427891254425048828125
0.1264893247823370703297740647030877880752086639404296875
-0.2879793311701898117505038499075453728437423706054687500
0.3593206932870453562678392245288705453276634216308593750
0.3793634823836831149179715794161893427371978759765625000
0.1337904792628591132963578047565533779561519622802734375
0.1832954759496917274130822761435410939157009124755859375
0.2912703988566064383647358226880896836519241333007812500
0.0754214719821178491976354507642099633812904357910156250
0.1079380302605703056961772290378576144576072692871093750
0.2618339124045327426237861345725832507014274597167968750
0.4663735786165792429613929925835691392421722412109375000
-0.0334362360561769322853109542847960256040096282958984375
-0.0788040097269293582371574302669614553451538085937500000
0.0190651887027653600681365020363955409266054630279541016
0.2893269114692599286442487027670722454786300659179687500
0.3717761458797885776306202387786470353603363037109375000
0.2397746107587560848717345152181223966181278228759765625
0.5200061262821968899316971146618016064167022705078125000
0.1087079868938829463331785518676042556762695312500000000
-0.2204245814322015328823312074746354483067989349365234375
-0.6290401276597566981862996726704295724630355834960937500
-0.3400863805952661911291556862124707549810409545898437500
0.1123706926444889564464801878784783184528350830078125000
0.3558500383441340897405780197004787623882293701171875000
0.0832358408055470511133222544231102801859378814697265625
-0.1879518678647111029622607247802079655230045318603515625
-0.3644885348282986825552143272943794727325439453125000000
-0.5129198442505629174092973698861896991729736328125000000
0.2076198255261317848763269466871861368417739868164062500
-0.3227204533044717993384153942315606400370597839355468750
-0.4964007305094825794888890868605813011527061462402343750
-0.7461135389431315934061217376438435167074203491210937500
0.3858924703237960884827373320149490609765052795410156250
0.3879029550761188271934543081442825496196746826171875000
-0.2989931830674835699923619358742143958806991577148437500
0.1027638247606914856380200262719881720840930938720703125
-0.3373760218960384915654060478118481114506721496582031250
-0.4021296534161014069042039409396238625049591064453125000
-0.5924006275464044346534819851513020694255828857421875000
0.3046689497033374105505743045796407386660575866699218750
-0.9551896996119916272149907854327466338872909545898437500
-0.0072098206394527880602751679361972492188215255737304688
-0.3833270518981424790361245413805590942502021789550781250
0.3559299274299848603320128859195392578840255737304687500
-0.4992115090225628937226076686783926561474800109863281250
0.4859020483599915118944068126438651233911514282226562500
-0.3793016502200804440647630144667346030473709106445312500
-0.2925978628504143363997513915819581598043441772460937500
0.1379532635961973341398589809614350087940692901611328125
0.1950420248167165637731557126244297251105308532714843750
-0.4908616481371187445503778690181206911802291870117187500
-0.1503462165752359191994713683016016148030757904052734375
0.2646726736110060484996608920482685789465904235839843750
0.3224191446748829736890229469281621277332305908203125000
-0.4012559006905368486073371059319470077753067016601562500
0.3587862698471305789027496757626067847013473510742187500
-0.0342146379037760045571658906737866345793008804321289062
-0.0916535693030058606911580909581971354782581329345703125
-0.3502939001611463099017385047773132100701332092285156250
-0.1994393363922013773237296163642895407974720001220703125
-0.0143647220996947835858215114512859145179390907287597656
-0.2207878012917580123897209887218195945024490356445312500
0.2289951647568825576772866270403028465807437896728515625
-0.1776688758658531985812345510566956363618373870849609375
0.3411374628206751968839682831458048895001411437988281250
0.0120063945186152966349002468859907821752130985260009766
-0.2963185386656072561883945581939769908785820007324218750
-0.2080209104139736919769632095267297700047492980957031250
-0.4625609021810175858213654009887250140309333801269531250
-0.5834221913071412357609801802027504891157150268554687500
-0.3197101264067308545868684177548857405781745910644531250
-0.1026820299788268747720465512429655063897371292114257812
0.1675624014388512328377345284025068394839763641357421875
-0.4437658031459197904844415916159050539135932922363281250
-0.4230394210190496773194013258034829050302505493164062500
0.1515224652266453642113219757447950541973114013671875000
-0.1739693353507365813914731234035571105778217315673828125
-0.0538844464097527689472322265373804839327931404113769531
-0.3452328668441144721157343155937269330024719238281250000
0.0813568536468632363956032804708229377865791320800781250
0.3732526964135700064950640353345079347491264343261718750
-0.5935929084612411310573065748030785471200942993164062500
0.4709662411097365608547704596276162192225456237792968750
0.0142651710067347552157723811205869424156844615936279297
0.0544363735946995289105565518639195943251252174377441406
0.4006486891102647995843710759800160303711891174316406250
-0.0720043109662342056820349966983485501259565353393554688
0.1222467091230114849542687238681537564843893051147460938
-0.0850957611010113718075231759030430112034082412719726562
0.2941490183567722627167029258998809382319450378417968750
0.1148280914774627847751986564617254771292209625244140625
-0.1837512473507000310135595100291538983583450317382812500
0.2185047725547109020993730155169032514095306396484375000
-0.3936833594228150712268643474089913070201873779296875000
0.1733125803333635250869093624714878387749195098876953125
0.1684398585292376238076172967339516617357730865478515625
-0.1268774640362411165739331408985890448093414306640625000
-0.4769672109691619477089830070326570421457290649414062500
0.3374471335706644148366706303932005539536476135253906250
-0.2009212078279705437910962473324616439640522003173828125
0.1514323408624534406108352868614019826054573059082031250
0.1863610322933884899665457623996189795434474945068359375
0.3843012850314077577529303653136594220995903015136718750
-0.0537440395267919091004671372502343729138374328613281250
-0.1215497284041164582912841751749510876834392547607421875
0.2543400410764865560153680235089268535375595092773437500
-0.0355533179727350878707170522829983383417129516601562500
-0.0554401452020482216065389025061449501663446426391601562
0.4747504850960228006684360479994211345911026000976562500
0.0617337351530729827597809844519360922276973724365234375
0.1289727783951219453051351138128666207194328308105468750
0.1721023231926898378052470661714323796331882476806640625
0.4578955387969780299606270546064479276537895202636718750
0.0103256761697841179664658639580920862499624490737915039
0.5357622505116234057354063224920537322759628295898437500
-0.0507114998531888877542073146287293639034032821655273438
-0.1735510399786066026983633037161780521273612976074218750
0.4829320619106179379720344968518475070595741271972656250
-0.1069795380376650228981816326268017292022705078125000000
0.4021825531246963625342516479577170684933662414550781250
-0.7894809737797143789350684528471902012825012207031250000
0.4195356311985068975545232206059154123067855834960937500
0.0782351714610339671329697353030496742576360702514648438
0.1611752361561636093245653000849415548145771026611328125
-0.3883831954033357125588565850193845108151435852050781250
-0.6480872390101086732983048932510428130626678466796875000
0.1313076568879913419429783516534371301531791687011718750
0.1918432169089902272762770962799550034105777740478515625
0.4180317240955069291175050238962285220623016357421875000
0.2250562651787085810539679187058936804533004760742187500
0.3338816430002682911215572403307305648922920227050781250
-0.5112251994520743414440744345483835786581039428710937500
0.4647425243956932461308895199181279167532920837402343750
-0.0020102967222032702351852684330424381187185645103454590
0.0455629061240199820237428696145798312500119209289550781
-0.6798765194513826104483200651884544640779495239257812500
-0.1486138078240048787659333129340666346251964569091796875
-0.2536985240564764709780831708485493436455726623535156250
-0.1792421049969570856497114164085360243916511535644531250
0.1030877441196639682230440371313306968659162521362304688
-0.3713090353493237461002252075559226796030998229980468750
0.2920788382218365009102001295104855671525001525878906250
-0.1717207690479262693905582182196667417883872985839843750
0.4143255094682077310785928148106904700398445129394531250
-0.2404707412086628526282083839760161936283111572265625000
0.3628390229080030726649397365690674632787704467773437500
-0.1460266325068900472583521832348196767270565032958984375
-0.3470220490587289652317792842950439080595970153808593750
0.2509579544281203555833315022027818486094474792480468750
-0.2588206691646161017317240293778013437986373901367187500
0.5850996198965389138990644823934417217969894409179687500
0.3520631429485673868917672280076658353209495544433593750
-0.4442568312418631037985505827236920595169067382812500000
0.2116859622143708041797083296842174604535102844238281250
-0.4631028695696214336763318897283170372247695922851562500
0.1317709088277941031908113700410467572510242462158203125
-0.0523791993830937732679053908668720396235585212707519531
0.1294814285362294592474086130096111446619033813476562500
0.1764775779110944464722621205510222353041172027587890625
0.3080988290561806342005013448215322569012641906738281250
0.0687722450402238477673577676796412561088800430297851562
-0.2642955577642573938845771408523432910442352294921875000
0.5043712899200163413127029343741014599800109863281250000
0.1179144869699054187783815450529800727963447570800781250
0.0685682407161815193896714504262490663677453994750976562
-0.1475399995385661411351208016640157438814640045166015625
-0.5329163317607643612916490383213385939598083496093750000
0.5202064054330008957549580372869968414306640625000000000
-0.1779653904734283254018833986265235580503940582275390625
-0.3006171568259707882475595397409051656723022460937500000
0.4096324565282006280320103996928082779049873352050781250
-0.0720718651287782091641176407392777036875486373901367188
-0.4773194120971539500253300047916127368807792663574218750
0.1674798609787763736811427861539414152503013610839843750
-0.3679662548108068587104924063169164583086967468261718750
0.3529519731639242929865929454535944387316703796386718750
-0.1619259318913084944036029355629580095410346984863281250
-0.4798201075282388372578168400650611147284507751464843750
0.1104808387670578873063220726180588826537132263183593750
0.2723436684800440432674406565638491883873939514160156250
0.0002621411687153014642530368671913265643524937331676483
-0.0500446491177986355070039792281022528186440467834472656
-0.1470517885737378516175510867469711229205131530761718750
-0.0031401801078515495339871232971518111298792064189910889
0.0263327579652678708810320529210002860054373741149902344
-0.2889330276553189746913119506643852218985557556152343750
-0.2663781652066081195862068398128030821681022644042968750
0.3891565297185081706565767944994149729609489440917968750
-0.4625866582755861489140158937516389414668083190917968750
0.2871193741811387534212940408906433731317520141601562500
-0.3593310626471779012369722750008804723620414733886718750
-0.2722819847087161737597682531486498191952705383300781250
0.1207824369546003639985798372435965575277805328369140625
0.1483650308096214620601216438444680534303188323974609375
0.0807977031691709118854660687247815076261758804321289062
-0.2480172223006384402133051025884924456477165222167968750
0.3029112342399617463506444892118452116847038269042968750
0.6199807386863529501397351850755512714385986328125000000
-0.0262668624456621306595405229700190830044448375701904297
0.5328821061879879250611224961176048964262008666992187500
-0.0552989846740696289195682311401469632983207702636718750
-0.1230716641570233083058383272145874798297882080078125000
0.1073758680070419496699329897637653630226850509643554688
-0.3702303651360916991741589754383312538266181945800781250
0.3767189602902482059576527717581484466791152954101562500
-0.4006672495709386883078195751295424997806549072265625000
-0.4818825465930660634228388516930863261222839355468750000
-0.3498631242305674238224355576676316559314727783203125000
-0.2448462101814080915662685811184928752481937408447265625
0.3763311434811457134586021311406511813402175903320312500
-0.3159515226545495103493976785102859139442443847656250000
-0.3851509903092034670102350446541095152497291564941406250
0.2683975381300901519310286857944447547197341918945312500
0.0253053954284243529104792003181501058861613273620605469
0.0241319946609821235627979518767460831440985202789306641
-0.4050489944890697802115653303189901635050773620605468750
0.1294913311205554140581597266645985655486583709716796875
-0.1633778732651683385235230616672197356820106506347656250
-0.0776802516687734728728642608075460884720087051391601562
-0.5047428978213012173981155683577526360750198364257812500
-0.1639128950966238784658912663871888071298599243164062500
-0.0492312377412346818816857307865575421601533889770507812
-0.1794561050381025535394030612224014475941658020019531250
0.2888586599284628797512652909063035622239112854003906250
-0.6905082137448431689463745897228363901376724243164062500
0.0797540431177002767659800497312971856445074081420898438
-0.1742223146743884509834998652877402491867542266845703125
0.2339252818318399151920061740383971482515335083007812500
0.2483580361479663933810257958612055517733097076416015625
-0.4358348256759513872360400910110911354422569274902343750
0.4447812338545525379096545748325297608971595764160156250
0.5554517407329553346784223322174511849880218505859375000
0.2762277307742133647394666695618070662021636962890625000
0.1743996150136269962516166742716450244188308715820312500
-0.3668224754269933662875757818255806341767311096191406250
0.3830641350096829489402239232731517404317855834960937500
-0.6083840649650359422295764488808345049619674682617187500
-0.5195372399757640646811296392115764319896697998046875000
0.5399159547503051825856346113141626119613647460937500000
0.1908780369564079815170032361493213102221488952636718750
-0.0085434673061173423136427373947299201972782611846923828
0.0149109509119931486070820270128933771047741174697875977
-0.4939454164341108288738269038731232285499572753906250000
-0.1111775328416717140145308917453803587704896926879882812
0.6494449252890284185468772193416953086853027343750000000
-0.4484686778655874173082906963827554136514663696289062500
-0.2684028742635659603443798459920799359679222106933593750
0.1681284714984516148739146501611685380339622497558593750
0.0467626123521451136921811553293082397431135177612304688
0.3447632216190816834000543167348951101303100585937500000
0.2989151816674770478776679283328121528029441833496093750
0.4151379446378338222700676851673051714897155761718750000
-0.1327479452122776737432729987631319090723991394042968750
0.4020988864269468554546449468034552410244941711425781250
-0.3431678406907474054854390033142408356070518493652343750
0.3378836002793964010670890729670645669102668762207031250
-0.0725300786117027695976133827571175061166286468505859375
0.4097007428213106372538732102839276194572448730468750000
-0.0779814173711560892909844255882489960640668869018554688
-0.4040872313348451982939479876222321763634681701660156250
0.0329337602673162449518073913168336730450391769409179688
0.0393834918499554043069821318567846901714801788330078125
0.3355076326160033595158438401995226740837097167968750000
0.2831352874925266993599848319718148559331893920898437500
0.2510673470098749859857889532577246427536010742187500000
-0.1618797405771904007742989506368758156895637512207031250
-0.2920814570724629688491802426142385229468345642089843750
0.1982245599958833426335047533939359709620475769042968750
0.2609797068388700624907983183220494538545608520507812500
0.0144485004506412547525817657856350706424564123153686523
0.1439877728643556564769312444695970043540000915527343750
0.1992658739228741759941243572029634378850460052490234375
-0.4118749713257575106872820924763800576329231262207031250
0.1455923949329458733092934608066570945084095001220703125
0.5468302400655716821731289201125036925077438354492187500
0.6149993126014406952251079019333701580762863159179687500
-0.2130415570630126986806374134175712242722511291503906250
0.2270990887726731244367073259127209894359111785888671875
-0.0890201256871452906160868678853148594498634338378906250
0.0710327925542529881042241868271958082914352416992187500
0.1689572718466497702749506970576476305723190307617187500
0.1130148269356286150344459429106791503727436065673828125
-0.2329977244481418741095524183037923648953437805175781250
0.1132791255932156654351317115470010321587324142456054688
0.8310351588476682094253078503243159502744674682617187500
-0.1416619518685164891280692245345562696456909179687500000
-0.0160906468034469271599640194381208857521414756774902344
0.1663278444203362127495893219020217657089233398437500000
0.0264962929311840858503934725831641117110848426818847656
0.3644599178197318600780363340163603425025939941406250000
-0.0274637998505997509013365487362534622661769390106201172
-0.2798342005890319672545274443109519779682159423828125000
-0.4422266944958292422818146860663546249270439147949218750
0.0630014858271033401093674797266430687159299850463867188
-0.3399504344703349056899810420873109251260757446289062500
-0.3196268374126118305689203680231003090739250183105468750
-0.3198427262876915588840631698985816910862922668457031250
-0.4138110181240815532710541901906253769993782043457031250
0.2785199543665020649463315294269705191254615783691406250
-0.1422698221968350107413670002642902545630931854248046875
-0.2628777530111827132053292643831809982657432556152343750
0.0373709718294607806665652560695889405906200408935546875
-0.2062161484694206847745334698629449121654033660888671875
-0.2397726581258764477766476375109050422906875610351562500
-0.3001006167269557045607086820382392033934593200683593750
0.3777343852709288962721245752618415281176567077636718750
-0.1636996091664182084723933030545595102012157440185546875
0.5829796923971498623373577174788806587457656860351562500
0.1751830393601593316432740721211303025484085083007812500
-0.3126316571994115500743305346986744552850723266601562500
-0.1013734376210305154764057533611776307225227355957031250
-0.4124317704384197202926998215843923389911651611328125000
0.1627487365531077867508713552524568513035774230957031250
-0.2923132749907284000379092958610272035002708435058593750
0.2076469781621295140894289943389594554901123046875000000
-0.6175541341169211717598841460130643099546432495117187500
-0.3964664708416748561958797836268786340951919555664062500
0.1310045171207502578969439355205395258963108062744140625
-0.1220342868374168499023824097093893215060234069824218750
0.4459433152560425273058797301928279921412467956542968750
-0.2263852076019628456471366462210426107048988342285156250
0.1156709001819518495279837111411325167864561080932617188
0.3092090536973041148272045575140509754419326782226562500
0.1858231993098720669088663726142840459942817687988281250
-0.1616225316624881891414133860962465405464172363281250000
-0.2464455907803120016108522349895793013274669647216796875
0.1492456609525282529293832567418576218187808990478515625
-0.2443112406349287057949482004914898425340652465820312500
0.2519456255211517947678601103689288720488548278808593750
0.3184072080734919318878439753461861982941627502441406250
-0.2347553816768512546797609275017748586833477020263671875
-0.4435721384069013506490364306955598294734954833984375000
0.0938686883919626346983733355955337174236774444580078125
0.0203474010742531255524490063635312253609299659729003906
-0.5161351759147110307424100028583779931068420410156250000
-0.7307663188510032936662241809244733303785324096679687500
0.5020653595601729524133816084940917789936065673828125000
0.4903247543198358537885894747887505218386650085449218750
-0.1506112551694102630328586656105471774935722351074218750
0.2035458191881477363338603936426807194948196411132812500
