nn
1,10,10,10,10,10,1
dIn
0
dIntern
,
dOut
,
normP
1.9999999999999984
normY
1.055114691492247
w
-0.0398473515416568821456699822647351538762450218200683594
-1.1357347151285515085561428350047208368778228759765625000
-0.0056713396525821871407835317313583800569176673889160156
-0.4859503957863135492623030131653649732470512390136718750
-0.1105295214998148478624528934233239851891994476318359375
-1.0418800990701966302509617889882065355777740478515625000
0.1490441842254019988445179478731006383895874023437500000
-0.3389406803864101758172466816176893189549446105957031250
0.2316161985542530832304919385933317244052886962890625000
-0.1035826985693363844198700007837032899260520935058593750
0.5143155526138381006262534356210380792617797851562500000
-0.0341436954379167600936995086158276535570621490478515625
-0.2240488531042658659764299500238848850131034851074218750
0.2289822012904398629284941080186399631202220916748046875
-0.1979391790678289575478032702449127100408077239990234375
-0.1928027288427885677091211391598335467278957366943359375
-0.0581468340808281719533923137532838154584169387817382812
-0.5244156810944805569008053680590819567441940307617187500
-0.4881883168942589001915166591061279177665710449218750000
0.1386987798604235877508727980966796167194843292236328125
0.1229806180773509588499692313234845642000436782836914062
-0.4327152640016083129381740945973433554172515869140625000
0.1329531251729006990913717345392797142267227172851562500
0.2697407900902901167761172018799697980284690856933593750
0.2497775519998527982146185877354582771658897399902343750
0.3278326197783921758244218835898209363222122192382812500
0.2290870286110168463356018264676094986498355865478515625
-0.4738305137589962634514506589766824617981910705566406250
0.2306854002139543668992160974084981717169284820556640625
0.3078974479122927321306235626252600923180580139160156250
0.6974469790815326364352699783921707421541213989257812500
-0.3437343898896349503324643137602834030985832214355468750
0.8797768381046567887082687775546219199895858764648437500
-0.0610574718720846981723227031579881440848112106323242188
0.3560500077426881349040854729537386447191238403320312500
-0.3479882419352716693694560490257572382688522338867187500
0.4550156172928448983228122415312100201845169067382812500
0.4941209043699065217580823627940844744443893432617187500
0.4081131581867680213626670138182817026972770690917968750
0.1032128175205857256724328863128903321921825408935546875
0.3444592007725264526385444696643389761447906494140625000
0.1609690389589580328255635777168208733201026916503906250
0.2539417939812176894243123115302296355366706848144531250
-0.4650924815041050375263864680164260789752006530761718750
0.3482811932067850224647997947613475844264030456542968750
-0.0170957976273027265068371605138963786885142326354980469
-0.4753572308728394313348530886287335306406021118164062500
-0.2667096586768306631931579886440886184573173522949218750
-0.4353065678687565442928075754025485366582870483398437500
0.3811381717957954551323496161785442382097244262695312500
0.1848873444975823177038876110600540414452552795410156250
-0.2395885035355567460602088658561115153133869171142578125
0.4943889619931494117111014929832890629768371582031250000
0.2225152691401375837365606003004359081387519836425781250
-0.0302720886903180899651921720305836061015725135803222656
-0.3388066397812888319585056251526111736893653869628906250
0.3912388702344056223836332719656638801097869873046875000
-0.0424603111770645441636062855650379788130521774291992188
0.0276200995413732920680249804945560754276812076568603516
0.2346061286384344413136204821057617664337158203125000000
0.4851727606008703341800014641194138675928115844726562500
0.3860195398407981204336181235703406855463981628417968750
-0.2030282140699384563209406451278482563793659210205078125
-0.2344045523964232435876198223922983743250370025634765625
-0.0198593436621707052081031719126258394680917263031005859
0.0169700081780867241543209189558183425106108188629150391
0.4666230493634522247248241910710930824279785156250000000
-0.4590193884258816914289980104513233527541160583496093750
-0.1695678514834998429350321202946361154317855834960937500
-0.4850119707328710005889149670110782608389854431152343750
-0.1439236174604278939437307371917995624244213104248046875
0.5050517129245030156781126606801990419626235961914062500
0.8474794357255156507235938079247716814279556274414062500
-0.1679313339661052673079666419653221964836120605468750000
0.2692702965022290007013339163677301257848739624023437500
0.0138169889888785073911448009198466024827212095260620117
0.1175145277890413814114722867998352739959955215454101562
0.1690580113797162664646123175771208480000495910644531250
0.6105782698673836161873396122246049344539642333984375000
0.3488005364221968829241404819185845553874969482421875000
0.2771029307321462575863790789298946037888526916503906250
-0.2747905458069824780054091206693556159734725952148437500
-0.1211837451210639182708206362804048694670200347900390625
-0.2047635123796583411781568884180160239338874816894531250
-0.5654950389902084761928335865377448499202728271484375000
-0.1512118128898806423965339718051836825907230377197265625
0.2824408511810944655273658554506255313754081726074218750
-0.2188358666579353628556248168024467304348945617675781250
0.3223238279097666580952363801770843565464019775390625000
0.0399079860599395250253529354722559219226241111755371094
0.1745382844866995297739009629367501474916934967041015625
-0.1345049617063404645556090599711751565337181091308593750
-0.2516434529787300866665589182957774028182029724121093750
-0.4292660997445219561718943168671103194355964660644531250
0.1028864190296380626277183978345419745892286300659179688
0.1349429341074519506094020471209660172462463378906250000
0.0736428947751733287141462369618238881230354309082031250
0.1013030577848498953175138126425736118108034133911132812
-0.0698772861527444527629526760392764117568731307983398438
0.1857199202493644285549834194171126000583171844482421875
-0.4366316671344994682080198344920063391327857971191406250
0.2263322382596896498174743328490876592695713043212890625
-0.0116199537748431121209069516453382675535976886749267578
-0.3961455291764289232681051089457469061017036437988281250
-0.2502036339117050256497520877019269391894340515136718750
-0.2920025897384289081948338662186870351433753967285156250
0.3989975532603542429654908119118772447109222412109375000
-0.3817830569165170939704978536610724404454231262207031250
0.4537690497760741847876886367885163053870201110839843750
0.0230891863337917037368729467061712057329714298248291016
0.1981931305441260449118345832175691612064838409423828125
0.1210207547647751818997718942227947991341352462768554688
0.1690427025536752059231559996987925842404365539550781250
0.0715841922163012317481545210284821223467588424682617188
-0.2704545110163552035231759873568080365657806396484375000
-0.1334287788014084097376610316132428124547004699707031250
0.5049163687250085574831359735981095582246780395507812500
-0.3150172147311456893881143059843452647328376770019531250
-0.2495102753620501156994748725992394611239433288574218750
-0.3429882240290501593804606272897217422723770141601562500
-0.4314856907064066882107056244421983137726783752441406250
-0.1994343722407520003159220323141198605298995971679687500
0.1886883307205987903021338070175261236727237701416015625
0.2402914630608995738558775201454409398138523101806640625
-0.3110519396175136508375658195291180163621902465820312500
0.1118369255586581373362875524435366969555616378784179688
-0.3932315301617888003704592847498133778572082519531250000
0.3690684054640078204378994541912106797099113464355468750
-0.1225747645884352476919332275429042056202888488769531250
-0.3543625972210980856758055779209826141595840454101562500
0.2056840735785764873178038669720990583300590515136718750
-0.2198344745450234449801740765906288288533687591552734375
0.0873998570592811885315853714928380213677883148193359375
0.5901231571669032227589468675432726740837097167968750000
-0.1397151561950066844808304722391767427325248718261718750
-0.3719699895182838056406637861073249951004981994628906250
0.0025538570868274988387436330583568633301183581352233887
0.0092860806518296219042030159585010551381856203079223633
0.4742913690262000048214474645646987482905387878417968750
0.5411804475060946195696942595532163977622985839843750000
0.3024364559020722986737439441640162840485572814941406250
-0.4830842970691844318054108953219838440418243408203125000
0.0711963654639283516356584868844947777688503265380859375
-0.2372346499371879580131405873544281348586082458496093750
-0.3704302471325519041656093577330466359853744506835937500
-0.3367323719359539557771654472162481397390365600585937500
-0.4831624950072352375762818610382964834570884704589843750
-0.3952522730615596335823624940530862659215927124023437500
-0.1207122042323565819232911167091515380889177322387695312
0.1714293349742970484772541794882272370159626007080078125
-0.1478674355956076102991403331543551757931709289550781250
-0.3736354616059063826760677784477593377232551574707031250
-0.5460093864166922772440670996729750186204910278320312500
-0.2938085732512084602419122347782831639051437377929687500
-0.5869879186154938199848629665211774408817291259765625000
-0.0196655927092290842839172881895137834362685680389404297
0.2499108932132743654541684463765705004334449768066406250
-0.6666158818357267312748604126682039350271224975585937500
0.7206459377352464334975934434623923152685165405273437500
0.1787915890846497879440590850208536721765995025634765625
0.5151841352676953533773485105484724044799804687500000000
0.4656577797483393843513965748570626601576805114746093750
-0.0612183350922757898993076253191247815266251564025878906
-0.3604486973734982169226270798390032723546028137207031250
0.1599542144071058047405387014805455692112445831298828125
0.2799830265812293106364450068213045597076416015625000000
0.3068641225277131678872422071435721591114997863769531250
-0.0444533061826878281297403816552105126902461051940917969
-0.1600381571065557784194766099972184747457504272460937500
0.1684940139653680057918450074794236570596694946289062500
-0.0172641303893186388862535096677675028331577777862548828
-0.3859051802100217920532543303124839439988136291503906250
0.1395366653070807816394705014317878521978855133056640625
-0.2821093453051420896215972788922954350709915161132812500
-0.0341778014193202389625625414737442042678594589233398438
-0.5148609074619339143197294106357730925083160400390625000
0.1125196010192817813733157095157366711646318435668945312
-0.4764289852959393001263777023268630728125572204589843750
0.4383045375610987171022259190067416056990623474121093750
-0.1040057267247528893783226067171199247241020202636718750
-0.1136311064768443790384822023042943328619003295898437500
-0.1555511947593674892953430344277876429259777069091796875
0.4851506658547500849820721668947953730821609497070312500
0.0900815423754970645564554843076621182262897491455078125
0.1948444104859903269755250221351161599159240722656250000
0.1600047952571274911814924735153908841311931610107421875
-0.3774745721454464963962038837053114548325538635253906250
-0.1452322997805137183569001990690594539046287536621093750
0.1919553600210391064440074160302174277603626251220703125
0.0882358349592298751851160432124743238091468811035156250
-0.2912678938497076375213623578019905835390090942382812500
-0.5121579773464748353006825709599070250988006591796875000
-0.4993051675314057469279305223608389496803283691406250000
0.3065172924748150173890337555349105969071388244628906250
-0.5042780431848979949549516277329530566930770874023437500
-0.1146956287968181886771645849876222200691699981689453125
0.3761495198607155976411320352781331166625022888183593750
-0.3605881461121251407853094406164018437266349792480468750
-0.0291229513121119693019878127415722701698541641235351562
0.4669559721938812968389242996636312454938888549804687500
-0.0251578571592142932744629035823891172185540199279785156
-0.4551116838474164594252613369462778791785240173339843750
-0.6193635096131288042542450966720934957265853881835937500
0.0074960591875187698382432266441810497781261801719665527
0.4732164253880762894155509457050357013940811157226562500
-0.3371137908366723112685292562673566862940788269042968750
-0.4308490215332075878862383433443028479814529418945312500
-0.4974829022431118130675997690559597685933113098144531250
0.5486829518795892646210177190368995070457458496093750000
-0.0664403765547530722468394515090039931237697601318359375
-0.2994670863781653813440186695515876635909080505371093750
-0.3056654001999061787131495293579064309597015380859375000
-0.1135038437702154262565201747747778426855802536010742188
0.5150557979335566027856430082465521991252899169921875000
-0.3693346947000138991157314194424543529748916625976562500
0.3071196089673960960553245058690663427114486694335937500
-0.1838623077605465450101718261066707782447338104248046875
-0.4584862584429048038003884357749484479427337646484375000
-0.1333210507380993836701321697546518407762050628662109375
0.4372432408923883073725846770685166120529174804687500000
0.0189169938712449754725231088059445028193295001983642578
0.0612352769423946119431434453872498124837875366210937500
0.1954862397186977462926193993553170002996921539306640625
0.1546190434399865587522526766406372189521789550781250000
-0.0758455493271097402896430139662697911262512207031250000
-0.4831699960076132893682654412259580567479133605957031250
-0.2223331808455513425304417296501924283802509307861328125
-0.2665971196161535106128326333418954163789749145507812500
0.3271591460107909354881883245980134233832359313964843750
0.2894430116642985884034544596943305805325508117675781250
0.3538740624300195092288845444272737950086593627929687500
0.0179711495915685498525604657515941653400659561157226562
-0.0948808871014974741786573986246366985142230987548828125
-0.1955440933457122110183945551398210227489471435546875000
0.4625960799597951811357177120953565463423728942871093750
0.0090413520433874003390251061773597029969096183776855469
0.1112962941265233651755295340990414842963218688964843750
-0.4880162758267465594741452150628902018070220947265625000
0.1689020586120871525448450256590149365365505218505859375
0.1385742844499316117623521904533845372498035430908203125
-0.3867255304405439741977090761793078854680061340332031250
-0.0942973257513403939622520510965841822326183319091796875
-0.3037676453485377292551561367872636765241622924804687500
-0.2759613638991342821071839352953247725963592529296875000
0.0021301132155143094083771249103165246197022497653961182
-0.2721447242839634683697624950582394376397132873535156250
0.2630611530870053393904584027040982618927955627441406250
0.0246670759568643344072924605825392063707113265991210938
0.1650338196413608793378102745919022709131240844726562500
-0.1865184078775045106723950993909966200590133666992187500
-0.3785142716340178514755621108633931726217269897460937500
0.2018527175685603247679011928994441404938697814941406250
0.0217747261775582921783378509417161694727838039398193359
0.1182468741509065807138156856126443017274141311645507812
0.0888851987351986089214150865700503345578908920288085938
-0.3680894729529088915676027227164013311266899108886718750
0.3982616230760430697799279187165666371583938598632812500
0.0128751585191389898710223604894054005853831768035888672
0.3407891599836633811371200408757431432604789733886718750
0.1439988946469982489251293600318604148924350738525390625
0.0940529581118604435241437045078782830387353897094726562
-0.1428144316318211426430906385576236061751842498779296875
-0.0001009878604094901702195943848927583985641831532120705
-0.2418194943730469503861968405544757843017578125000000000
-0.1119216966894505949081661810851073823869228363037109375
0.6776959984776715906207300577079877257347106933593750000
0.1541424760897290302530393546476261690258979797363281250
0.5192305303937488902832342319015879184007644653320312500
0.1232320029077637185688232079883164260536432266235351562
0.1741239081081795703198622504714876413345336914062500000
0.2553042428386523843286681767494883388280868530273437500
0.2071779286825209953626369951962260529398918151855468750
-0.4474519195455815556705658764258259907364845275878906250
-0.2183942796629529947693981739575974643230438232421875000
0.3590055957087941451710833007382461801171302795410156250
0.0022095174507907834257625090401688794372603297233581543
0.0318746847332043101164167353545053629204630851745605469
0.4622577015387043242178322088875574991106986999511718750
-0.0765086402074045685006709049957862589508295059204101562
0.1807058093030876333440204462021938525140285491943359375
-0.3606508432527716911941695343557512387633323669433593750
-0.4369371831437001696407662620913470163941383361816406250
-0.5106516746961877739607871262705884873867034912109375000
-0.3286600365734433926157009864255087450146675109863281250
-0.6573092769122720335772669386642519384622573852539062500
-0.4487166274711952285159100028977263718843460083007812500
0.2841007574335755458960761643538717180490493774414062500
0.2700390341354205747670391701831249520182609558105468750
0.1134506432908699707917676846591348294168710708618164062
0.3175629603847749393707999843172729015350341796875000000
0.0978125507591760950942827435028448235243558883666992188
-0.4647735705256859639611377588153118267655372619628906250
-0.1463742661532926592204972848776378668844699859619140625
0.1376138552960173566663826250078273005783557891845703125
-0.3862898864911422647239191974222194403409957885742187500
0.4352253102791713290642405809194315224885940551757812500
0.0482795259827945716368802209217392373830080032348632812
-0.1279108693646639482999205483793048188090324401855468750
-0.3697714184110771351576829601981444284319877624511718750
0.3180096897826149016097474486741703003644943237304687500
0.2664017188582388229178832261823117733001708984375000000
0.2340436982068588855909752055595163255929946899414062500
0.1680658144802922859817329026554943993687629699707031250
-0.0107081907666166445403099771738197887316346168518066406
-0.2313196348597373330768789401190588250756263732910156250
-0.3917220242476923686147927128331502899527549743652343750
0.3976228092928598134569995181664125993847846984863281250
0.0204786317142480155106820660648736520670354366302490234
0.1638870778039354658695003763568820431828498840332031250
-0.1055316278454762751737305848109826911240816116333007812
0.1289790239418754647093834364568465389311313629150390625
0.2000270011132187220059819310336024500429630279541015625
0.0674092848469693695090398932734387926757335662841796875
-0.4338427386034575672368873711093328893184661865234375000
-0.2704399892566088925427436606696574017405509948730468750
0.3905527223479154930174672699649818241596221923828125000
-0.2147292157895254738342316613852744922041893005371093750
0.4805297142139135502247881959192454814910888671875000000
0.1251817786348957683983940114558208733797073364257812500
0.6254666660017073054333991422026883810758590698242187500
0.3192826951935336388110897587466752156615257263183593750
0.3598517744588728972665592209523310884833335876464843750
0.4356677663827963620235550479264929890632629394531250000
0.2549772067540411191188809425511863082647323608398437500
-0.3371092634119219333399541937978938221931457519531250000
-0.4828802878841659818043297036638250574469566345214843750
0.3634976546104187744568037032877327874302864074707031250
-0.4205694833764939688514061799651244655251502990722656250
0.2667208612158363245647763051238143816590309143066406250
-0.3375035215782295483499808597116498276591300964355468750
-0.1879134956410601908771695889299735426902770996093750000
0.4939780910622020293487821618327870965003967285156250000
-0.3661543202375908134804660676309140399098396301269531250
-0.2471586273045935089331948120161541737616062164306640625
-0.1320778261491521998749476551893167197704315185546875000
-0.4386665326901109107637921624700538814067840576171875000
-0.4651964513727258609954162693611579015851020812988281250
-0.4818410787630525438096640300500439479947090148925781250
-0.1818514054321702100303070892550749704241752624511718750
-0.0703736373626975414419248977537790779024362564086914062
0.0885282041116063483920939347626699600368738174438476562
-0.0869944899651863001732721158987260423600673675537109375
-0.3623787402462595452767857295839348807930946350097656250
-0.4507174530221775277105678014777367934584617614746093750
0.1187497502857022407818377018884348217397928237915039062
-0.4417702896724016725649164527567336335778236389160156250
-0.2453993471104604917609748326867702417075634002685546875
0.1668070697708693983507544089661678299307823181152343750
-0.1207171388366605618847060554799099918454885482788085938
-0.1703960968599507186382879808661527931690216064453125000
0.0896707474222300654487227689060091506689786911010742188
-0.2075303194986741206484737176651833578944206237792968750
0.4334042526600416778137514484114944934844970703125000000
0.4304546486422357043366559992136899381875991821289062500
-0.3135510329002957896626924139127368107438087463378906250
0.3857897420683881750669286248012213036417961120605468750
-0.3617805370025637401454332575667649507522583007812500000
-0.3271649281874572379180676762189250439405441284179687500
0.4296842881109919076720871089491993188858032226562500000
-0.1761864076420966984670712918159551918506622314453125000
0.0431469433351182318769900803090422414243221282958984375
-0.0717940665311715409124815323593793436884880065917968750
0.5391871892860615744780261593405157327651977539062500000
0.1526953255337867854102285036788089200854301452636718750
0.4340024069016415464439262450468959286808967590332031250
-0.5493401713193621915820585854817181825637817382812500000
-0.1931844450716015126889857356218271888792514801025390625
0.0564581402149945191237812025519815506413578987121582031
-0.5173631852925657526043323741760104894638061523437500000
-0.1675296127205637974899588016342022456228733062744140625
-0.3565771844896633013810571810608962550759315490722656250
-0.3633458840373744447305170979234389960765838623046875000
-0.2228056474893075622478733066600398160517215728759765625
-0.4440349635977983155932236059015849605202674865722656250
0.1177715966078985848630722443886043038219213485717773438
-0.1238671725840428672338333626612438820302486419677734375
0.4213276027585778349404677101119887083768844604492187500
0.2294875340073588287914674310741247609257698059082031250
-0.2810915805394519906279526821890613064169883728027343750
0.1768904931164679839028508467890787869691848754882812500
0.0757176838522307105172615138144465163350105285644531250
-0.0849368729161066871036211978207575157284736633300781250
-0.3818992485150182747410951833444414660334587097167968750
-0.0106430541321067863302918254930773400701582431793212891
-0.1352830750936494519365282940270844846963882446289062500
-0.2763181919675907760591826445306651294231414794921875000
-0.1081735391604274065802115956103079952299594879150390625
-0.1239144186181470180807551173529645893722772598266601562
0.0370256167780477138395944791682268260046839714050292969
-0.4954449520474699664163154011475853621959686279296875000
-0.3972090517150431154824730128893861547112464904785156250
0.0902038477810692962410854534027748741209506988525390625
0.5157132025926891571998567087575793266296386718750000000
-0.5131487578164019014437258192629087716341018676757812500
0.3778393905019757914587330560607369989156723022460937500
-0.3695357212867607654693813401536317542195320129394531250
-0.0644373640424397986503635138433310203254222869873046875
0.1992028992338567561226625457493355497717857360839843750
-0.4075426862101952929506865075381938368082046508789062500
0.0244911980203451791482383015363666345365345478057861328
-0.3177530801004010418964185191725846379995346069335937500
0.5130434136568708947123695907066576182842254638671875000
0.6858647609530117428278117586160078644752502441406250000
-0.0239969548302482252322143096989748300984501838684082031
-0.0288997445962629710691782491949197719804942607879638672
0.1556756613475666628509941347147105261683464050292968750
-0.4502308478917234069172081944998353719711303710937500000
0.5595558158399972503715957827807869762182235717773437500
0.4869336684141706839135110840288689360022544860839843750
-0.4210439582233270749966891344229225069284439086914062500
0.0830840108538508370639164013482513837516307830810546875
0.4041255610002127962587792353588156402111053466796875000
-0.3380645740289436873560191543219843879342079162597656250
-0.4120748826842143275328567142423707991838455200195312500
0.1394857893776670909602444226038642227649688720703125000
0.2151294394804724174896648491994710639119148254394531250
-0.4668835858306469299705554476531688123941421508789062500
0.4952825506412745215634174655860988423228263854980468750
-0.4122356538630740363515769786317832767963409423828125000
-0.3229565673348661070107823434227611869573593139648437500
-0.5715299592952149954072638138313777744770050048828125000
-0.2172770760122600952612970104382839053869247436523437500
0.0574284946993724870756281575268076267093420028686523438
0.2250929582103829706962727641439414583146572113037109375
-0.2656492151564534553997987131879199296236038208007812500
0.4385554904524320840586426584195578470826148986816406250
0.3526994668547653866141899925423786044120788574218750000
-0.4482555087706939778158243825600948184728622436523437500
0.0710864241801899554573651585087645798921585083007812500
0.2998637674585820644956868363806279376149177551269531250
-0.0147006689052787374583086688062394387088716030120849609
0.4440497716796545923934047550574177876114845275878906250
0.2555451021435005132254048021422931924462318420410156250
-0.2132302505676743897833347318737651221454143524169921875
-0.3447722495485307514506700954370899125933647155761718750
-0.3261558060449045171047544044995447620749473571777343750
-0.3673466562235463417351866155513562262058258056640625000
-0.3894552424636162357707291903352597728371620178222656250
0.2544984751166251557563668939110357314348220825195312500
0.2640952315119771132145842784666456282138824462890625000
-0.5477795186202406574338397149404045194387435913085937500
0.2648852530181574627121676712704356759786605834960937500
0.2342253385918169061863380875365692190825939178466796875
0.0001701907834408734226157994262607076052518095821142197
0.4472282617327554277153467410244047641754150390625000000
-0.0156289035685576345457992175624895025976002216339111328
-0.1582464129907017180709516424030880443751811981201171875
0.2797528081173056291319767296954523772001266479492187500
0.2578118083582493502703414378629531711339950561523437500
-0.2448936671829259337229700577154289931058883666992187500
-0.2809517962650083799935885053855599835515022277832031250
-0.0330638896040685165145234236661053728312253952026367188
0.3452665955458753543894090398680418729782104492187500000
-0.4859398757329808637983603603061055764555931091308593750
-0.2590199881314653729269537052459781989455223083496093750
-0.3298371703832807533274262823397293686866760253906250000
-0.2278790934903385245746676446287892758846282958984375000
-0.3499525236998767274698707296920474618673324584960937500
0.2334822441455818020639156884499243460595607757568359375
0.2130964035080930296661705369842820800840854644775390625
0.1952163138180794399456630117128952406346797943115234375
0.0597223637662074660625854960471770027652382850646972656
0.6161969732478427275168542109895497560501098632812500000
-0.4828316854319537054784916563221486285328865051269531250
0.0058188924903005414743240031327786709880456328392028809
-0.3107736443484123700642385301762260496616363525390625000
-0.4857382060182247052182447077939286828041076660156250000
0.2666966884393411341136470582569018006324768066406250000
-0.0579855087148166900568035941887501394376158714294433594
0.2451067433140198537078191520777181722223758697509765625
0.4438235647948152728936577204876812174916267395019531250
