nn
1,10,10,10,10,10,1
dIn
0
dIntern
,
dOut
,
normP
1.0
normY
3.22173680751564
w
-0.4726961221480855956933453398960409685969352722167968750
0.5421099638097319761698145157424733042716979980468750000
0.7826757386382674486213772979681380093097686767578125000
0.2718536700059567268183968735684175044298171997070312500
0.3667429890018500948656310356454923748970031738281250000
-0.4024167944005253017003553850372554734349250793457031250
0.2878490757028012714258125015476252883672714233398437500
0.5811911109846310541371394720044918358325958251953125000
0.1544825179867868047978163303923793137073516845703125000
0.3608282499700457002234088577097281813621520996093750000
-0.3513773105608182789616478203242877498269081115722656250
0.4705895220724005678647472450393252074718475341796875000
-0.3730205664693310163571027260331902652978897094726562500
-0.1825713343136898536567258588547701947391033172607421875
0.4039260043532817978650939494400518015027046203613281250
-0.3185341832982582221944767297827638685703277587890625000
0.3566793498554849950465950314537622034549713134765625000
-0.2594591053492459886697929505317006260156631469726562500
-0.2822238080292119866143707440642174333333969116210937500
-0.1144458648218201479718203472657478414475917816162109375
0.0605693050229075061197114848710043588653206825256347656
0.4077707765653432181451876203936990350484848022460937500
0.0444746612741700325655003211977600585669279098510742188
-0.1878023676942062458739002295260434038937091827392578125
0.2547609917437777538040677427488844841718673706054687500
0.1787259445750464526003753462646272964775562286376953125
0.4414697009869809063431489448703359812498092651367187500
-0.1445179144179506158796044701375649310648441314697265625
0.3564718800879179694263143574062269181013107299804687500
-0.5306241922347745276766772803966887295246124267578125000
0.1562365041168848334152130519214551895856857299804687500
0.2087093729199814007291280404388089664280414581298828125
-0.0443159004800164763038239357229031156748533248901367188
-0.3685777398126497961250436219415860250592231750488281250
0.0320695759248722789269692157176905311644077301025390625
0.5929851951571468715584956044040154665708541870117187500
-0.4475359463950225880068956030299887061119079589843750000
-0.2175163883511573303941588619636604562401771545410156250
-0.4913349323571134519283987174276262521743774414062500000
0.2918092608734278448068266698101069778203964233398437500
-0.3415650390745079145737861381348920986056327819824218750
-0.3862021187942985545049623397062532603740692138671875000
0.3724542414382726041033322417206363752484321594238281250
-0.4922129592448293289308480780164245516061782836914062500
-0.6174332788067966593104074490838684141635894775390625000
-0.0590533806552910600640160510010900907218456268310546875
-0.4926368636699541836421190055261831730604171752929687500
0.4919741132892202495341393841954413801431655883789062500
-0.3449299712050769017857021481177071109414100646972656250
-0.0361308715725899357029682334996323334053158760070800781
0.1046432002654719417567008576952503062784671783447265625
-0.0156105215765675597872075286431936547160148620605468750
-0.4186629012727251519798699064267566427588462829589843750
0.0448127622376031931050732737276121042668819427490234375
-0.1069591148257746371363907655904768034815788269042968750
-0.3315570238306012607054640284331981092691421508789062500
-0.0558900741644332635371661410772503586485981941223144531
-0.1565416465221218522696489117151941172778606414794921875
0.4632125330604457968952658575290115550160408020019531250
-0.3512241145263553798727684807090554386377334594726562500
0.4285935400073643819496282958425581455230712890625000000
-0.4703257598140226369842764597706263884902000427246093750
-0.2325932229965601560905952283064834773540496826171875000
-0.5172517511569558745776475916500203311443328857421875000
0.3750169940498303544629266070842277258634567260742187500
-0.0203013358697756718385107888025231659412384033203125000
-0.2795095707116281857906869845464825630187988281250000000
0.5084317958296250550276340618438553065061569213867187500
0.4462441551612340018273528130521299317479133605957031250
0.2212470256297663639966089021982043050229549407958984375
0.1276495246200720079521317984472261741757392883300781250
0.0085494832996791426948934855545303435064852237701416016
0.1269649825218466809850781373825157061219215393066406250
0.5092877636254968809481624703039415180683135986328125000
-0.3980469079649867625292358752631116658449172973632812500
-0.4495861078361838569783515140443341806530952453613281250
-0.4023336881525119146374436240876093506813049316406250000
-0.5415597582474527271756414847914129495620727539062500000
-0.1368589299461788200140688331885030493140220642089843750
-0.3193192651817651217527327389689162373542785644531250000
-0.0008589365085487015534157495544320681801764294505119324
0.1186549541939265900447608714785019401460886001586914062
-0.2045613093420180217396620037106913514435291290283203125
0.3234668204146891046235623434768058359622955322265625000
-0.1228840015834083143619892553033423610031604766845703125
0.3535527049969702240161950612673535943031311035156250000
0.2670864448898756515760055663122329860925674438476562500
-0.0266801049603757299555351067965602851472795009613037109
-0.3898215578632811539883107343484880402684211730957031250
0.5375074756984344892529747994558420032262802124023437500
-0.0570281685487333059314529748462518909946084022521972656
-0.2063308050444550567625867643073434010148048400878906250
0.3345333728192373956566996184847084805369377136230468750
0.3782371212702492213608707061212044209241867065429687500
-0.2805742670742778499537450898060342296957969665527343750
0.4187861080790214463043241721607046201825141906738281250
-0.2789043525547460489200091160455485805869102478027343750
0.0543727423594027176045884175437095109373331069946289062
-0.3158395861367038759404124448337825015187263488769531250
0.4342505953046256750305076366203138604760169982910156250
-0.0687799777211237084451056489342590793967247009277343750
0.3267791608595321806163269684475380927324295043945312500
0.2747746829693822334661490458529442548751831054687500000
-0.1632675342320654976457916518484125845134258270263671875
-0.0512675576043759018141088290576590225100517272949218750
0.0199081730810752172144972860223788302391767501831054688
0.3012975698616991437894796490581938996911048889160156250
0.3752654533999424946166811878356384113430976867675781250
0.3729367541775515104696125945338280871510505676269531250
-0.0610275845286292542568595820284826913848519325256347656
0.3855881062853345198071508548309793695807456970214843750
-0.3285243812836206589444998371618567034602165222167968750
0.4796039248805725185853532366309082135558128356933593750
-0.2507271900628645355801893401803681626915931701660156250
-0.2006028269676037034674465076022897846996784210205078125
-0.0619472333229818400424093738365627359598875045776367188
0.1765046904055547760670208390365587547421455383300781250
0.2358395962509207410828793172186124138534069061279296875
0.2390156948257002589297570693815941922366619110107421875
0.4143705006310631766552887711441144347190856933593750000
0.1565084134264232706978958731269813142716884613037109375
0.0671388363464470727670629912609001621603965759277343750
-0.2659614592937549204521019419189542531967163085937500000
-0.4478776290553041494746366879553534090518951416015625000
-0.3227642255135030335821966218645684421062469482421875000
0.1436487403787876926397615306996158324182033538818359375
0.1962120165469119215106985620877821929752826690673828125
-0.4436240720818449556617224516230635344982147216796875000
-0.4412232080167518000202164785150671377778053283691406250
0.4090227584808154293050108663010178133845329284667968750
-0.1364042728451431985003949876045226119458675384521484375
-0.2454387404746408707367777424224186688661575317382812500
0.1615569234477933213689482272457098588347434997558593750
0.3154301365415173030726236902410164475440979003906250000
-0.2094016327409723987607037543057231232523918151855468750
0.2301612931091325253696311392559437081217765808105468750
-0.0562178359065330368604662680809269659221172332763671875
-0.2356312161914881353474982006446225568652153015136718750
0.0558057793510895946975658432620548410341143608093261719
-0.3405634536630205433382911905937362462282180786132812500
0.3033853218690900077625371977774193510413169860839843750
0.3739323575077106442954288922919658944010734558105468750
-0.2388728900729735760144478717847960069775581359863281250
0.2906568720138977268696578448725631460547447204589843750
0.1772479757241582631888121568408678285777568817138671875
0.2537331570810079095501521351252449676394462585449218750
0.0630942655925815082396113098184287082403898239135742188
-0.1763829504681595772286328838163171894848346710205078125
-0.2057364746940485156212474748826934956014156341552734375
0.3191694028112621039916518839163472875952720642089843750
0.0503293268149989855841930364022118737921118736267089844
-0.3349251956224540971440717385121388360857963562011718750
0.4767435510163915979298110414674738422036170959472656250
0.3917271910069727303138620300160255283117294311523437500
-0.3030798550069138674878388428624020889401435852050781250
0.2101373386449947588960895927812089212238788604736328125
0.1434360618720492419608802947550429962575435638427734375
0.4225736465566335975374556710448814556002616882324218750
-0.5549856112299030863610482811054680496454238891601562500
-0.2402952115589917780891227039319346658885478973388671875
-0.0117096286302094849951505040053234552033245563507080078
0.3562761187314760769062615963775897398591041564941406250
-0.3370543757638349013916467811213806271553039550781250000
-0.1156134984917820962557755137822823598980903625488281250
0.0538220398135081309898275492287211818620562553405761719
0.5390428796946591383232316729845479130744934082031250000
0.2609909223494942254184536523098358884453773498535156250
0.3796345583501136711213064245384884998202323913574218750
-0.5262403160778716948442479406367056071758270263671875000
-0.3597826315707606803506735104747349396347999572753906250
0.1411615970422053500943349035878782160580158233642578125
0.0104165062416147497642571195797245309222489595413208008
-0.4788741272266469617413520154514117166399955749511718750
0.1550206968485457748041511649716994725167751312255859375
-0.3004978982083644223344265355990501120686531066894531250
0.1281511409042415672310255558841163292527198791503906250
0.0522082164367805093285745954290177905932068824768066406
0.0684030165803075490549289838781987782567739486694335938
0.1200582215960987048086749950925877783447504043579101562
-0.0523236784296555804130157696363312425091862678527832031
-0.1668439591063807792004070051916642114520072937011718750
-0.4998739555476520157739628302806522697210311889648437500
0.4926431502078304491831772793375421315431594848632812500
-0.3751919581940394987640274848672561347484588623046875000
-0.3505698481677320677007969607075210660696029663085937500
-0.4854352931547464278239090162969660013914108276367187500
-0.3092086224301128227764934308652300387620925903320312500
0.1978620241001549373560663980242679826915264129638671875
0.4050994868630750644911131530534476041793823242187500000
-0.1814620154964303733180486233322881162166595458984375000
0.4524591854470341734106852982222335413098335266113281250
0.0105961405174815545549016349013982107862830162048339844
-0.2987452182919668741689633861824404448270797729492187500
0.3128221767445536483087664691993268206715583801269531250
0.3314810705956842129538131302979309111833572387695312500
0.2073316276554929560305140512355137616395950317382812500
0.0181032111939120818333570639424578985199332237243652344
-0.3349895572556674805397847194399219006299972534179687500
0.3919886625406716618158498022239655256271362304687500000
0.0254164061155689076365593592754521523602306842803955078
-0.5530564445724176492191759280103724449872970581054687500
0.1790982215389681220241158143835491500794887542724609375
0.3774310416629343967187537600693758577108383178710937500
-0.1342515956075156779991885969138820655643939971923828125
0.2273840682930292900199020778018166311085224151611328125
-0.0807967517683942926254303529276512563228607177734375000
0.0033337052241457732978946459923008660553023219108581543
0.4847366636256651428737995956907980144023895263671875000
0.1951049711766258409895158365543466061353683471679687500
0.3267215300251269938236475809389958158135414123535156250
-0.0823504292290405670584618746943306177854537963867187500
0.4682131295454752262230613268911838531494140625000000000
0.4105689569475420297450796169869136065244674682617187500
-0.4108543281573365235637140813196310773491859436035156250
0.3888032688930309621611058901180513203144073486328125000
0.3848249213686744663043270975322229787707328796386718750
-0.4131293761244091977680170657549751922488212585449218750
-0.3020109114435213237825905707722995430231094360351562500
0.1423575593153538765278653954737819731235504150390625000
-0.3359349903486863464507905518985353410243988037109375000
-0.2040305397455537961270977120875613763928413391113281250
-0.4307918810575272483553987967752618715167045593261718750
0.0652733466045947452460751492253621108829975128173828125
0.2300775422541151415956051096145529299974441528320312500
-0.5316962009629727647919139599252957850694656372070312500
-0.3419827456304971313727492088219150900840759277343750000
-0.1967118896628806679061085560533683747053146362304687500
-0.1860751750113518176998894659845973365008831024169921875
0.4571780435780077866958492904814193025231361389160156250
-0.1571847143121130885301539592546760104596614837646484375
0.1777782985892002731720396013770368881523609161376953125
0.0315814319576922589161149801384453894570469856262207031
-0.2530252550051133586528351315791951492428779602050781250
0.0064339412411638860489482283355755498632788658142089844
-0.1976096325762348171473092861560871824622154235839843750
-0.3489911381745215979144347784313140437006950378417968750
-0.1354484828868543766500209812875255011022090911865234375
0.3799564984097943409757647259539226070046424865722656250
-0.2915110874904676130370262399083003401756286621093750000
0.0967554701143779061212057968077715486288070678710937500
-0.0593585199161590637562113670355756767094135284423828125
0.2709958518466403787350316179072251543402671813964843750
0.0450928979144696734371322577317187096923589706420898438
-0.3608998801538547129830192261579213663935661315917968750
-0.4536229137116835619103483168146340176463127136230468750
0.1755679442894539366015749237703857943415641784667968750
0.4062585919921805066579167942109052091836929321289062500
0.3707623688003636730492473816411802545189857482910156250
-0.1336843806201065132377436839306028559803962707519531250
-0.3138001596758057121228091546072391793131828308105468750
0.2099504527519004681845871118639479391276836395263671875
-0.2659911887924243378833466522337403148412704467773437500
0.1581157525996461921113933613014523871243000030517578125
-0.5780295497453686870414912846172228455543518066406250000
0.0892422400008284766315114211465697735548019409179687500
-0.0135374604525450754899384975260545616038143634796142578
0.2760455942441929488850860252568963915109634399414062500
0.2949252570804168915863385791453765705227851867675781250
-0.5340723065397586788449757477792445570230484008789062500
0.1896499592595784766668742804540670476853847503662109375
0.3447133182739213208556350309663685038685798645019531250
0.4398810038219827522887328541401075199246406555175781250
0.0709516930978775772764777229895116761326789855957031250
-0.3723415595855214532683419292879989370703697204589843750
0.6312603703918381325976838525093626230955123901367187500
0.3572112669876165158555636480741668492555618286132812500
-0.6513513530049815924982681281107943505048751831054687500
0.4110073266798763280682749154948396608233451843261718750
0.3273648701527103188624323593103326857089996337890625000
0.1037045440933829637542018531348730903118848800659179688
0.2610252056813399113011087138147559016942977905273437500
0.0826399466826634454541533614246873185038566589355468750
0.4834477325182846563222938129911199212074279785156250000
0.3112754804622364646071730476251104846596717834472656250
-0.3059055258587273784520732533565023913979530334472656250
0.0193463058014770733494813725883432198315858840942382812
0.0033343022357863478372097532087536819744855165481567383
-0.3641622350426184095972814702690811827778816223144531250
-0.1157912885524572388362685160245746374130249023437500000
0.3510920158074742336573592638160334900021553039550781250
-0.1615956795783748678463354053747025318443775177001953125
-0.3833654944868034597504902194486930966377258300781250000
0.0113326913644410786491389941943452868144959211349487305
0.2824113228228883332171506026497809216380119323730468750
0.2830052972252506959804918551526498049497604370117187500
0.2174103885623591136955212732573272660374641418457031250
0.1641394041820308791201910025847610086202621459960937500
0.2695235639143435668607651223283028230071067810058593750
-0.5365907678977768213712806755211204290390014648437500000
0.4043172368868744315228980212850729003548622131347656250
0.1433353053799888421337982435943558812141418457031250000
-0.2839741262904678098522026630234904587268829345703125000
-0.5442057971298625007605664904986042529344558715820312500
0.1059409646139022193045420294765790458768606185913085938
-0.2880251245751900279756796408037189394235610961914062500
-0.1263851271430172784615564296473166905343532562255859375
-0.3091612800419550333153040355682605877518653869628906250
-0.0386757494959017802949041708870936417952179908752441406
-0.6349538271500534403202209432492963969707489013671875000
-0.1640841281109373939184337132246582768857479095458984375
-0.4342025516812566543478624225826933979988098144531250000
0.4237282197867794919510231466119876131415367126464843750
-0.4729365474733599472578760014584986492991447448730468750
-0.0411960456976651831495495059698441764339804649353027344
0.1797058613315346553562790177238639444112777709960937500
0.3900876778029425673288699272234225645661354064941406250
-0.1770829786183871490390373537593404762446880340576171875
-0.2922708563909252044155095973110292106866836547851562500
-0.3162181975138848022410797966585960239171981811523437500
0.0638592036780739613632817963662091642618179321289062500
-0.0696986393719847135974632124089112039655447006225585938
0.4225014637202336165167082526750164106488227844238281250
0.4887342698511271121830645824957173317670822143554687500
-0.0848025209998462953242537309961335267871618270874023438
0.2281491911952396312024404778640018776059150695800781250
0.2712624921128259369851321025635115802288055419921875000
-0.2452292295740721161934061456122435629367828369140625000
0.3083157631629415140750438695249613374471664428710937500
-0.2566063293239060905115422883682185783982276916503906250
-0.2140496211975794205173428963462356477975845336914062500
-0.0921177433790601463137193150032544508576393127441406250
0.4004325388270738583784691400069277733564376831054687500
0.3976119887744290481990105945442337542772293090820312500
-0.3741655013822280939628228679794119670987129211425781250
-0.3681166482104087922522239750833250582218170166015625000
0.2339637247890759830237783489792491309344768524169921875
0.0244670660561954640688231421563614276237785816192626953
0.0656241697950561558849713605923170689493417739868164062
0.5045620441714817605571852254797704517841339111328125000
-0.2122301072502151553234028824590495787560939788818359375
-0.0498554494803750414266829693588078953325748443603515625
-0.0341028128475708292022261503007030114531517028808593750
0.0707153999571610986096814599477511364966630935668945312
-0.4295880329875850778265089502383489161729812622070312500
-0.2545332930898706047528889939712826162576675415039062500
0.2244761544088053339951471798485727049410343170166015625
-0.1935764331256136783210308749403338879346847534179687500
-0.4711163833925016697357079920038813725113868713378906250
-0.1789313255708014083200652066807379014790058135986328125
0.4177514187666315770286473707528784871101379394531250000
0.2979687273101618849580063397297635674476623535156250000
0.0775973807798234632704392765845113899558782577514648438
-0.2991196319029666983446702488436130806803703308105468750
0.2633802942905018595887156607204815372824668884277343750
0.1029949263641926210377519623762054834514856338500976562
-0.0646855305918405953935490515505080111324787139892578125
0.4576007546231210532106103983096545562148094177246093750
-0.1664185054145199682551492514903657138347625732421875000
-0.1747420420317369882390323709842050448060035705566406250
0.4758811646989246080252655701769981533288955688476562500
0.0788322870396577779494862170395208522677421569824218750
-0.3893050903465633538758083886932581663131713867187500000
-0.3070059961112207580491428871027892455458641052246093750
-0.0741623783618258897165631537973240483552217483520507812
0.1757777427000765668729798107960959896445274353027343750
-0.0362763938196376325984182642514497274532914161682128906
0.1358781410733232442034079667791957035660743713378906250
0.4647196195682998243192685094982152804732322692871093750
-0.0290646920137296801978088467421912355348467826843261719
-0.0546222224244411469484816734620835632085800170898437500
-0.2604353034997043958576057320897234603762626647949218750
-0.1950882458555575349468114154660725034773349761962890625
0.4535131560686903595680519174493383616209030151367187500
0.4828564278900588924159364978550001978874206542968750000
0.2801721631010369306657992183318128809332847595214843750
0.4844381889998157775245601897040614858269691467285156250
-0.3361236304687019171844042375596472993493080139160156250
0.2937032968472736427223424016119679436087608337402343750
-0.0648188718050310835883109916721878107637166976928710938
0.2989770907765785801224467377323890104889869689941406250
0.0271461994261960604113426143157994374632835388183593750
0.2266120412937938921604796860265196301043033599853515625
-0.3114652243304288359304621280898572877049446105957031250
0.0513401224705477207677084550141444196924567222595214844
-0.2572151811546247168749346201366279274225234985351562500
0.3764359211472887434268841388984583318233489990234375000
-0.2368512434691596724167794718596269376575946807861328125
0.3001239297719867638036816970270592719316482543945312500
-0.4253538583832650044058709681848995387554168701171875000
-0.2533252407582036180855311613413505256175994873046875000
0.1922729656610810411443424072786001488566398620605468750
-0.2543762212278968259937528273439966142177581787109375000
-0.3062411366287121627927092504251049831509590148925781250
-0.3017492034333942863000288525654468685388565063476562500
0.2878399870090140866274452946527162566781044006347656250
0.3121837846786844616886469339078757911920547485351562500
-0.2773902570884266283179897527588764205574989318847656250
-0.4369741671745319133712825987458927556872367858886718750
-0.3949208301918613051029183225182350724935531616210937500
-0.3618501222198785005623733468382852151989936828613281250
-0.5491015778850667494737081142375245690345764160156250000
0.3258463115549999344899845254985848441720008850097656250
0.0930265748069779435658332999992126133292913436889648438
-0.2638574144537633170415347194648347795009613037109375000
-0.2490190831624690681600498010084265843033790588378906250
0.1390392899375661461824904563400195911526679992675781250
0.3065163179257930914367591412883484736084938049316406250
0.2206702495126786622847703256411477923393249511718750000
-0.3510590676006210553161679399636341258883476257324218750
0.2263177449070714608581056381808593869209289550781250000
-0.1665100815939478950955532354782917536795139312744140625
0.2431477094519759740709474726827465929090976715087890625
-0.0504707439113281849940584322666836669668555259704589844
0.0392903989528115837881472316439612768590450286865234375
0.0660167387392236737486683750830707140266895294189453125
-0.4396181608764804238376200373750180006027221679687500000
0.1219218885070266905623626030319428537040948867797851562
-0.2741844784337111873284698049246799200773239135742187500
0.0790264307292359302614670468756230548024177551269531250
-0.2997378810402852589156452722818357869982719421386718750
0.3180962212659916854562425214680843055248260498046875000
-0.5304122290392399019509639401803724467754364013671875000
0.1948787542044898013493536836904240772128105163574218750
-0.4004111056192253270680225796240847557783126831054687500
0.4436679229199803620176112417539115995168685913085937500
0.3366851646472441283997056871157838031649589538574218750
0.1869350683623171582858901729196077212691307067871093750
-0.4606823859375400731508420903992373496294021606445312500
-0.2027053171779767404281358267326140776276588439941406250
-0.5549368833961196845194763227482326328754425048828125000
-0.2776711769582623223762141151382820680737495422363281250
-0.1635333951096992199936153156158979982137680053710937500
0.3034696927325011284182210147264413535594940185546875000
0.3802524409770614566284052671107929199934005737304687500
0.2746841315992835097503643737582024186849594116210937500
-0.3293041369744761914795105894881999120116233825683593750
-0.1195606357620308257683205965804518200457096099853515625
0.2821258291671890905405462035560049116611480712890625000
0.2006566895795053873108315656281774863600730895996093750
0.1427079957522147946047397226720931939780712127685546875
0.2473596138432221369640728880767710506916046142578125000
0.0496421971638844466978568448212172370404005050659179688
0.0833760236188967190917864513721724506467580795288085938
-0.2436639518428921902248873720964184030890464782714843750
-0.2018494356718175675169391070085112005472183227539062500
-0.1309529785233373988528882136961328797042369842529296875
-0.6388739735449191492477893916657194495201110839843750000
-0.0829344373037674692517029484406521078199148178100585938
-0.7145432224925964970196901049348525702953338623046875000
0.2756422573037485834746007640205789357423782348632812500
0.3574280471536728231995994065073318779468536376953125000
0.3544547232557175853173703217180445790290832519531250000
-0.1998450954575615723385340061213355511426925659179687500
0.3992407064012680195652649217663565650582313537597656250
-0.1132251785481953598733184662705752998590469360351562500
-0.2706985290369138263955051115772221237421035766601562500
0.2254561113893159829402179639146197587251663208007812500
-0.0998351998148676866851047861928236670792102813720703125
-0.2692599970436224676717529291636310517787933349609375000
-0.1686121646567855514309286490970407612621784210205078125
-0.2366336616860525432493034259096020832657814025878906250
0.1001170766003605799854270230753172654658555984497070312
0.3071315439498935040418814423901494592428207397460937500
0.3875694650423145981577022212150041013956069946289062500
0.1068137365304924757403171042824396863579750061035156250
-0.4712637777429545815621736437606159597635269165039062500
-0.3803629607203570794915492569998605176806449890136718750
-0.3431636266359349152210711508814711123704910278320312500
-0.1693719173928768251258247801160905510187149047851562500
-0.1287328348184470783177602015712182037532329559326171875
-0.2433336826631227745032504117261851206421852111816406250
0.2754124717717129633420825030043488368391990661621093750
0.1053097968403611250920448583201505243778228759765625000
0.0539746745738556785165762619271845323964953422546386719
-0.3712021396964701458465185623936122283339500427246093750
0.0747801493749950391132230720359075348824262619018554688
-0.5489819975936848228670328353473450988531112670898437500
0.1863080440475307630876500297745224088430404663085937500
-0.6285039085992553120618708817346487194299697875976562500
0.4596729023954213011471381378214573487639427185058593750
-0.2977939059961010048738216937636025249958038330078125000
