nn
1,10,10,10,10,10,1
dIn
0
dIntern
,
dOut
,
normP
1.9750000000000072
normY
1.0
w
-1.2510722008453087905621714526205323636531829833984375000
-0.8781755240445631160994821584608871489763259887695312500
-1.3730751293937142332168832581373862922191619873046875000
0.4670245727324119910939259625592967495322227478027343750
-1.8644542190362229927558246345142833888530731201171875000
-1.6868790316631090409060789170325733721256256103515625000
0.1702791612068772220123236138533684425055980682373046875
-1.9805646938753522778853266572696156799793243408203125000
0.4129787939216221226423897405766183510422706604003906250
0.6019080534237757351689879214973188936710357666015625000
-0.1897552427517740225582087987277191132307052612304687500
-0.7116357789556174706646629601891618221998214721679687500
-0.5312008079994527953715532930800691246986389160156250000
0.1934623048087069085987366179324453696608543395996093750
-0.0137127178017355071115712661367069813422858715057373047
0.2025703811675489962595975157455541193485260009765625000
0.5415458972377549251575601374497637152671813964843750000
0.2544385153853275793878196964215021580457687377929687500
0.5344314763721540462171333274454809725284576416015625000
0.2312934036424700856571234908187761902809143066406250000
0.7187961106500538877028816386882681399583816528320312500
0.4878403269114886531276908954168902710080146789550781250
0.0759885076576138074333499616841436363756656646728515625
0.7107468774948906276023308237199671566486358642578125000
-0.0652827822888922965072211468395835254341363906860351562
-0.7653070205253084123953044581867288798093795776367187500
-0.3162419454776963512188103777589276432991027832031250000
-0.1019691860883362444223365628204192034900188446044921875
-0.3921680780927664367041529658308718353509902954101562500
0.8046043301854305385134580319572705775499343872070312500
-0.3711230181637094616142746872355928644537925720214843750
-0.4182216908742509842156209742825012654066085815429687500
0.4692828936722037713735744546283967792987823486328125000
0.6106818396226995071529586311953607946634292602539062500
-0.2555739798391943318200958401575917378067970275878906250
-0.9626850201237593385172885973588563501834869384765625000
-0.7328340006099498538105763145722448825836181640625000000
0.1990460535197360047998671461755293421447277069091796875
-0.2339489968437058753369939267940935678780078887939453125
0.2725835186063867987549258486978942528367042541503906250
0.4664316546194067214514689112547785043716430664062500000
0.5386967948905921899083182324829977005720138549804687500
0.2780576845559866727697340138547588139772415161132812500
0.8596196905920524544697514102153945714235305786132812500
0.0763358008083030864510121205057657789438962936401367188
-0.8010869936644464672781396075151860713958740234375000000
-0.9389579566069333749211978101811837404966354370117187500
0.2370425247931743639728807693245471455156803131103515625
-0.6725982702191724005302830846630968153476715087890625000
-0.1904947151987631814851198441829183138906955718994140625
-0.0565707743776883500985697139640251407399773597717285156
0.0814127073062196060515560702697257511317729949951171875
0.4855332768779535013159431855456205084919929504394531250
-0.5194961215682449839903256361139938235282897949218750000
-0.2581073723382446560847824912343639880418777465820312500
0.4784697884665735645448592094908235594630241394042968750
-0.0628167295975855799472498119939700700342655181884765625
0.5044216659681615144705801867530681192874908447265625000
0.0864421177292624409727039846984553150832653045654296875
0.1318538248901121312517403794117853976786136627197265625
0.8022699797884167427497459357255138456821441650390625000
0.6332150291625694427111170625721570104360580444335937500
0.0017928285857253577553760415241868031444028019905090332
0.9423269632474997603566180259804241359233856201171875000
0.8552407853969513640279842547897715121507644653320312500
-0.6402787010161850034251074248459190130233764648437500000
-1.0468973126223011238522531130001880228519439697265625000
-0.1463275046160980585874256121314829215407371520996093750
-0.9736991384210024191858678932476323097944259643554687500
1.0004680463228428077826492881285957992076873779296875000
0.9574133855507038770582539655151776969432830810546875000
-0.0580838147917888819593557059306476730853319168090820312
-0.2848018081432859838209026293043280020356178283691406250
0.3085313816276240017622001232666661962866783142089843750
1.0630778458036318490087523969123139977455139160156250000
-0.2618521615147705317028226090769749134778976440429687500
-0.7129418366140007901066155682201497256755828857421875000
-0.2929624287987921404941005221189698204398155212402343750
-0.5527708709134957487663086794782429933547973632812500000
0.9713643129869973247281222938909195363521575927734375000
-0.1310822056878143404556880113887018524110317230224609375
-0.2892019409638634241943577762867789715528488159179687500
-0.4073041133418251469322513003135100007057189941406250000
-0.1797356144599178695564489771641092374920845031738281250
0.2354139643317680052891915920554311014711856842041015625
0.6131878511896780015177910172496922314167022705078125000
0.3876984566677661447897662583272904157638549804687500000
-0.3937421852337182337500109952088678255677223205566406250
-0.0446251054488842474610166277670941781252622604370117188
0.1492948824788795925133655373429064638912677764892578125
0.6831232420035627805887656904815230518579483032226562500
0.5207864308834170286033327101904433220624923706054687500
-0.3143475044506508497832442117214668542146682739257812500
0.1706225180187560530598034347349312156438827514648437500
1.1138826027772603666221584717277437448501586914062500000
-0.7159764104637873494141331320861354470252990722656250000
-0.1375432133359931752281113404023926705121994018554687500
-0.6768191194620590822594863311678636819124221801757812500
-0.6968197335807737591295563106541521847248077392578125000
1.4169264278892843567092540979501791298389434814453125000
-0.3040528815407021467898118771699955686926841735839843750
-0.3032149060197612544520495703181950375437736511230468750
0.3797761787187904913842828591441502794623374938964843750
-0.4679231775854281738524775846599368378520011901855468750
0.1801745697196742435064464871175005100667476654052734375
0.5710625687769632641277439688565209507942199707031250000
0.0073545443497982547834124211760808975668624043464660645
0.2366301056799064161939583073035464622080326080322265625
-0.1983857671956899826337661352226859889924526214599609375
-0.1552829038313841836238538007819443009793758392333984375
-0.1473894509931667762270279808944906108081340789794921875
-0.2792199363352116381342682416288880631327629089355468750
-0.0894087691799728134789404521143296733498573303222656250
-0.1521230944916503458053114172798814252018928527832031250
-0.4638878529999488353752212788094766438007354736328125000
0.2520262819215701166619680861913366243243217468261718750
0.3629847328526119576430630786489928141236305236816406250
0.3271968120227328191695903569780057296156883239746093750
-0.0071669184137473796597506137118216429371386766433715820
-0.0997795091863941385756930912975803948938846588134765625
0.3244888865211999484650107206107350066304206848144531250
-0.1160964001137731738122482738617691211402416229248046875
-0.4614584763694787872267966122308280318975448608398437500
-0.3041087745658329066777980642655165866017341613769531250
0.2470331760928939635046930334283388219773769378662109375
0.2907109067445106109772723357309587299823760986328125000
0.5137314453654583390473931103770155459642410278320312500
-0.3435544642433798756542273622471839189529418945312500000
-0.6474689315006819656517222938418854027986526489257812500
0.8740240612759118121743995288852602243423461914062500000
0.7340322787685236161081547834328375756740570068359375000
0.1228533727443795742217957922548521310091018676757812500
-0.3747057386188122896086838409246411174535751342773437500
0.1397773505505358060396758901333669200539588928222656250
1.0925895206911637735913700453238561749458312988281250000
-0.7748285707931600319042786395584698766469955444335937500
0.3129983262417370126762250492902239784598350524902343750
1.0768802066905795999929296158370561897754669189453125000
0.1912827834576009966571774612020817585289478302001953125
1.1278719170763928936196407448733225464820861816406250000
0.4973918508354356338152513217210071161389350891113281250
0.4286851782541493682820998856186633929610252380371093750
-0.6665404050517601541869794345984701067209243774414062500
-0.1649442289694238727992825488399830646812915802001953125
0.2481097213216649777223210548982024192810058593750000000
-0.2658119809474611683342004653241019695997238159179687500
0.3606942378163467965990207630966324359178543090820312500
0.2654724820873048951597183986450545489788055419921875000
0.2057387359022809780739748930500354617834091186523437500
-0.0310343995847226633566506848183053079992532730102539062
0.4049141512607845050375487971905386075377464294433593750
-0.2488735185117538495358502359522390179336071014404296875
-0.0131227492175651824085624852500586712267249822616577148
-0.1374977636850301387916317708004498854279518127441406250
-0.2090077725941026365319430624367669224739074707031250000
0.2777062826710446907796381310618016868829727172851562500
-0.1937616594294503113982131026205024681985378265380859375
-0.3539246738967978811452042009477736428380012512207031250
0.0556888288307627668527466369141620816662907600402832031
0.4541391686365671698233370534580899402499198913574218750
1.4377721807603303094680313733988441526889801025390625000
0.2409519071587118144162076305292430333793163299560546875
-0.5696903382946416627419239375740289688110351562500000000
0.9201730129497244226044472270586993545293807983398437500
-0.5306334284258661382338573275774251669645309448242187500
0.3284554336323085022009138356224866583943367004394531250
0.5711449800401336984734257384843658655881881713867187500
0.4880176387463150411427648123208200559020042419433593750
0.2959462394808185514705201057950034737586975097656250000
0.0483626836934867021522421737245167605578899383544921875
-0.3257372960135169748241423803847283124923706054687500000
-0.3385783191832459904091479074850212782621383666992187500
-0.0950191637069053990360956163385708350688219070434570312
0.2212633415584677742948827017244184389710426330566406250
1.3938570919771173794998730954830534756183624267578125000
-0.7530862262087648639763415303605142980813980102539062500
-0.2862436283787417323765112087130546569824218750000000000
0.7551935637696739478386120936193037778139114379882812500
-0.3106166486049198871555176992842461913824081420898437500
0.6743784650815255465872155582474078983068466186523437500
-1.8800688963406866349714618991129100322723388671875000000
0.3107098870913445054497969977091997861862182617187500000
0.4856032993480230985916534791613230481743812561035156250
-0.2358747430988685500619084223217214457690715789794921875
-0.1313266726932430239482840761411353014409542083740234375
0.3041028200834597350343813104700529947876930236816406250
-0.3065634745971704822053993666486348956823348999023437500
-0.1422742786402907411158480499580036848783493041992187500
-0.5337541621563914873149769846349954605102539062500000000
-0.6216357193883250698007714163395576179027557373046875000
-1.5309382371715303250425677106250077486038208007812500000
0.3996696769812084770734372796141542494297027587890625000
0.2452593656021966050939653314344468526542186737060546875
-0.4477809581372133029830706618668045848608016967773437500
0.3242904203946146979298248425038764253258705139160156250
0.3825835610928731145286008086259244009852409362792968750
-0.6666341476064593374317723828426096588373184204101562500
-0.1880150244840453066519359026642632670700550079345703125
0.0138283292381894060141256375118246069177985191345214844
-0.4008129695280198689921746790787437930703163146972656250
-0.2151103701312441496273919483428471721708774566650390625
0.2288656061840205480084620148772955872118473052978515625
-0.1456349854588161740753804451742325909435749053955078125
0.2366480330490247641073153772595105692744255065917968750
-0.8654324573411434906589079218974802643060684204101562500
-0.1690289645830100884182911613606847822666168212890625000
-0.3814428424522485761016810101864393800497055053710937500
0.0282047507062199442895433776357094757258892059326171875
0.3532673468674619177143370052363025024533271789550781250
-0.3190185813276856796605329691374208778142929077148437500
-0.0747209754286638355713634496169106569141149520874023438
0.3966005184978815267804463928769109770655632019042968750
-0.0977980179310428687777800860203569754958152770996093750
-0.1464028062299680410518476492143236100673675537109375000
-1.2349532059808099315745266721933148801326751708984375000
0.1550023917639886672503735098871402442455291748046875000
-0.6969698578698234614492434957355726510286331176757812500
-0.7659861176297899643117261803126893937587738037109375000
0.1042331110544774674941947978368261829018592834472656250
-0.9127114144456037747588084130256902426481246948242187500
-0.2402006785697896329434541939917835406959056854248046875
-0.6374406033100238344601962126034777611494064331054687500
-0.2235498421356605369680892181349918246269226074218750000
-0.7310224000585617831760032458987552672624588012695312500
1.7579166708361047000153121189214289188385009765625000000
-0.7676377733863813945802689886477310210466384887695312500
0.3602593409584087802421947799302870407700538635253906250
0.8991420967580043832612091136979870498180389404296875000
0.2685522314432753909763107458275044336915016174316406250
0.7700323024508791691644660204474348574876785278320312500
-0.7553600740281396497266541700810194015502929687500000000
0.4807852272284623973419570575060788542032241821289062500
-0.2335109273498609527841551880555925890803337097167968750
0.2881664497314422868079475392733002081513404846191406250
1.0260972105117094343995631788857281208038330078125000000
-0.3148887856639238647105116797320079058408737182617187500
0.2535347106313582954406626868149032816290855407714843750
-0.3624662975826763444686662296589929610490798950195312500
-0.1572382696526488099486584815167589113116264343261718750
0.4054447529093944679878802617167821153998374938964843750
-0.9086178055644237305799038040277082473039627075195312500
-0.1227024139536970204211741020117187872529029846191406250
-1.1002123329162651899082447926048189401626586914062500000
-0.8146111474715113098810093106294516474008560180664062500
0.8639937445870513599288642581086605787277221679687500000
-2.1414227933942409087819669366581365466117858886718750000
-0.0179566177210291506860517785071351681835949420928955078
0.0940867103790644920824348673704662360250949859619140625
-0.2546756173582052640291806255845585837960243225097656250
-0.0277030949974779935884861004069534828886389732360839844
-0.5773104322788752407191736892855260521173477172851562500
-0.3074330501341394072944979143358068540692329406738281250
0.2370230672502743607399366965182707644999027252197265625
-0.3656369916365372341182649051916087046265602111816406250
-0.4759386218195060802571560998330824077129364013671875000
0.5728924647619755283756148855900391936302185058593750000
0.1285602295651895876638093341171042993664741516113281250
0.7164021219774311388661658384080510586500167846679687500
-0.0776583286073701806184743645644630305469036102294921875
0.2747944908555980947362229471764294430613517761230468750
0.3200127170024916756219113267434295266866683959960937500
-0.1267963088904424939773463165693101473152637481689453125
0.0971348262703216475122403039677010383456945419311523438
0.0869631526999719434156688180337368976324796676635742188
0.2859619849645216316247342547285370528697967529296875000
0.5449197982724230948647914374305400997400283813476562500
0.2040908232604142502619737342683947645127773284912109375
-0.0664149021760172125761201300520042423158884048461914062
0.5544991425094288883812509993731509894132614135742187500
0.2559414476223800249954365426674485206604003906250000000
-0.0061543407141197107451668912858622206840664148330688477
-0.3212420176813899352907810680335387587547302246093750000
0.4849750252295177976868956193357007578015327453613281250
-0.2914096884550592680973579717829125002026557922363281250
-0.3020117893004395370759596062271157279610633850097656250
-0.3890047224177279883150504247169010341167449951171875000
0.9056239944165812572052232098940294235944747924804687500
-0.2329716432814010751428668299922719597816467285156250000
0.4171654770762489028435027194063877686858177185058593750
-0.1539013490045724463772813805917394347488880157470703125
0.4557753106318425118104187276912853121757507324218750000
0.2322829693028515551933566030129441060125827789306640625
0.5100071935298366998523533766274340450763702392578125000
1.6083732686010041579294238545116968452930450439453125000
-0.4324672625416485227667351409763796254992485046386718750
0.8483751290200678418784718815004453063011169433593750000
-1.7353019681836250320827730320161208510398864746093750000
-0.0578132695958751968712263646921201143413782119750976562
-0.8073756947061050404101933963829651474952697753906250000
-0.4629905814474329361907223301386693492531776428222656250
0.2507629596542719219165462618548190221190452575683593750
-0.1647854058036264668363202190448646433651447296142578125
-0.4743433862517278387649355408939300104975700378417968750
-0.9389856102342304389196669944794848561286926269531250000
-0.3634690935355132657136323359736707061529159545898437500
-0.1465852537832633140091331824805820360779762268066406250
0.7819971758686452556474932862329296767711639404296875000
0.0831606021390038502305586121110536623746156692504882812
0.6148630607027020245070048076740931719541549682617187500
-0.9575537077027640453508183782105334103107452392578125000
0.6588593897697746504249494137184228748083114624023437500
-0.1003492295007690632280272780008090194314718246459960938
-0.4244157216989173364574128299864241853356361389160156250
-0.0234573453655358976632783196691889315843582153320312500
-0.6884912327856234082190667322720400989055633544921875000
-0.0852587022605042488265780775691382586956024169921875000
-0.1300640950526309180812489785239449702203273773193359375
0.1932265918255847980677941677640774287283420562744140625
0.2042110230693080230590652490718639455735683441162109375
0.2722461860010633727391393676953157410025596618652343750
-0.6722681477034359032174393178138416260480880737304687500
1.1630931382684026598184345857589505612850189208984375000
0.0348506972879811527388227432311396114528179168701171875
0.3863983366651893014420693361898884177207946777343750000
0.1257321857824730548802705243360833264887332916259765625
-0.0454869231751960229059861262612685095518827438354492188
-0.0172439277812464417105609015834488673135638236999511719
-0.2468658632748531034373229431366780772805213928222656250
-0.0658464043511965968491495004855096340179443359375000000
1.1965774847682786319325032309279777109622955322265625000
0.4884658004064642011776697927416535094380378723144531250
0.0336478950699845846816771199883078224956989288330078125
0.0461923761920701655969700993864535121247172355651855469
-0.2236501000741728806264774220835533924400806427001953125
-0.0488004278781048114743690291561506455764174461364746094
-0.7157446363407948819457260469789616763591766357421875000
0.0092179369110597843967047637647738156374543905258178711
-0.5112898748041786456397517213190440088510513305664062500
-0.0176639421469412943865862075654149521142244338989257812
0.3217808244772221160090452940494287759065628051757812500
-0.7195710188793770223369961058779153972864151000976562500
0.9563885809585648267727719940012320876121520996093750000
0.5277589055594056333120533963665366172790527343750000000
0.5853426410918693978402416178141720592975616455078125000
-0.2453133952539252038427264324127463623881340026855468750
0.4699356168812033884840673181315651163458824157714843750
-0.7145750330460650667774302746693138033151626586914062500
-0.2263992772669858599687842115599778480827808380126953125
-0.0908624054054864432883320546352479141205549240112304688
0.9914439413130111677929789948393590748310089111328125000
-0.3048011950769085598444974039011867716908454895019531250
0.3010585663598626671166869073203997686505317687988281250
0.1181854527487312261913032784832466859370470046997070312
0.8258106883884603899304011065396480262279510498046875000
0.4156398351952366176931263908045366406440734863281250000
0.5964157376063627946649603472906164824962615966796875000
-0.7734724112761618419753517628123518079519271850585937500
0.1759157894554828627242670791019918397068977355957031250
0.1517321051264229891941681671596597880125045776367187500
0.0167528908993493062806745541593045345507562160491943359
-0.4289154473438264725260182785859797149896621704101562500
0.3161631364340661276557398196018766611814498901367187500
0.5080268204601724457702971449180040508508682250976562500
0.3068557653953661312762335455772699788212776184082031250
-0.1865267339657175060807503541582264006137847900390625000
-0.6732366424972703322637812561879400163888931274414062500
0.3420978186637604889774877392483176663517951965332031250
-0.4200959782521436203239773021778091788291931152343750000
0.6746199166099241528726793148962315171957015991210937500
0.2205443792274662251351458053250098600983619689941406250
-0.4647978829849014337227686155529227107763290405273437500
0.2077025512584488031730955981402075849473476409912109375
0.5083975190259053533736732788383960723876953125000000000
0.1306690725059216906522863155259983614087104797363281250
0.6306618778433348282419501629192382097244262695312500000
-0.2977833201307862331930209620622918009757995605468750000
-0.1603404548970127907470129002831527031958103179931640625
0.4976985130077741237286659270466770976781845092773437500
-0.3541438359487403264580507311620749533176422119140625000
0.1873731669762572493720398369987378828227519989013671875
-0.9737851018372504219300367367395665496587753295898437500
-0.2465154265387628773620320998816168867051601409912109375
0.4398166064350323978260348667390644550323486328125000000
0.1394718183244104958706799379797303117811679840087890625
0.2788368705527919932940505987062351778149604797363281250
-0.0450888165802728474451654960830637719482183456420898438
-0.1177079005435356373610034097509924322366714477539062500
0.5719799100488340837245004877331666648387908935546875000
0.3029113543299646882367426314885960891842842102050781250
-0.3217609810561455896404936538601759821176528930664062500
-0.2656047829650212688257227000576676800847053527832031250
0.1499310729119724405755675888940459117293357849121093750
-0.6100667402686178464321642422873992472887039184570312500
0.4934108719370217666089217800617916509509086608886718750
-0.1339876654108368148055063784340745769441127777099609375
-0.5413015168670470833589547510200645774602890014648437500
0.4163208321509465625887003170646494254469871520996093750
-0.7129935849987851792519677474047057330608367919921875000
0.1885864371517325943639065144452615641057491302490234375
0.1012672313802205348309826149488799273967742919921875000
1.1588393817377511396671252441592514514923095703125000000
-0.3378909899771742053609102640621131286025047302246093750
-0.0111750805772159022416500917529447178822010755538940430
-0.4126397671528764798942745528620434924960136413574218750
-0.3666597097337918054194005890167318284511566162109375000
-0.3146287135791992484179502298502484336495399475097656250
0.0195618089528424923817517822044464992359280586242675781
0.0528903246713437608095276232234027702361345291137695312
0.0296646019499748059278232403812580741941928863525390625
0.3112558944763499368946213508024811744689941406250000000
0.6176273528487864483693670081265736371278762817382812500
0.7460396835366202017425507619918789714574813842773437500
0.4984946176777457771400747787993168458342552185058593750
0.3233746738341951587614175878115929663181304931640625000
-0.4101511050643084077549360699777025729417800903320312500
0.2977826419746092412310645158868283033370971679687500000
0.1264364721584847750524005505212699063122272491455078125
-0.0639568851591018894264806249339017085731029510498046875
0.0837174770711272137058145403898379299789667129516601562
-0.2662306103218968766910279555304441601037979125976562500
-0.5470626724235625459868970210663974285125732421875000000
-0.3911592335109305151874536932155024260282516479492187500
-1.7189523980833856242611545894760638475418090820312500000
0.1531858237904267783235923161555547267198562622070312500
0.0841299158889520642956583174054685514420270919799804688
0.2013850156241116240440902629416086710989475250244140625
0.1246335081146003193053317659177992027252912521362304688
-0.0161314287169607474548005399128669523634016513824462891
-0.1554723480873534680046788025720161385834217071533203125
-0.3307284739036819853907900323974899947643280029296875000
0.0447780463284868784912262640318658668547868728637695312
-0.4369057903344000237666477914899587631225585937500000000
-0.2708875051981321502303501347341807559132575988769531250
-0.1303983889772732107648067767513566650450229644775390625
-0.2591901601647653152760142347688088193535804748535156250
0.7384937566783905671385923596972133964300155639648437500
-0.2696479029992183140684858244640054181218147277832031250
0.4506556227515123302929112014680868014693260192871093750
-0.2810122741984055760866567652556113898754119873046875000
-0.3791461093429322470882425477611832320690155029296875000
0.3926632138504118074706639163196086883544921875000000000
0.3801589980028529658362401733029400929808616638183593750
-0.8414934815085023389613638755690772086381912231445312500
0.2728671877803134360185310924862278625369071960449218750
-0.3128283815783544641320190748956520110368728637695312500
0.0861952192304746012130323151723132468760013580322265625
-0.3422092075785157505585232229350367560982704162597656250
0.4402386583168367284457644927897490561008453369140625000
-0.0410065429014573393229348141630907775834202766418457031
0.0634790137637753076882418667992169503122568130493164062
0.0594562136044540015533677035364235052838921546936035156
-0.4429108760861187321644649728114018216729164123535156250
-0.2553138747356349380623896649922244250774383544921875000
-0.0600336018244172764379840145920752547681331634521484375
0.1417159992850234306871470835176296532154083251953125000
0.4195996105488093985691477882937761023640632629394531250
1.1288230557343865712027763947844505310058593750000000000
-0.6068977329587023072932083778141532093286514282226562500
-0.2500040878133229504953760624630376696586608886718750000
0.3888633098910574403817008715122938156127929687500000000
-0.4844857616082182683037160586536629125475883483886718750
-0.0382216867584324604401047054125228896737098693847656250
0.2248424278082295224567843661134247668087482452392578125
0.0870603874903869423551583395237685181200504302978515625
-0.0078644546936958888150304147757196915335953235626220703
0.1510759665041257193696111471581389196217060089111328125
-0.1518541468190050813813485319769824855029582977294921875
-0.2037589319991569281054211160153499804437160491943359375
-0.1078250719522820255669159905664855614304542541503906250
0.3579159345196892827445367402106057852506637573242187500
-1.2815417448965795710336124102468602359294891357421875000
-0.5966311700313544630347450947738252580165863037109375000
1.4106357111321448094543029583292081952095031738281250000
-0.1500672012276638156436092685908079147338867187500000000
0.1989335459623220447866742688347585499286651611328125000
1.2279545455727998160000424832105636596679687500000000000
-1.0325840052230788046472298447042703628540039062500000000
1.2065806488881498648169099396909587085247039794921875000
-0.4318599787295956393684548402234213426709175109863281250
-0.5254482367803655629145964667259249836206436157226562500
-0.0381038592556031119329418288543820381164550781250000000
