nn
1,10,10,10,10,10,1
dIn
0
dIntern
,
dOut
,
normP
1.9750000000000072
normY
1.0
w
0.0586980211545131205785885697423509554937481880187988281
0.1477635570850626134387084675836376845836639404296875000
-0.2490615548580028260072793955259840004146099090576171875
-0.1033498691384147349925370917844702489674091339111328125
0.4560851571752336797160864989564288407564163208007812500
0.1602751301244444426252755420136963948607444763183593750
-0.4225035262096780153129316204285714775323867797851562500
0.0165327286310915783085206953728629741817712783813476562
-0.0248189992331758653432149941409079474397003650665283203
-0.4862910257275344649841031241521704941987991333007812500
-0.3962999058383511741254778826260007917881011962890625000
-0.2835835900799029696273123590799514204263687133789062500
0.1488482602105593299857133615660131908953189849853515625
-0.2634276604266183596791961463168263435363769531250000000
-0.2432936367582809455978321011571097187697887420654296875
-0.3485204890946521083527898099418962374329566955566406250
-0.4380903099346305507033605408651055768132209777832031250
-0.2409721820430185401651357324226410128176212310791015625
-0.2722751152511844185966083387029357254505157470703125000
0.1384436344894234838243107788002816960215568542480468750
-0.1726230846228253845708877634024247527122497558593750000
-0.3838788824539463573337627622095169499516487121582031250
0.4283730273316391778948286628292407840490341186523437500
-0.1517170149287741798271866855429834686219692230224609375
-0.4238397212180031181638639736775076016783714294433593750
-0.0617738143122294816600437172837700927630066871643066406
0.4554966627897683584258459177362965419888496398925781250
0.2655593523882226469901013388152932748198509216308593750
-0.4552880954106774402667667800415074452757835388183593750
-0.2455496490557402822219046356622129678726196289062500000
0.3013042797109541925948406060342676937580108642578125000
-0.2929964598422270527500188563863048329949378967285156250
0.3451943100450872714546335373597685247659683227539062500
-0.4714407238747209683005223723739618435502052307128906250
-0.1258134214272748352403397120724548585712909698486328125
0.2596334325475287418960590457572834566235542297363281250
-0.0383550416725820034202776298570825019851326942443847656
0.4745483749130329775844927553407615050673484802246093750
0.1497118330200278846220385275955777615308761596679687500
-0.2782447886740803122407328373810742050409317016601562500
0.3612797317215215575636477751686470583081245422363281250
0.1339328185487247968588064850337104871869087219238281250
0.3207387998465553446969522610743297263979911804199218750
-0.2720663037288115204681560044264188036322593688964843750
0.1357752290029647368463372458791127428412437438964843750
0.4970628818396097270415623370354296639561653137207031250
-0.4513163997165487995033572587999515235424041748046875000
-0.2242727331039630345177471326678642071783542633056640625
-0.2564304759251430643196556502516614273190498352050781250
0.1425022162666514102813408726433408446609973907470703125
0.2149523726375107690600430032645817846059799194335937500
0.2816471282930279596001810205052606761455535888671875000
0.4481941231454203977691008731198962777853012084960937500
0.3308088859991659691495158313045976683497428894042968750
0.4787405142354482778799251718737650662660598754882812500
-0.1461619369393614142893511598231270909309387207031250000
-0.2937914961525436297051783185452222824096679687500000000
0.3164141088406194346482891432970063760876655578613281250
-0.0406783909194163850742143040406517684459686279296875000
0.2051480255912039030175009202139335684478282928466796875
0.1917483962252650442348311798923532478511333465576171875
-0.0602430164418265370884775222748430678620934486389160156
-0.4987688083479919765039767298731021583080291748046875000
0.2818923219672596069962366982508683577179908752441406250
0.2443756334806613528254359835045761428773403167724609375
0.2442930441924695827982105811315705068409442901611328125
-0.0102161947892983138302946954922845179680734872817993164
-0.2740005730804797590138832674711011350154876708984375000
0.1006308359421527742760815726796863600611686706542968750
-0.2790049895065542795435931111569516360759735107421875000
0.2094600370596894078900618296756874769926071166992187500
-0.2088550301711412926497501985068083740770816802978515625
-0.2779932703472767774321994238562183454632759094238281250
-0.0848089532103590976186424654770235065370798110961914062
0.4540460546196407598529276583576574921607971191406250000
-0.3857572291279526832674662273348076269030570983886718750
-0.4654967828170451515923389251838671043515205383300781250
-0.2737178870664267460455221225856803357601165771484375000
0.0998316365446285380880198090380872599780559539794921875
0.3149473907407637218724971717165317386388778686523437500
-0.2197989208990582254976686726877233013510704040527343750
-0.2331083992828922035744909635468502528965473175048828125
0.3561166591230771616416461711196461692452430725097656250
-0.4089640925148714800663185542362043634057044982910156250
-0.4865080261746153600377340353588806465268135070800781250
-0.2687753260383402009736641957715619355440139770507812500
0.1767632227936476452256897573533933609724044799804687500
-0.0290598530092131129842769610149844083935022354125976562
-0.2488565953735942526403590591144165955483913421630859375
-0.1318190060278862096865282182989176362752914428710937500
-0.1359106709182718308870363443929818458855152130126953125
-0.1602918892246845972149316139621078036725521087646484375
0.3610096758938178829190235319401836022734642028808593750
0.1993262995354052602436922825290821492671966552734375000
0.2020483267675039218413957087250309996306896209716796875
-0.1103456632744213017360834783175960183143615722656250000
0.2615658697536168975084081012028036639094352722167968750
0.4215194852033336547769692970177857205271720886230468750
0.4500655256415083682597355618781875818967819213867187500
0.0192785665542805767502798630630422849208116531372070312
-0.3997511774536254280931757421058136969804763793945312500
-0.4560751831030366298946887582133058458566665649414062500
0.3797953846657450283075263541832100600004196166992187500
-0.2881768911990125192623679595271823927760124206542968750
-0.4975507243431415704826292767393169924616813659667968750
-0.0144460570401158845676992115159009699709713459014892578
0.2145079199326213881260372318138252012431621551513671875
0.4362724962648346638260932195407804101705551147460937500
-0.4635812820415525226103170552960364148020744323730468750
0.0767259079101014623836007899626565631479024887084960938
-0.3949199963973620275403675350389676168560981750488281250
0.1952067573101287090153732606268022209405899047851562500
0.4595277408113581651960544149915222078561782836914062500
-0.2211458201904453746422518634062726050615310668945312500
0.3021215881120238866408556077658431604504585266113281250
-0.1584899398284273785986187021990190260112285614013671875
-0.4430400278305369199394192492036381736397743225097656250
0.4840166211706455889896005828632041811943054199218750000
-0.0572429776465197825974229317580466158688068389892578125
0.0961258491520947527808615973299311008304357528686523438
-0.0607518079312184405837982126286078710108995437622070312
-0.1133461156775062150803279337196727283298969268798828125
-0.0501801787501726173634786221100512193515896797180175781
0.2824312150107678442978453858813736587762832641601562500
0.2432773363079308304168790755284135229885578155517578125
-0.4109285203514279616321402954781660810112953186035156250
-0.4813710422945594591404017137392656877636909484863281250
-0.3234250145618408622816275510558625683188438415527343750
-0.4295427236847397800545422796858474612236022949218750000
-0.2734236259457957229912494767631869763135910034179687500
-0.2851899529712254577340502237348118796944618225097656250
-0.1084099971046048743739120823192934039980173110961914062
-0.3018758025306799153142378600023221224546432495117187500
-0.1944262015102816154588083463750081136822700500488281250
0.0789843343378040380065030490186472889035940170288085938
0.2291364554482932525125704614765709266066551208496093750
-0.1500771569610577227393832799862138926982879638671875000
0.0037207200401914684861903737100874423049390316009521484
0.4866959953709331099247492602444253861904144287109375000
0.3903007443103795881533812917041359469294548034667968750
0.1738694553899433892230064202522044070065021514892578125
-0.4202464140795237335090916985791409388184547424316406250
0.1138641192693880255237814935753704048693180084228515625
0.3127137911579270790340956409636419266462326049804687500
0.4682540429658286207370565534802153706550598144531250000
-0.4618610979888803647064321467041736468672752380371093750
0.0450280274537216695929231491390964947640895843505859375
0.0534664966253358200920509091247367905452847480773925781
0.0437451160573083253080284293901058845221996307373046875
-0.0129304070391962813019182121365702187176793813705444336
0.0331687587483944501531851756226387806236743927001953125
0.2453161738385778167792494741661357693374156951904296875
0.3794275280495398305902199354022741317749023437500000000
0.3277481785194013008677416110003832727670669555664062500
0.2352319436956986642428546474548056721687316894531250000
-0.1877287558562416025509378414426464587450027465820312500
-0.1893504426991405586999661636582459323108196258544921875
0.4522607017433654674753995550418039783835411071777343750
0.1298283933915626853217162306464160792529582977294921875
0.5004881966291273576175058224180247634649276733398437500
0.0635392247293982831424230539596464950591325759887695312
-0.0109768635464119485717349178344193205703049898147583008
-0.0180366224261814256379921062034554779529571533203125000
0.1457758365580765491653636445334996096789836883544921875
-0.0008080235264758990620936884852199000306427478790283203
0.1898762976526010282096734727019793353974819183349609375
0.0673319094990909861042638340222765691578388214111328125
-0.4853517444611659681363846630119951441884040832519531250
-0.0786005211308562906635799549803778063505887985229492188
-0.0127652668528321251717461137786813196726143360137939453
0.3230943642008964333811604774382431060075759887695312500
0.0673951528901140378691181354042782913893461227416992188
-0.4415023612220186910448660455585923045873641967773437500
-0.3822579718953027505534691954380832612514495849609375000
0.1650693447079288889156600816932041198015213012695312500
-0.4047565267847080261454095762019278481602668762207031250
-0.4893225649009273481304660435853293165564537048339843750
0.5018735936091008875692409674229566007852554321289062500
0.0166998129896512685632625760945302317850291728973388672
0.2769862754786343028712281011394225060939788818359375000
0.4055138407131211875089604745880933478474617004394531250
-0.2192320898162617714977074001581058837473392486572265625
0.4690250806450990128659839228930650278925895690917968750
-0.1486642335077727750114462423880468122661113739013671875
0.2882862663551968851471940524788806214928627014160156250
0.3294018777619882598628464620560407638549804687500000000
-0.2607357760964809090253879730880726128816604614257812500
-0.4596334308814948310661918640107614919543266296386718750
-0.2858796017933509792108281999389873817563056945800781250
0.3761313252943664919847321925772121176123619079589843750
0.4058039738575977550816276107070734724402427673339843750
-0.4782014179798987907332730173948220908641815185546875000
0.2659085968407952083047973701468436047434806823730468750
0.0596852035929211002796002105696970829740166664123535156
0.0603377362945541756422684898097941186279058456420898438
0.1149854417657050209555791298043914139270782470703125000
0.3226316639540263153662635886576026678085327148437500000
-0.0900756200590091260504976844458724372088909149169921875
0.4644246003308488690564104217628482729196548461914062500
-0.2967619977510370654627536168845836073160171508789062500
0.1166292431724223338518342529823712538927793502807617188
0.0647911764102048204350126070494297891855239868164062500
0.2009208349896579037796584543684730306267738342285156250
0.0823312392329223902143198188241512980312108993530273438
0.2084870003186377607207191431371029466390609741210937500
0.3335578058510060839303434931935044005513191223144531250
0.2188553998555234081369036402975325472652912139892578125
0.2535958597413139337106713355751708149909973144531250000
-0.4802482497049499476915457307768519967794418334960937500
-0.2139849558642185345380681837923475541174411773681640625
-0.2248724244572899710892244229398784227669239044189453125
0.1276747213812075565364523299649590626358985900878906250
0.2950861153061146713305618050071643665432929992675781250
-0.2698336627940224330401974839332979172468185424804687500
-0.3302700897672756208400812738545937463641166687011718750
-0.2543353712086630080690952127042692154645919799804687500
0.2424834071699237536545723514791461639106273651123046875
-0.2415355486353210068273256183601915836334228515625000000
-0.1857018536444599576817893193947384133934974670410156250
-0.4121833389252599344487748567189555615186691284179687500
0.1409587354371436840327902473291032947599887847900390625
0.4661484507059185378174959168973146006464958190917968750
0.4785664314893728898958613626746227964758872985839843750
-0.1459101555393590710085760520087205804884433746337890625
-0.1053474543915571409735676411401072982698678970336914062
-0.4745924998369968617062397697736741974949836730957031250
-0.1857720553650318573435384905678802169859409332275390625
-0.0906199320510416156393418418701912742108106613159179688
-0.2728301859910575721812620031414553523063659667968750000
-0.0636917140099789585994116691836097743362188339233398438
0.2234523846375992828239276377644273452460765838623046875
0.3958390112508526348378268266969826072454452514648437500
-0.3699651916559736908318711812171386554837226867675781250
-0.4581202065687915991887280142691452056169509887695312500
0.3154739536246077835635048813855974003672599792480468750
0.1075322814810504290505832614144310355186462402343750000
-0.3076355443400550782051539044914534315466880798339843750
-0.4413121018156744845839511981466785073280334472656250000
0.2819795545329865094075216802593786269426345825195312500
-0.1258131013340406667566639953292906284332275390625000000
-0.2628273438233657555151978613139363005757331848144531250
0.1861677004065781793062939186711446382105350494384765625
0.2600701551934638255936249606747878715395927429199218750
-0.3372768480490920817160827027691993862390518188476562500
0.4917585569039815696079642748372862115502357482910156250
0.4746729853830937706504755624337121844291687011718750000
-0.1739131544505927717825244371852022595703601837158203125
-0.4796891756150741814579419042274821549654006958007812500
0.0829349768609851933920396049870760180056095123291015625
-0.3561130539866941280280343562480993568897247314453125000
-0.1158361067415484418896554075217864010483026504516601562
0.0335462857135858799617622594269050750881433486938476562
0.1772365795008769284724081671811291016638278961181640625
-0.2660430081528321055728270039253402501344680786132812500
0.3349559189264746383862814127496676519513130187988281250
-0.4755331727100848282496770025318255648016929626464843750
-0.0194721188700855800390865368854065309278666973114013672
0.3610812557445622350549285783927189186215400695800781250
-0.3840031796061844082679215262032812461256980895996093750
0.1343467075734751936533228899861569516360759735107421875
-0.2765887953689057932038508624827954918146133422851562500
-0.4691871053542949199233191848179558292031288146972656250
0.2906503192464406915007657516980543732643127441406250000
-0.0443612841125906876005302592602674849331378936767578125
-0.1194333135760828890070683883095625787973403930664062500
-0.0858061754153756628404892126127379015088081359863281250
0.2999537641820884670273983374499948695302009582519531250
0.4251700457793456400246157045330619439482688903808593750
0.4782085249800888671067866653174860402941703796386718750
0.1788703858946854297062856176125933416187763214111328125
0.0546172919658523270403094329594750888645648956298828125
0.0740681528751035017643644664531166199594736099243164062
0.2612496555130576214587279082479653880000114440917968750
0.4482426065604430132083280113874934613704681396484375000
0.4457659651795318200839801647816784679889678955078125000
-0.0910098597983914348041878383810399100184440612792968750
-0.1945055697469443012348477850537165068089962005615234375
-0.2168092005954015966118220148928230628371238708496093750
-0.4676097515011269911688884803879773244261741638183593750
0.1118521043558756283831101541181851644068956375122070312
-0.0827714958007665368988625687052262946963310241699218750
0.2484380499153690247116088585244142450392246246337890625
0.3568688175213649560468809340818552300333976745605468750
-0.3742958494347587428130452735786093398928642272949218750
0.4988480960294839894331175855768378823995590209960937500
0.3651157787635929685698954472172772511839866638183593750
0.4079822326377822161447284088353626430034637451171875000
0.2030994031812799749392439707662560977041721343994140625
0.3347433165959164957925509042979683727025985717773437500
-0.0350931537848305011295657607206521788612008094787597656
0.4680323044112764119262237727525644004344940185546875000
-0.1230057239904717852896354202130169142037630081176757812
-0.1342583920917426731911348269932204857468605041503906250
0.0984216642217060205810597039999265689402818679809570312
0.2891888314408636029284593860211316496133804321289062500
-0.1613004781103972162803472656378289684653282165527343750
0.4278005823338034696590170824492815881967544555664062500
-0.0563012182303676209094156490664317971095442771911621094
-0.4235196647405646830364389643364120274782180786132812500
-0.2075108338594636725460418347211088985204696655273437500
0.2941455129082451991351376818784046918153762817382812500
-0.3045139194744167498996034737501759082078933715820312500
0.4664941144458228383662401483888970687985420227050781250
0.0235644667651730109481089669998254976235330104827880859
-0.2909341389482338890992707547411555424332618713378906250
-0.1316637090664072307077958612353540956974029541015625000
0.4166807895027445085567308069585124030709266662597656250
-0.0389447665400452502915129571192665025591850280761718750
-0.1368564110503946440466904732602415606379508972167968750
0.0865963158343108496683981911701266653835773468017578125
0.1680511797522461214793310091408784501254558563232421875
-0.3933799682176263856625553216872503980994224548339843750
-0.1085453686078374918588806963271053973585367202758789062
0.4045388350418634981764398617087863385677337646484375000
0.3728890780741897503780535316764144226908683776855468750
-0.3276678953217500023242791939992457628250122070312500000
-0.2916257871643790910987092956929700449109077453613281250
0.0119323210183351294949583021320904663298279047012329102
-0.2264416864945896779026668355072615668177604675292968750
0.4035749364215694412472146268555661663413047790527343750
0.1374750341586750135292049890267662703990936279296875000
-0.3024877400067413346640421423217048868536949157714843750
-0.0503641146360083238886495848873892100527882575988769531
-0.2027453488881972021307120712663163430988788604736328125
-0.2993320532655159849078074785211356356739997863769531250
-0.2495252050868594084764851004365482367575168609619140625
0.1733074180787358420374744127911981195211410522460937500
0.1824459554691478246901681359304348006844520568847656250
0.4611622908686016653057038183760596439242362976074218750
0.2863393317575097518634663629200076684355735778808593750
-0.4415061197767738421227079470554599538445472717285156250
0.4552836840756357417170363532932242378592491149902343750
0.3904619154517791068670362619741354137659072875976562500
-0.3525136632183705764909120716765755787491798400878906250
0.0930237399872877041007157572494179476052522659301757812
0.4681820477075843145442490822460968047380447387695312500
0.1889607395502550801769103827609797008335590362548828125
0.2947520358649362015590611463267123326659202575683593750
-0.0228127669103195818145479734084801748394966125488281250
-0.2244511601088988173025029482232639566063880920410156250
0.0847732720782495147160418014209426473826169967651367188
0.2797441953664687730451987590640783309936523437500000000
0.1110197584277728688473274587522610090672969818115234375
-0.4896127597349358429035248718719230964779853820800781250
-0.2116462992215235872084377888313611038029193878173828125
-0.1629368553432167521233253637547022663056850433349609375
-0.1663807955835963081625550330500118434429168701171875000
0.2298884928716085629396559397719101980328559875488281250
0.4659832684029312499518482582061551511287689208984375000
-0.4702195630570887852073269641550723463296890258789062500
-0.0159792233778752110207044268008758081123232841491699219
0.3116497727518255378420519718929426744580268859863281250
-0.1604446725923910632705116086071939207613468170166015625
-0.1661101095765166735240825346409110352396965026855468750
-0.0374636034607119389194807013154786545783281326293945312
0.2991899631700185580029938137158751487731933593750000000
0.2976439847223589785230046800279524177312850952148437500
-0.1341496599972013259449710176340886391699314117431640625
0.4899562488825832673455806798301637172698974609375000000
-0.3298291236363051770474896784435259178280830383300781250
-0.0614979087772263496858293763125402620062232017517089844
-0.4253993729282041225125965411280049011111259460449218750
0.0656021362881104713737911993121088016778230667114257812
-0.2854784797873128332490466618764912709593772888183593750
-0.0441909767607601769445757611265435116365551948547363281
0.1452443081318883499886140953094582073390483856201171875
0.1962255777137695833545194545877166092395782470703125000
0.3743935723073986698850035281793680042028427124023437500
0.4178194629387286807009616040886612609028816223144531250
0.0307809551684684011563231109676053165458142757415771484
0.0500961526536614493165799899543344508856534957885742188
0.0795947576615438634473065349084208719432353973388671875
0.2916251622849250213498351058660773560404777526855468750
-0.1454125250756148624020624993136152625083923339843750000
-0.0558629765728304514271762570842838613316416740417480469
-0.0162945064276687964777146078176883747801184654235839844
0.3601235130649425575377620134531753137707710266113281250
0.2166242511088223854365253373543964698910713195800781250
0.0841861953853667022151796572870807722210884094238281250
-0.0970003345899009133956880646110221277922391891479492188
-0.3356953613610985098780759017245145514607429504394531250
0.2637467188712215859780485516239423304796218872070312500
0.2221746546219487139506298944979789666831493377685546875
0.3601112302555861677255677477660356089472770690917968750
0.0088237604386188408372992952877211791928857564926147461
-0.4555680854401812363008161810284946113824844360351562500
0.1560605563537128814832755097086192108690738677978515625
-0.1422321903461065129015139518742216750979423522949218750
-0.2251397267785984757093586949849850498139858245849609375
-0.0728545919209018788542664424312533810734748840332031250
-0.3044332583921385837477657787530915811657905578613281250
0.3848085441956121677264945901697501540184020996093750000
-0.2861179468655015711853195625735679641366004943847656250
-0.2001978013270651890476159451282001100480556488037109375
0.4614150240474563235970606456248788163065910339355468750
-0.0398845400131237620700019874675490427762269973754882812
0.1564991273801170923452019678734359331429004669189453125
0.1346432606286739885881331701966701075434684753417968750
-0.4041027932852341297831344490987248718738555908203125000
0.1675485758637506317203502703705453313887119293212890625
-0.3259890211171935225920037737523671239614486694335937500
0.3916929432056429627451166197715792804956436157226562500
-0.1594624998107528890400885757117066532373428344726562500
0.1473635841870414298071523262478876858949661254882812500
0.1791775668377143249099248123457073234021663665771484375
0.1661316657313267330930983689540880732238292694091796875
-0.1754860851894688156260571076927590183913707733154296875
-0.1797841852060934053625373962859157472848892211914062500
-0.2477176151967406536602567257432383485138416290283203125
0.1370949824305270625668384809614508412778377532958984375
-0.3095526382421589506321879525785334408283233642578125000
0.0931307438201730425353375153463275637477636337280273438
-0.4973567797031331338963866528501966968178749084472656250
0.0330012769252366541805621125149627914652228355407714844
0.4633800153615918460126010813837638124823570251464843750
-0.4512701941703864960686587437521666288375854492187500000
0.0229611012277487099020323313425251399166882038116455078
-0.0811518076670821597584648543488583527505397796630859375
-0.3949653228584957820324063959560589864850044250488281250
0.3457987612206193661634756608691532164812088012695312500
-0.3508674572563810767356073938572080805897712707519531250
-0.0548778311000131246988331668035243637859821319580078125
0.2601207555154132489150242690811865031719207763671875000
-0.2706836819617408074201136969350045546889305114746093750
0.2743069012848372567603405514091718941926956176757812500
0.1353051094040118584871379425749182701110839843750000000
0.4037140039899883015017678644653642550110816955566406250
-0.0444484084547175292700949000845866976305842399597167969
-0.2867233281337961403600900212040869519114494323730468750
-0.2485460734544290839487246103090001270174980163574218750
0.1169646553445262970871709740094956941902637481689453125
0.4819984299762473112238581052224617451429367065429687500
0.0409107256595892809780679044706630520522594451904296875
0.1714686308154627358835142558746156282722949981689453125
0.3667255378789783248905109758197795599699020385742187500
0.1021528787758806677832268405836657620966434478759765625
0.2107988392300990110328484661295078694820404052734375000
-0.4139818008780106750599259157752385362982749938964843750
0.3893822271834379566968209473998285830020904541015625000
0.0562231461536789392519075647669524187222123146057128906
-0.1280617942787506680080156229450949467718601226806640625
-0.3386330412145832080561547172692371532320976257324218750
-0.1173237717964294157813043284477316774427890777587890625
-0.3914937456192628117968013157224049791693687438964843750
0.3480711590520341736088028028461849316954612731933593750
-0.1669301048631016970436036217506625689566135406494140625
-0.4512992048926275923115269961272133514285087585449218750
-0.3915258774389864804277294751955196261405944824218750000
-0.4607869771253773616415116975986165925860404968261718750
-0.4618310153124778327793364951503463089466094970703125000
0.1475912294934600965667925720481434836983680725097656250
-0.0504037500089001000436184085629065521061420440673828125
0.4693517963614192711752082232123939320445060729980468750
-0.4807948211082572198549200948036741465330123901367187500
-0.1356906258041379598200393274964881129562854766845703125
-0.3993013590611624308301941255194833502173423767089843750
0.0117796702223677152848724247746758919674903154373168945
-0.0869236449152636925230552833454567007720470428466796875
0.2020591400650465219168694375184713862836360931396484375
0.2842525292829619631973514515266288071870803833007812500
0.2841887306104705634979268324968870729207992553710937500
-0.2743064313505711449003854340844554826617240905761718750
-0.2823296731982774532276891932269791141152381896972656250
0.3284802716691336277321511261106934398412704467773437500
-0.4827612918889224169483043169748270884156227111816406250
-0.3528622260268124977145021148317027837038040161132812500
-0.1211455433041082191403248202732356730848550796508789062
0.0050800400146801902995230548754079791251569986343383789
0.0741579943727369295114471015040180645883083343505859375
0.3090832814229716452025797934766160324215888977050781250
0.1283530454222686079113202595181064680218696594238281250
