nn
1,10,10,10,10,10,1
dIn
0
dIntern
,
dOut
,
normP
1.9750000000000072
normY
1.279217538006764
w
-0.6741324792686208544623127636441495269536972045898437500
-1.1081225462247217272704347124090418219566345214843750000
0.4958549020102236415397101154667325317859649658203125000
0.4630477104687741318755911379412282258272171020507812500
-1.4971998639158079491551234241342172026634216308593750000
0.2799014172735007077719160406559240072965621948242187500
0.6049560694850473208106222955393604934215545654296875000
-0.2555835177255746382130041638447437435388565063476562500
-0.7884066969050929074569467047695070505142211914062500000
1.2425135810776373190833510307129472494125366210937500000
0.0161103403570512504483502880248124711215496063232421875
-0.0965545100917842430421345056856807786971330642700195312
-0.3207176701265803120399766612536041066050529479980468750
-0.1777860672566697330942986354784807190299034118652343750
-0.9296514019133512718440215394366532564163208007812500000
0.0139397559973301818359026071902917465195059776306152344
0.4667318124354561947875197347457287833094596862792968750
-0.2310860716605515896571176881479914300143718719482421875
0.2614347073224001505309388448949903249740600585937500000
0.5448897910328250882017186995653901249170303344726562500
-0.3463614719602646774276877295051235705614089965820312500
-0.5749706017114103451248752207902725785970687866210937500
0.3996660593508796210926448111422359943389892578125000000
-0.2350735551377978460596551713024382479488849639892578125
0.0923849835058391938291677547567815054208040237426757812
0.1061113793870790550366578486318758223205804824829101562
-0.1453895778309967634633892430429114028811454772949218750
0.5430906429286557202118501663790084421634674072265625000
-0.4892636088811384009744642753503285348415374755859375000
-0.4096179504412355565357017894712043926119804382324218750
-0.3931331840076379147141949488286627456545829772949218750
-0.8326413483893272404756658033875282853841781616210937500
0.6069763911993310001591339641890954226255416870117187500
-0.2734199773413881207062559042242355644702911376953125000
0.2530248010830012939109678882232401520013809204101562500
0.5956394877410576826903820801817346364259719848632812500
0.1293186651664076647350043458573054522275924682617187500
0.7305313098106234193096497619990259408950805664062500000
-0.0930718027256980523498341995036753360182046890258789062
-0.1458005107113909404326079766178736463189125061035156250
0.5227892575349282200392053709947504103183746337890625000
0.3403869777366836379961512193403905257582664489746093750
-0.2429920518668420292840437468839809298515319824218750000
-0.2760715916420442006540270085679367184638977050781250000
0.2470990318071041580427760209204279817640781402587890625
0.2288280385782002490646647174798999913036823272705078125
0.2593064217911934532523332563869189471006393432617187500
-0.2371183831910091133199358637284603901207447052001953125
0.3241771948353532328823689567798282951116561889648437500
0.1825084602304683500939574969379464164376258850097656250
0.2253220814000878036154063011053949594497680664062500000
0.1267765775786683923875841628614580258727073669433593750
0.2953919108265836701576745326747186481952667236328125000
0.1244821482510727050918575287141720764338970184326171875
-0.5746573644197245922526917638606391847133636474609375000
0.1910833044209705178229086186547647230327129364013671875
-0.3839004685757531620815541373303858563303947448730468750
-0.1402604139760659507363271814028848893940448760986328125
-0.2349063842553766323639763413666514679789543151855468750
0.1997356198361412427111361012066481634974479675292968750
-0.0387637919292089724865313371537922648712992668151855469
-0.3628279505424532036528262324281968176364898681640625000
0.9346895066354800052366158524819184094667434692382812500
0.7364797000444174290834098428604193031787872314453125000
1.0368716183241628581157556254765950143337249755859375000
0.3054972012472968456719968344259541481733322143554687500
0.9648315613143296776144097748328931629657745361328125000
0.1212956607787798180009275483826058916747570037841796875
-0.3624115661531022158925452458788640797138214111328125000
-1.0238340012513593713094905979232862591743469238281250000
-0.4731248476424586013600048772786976769566535949707031250
-0.1041125610652949978751635740081837866455316543579101562
-0.5008126504395473688191486871801316738128662109375000000
-0.1474623297915368669297464521150686778128147125244140625
0.0567730196600660166894591895925259450450539588928222656
0.0366835654710343794793203642257140018045902252197265625
0.2414936430515579046662821838253876194357872009277343750
-0.1745992950578187929977502790279686450958251953125000000
0.1239398294232413877402620983048109337687492370605468750
0.1550875623577746553749534541566390544176101684570312500
-0.4735812757642338111097046748909633606672286987304687500
-0.2738313859979114583964587836817372590303421020507812500
-0.4444319793627867221097460515011334791779518127441406250
0.0401575960410888097018577980179543374106287956237792969
-0.7352075068269809943188874967745505273342132568359375000
-0.3677758045235517969651084513316163793206214904785156250
-0.3859995004515239247488977980538038536906242370605468750
0.2636249783866688178868287195655284449458122253417968750
0.0149367400218451719384749054597705253399908542633056641
0.0903385720677322839877732008062594104558229446411132812
-0.3814719201858409736161092951078899204730987548828125000
-0.2642371106845776140836790091270813718438148498535156250
0.4480803651544704724329903910984285175800323486328125000
0.1608503997077024849637894021725514903664588928222656250
0.0203589854622962911079309122897029737941920757293701172
0.4522926101162967893465349789039464667439460754394531250
-0.4150100954648091589049840877123642712831497192382812500
0.3480625077357589192139641909307101741433143615722656250
-0.1074098216143710288195123325749591458588838577270507812
-0.0213015410067485672085396686270541977137327194213867188
0.3810836649650615193252178869443014264106750488281250000
-0.6729301218629321068576132347516249865293502807617187500
-0.3030824970967656573073156778264092281460762023925781250
0.4716367690567740966756105081003624945878982543945312500
0.2189172342511751800930852596138720400631427764892578125
-0.1023326457078605616901612052060954738408327102661132812
0.1981801202371857029138624284314573742449283599853515625
0.1962945646339629424126371759484754875302314758300781250
-0.0404471194735744887793771340511739253997802734375000000
0.2918756425668148080099228991457493975758552551269531250
-0.2283216789577220129370260792711633257567882537841796875
0.7299489026945317204919660980522166937589645385742187500
-0.5550579443045496885744682913355063647031784057617187500
-0.5229548993773265319617848945199511945247650146484375000
-0.8154671678065604778495867321908008307218551635742187500
-0.3623507137217270579476746661384822800755500793457031250
-0.7388582883095372588755367360136006027460098266601562500
0.0663138028796825401700587576669931877404451370239257812
0.2115946729073309995339258193780551664531230926513671875
0.5466337321040422025930638483259826898574829101562500000
-0.1054122055773724780936007050513580907136201858520507812
-0.4073106618422895341957712389557855203747749328613281250
-0.3338182790803412847147058073460357263684272766113281250
0.3867596836051346298468445183971198275685310363769531250
-0.5795802595653593014546345330018084496259689331054687500
-0.3299420122252564868681190546340076252818107604980468750
-0.0194951008281773613406429035421751905232667922973632812
0.1713261395530746578064196228297078050673007965087890625
0.3792880971858700878129866396193392574787139892578125000
0.6016080575619142667420646830578334629535675048828125000
-0.1521046395936044293151212514203507453203201293945312500
0.2777666085469243650862836148007772862911224365234375000
-0.0914621348684652168969932972686365246772766113281250000
0.3474520805837406633997943572467193007469177246093750000
0.3141155856566013593322850283584557473659515380859375000
0.0451258231422323879966640447491954546421766281127929688
0.5080282844741649261877114440721925348043441772460937500
-0.3496367196624983741948256010800832882523536682128906250
0.4473223937771930724949243085575290024280548095703125000
0.1254683140052035017486531387476134113967418670654296875
0.2540970003047239300641990666917990893125534057617187500
0.0297664341035094627552215484911357634700834751129150391
-1.0970099401279289619282053536153398454189300537109375000
-0.2306940529827648800331729717072448693215847015380859375
-0.3254983825154441068328026176459388807415962219238281250
0.1880568998177312434183505729379248805344104766845703125
0.5297730073973077047355673130368813872337341308593750000
-0.1533840462843607810317081430184771306812763214111328125
0.5820955624803370032083194018923677504062652587890625000
0.0547749673964232422496145602508477168157696723937988281
0.1726468061841545664769626000634161755442619323730468750
0.1082574062380683571626960315370524767786264419555664062
0.0808825209026710623128053612163057550787925720214843750
0.3035111116110163487213924327079439535737037658691406250
0.8378120170584563153326485007710289210081100463867187500
0.5860577441779863949733453409862704575061798095703125000
0.7449085236763328676801165784127078950405120849609375000
-0.5163783022013065382438412598276045173406600952148437500
-0.7758832342555992411803345021326094865798950195312500000
0.4827948852694408099495149144786410033702850341796875000
-0.4680712987222823140420757681567920371890068054199218750
-0.0765504342005983023922155439322523307055234909057617188
0.5168322599955829099727111497486475855112075805664062500
-0.0785293402291977471474382355154375545680522918701171875
-0.2242847043629550007892703433753922581672668457031250000
0.1041887310062676874622411560267210006713867187500000000
0.3263606721739223393008444418228464201092720031738281250
-0.2960735729540401317549935811257455497980117797851562500
-0.5035233173697180042438503733137622475624084472656250000
0.1574422764003662600362787316043977625668048858642578125
-0.0831449667957067650725377916387515142560005187988281250
0.5922353916811284868515485868556424975395202636718750000
-0.2517560647219776459593276740633882582187652587890625000
-0.3833552706058113157538969062443356961011886596679687500
1.1981105201827368933464867950533516705036163330078125000
0.5616445547527323389758180383068975061178207397460937500
0.0966711477086718978801727075733651872724294662475585938
-0.4443176623722294160678814023412996903061866760253906250
0.0711233791451027774765947242485708557069301605224609375
0.8248990174749676329568615074094850569963455200195312500
-0.2693159971562867904815163910825503990054130554199218750
0.1835744975805061462992284759820904582738876342773437500
0.3926441725148669403822054846386890858411788940429687500
-0.5014971303161906979184436750074382871389389038085937500
0.4857284709005155742822523734503192827105522155761718750
0.0845633401550719698835933968439348973333835601806640625
0.0104908416389584285832725640830176416784524917602539062
-0.3998574044411148387112575619539711624383926391601562500
-0.3274425721443704473401226096029859036207199096679687500
0.3048423390854062553501080401474609971046447753906250000
0.0289265205137186447170716263599388184957206249237060547
0.4697177801293273002869455012842081487178802490234375000
0.1115389614860511774407925145169429015368223190307617188
0.4399483593034038131364127366396132856607437133789062500
0.8030394480563127768135700534912757575511932373046875000
0.4813027163755381754306483799155103042721748352050781250
0.0914006174398364346078693642994039691984653472900390625
-0.1489403316932665366500998516130493953824043273925781250
-0.8502848968352264558134834260272327810525894165039062500
0.4431465507348560928235770006722304970026016235351562500
-0.4306303007411169669893524769577197730541229248046875000
0.2452549585537310561367263517240644432604312896728515625
0.7338598259362139053507689823163673281669616699218750000
0.0450888489552263571624735050136223435401916503906250000
-0.4299305852023873053546765277133090421557426452636718750
0.2957261214274634619769699384050909429788589477539062500
-0.0412424279222187717408587559475563466548919677734375000
-0.1010447589251505240426354248484130948781967163085937500
-0.3032304286108609692185211770265595987439155578613281250
0.0679929803264290866238184207759331911802291870117187500
-0.1587358842669075731368621973160770721733570098876953125
0.1609565649796949049488148375530727207660675048828125000
-0.3520347235098283400489549421763513237237930297851562500
0.0905457781823960361489156412062584422528743743896484375
-0.1015855999062329623194855798828939441591501235961914062
-0.2371659565284184312261572813440579921007156372070312500
-0.3160446541805559950155668502702610567212104797363281250
0.4552817665191625229326177759503480046987533569335937500
0.2191990238626186915382731967838481068611145019531250000
-0.1591210769319408580013686105303349904716014862060546875
-0.1045296808340079319776805277797393500804901123046875000
-0.4764030384367431425474137540732044726610183715820312500
0.1582274457332759620697970603941939771175384521484375000
0.4715839569372771711286418394593056291341781616210937500
-0.7344419179898071803336279117502272129058837890625000000
-0.2967398338142148705998124569305218756198883056640625000
-0.5335144556289763695389183340012095868587493896484375000
0.7183715222230336872044631491007748991250991821289062500
0.4410321819120562314431310824147658422589302062988281250
-0.7669378411956493390988498504157178103923797607421875000
0.2004716450475508005002467371014063246548175811767578125
-0.1595554919434526985888567196525400504469871520996093750
0.4107722108860126231100196037004934623837471008300781250
-0.0814891515077506012332264617725741118192672729492187500
0.0273487311843807132105688140200072666630148887634277344
0.1418380813734066714371095940805389545857906341552734375
-0.1606194137636893504161861301327007822692394256591796875
0.6287942367513321695327022098354063928127288818359375000
0.1527886315048704590768835487324395217001438140869140625
-0.5817867570019146228332829196006059646606445312500000000
0.4263839703707862360815283864212688058614730834960937500
-0.4238758862182871456347754701710073277354240417480468750
-0.1699674751128299188263071073379251174628734588623046875
-0.1073947247088201245590610710678447503596544265747070312
-0.0890514980818812029728093193625682033598423004150390625
0.6104667333584878896601821907097473740577697753906250000
0.0399854855314870777371893950657977256923913955688476562
0.3211354862737145765549939824268221855163574218750000000
-0.1780745520835577966334284383265185169875621795654296875
-0.2507462609325558089423680030449759215116500854492187500
-0.1401985475749353560193100065589533187448978424072265625
-0.2525413629889283750884487744770012795925140380859375000
0.3141156412444510159787114389473572373390197753906250000
-0.4656368352686987566180221165268449112772941589355468750
-0.0626065880182917477991821897376212291419506072998046875
0.1198100878579998335160539113530830945819616317749023438
-0.1904167860950177759704615709779318422079086303710937500
0.3504311205598977796427107023191638290882110595703125000
0.4675403992219627213877686244813958182930946350097656250
-0.7118029173603087622623775132524315267801284790039062500
0.2294775730048983775066773205253412015736103057861328125
-0.5331866259282792563922726003511343151330947875976562500
-0.0937428388045463967248593917247490026056766510009765625
-0.3083334484724686852530339820077642798423767089843750000
-0.1926449557786449051643984375914442352950572967529296875
-0.4484123163774841325235342992527876049280166625976562500
0.8770357218026971768409794094623066484928131103515625000
0.4606796342602301752577886873041279613971710205078125000
0.2651441882991519283230275050300406292080879211425781250
0.1580125403509876902408137766542495228350162506103515625
-0.3020076658819975112812983297772007063031196594238281250
-0.1742493727816055715251764013373758643865585327148437500
-0.3205465619243231256696446962450863793492317199707031250
0.5933633594256386700749317242298275232315063476562500000
0.1097078400404165460235716977877018507570028305053710938
-0.3219175459059110955273297349776839837431907653808593750
-0.3959339322570765151709792917245067656040191650390625000
0.3505600012655437636155397740367334336042404174804687500
-0.1286988139312473522490876121082692407071590423583984375
0.2298232392359479958621193418366601690649986267089843750
-0.2206688373972498506958572761504910886287689208984375000
0.5494715581360329892390836903359740972518920898437500000
0.7510990068251708340341110670124180614948272705078125000
0.6897655503014239464221191155957058072090148925781250000
-0.4366353469023144251437429375073406845331192016601562500
0.1804667245690070309649399860063567757606506347656250000
-0.3584387511265254011583181181777035817503929138183593750
-0.5035164250805562735635589888261165469884872436523437500
0.5142405433109678014602650364395231008529663085937500000
-1.5177441944168070797616110212402418255805969238281250000
-0.1474845026401586933761933551068068481981754302978515625
-0.2584465563015796440993199212243780493736267089843750000
0.5922202300358919702105708893213886767625808715820312500
-0.3775358616051131543933649936661822721362113952636718750
-0.0284476072075783882608934760582997114397585391998291016
-0.4629014197923928541911209322279319167137145996093750000
-0.1120555272496916582314341326309659052640199661254882812
0.0762753241755070171548069879463582765311002731323242188
0.0849858275243350613781245783684425987303256988525390625
-0.6532112171905034569974191072105895727872848510742187500
-0.3531269966790168690629059256025357171893119812011718750
0.0037863144866223828396978312582632497651502490043640137
0.2628190167507205021735217087552882730960845947265625000
0.3859454071534640928753390198835404589772224426269531250
-0.0374695594585997479586403358098323224112391471862792969
-0.2123417387885601914643274312766152434051036834716796875
-0.3667986036975367514223478337953565642237663269042968750
0.4126505838584706431504400825360789895057678222656250000
-0.1647456244856162765888285548498970456421375274658203125
-0.7969924346427060823927490673668216913938522338867187500
0.2714198942897216304537266751140123233199119567871093750
0.1985533790380704932676536600411054678261280059814453125
-0.5899305754488358699560990316967945545911788940429687500
0.2702050215819648548709608348872279748320579528808593750
0.1967306234713835921823488206428010016679763793945312500
-0.4461778323422104230999707397131714969873428344726562500
0.1608396551024901255377841380322934128344058990478515625
0.1522213819121022715386004620086168870329856872558593750
-0.4127189453083000003630331775639206171035766601562500000
1.1526660581329353227886258537182584404945373535156250000
0.3297736614373235064512357439525658264756202697753906250
0.5205047219813186964998408257088158279657363891601562500
-0.1309414013024164658016701423548511229455471038818359375
-0.5106746615430594049556134450540412217378616333007812500
-0.4434542987682685288852724170283181592822074890136718750
-0.3083719990841083946619960443058516830205917358398437500
-0.0592944086374807971528966277219296898692846298217773438
-0.4194707356385301566525924954476067796349525451660156250
0.5697473631586077447153115826949942857027053833007812500
0.2872721357612839643280722157214768230915069580078125000
0.0626311071242315192675320645321335177868604660034179688
-0.3497434050852367692918676311819581314921379089355468750
0.7528131956091723697710449414444155991077423095703125000
-0.0276386248033187349737449522990573314018547534942626953
0.0297217420049271582871419639104715315625071525573730469
-0.3863065488693722682178588456736179068684577941894531250
0.2657732512019778114975565586064476519823074340820312500
-0.5023612924112925703923338005552068352699279785156250000
-0.2220963656105720829270211424955050460994243621826171875
-1.3917961217658894046422801693552173674106597900390625000
-0.2055922765961371578846694774256320670247077941894531250
-0.5783972143588226311194944173621479421854019165039062500
-0.1712103047541073119752752518252236768603324890136718750
0.1111541849635141743224409083268255926668643951416015625
0.1812814710222304115383451517118373885750770568847656250
0.2655413986701921635891210371482884511351585388183593750
-0.0903046276192845387420504721376346424221992492675781250
-0.0946428251896348493588106975948903709650039672851562500
-0.4853162928270032816513435136585030704736709594726562500
0.3928200050491892358905943183344788849353790283203125000
0.5902621092018728310435449202486779540777206420898437500
-0.0376532213614560740122527704443200491368770599365234375
0.3947605680405030237345442856167210265994071960449218750
-0.1032483567558161591248833133249718230217695236206054688
-0.2081649091291533915093481255098595283925533294677734375
0.4933915488920015413043529406422749161720275878906250000
0.4362334344909038486015617763769114390015602111816406250
0.0540877532834137739192748028926871484145522117614746094
0.1872477588513714319429226407009991817176342010498046875
-0.2598672996051268890838059633097145706415176391601562500
0.2512388083828966389710046769323525950312614440917968750
-0.2092315319224673508813339140033349394798278808593750000
-0.1686867757006074719505761549953604117035865783691406250
-0.1335483980114007263040321049629710614681243896484375000
0.3494579527768149063149394351057708263397216796875000000
0.1191443610367130812033309439357253722846508026123046875
0.1493018107584515863361929177699494175612926483154296875
0.2297980586218329734915499784619896672666072845458984375
-0.3162793307267051101661081702332012355327606201171875000
-0.3087436984387464944390444543387275189161300659179687500
-0.7715532034562293528523468921775929629802703857421875000
-0.6770974039784281028886425701784901320934295654296875000
-0.1497024311795453199724903470269055105745792388916015625
-0.0079552733459448878722275466657265496905893087387084961
0.0490391076430091443771885906244278885424137115478515625
0.3911200492673406747812236972094979137182235717773437500
-0.3135857244974940005732833014917559921741485595703125000
0.1499252436899683182947029536080663092434406280517578125
-0.6418606853084375396534255742153618484735488891601562500
0.0734026163136173165346676228182332124561071395874023438
0.4493693780212010824293145105912117287516593933105468750
0.0783557104638542278873813984318985603749752044677734375
-0.1965672636089464964115336442773696035146713256835937500
0.1256134233257960863827662478797719813883304595947265625
0.4074882567807178723739980341633781790733337402343750000
-0.4090307677306959099894356768345460295677185058593750000
0.2854113350951187899617877974378643557429313659667968750
0.4958929446770998228366522653232095763087272644042968750
0.7086933803729623670975001914484892040491104125976562500
-0.3691561297195682378458059247350320219993591308593750000
0.3989337654608911543085980611067498102784156799316406250
0.1664271056571838547366581906317151151597499847412109375
-0.4309004107627189550377977411699248477816581726074218750
-0.2939293628388765511338931446516653522849082946777343750
-0.1620115142141457520441605311134480871260166168212890625
0.3530436563757540224806064088625134900212287902832031250
0.3074408440512316764703371063660597428679466247558593750
-0.1229421144380111463600968590981210581958293914794921875
0.1143902410779212841518415189057122915983200073242187500
-0.2681275581860131929090584890218451619148254394531250000
-0.2661686722540976268724932651821291074156761169433593750
0.2001258954486060670507896475101006217300891876220703125
-0.0407679913820736677942946357688924763351678848266601562
-0.3968024919840378306190586954471655189990997314453125000
-0.0117811104186200943377826888536219485104084014892578125
-0.3689262628338524363513784010137896984815597534179687500
0.6516174018377108856370227840670850127935409545898437500
0.6134446688132771940971110780083108693361282348632812500
-0.1872180103438243481406288992729969322681427001953125000
0.2421012089270572487098576175412745214998722076416015625
0.3088701308181912574823968498094473034143447875976562500
0.6119789886509852117058017029194161295890808105468750000
-0.0009879131839002795387183475384063058299943804740905762
0.3564007313647326036232243495760485529899597167968750000
-0.4106821375658808448427805615210672840476036071777343750
0.2544020442196285869407290647359332069754600524902343750
-0.1617664871523000480468823525370680727064609527587890625
0.3617727987549644308451490815059514716267585754394531250
-0.3014272589971878080206124650430865585803985595703125000
0.5878467492457021270624295539164450019598007202148437500
0.5957824381400734781166761422355193644762039184570312500
0.0877604662585968614552101030312769580632448196411132812
-0.4928795325487586032053854978585150092840194702148437500
-0.1097939877432029115444933609069266822189092636108398438
-0.0841399697102038629514808576459472533315420150756835938
-0.3715113337694440076575119746848940849304199218750000000
-0.0880973529523755294334819154755678027868270874023437500
-0.3485162354404707230060012079775333404541015625000000000
-0.0947787370138009344078255935528432019054889678955078125
-0.1342910073989049268838869011233327910304069519042968750
0.1938375129754947856497437896905466914176940917968750000
0.2740284370156533255702413498511305078864097595214843750
0.4373537738881599912232900351227726787328720092773437500
0.2734112281531135280054911618208279833197593688964843750
-0.3298620704108337631232927833480061963200569152832031250
0.1588259647925509832067092474972014315426349639892578125
0.3327999007074832205077541402715723961591720581054687500
-0.0242103898059315494895038511913298862054944038391113281
0.2372950263234686885116531129824579693377017974853515625
0.3904366612114879564465752537216758355498313903808593750
1.6937704280113836663446136299171485006809234619140625000
-0.5982805013283766237819349953497294336557388305664062500
0.2927769911708182903886665826576063409447669982910156250
-0.5394058517662706497830527041514869779348373413085937500
0.4125916328022876111702998969121836125850677490234375000
-0.0750215641642655445275877923450025264173746109008789062
-0.3516217376820192641595497207163134589791297912597656250
-0.3334017300191324806313275530555984005331993103027343750
-0.4719261610719974187055925085587659850716590881347656250
0.2745860854870455503018433773831930011510848999023437500
0.0604430338132335293055419356278434861451387405395507812
0.1088714277703088928461738760233856737613677978515625000
-0.6621824578256002569176530414551962167024612426757812500
0.0071657606094746263344918979498743283329531550407409668
0.2123817141332702274070243220194242894649505615234375000
0.2709351777302189678842125886149005964398384094238281250
-0.1525531092171221458908547674582223407924175262451171875
0.3275232832133930793716558582673314958810806274414062500
-0.0564473285958060899680788224941352382302284240722656250
0.3650266830224000447202570285298861563205718994140625000
0.5965267912733336341801759772351942956447601318359375000
0.6543264804043141813494344205537345260381698608398437500
0.5806123796510349599486744409659877419471740722656250000
0.5920017131740118454530374947353266179561614990234375000
0.2178997780237318382390299120743293315172195434570312500
-0.1803836634454167031638149865102604962885379791259765625
0.6551916990530778361900843265175353735685348510742187500
0.7500002688863504074490151651843916624784469604492187500
0.7336157325707454157637243952194694429636001586914062500
0.2284326730064185073665328218339709565043449401855468750
0.2748302958249452254690936570113990455865859985351562500
